#include "weights_and_bias.h"
#include <cstdint>
#include <iostream>
#include <vector>

const float conv2d_1_weights[] = {0.02691064216196537,0.4266713261604309,0.3332827687263489,-0.18643000721931458,-0.7015743851661682,0.11239035427570343,-0.3032926023006439,0.19368357956409454,-0.511194109916687,-0.030141780152916908,-0.2922469675540924,-0.10074320435523987,-0.17421987652778625,-0.07559062540531158,-0.34228524565696716,0.08063855022192001,0.061350855976343155,0.11638201773166656,-0.3170921206474304,-0.047495629638433456,-0.15485171973705292,-0.1142602190375328,0.16910578310489655,-0.0010676388628780842,-0.13035763800144196,-0.0627393051981926,0.22514493763446808,0.11960317939519882,-0.13835537433624268,-0.038870807737112045,0.06646832078695297,0.14386579394340515,0.046983588486909866,-0.38483932614326477,-1.1279006004333496,-0.2926059365272522,-0.1411764919757843,0.2801228165626526,-0.9057190418243408,-0.10657508671283722,0.15133878588676453,-0.022074172273278236,-0.024769285693764687,0.3609635829925537,-0.43429020047187805,0.0901421383023262,0.3107365667819977,0.009550022892653942,-0.1250813603401184,0.12864984571933746,-0.17166396975517273,0.36786502599716187,0.30249160528182983,0.25136324763298035,0.08570125699043274,0.036042504012584686,0.11667222529649734,0.2704681158065796,0.10144538432359695,0.2376469224691391,0.40296700596809387,0.3247968256473541,-0.6965107917785645,-0.7293994426727295,-1.1776597499847412,-0.14201568067073822,0.7654117941856384,0.11548610776662827,-0.7962191104888916,-0.14491364359855652,-0.07185501605272293,0.24276238679885864,0.639667272567749,0.3083288073539734,-0.1016196608543396,0.4821355938911438,0.2147729992866516,0.26099079847335815,0.6631947755813599,0.13831597566604614,0.2905566394329071,0.4016876816749573,0.2307811826467514,0.27639856934547424,0.502265214920044,-0.2935764193534851,0.06949377804994583,0.09833736717700958,0.1774469017982483,0.13514208793640137,0.1904727816581726,0.009086521342396736,-0.8420807719230652,-0.5271112322807312,-0.8709359169006348,-0.5476023554801941,0.39932259917259216,0.12530876696109772,-0.1151445135474205,0.16585591435432434,-0.3316153287887573,-0.46720606088638306,0.3459246754646301,-0.07869581878185272,0.03466052561998367,0.22953706979751587,0.05269673094153404,-0.051759831607341766,0.35383856296539307,-0.41297969222068787,0.31278887391090393,0.10267934948205948,-0.12378963083028793,-0.3399665355682373,0.280851274728775,-0.3453892171382904,0.040762994438409805,-0.36813774704933167,-0.09042682498693466,0.13449397683143616,-0.3026609420776367,-0.37388136982917786,-0.5051251649856567,-0.26478561758995056,-0.1585276871919632,0.05806460976600647,-0.3333486020565033,-0.5783261656761169,-0.10354907065629959,-0.13709011673927307,-0.05719007924199104,-0.5270756483078003,-0.1903117448091507,-0.4847595989704132,0.17451220750808716,0.14141987264156342,-0.06991823017597198,-0.8501444458961487,-0.19094376266002655,0.0695071816444397,0.2906600832939148,-0.19549351930618286,-0.03641452640295029,-0.4925099015235901,-0.2806975841522217,0.12713691592216492,0.1688692569732666,-0.23677276074886322,0.005603910889476538,-0.30142080783843994};
const float conv2d_1_biases[] = {0.022295400500297546,-0.013923242688179016,-0.012405527755618095,-0.025540528818964958,-0.0009214489255100489,0.01598639041185379};
const float conv2d_2_weights[] = {-0.3518317937850952,-0.062116093933582306,-0.06935761123895645,-0.13682547211647034,-0.002706215949729085,-0.0549091212451458,0.12227572500705719,0.14746329188346863,-0.023245617747306824,0.0740189477801323,0.13703732192516327,0.014678848907351494,-0.03223035857081413,0.12013466656208038,-0.06855867803096771,-0.12589220702648163,-0.09960218518972397,-0.2156798541545868,-0.01650283858180046,0.19251924753189087,-0.06139110401272774,-0.007301165256649256,0.3513168394565582,-0.22820942103862762,0.03481747955083847,0.20356741547584534,0.08217287808656693,0.10604691505432129,0.16013886034488678,0.00841857586055994,-0.16457757353782654,-0.06424574553966522,-0.09687008708715439,0.05502492934465408,0.1389349102973938,0.37837931513786316,-0.12572863698005676,0.1176401749253273,-0.07754338532686234,-0.21111781895160675,0.01710919849574566,0.10045826435089111,0.16525016725063324,0.10777304321527481,0.07709737122058868,-0.15072935819625854,0.2138819843530655,-0.09550802409648895,-0.20311875641345978,0.3485257625579834,0.05912776291370392,-0.23175646364688873,-0.14004896581172943,-0.2732759118080139,-0.21326975524425507,0.10328134149312973,0.11627119034528732,-0.2447245568037033,0.24003048241138458,-0.21728551387786865,-0.2966040074825287,-0.06242970749735832,0.060228124260902405,-0.006272545550018549,0.014784111641347408,-0.1647404134273529,0.11920157074928284,-0.048526208847761154,0.23726008832454681,0.08641236275434494,-0.3534468114376068,0.09289675205945969,0.18093523383140564,-0.13305968046188354,0.013283619657158852,-0.05651910975575447,0.03344660997390747,0.00459427572786808,0.11221641302108765,0.2847718894481659,0.1190711185336113,0.06987248361110687,0.08642685413360596,0.09974468499422073,0.04132755100727081,-0.07066719979047775,0.03802206367254257,-0.005627633538097143,0.2175838053226471,0.04694525524973869,0.01011855248361826,-0.08579491078853607,0.23380564153194427,0.22797654569149017,-0.051397182047367096,-0.14553670585155487,-0.25868263840675354,-0.11004794389009476,0.10037696361541748,-0.29838845133781433,-0.1482921689748764,-0.03246169537305832,0.30811256170272827,0.3910013437271118,0.11046215146780014,-0.14965005218982697,0.10222044587135315,-0.017281625419855118,-0.29545480012893677,-0.2406976819038391,-0.1738627701997757,0.14166493713855743,-0.1349216103553772,-0.10016534477472305,0.03170342743396759,0.41425034403800964,0.08373267203569412,0.0054445890709757805,0.33807188272476196,-0.11490693688392639,0.11451682448387146,-0.13059915602207184,0.24816016852855682,0.07065201550722122,-0.17867761850357056,-0.39406731724739075,-0.24004320800304413,-0.4940967857837677,0.0417315773665905,-0.04050224646925926,-0.07139603048563004,0.3631610870361328,-0.22853194177150726,0.03824133053421974,0.09498660266399384,-0.3173864781856537,0.26874595880508423,-0.16590331494808197,0.15042373538017273,0.20427536964416504,0.0017894393531605601,-0.12087467312812805,0.2252173125743866,0.024102594703435898,-0.44452381134033203,0.030857620760798454,-0.13327276706695557,-0.41421136260032654,-0.0932266041636467,0.015412457287311554,-0.06913726776838303,-0.1926194429397583,0.35895225405693054,-0.40160268545150757,0.04464568570256233,-0.3032982647418976,-0.013660283759236336,-0.14645560085773468,0.030645232647657394,0.38074246048927307,-0.012707170099020004,0.057007886469364166,0.03469393402338028,-0.015023640356957912,0.2559630274772644,0.02928331308066845,-0.01690983772277832,-0.27210932970046997,0.10933995991945267,-0.22888407111167908,-0.1264631152153015,-0.024945544078946114,0.0972379595041275,0.09714920073747635,0.08300381898880005,0.06064685434103012,0.21878112852573395,0.1909829080104828,-0.3860403299331665,-0.15469330549240112,-0.10412406921386719,0.013262750580906868,-0.049491602927446365,0.060276348143815994,0.23471468687057495,-0.3473478853702545,-0.1103583574295044,-0.148415207862854,0.2862243056297302,0.32271891832351685,-0.2190329134464264,0.13058660924434662,-0.11890773475170135,-0.13619886338710785,-0.10206609219312668,-0.31007006764411926,-0.002390145557001233,-0.3450097441673279,0.33737942576408386,0.3687584102153778,0.18580658733844757,-0.14840252697467804,0.3666841983795166,-0.05273210629820824,-0.2721211314201355,-0.1048387885093689,-0.10170789062976837,-0.05157831311225891,0.08713430911302567,0.0124460244551301,-0.2682286500930786,0.2954455614089966,-0.09680742770433426,-0.11705467104911804,0.0015897949924692512,-0.13759493827819824,0.13639798760414124,-0.33913421630859375,0.10580368340015411,0.14561396837234497,-0.18672385811805725,-0.15135709941387177,-0.18164989352226257,-0.3709012269973755,-0.2727682888507843,0.018280988559126854,0.006284391973167658,0.3377127945423126,-0.02137622982263565,-0.10083084553480148,0.04725351557135582,-0.28661733865737915,0.057294800877571106,0.1277141124010086,-0.09751474857330322,0.08395258337259293,-0.12327181547880173,-0.018464963883161545,0.22274468839168549,-0.06259084492921829,-0.1544189602136612,-0.0734064057469368,-0.12668855488300323,-0.3092692494392395,0.013400201685726643,-0.0038201049901545048,0.08841472864151001,-0.11988911777734756,0.19093436002731323,0.20790256559848785,0.22971375286579132,-0.005585883744060993,0.11523327976465225,0.18349386751651764,-0.24875500798225403,0.44915905594825745,-0.16261546313762665,0.04165494441986084,0.037063829600811005,-0.20543895661830902,0.17405647039413452,0.11961842328310013,-0.02892439439892769,-0.23511947691440582,-0.016135167330503464,0.132295623421669,0.004341531544923782,0.10361069440841675,-0.03923359885811806,0.12133380770683289,-0.15736468136310577,0.028503650799393654,0.22585037350654602,0.14801539480686188,-0.057487159967422485,-0.03615286946296692,0.06049487739801407,-0.13349294662475586,0.02744925022125244,-0.10226251184940338,0.24867892265319824,-0.07828225940465927,-0.09378010034561157,0.12099482119083405,-0.05100807175040245,0.27470728754997253,-0.2936077117919922,0.1302568018436432,-0.05557820945978165,-0.07353498041629791,-0.1843830794095993,-0.30661070346832275,-0.17838193476200104,-0.2697044610977173,-0.24185211956501007,0.4759514629840851,0.33169320225715637,-0.13283322751522064,0.5686314105987549,0.12270813435316086,0.1096448227763176,-0.005257030483335257,0.0894593745470047,-0.20000560581684113,0.03975306451320648,-0.4396132230758667,-0.3680887520313263,0.1498880535364151,-0.23825526237487793,-0.08035150170326233,-0.06886075437068939,-0.043299585580825806,0.39179423451423645,-0.06781076639890671,0.21073170006275177,0.2539690434932709,-0.25264573097229004,-0.08971139788627625,-0.19436673820018768,-0.11299823969602585,-0.3746298551559448,-0.14693434536457062,-0.08383447676897049,0.024662625044584274,0.1175685003399849,-0.1815449297428131,0.01743191108107567,-0.43937671184539795,0.0008333216537721455,-0.0394253134727478,-0.037959810346364975,0.3505863845348358,-0.19011279940605164,-0.17352606356143951,0.12935519218444824,-0.09195137768983841,-0.27528247237205505,-0.07233668863773346,-0.001272812020033598,-0.34586235880851746,0.17057166993618011,0.05934847891330719,-0.06676915287971497,-0.21870407462120056,-0.09026829153299332,0.2825111746788025,0.1836981624364853,-0.14796337485313416,0.17562706768512726,-0.0022853452246636152,-0.5184823870658875,0.2759614586830139,-0.4081138074398041,-0.12826693058013916,0.1419135332107544,-0.34192487597465515,0.4343152344226837,0.13505679368972778,0.05433120205998421,-0.22605417668819427,0.13077549636363983,-0.04507134109735489,0.11084125190973282,-0.1298525333404541,-0.2952994108200073,-0.028976595029234886,-0.27012068033218384,-0.032493703067302704,0.02488345466554165,0.105105459690094,0.022159067913889885,0.013965688645839691,0.10583450645208359,-0.08538542687892914,0.1599806696176529,-0.0516209602355957,0.38643190264701843,-0.08963549137115479,-0.25688642263412476,0.0751679316163063,-0.13962812721729279,0.06482015550136566,-0.333086222410202,0.011325463652610779,-0.12748730182647705,-0.022966470569372177,-0.1148756742477417,0.08820606768131256,-0.05903322249650955,-0.08346105366945267,-0.39291834831237793,0.12025053054094315,0.21478955447673798,-0.1773252934217453,0.14273881912231445,-0.032829541712999344,0.1575377881526947,-0.03811761736869812,0.07743559777736664,-0.05367780104279518,-0.14537876844406128,-0.6627768278121948,-0.09682479500770569,0.09570831060409546,0.20433034002780914,-0.09302413463592529,0.06738592684268951,-0.305513471364975,0.05811294540762901,-0.15152384340763092,0.10271906107664108,0.3555509150028229,-0.33793511986732483,-0.18069589138031006,-0.09778758883476257,0.05104446783661842,-0.03665980324149132,-0.17073273658752441,-0.08406931906938553,-0.09328456968069077,-0.10683292895555496,-0.028310265392065048,-0.08108648657798767,-0.28906765580177307,0.27690228819847107,0.008458015508949757,0.03275769576430321,0.16720283031463623,-0.1651500016450882,-0.09203862398862839,-0.0925365686416626,-0.03428048640489578,-0.286993145942688,0.11689689010381699,0.0018055405234917998,-0.05137554928660393,0.12255766242742538,0.0013299010461196303,-0.25577831268310547,0.034888043999671936,0.06930836290121078,-0.061385635286569595,-0.0947989746928215,-0.2737574279308319,0.23189899325370789,-0.16370494663715363,-0.4329470694065094,0.1770300567150116,-0.04806267097592354,0.07782505452632904,-0.03207065165042877,-0.14368176460266113,0.008953293785452843,0.13655976951122284,0.12904232740402222,-0.1137019693851471,0.12449689209461212,-0.1819627583026886,0.057734712958335876,-0.3542056679725647,-0.13706649839878082,0.13238073885440826,-0.24675938487052917,0.10315904766321182,-0.15816645324230194,0.015517431311309338,0.19359704852104187,0.05041227862238884,0.08059819787740707,-0.054254911839962006,0.28566068410873413,-0.015330099500715733,0.30178195238113403,-0.23392140865325928,-0.21840360760688782,0.048337534070014954,-0.1663908213376999,0.21639521420001984,-0.26711276173591614,-0.0695803314447403,-0.21459327638149261,-0.17583107948303223,0.1686975210905075,-0.17283712327480316,-0.06756806373596191,0.08752654492855072,0.023201575502753258,-0.007845236919820309,-0.13680894672870636,-0.14651159942150116,-0.30972206592559814,-0.020855436101555824,-0.2358960658311844,0.054587412625551224,-0.05978566035628319,0.23516905307769775,-0.06597157567739487,-0.00036190231912769377,-0.2406928688287735,0.49866554141044617,-0.03139207884669304,0.17440639436244965,0.2664855122566223,0.02486383728682995,0.09980546683073044,0.16597096621990204,0.07794125378131866,-0.009323310106992722,-0.1103489026427269,0.09373541176319122,-0.21570166945457458,-0.15680383145809174,-0.16661083698272705,0.020657449960708618,0.047129955142736435,-0.008602173998951912,-0.36644718050956726,0.1428174376487732,0.10899343341588974,-0.08455395698547363,-0.12182451039552689,-0.12561500072479248,0.13846451044082642,0.19093957543373108,-0.15540935099124908,-0.21004433929920197,-0.13872738182544708,-0.10580334812402725,-0.0842408612370491,0.22963649034500122,0.08345302194356918,-0.15520338714122772,-0.14379346370697021,-0.5606961250305176,-0.3180096447467804,0.1346617192029953,-0.34652772545814514,-0.034149184823036194,-0.16929800808429718,-0.2313380092382431,-0.27912455797195435,-0.027530929073691368,-0.08434813469648361,0.43248963356018066,0.19056575000286102,-0.2451375126838684,0.15073718130588531,-0.1257040947675705,0.024172602221369743,-0.09677539020776749,0.016166893765330315,-0.25434982776641846,-0.18273259699344635,0.020640505477786064,-0.023977262899279594,-0.035060733556747437,-0.0017983093857765198,0.07421168684959412,-0.03109540417790413,0.12335357069969177,0.1845565140247345,0.11962489783763885,-0.14314422011375427,0.3334450423717499,0.27156147360801697,-0.059076111763715744,-0.12537209689617157,0.4089770019054413,-0.050182390958070755,0.09047701209783554,0.06912007927894592,-0.3904043138027191,0.3683715760707855,0.38890889286994934,-0.17598241567611694,0.09626606851816177,-0.13902226090431213,-0.2895120084285736,0.21139627695083618,-0.09149690717458725,-0.04392288252711296,0.39549046754837036,0.0949789434671402,0.1946435123682022,-0.2740064859390259,0.2799730598926544,-0.24796654284000397,0.10694902390241623,-0.47586628794670105,-0.2670660614967346,-0.21787093579769135,-0.08143821358680725,0.10518333315849304,0.07185325026512146,0.16641907393932343,0.4354049265384674,0.04563536494970322,-0.11399124562740326,0.36960482597351074,0.36427372694015503,0.15643760561943054,0.159296914935112,0.261019766330719,0.09127770364284515,-0.48478081822395325,-0.10014544427394867,-0.3440997898578644,-0.039248619228601456,-0.15509270131587982,0.08873315900564194,0.0066442303359508514,0.030629316344857216,-0.5905037522315979,0.17325182259082794,0.1661544144153595,-0.034739527851343155,-0.19526927173137665,-0.06355142593383789,0.0801285058259964,0.46712321043014526,-0.09262356162071228,-0.5319842100143433,-0.03745584562420845,-0.10892113298177719,-0.2914561629295349,-0.02513182908296585,0.026251981034874916,-0.4301290810108185,0.07343541830778122,-0.03321803733706474,0.06970850378274918,0.2920336127281189,-0.13235734403133392,-0.0976606160402298,0.06251121312379837,-0.07462362200021744,-0.31858083605766296,-0.0782097801566124,0.11139701306819916,0.20104876160621643,-0.023137515410780907,-0.2315528839826584,0.11952244490385056,-0.3132403790950775,0.2497399002313614,0.11756283789873123,-0.0038418977055698633,-0.3272912800312042,-0.11976075917482376,-0.1378626525402069,-0.021042475476861,-0.0525224544107914,0.2465861439704895,-0.122569240629673,0.102841317653656,-0.043795906007289886,0.0671021118760109,0.19207246601581573,-0.2749108672142029,0.1969914436340332,0.3709687888622284,-0.40344658493995667,-0.277797132730484,0.35337716341018677,0.07771506905555725,-0.3143744170665741,0.13627657294273376,-0.08459486067295074,0.24793478846549988,0.21254010498523712,0.1458100527524948,0.0862772986292839,-0.011100190691649914,-0.029699094593524933,0.3180275857448578,-0.007931170985102654,0.02817033976316452,0.5257139801979065,0.1566278338432312,0.08252440392971039,-0.4148660898208618,-0.2768985629081726,0.13994799554347992,-0.20153436064720154,-0.3330976665019989,-0.43157759308815,-0.18352442979812622,-0.06657338887453079,-0.049953412264585495,0.02716214954853058,0.1888074278831482,0.41834548115730286,0.05042273551225662,-0.48303672671318054,0.29898586869239807,0.45545145869255066,0.07591262459754944,-0.15346172451972961,-0.07709625363349915,0.3346186876296997,-0.312795490026474,-0.3738958537578583,0.031048940494656563,0.0566827617585659,-0.16204294562339783,0.10921552777290344,0.12140015512704849,-0.004972232040017843,-0.5362586379051208,-0.01000463031232357,0.25410225987434387,-0.3008246123790741,-0.07156351208686829,-0.10340111702680588,0.046202003955841064,0.27059629559516907,0.029385019093751907,-0.35406002402305603,-0.22367234528064728,0.12242837995290756,-0.09195072203874588,0.09926574677228928,-0.1626642644405365,-0.01685463823378086,0.389610230922699,-0.2692217230796814,0.2651843726634979,0.1123114600777626,-0.20834873616695404,-0.17779749631881714,0.017719099298119545,-0.125563845038414,-0.43337908387184143,-0.2153765708208084,-0.13016028702259064,-0.05071324482560158,-0.12258489429950714,-0.23609568178653717,-0.1212882250547409,-0.43720585107803345,0.14066660404205322,-0.07503534108400345,0.11412637680768967,-0.27293720841407776,-0.22614727914333344,-0.08813797682523727,-0.026915093883872032,-0.0002226606447948143,-0.17887480556964874,-0.07554691284894943,0.14684444665908813,-0.1698726862668991,-0.153267964720726,0.15548105537891388,-0.2937578558921814,0.1307612508535385,0.2161950320005417,-1.0503498315811157,0.050668325275182724,0.3904220163822174,-0.004287269432097673,-0.21929313242435455,-0.029195060953497887,0.3146747946739197,0.007493612822145224,0.25367194414138794,0.17359834909439087,-0.04643974453210831,0.40615135431289673,-0.06480275839567184,-0.05098725110292435,0.046965423971414566,0.03582251816987991,0.6045699119567871,-0.033112362027168274,0.03729508817195892,-0.3295857608318329,-0.15288245677947998,0.19004762172698975,-0.38280731439590454,-0.09412757307291031,-0.212129145860672,0.08792327344417572,-0.26360100507736206,-0.031967706978321075,0.11626361310482025,0.08403658121824265,0.26144835352897644,-0.11081689596176147,-0.6184468865394592,0.19624100625514984,0.5935465097427368,0.10037863999605179,-0.014702795073390007,-0.000933488248847425,0.46664151549339294,0.05283716320991516,-0.17352111637592316,0.3518739938735962,-0.05141807720065117,0.28969454765319824,-0.19851689040660858,-0.036128368228673935,-0.13092948496341705,-0.4333004355430603,0.061852674931287766,0.06371467560529709,-0.36276230216026306,0.050629567354917526,0.09487038105726242,-0.06160402670502663,0.06327274441719055,0.15590426325798035,-0.27198243141174316,-0.17067693173885345,0.10401938855648041,0.09056703746318817,-0.06431550532579422,-0.09346833825111389,-0.09035263955593109,0.22018732130527496,-0.06709523499011993,-0.14076687395572662,0.11216483265161514,0.08735852688550949,0.09542229026556015,0.25194910168647766,-0.6449297666549683,-0.09752647578716278,-0.1167779192328453,-0.3168073892593384,-0.1104121059179306,-0.3193400800228119,-0.40862682461738586,-0.27567341923713684,-0.4475189745426178,0.13604547083377838,-0.0868646577000618,0.17905262112617493,-0.10387785732746124,-0.0893363356590271,-0.11221612989902496,0.11714974790811539,-0.2241692841053009,-0.5100658535957336,-0.16609326004981995,0.18435747921466827,-0.01969980262219906,-0.19646510481834412,0.12303578853607178,-0.002349225338548422,0.05924616754055023,-0.011808058246970177,-0.6608195304870605,0.032519660890102386,0.19696073234081268,0.3340659439563751,-0.27179887890815735,-0.03823516145348549,0.13529756665229797,-0.09206011891365051,0.24027806520462036,0.20043440163135529,-0.3635396659374237,0.34457021951675415,-0.12269390374422073,0.04334251210093498,-0.015387835912406445,0.11259719729423523,0.23573176562786102,-0.2462383657693863,-0.08921985328197479,-0.24148735404014587,-0.01888357102870941,0.3434593677520752,-0.09637787938117981,0.07988915592432022,-0.31131866574287415,-0.026233108714222908,-0.14346617460250854,-0.10974753648042679,-0.3175443708896637,0.14484305679798126,0.09599773585796356,-0.1481206864118576,-0.33773285150527954,0.16760756075382233,0.3100895285606384,0.0013201918918639421,-0.06743495166301727,0.16065607964992523,0.13022969663143158,0.1091996505856514,-0.05393477529287338,0.032672327011823654,0.0627506822347641,0.2875177562236786,-0.38126543164253235,-0.046283695846796036,-0.24205495417118073,-0.1450134664773941,-0.26755595207214355,-0.2252793312072754,-0.16751506924629211,0.3199613392353058,0.03809456154704094,-0.026607802137732506,0.19721278548240662,0.238737553358078,-0.24861687421798706,0.010393439792096615,0.11311899125576019,0.44289252161979675,0.009171766228973866,-0.15933240950107574,-0.0433562733232975,0.29662948846817017,0.020050905644893646,-0.2706086039543152,-0.12610603868961334,0.19445398449897766,-0.08721701800823212,0.07648440450429916,-0.4163934588432312,-0.10524389147758484,-0.21411794424057007,-0.1581801027059555,-0.2919313609600067,-0.1664683073759079,-0.32832667231559753,-0.048161644488573074,-0.3156664967536926,0.1748216301202774,0.05772138759493828,0.04482670873403549,-0.19608339667320251,0.21540962159633636,-0.3735208213329315,0.11513656377792358,-0.30032187700271606,-0.23151125013828278,-0.09414255619049072,-0.09281142055988312,-0.031842734664678574,-0.27559322118759155,0.10501695424318314,0.10753787308931351,-0.008451111614704132,0.01716686226427555,-0.3559025824069977,0.19338083267211914,0.05388134717941284,0.3552500009536743,-0.2933010160923004,-0.026512393727898598,-0.0710875615477562,-0.09535561501979828,0.0807381272315979,0.013071768917143345,-0.29675495624542236,0.06151454150676727,-0.5077992677688599,0.20877349376678467,-0.2884479761123657,-0.18552768230438232,-0.05005967989563942,0.21123367547988892,-0.431763231754303,0.22996538877487183,-0.08345580101013184,-0.3770274817943573,0.20616400241851807,-0.29752880334854126,-0.01002175360918045,0.0836009532213211,-0.2846086919307709,-0.015978259965777397,0.2530011832714081,-0.019521260634064674,0.09108071029186249,-0.16728176176548004,0.339918315410614,0.3437987267971039,0.09506309777498245,0.2826191484928131,-0.22173741459846497,-0.19636647403240204,0.20673125982284546,-0.24600070714950562,-0.027789225801825523,-0.020298859104514122,0.08589082211256027,0.010119689628481865,0.015273373574018478,0.02655954658985138,-0.07406647503376007,-0.36341965198516846,0.11769933253526688,0.21575011312961578,0.16210195422172546,-0.1439974159002304,0.27027401328086853,-0.20137742161750793,0.33852311968803406,-0.3005501329898834,-0.13712948560714722,-0.11767057329416275,-0.13111785054206848,-0.15460945665836334,0.15253208577632904,-0.0433971993625164,-0.11135727167129517,-0.11323582381010056,-0.12443167716264725,-0.04489430412650108,-0.2949996888637543,-0.15434810519218445,-0.10970202833414078,-0.21436509490013123,-0.19820980727672577,0.22012284398078918,0.09549129754304886,0.09626450389623642,0.15659089386463165,0.0234900563955307,-0.11865527927875519,0.021039947867393494,0.022437628358602524,-0.15943361818790436,0.17466285824775696,0.2287931889295578,-0.027943745255470276,-0.09901698678731918,0.1478980928659439,0.11032035946846008,0.13471779227256775,0.05157565698027611,0.12300321459770203,0.13493002951145172,-0.2026699334383011,-0.026822110638022423,0.3210669159889221,-0.30928757786750793,0.10299048572778702,-0.06541447341442108,0.1675269901752472,-0.1581675261259079,0.04429133981466293,-0.15624134242534637,-0.1661665141582489,0.20285862684249878,-0.17278406023979187,0.13509143888950348,0.10135503113269806,-0.01629025489091873,0.14974266290664673,0.07420162111520767,-0.5012480616569519,0.5950138568878174,-0.12528426945209503,-0.1475963443517685,0.3089877963066101,0.20431901514530182,-0.3380622863769531,0.23188640177249908,0.15497732162475586,-0.5324100852012634,-0.06740935891866684,-0.1544346660375595,-0.02957421913743019,-0.357269823551178,-0.4017718434333801,-0.08810900896787643,0.1882590800523758,0.10309366136789322,-0.011592226102948189,-0.1491638869047165,0.20903965830802917,0.25221648812294006,0.06211395561695099,-0.10736719518899918,0.010599152185022831,-0.03354279324412346,0.29210084676742554,-0.3182609975337982,-0.03267719969153404,-0.014028242789208889,0.19427861273288727,-0.026278391480445862,0.15006472170352936,0.18410398066043854,-0.23655472695827484,-0.49987614154815674,0.0021619333419948816,0.31058362126350403,0.04417800530791283,-0.12651489675045013,-0.06494370847940445,0.08938317745923996,0.48816201090812683,-0.5016186833381653,-0.6290547847747803,-0.12276985496282578,-0.03658781200647354,0.049364637583494186,-0.2573050260543823,-0.17767207324504852,0.018238982185721397,0.16362915933132172,0.28712278604507446,0.24004974961280823,0.012966306880116463,-0.10583774745464325,0.13481812179088593,-0.2555917799472809,0.02673477493226528,-0.44230276346206665,-0.2135801911354065,-0.29535213112831116,-0.24099494516849518,0.2272321879863739,-0.32808902859687805,0.08062908798456192,0.09074018150568008,-0.14105066657066345,0.4238150715827942,0.20582763850688934,0.10072952508926392,0.15357369184494019,0.06674350053071976,-0.17002691328525543,0.13191288709640503,-0.08544845134019852,-0.13029944896697998,-0.2461225837469101,-0.38679295778274536,-0.1348796784877777,0.11760526150465012,-0.4009687900543213,0.18613624572753906,0.12496459484100342,0.031761981546878815,-0.0424627959728241,0.12789717316627502,-0.2800661027431488,-0.027862373739480972,0.20102274417877197,0.21839939057826996,0.22914676368236542,0.1584671586751938,0.2930784523487091,-0.01931062340736389,0.395120769739151,-0.390807569026947,0.45973774790763855,-0.052850477397441864,-0.12307047098875046,0.9780681133270264,0.13269773125648499,-0.19333940744400024,-0.005926745478063822,-0.3512691259384155,-0.38497045636177063,-0.47240808606147766,-0.04156109690666199,0.0830206423997879,-0.5698138475418091,-0.027445854619145393,-0.153425395488739,-0.15738607943058014,0.1326993852853775,-0.23262140154838562,0.1635105013847351,0.41370493173599243,0.12986983358860016,0.09394505620002747,-0.2634935677051544,-0.05799839645624161,-0.15880894660949707,0.44386377930641174,0.07238835096359253,-0.06630999594926834,-0.10679996013641357,0.36321744322776794,0.06290467083454132,0.012812800705432892,0.14556285738945007,-0.3446141481399536,-0.5582407116889954,-0.24397309124469757,0.16912603378295898,0.20131957530975342,-0.1267768293619156,-0.2861071228981018,0.04960794001817703,0.0508626289665699,0.010338172316551208,-0.30816879868507385,-0.34631261229515076,0.3456200063228607,0.23134329915046692,-0.010396146215498447,0.2368793487548828,0.4225377142429352,0.200313538312912,0.24732930958271027,0.1326572746038437,0.04178924113512039,-0.3796829283237457,-0.422524631023407,-0.282979816198349,-0.2916194200515747,-0.45020291209220886,-0.015648972243070602,-0.2613426744937897,-0.00990787148475647,0.12660717964172363,-0.16855700314044952,0.2287675142288208,-0.16167762875556946,-0.27138760685920715,0.4070156514644623,0.14571723341941833,0.08531709015369415,0.3260841369628906,0.0014227062929421663,-0.2751672565937042,-0.13545836508274078,-0.21346138417720795,-0.07780174911022186,-0.07807040214538574,0.04402471333742142,-0.23335407674312592,0.25069162249565125,-0.19913721084594727,0.1749633401632309,0.004880422726273537,-0.05868890881538391,-0.07207620143890381,0.003936835564672947,-0.327212929725647,0.007089383900165558,0.18637189269065857,0.17928223311901093,0.0463833250105381,0.224317267537117,0.39581602811813354,-0.19017942249774933,0.5149887800216675,-0.09615782648324966,0.28192415833473206,-0.01789584942162037,0.03333825245499611,0.6253049373626709,0.1085859090089798,-0.05642309784889221,-0.27145621180534363,-0.40903764963150024,-0.38402989506721497,-0.14729638397693634,-0.05667498707771301,0.06286513805389404,-0.3715724050998688,0.014750041998922825,-0.08392424136400223,0.1935899704694748,0.2100374400615692,0.09253940731287003,-0.059618037194013596,0.4793803095817566,0.035847410559654236,0.04874034598469734,-0.26102232933044434,-0.22973287105560303,-0.23951712250709534,0.27717337012290955,0.23590070009231567,-0.14617809653282166,-0.058259766548871994,0.48762747645378113,0.576127290725708,-0.02675800956785679,0.08538131415843964,-0.37920674681663513,-0.11581302434206009,-0.6190816164016724,0.14385637640953064,0.2580975890159607,-0.24085427820682526,0.28023865818977356,-0.16066741943359375,0.11263813078403473,0.42325958609580994,-0.27924245595932007,-0.3447747826576233,0.10122882574796677,0.5268415808677673,-0.04140001907944679,0.06654758006334305,0.28351205587387085,0.21900933980941772,0.34562310576438904,0.22394020855426788,0.23081094026565552,-0.28745192289352417,0.05136580765247345,-0.027827206999063492,-0.32332465052604675,-0.2675812244415283,0.23114174604415894,0.05307551473379135,-0.06496300548315048,0.1410924345254898,-0.19325917959213257,-0.05540921539068222,-0.10687221586704254,-0.06749727576971054,0.14379005134105682,0.17723287642002106,-0.017712725326418877,0.17890939116477966,0.2758461534976959,-0.01814153790473938,-0.03301442414522171,-0.3990424573421478,-0.09710225462913513,0.16284915804862976,-0.1102566123008728,-0.3069133758544922,-0.04754175990819931,-0.1852767914533615,0.1182698979973793,-0.1981687694787979,0.2152661681175232,0.14423370361328125,-0.056149911135435104,-0.26950332522392273,0.1378035694360733,0.1584935039281845,0.27637985348701477,-0.23230129480361938,0.2594578266143799,0.23270201683044434,-0.18343321979045868,0.2293219268321991,0.07294664531946182,0.20376695692539215,0.09587879478931427,-0.040760982781648636,0.5855307579040527,-0.021786624565720558,0.09471496194601059,-0.40834951400756836,-0.031778931617736816,-0.11894998699426651,-0.019540220499038696,-0.11576789617538452,-0.06986645609140396,0.059052206575870514,-0.007389791775494814,0.04523560032248497,0.011238287203013897,-0.22457468509674072,-0.09394289553165436,-0.4097890555858612,0.37142816185951233,0.32968762516975403,-0.10886304825544357,-0.3560701012611389,-0.23607507348060608,-0.16768516600131989,0.05384020507335663,0.32856783270835876,0.003833973780274391,-0.26146847009658813,0.3182981312274933,0.5217441320419312,-0.012779363431036472,0.19682152569293976,-0.24145953357219696,-0.3469061851501465,-0.3132129907608032,-0.3453501760959625,0.323106974363327,0.24150563776493073,0.1864016205072403,-0.10323410481214523,-0.30532634258270264,0.4668818414211273,-0.42730504274368286,-0.0542026162147522,0.1378805786371231,0.4089418351650238,-0.2247471809387207,0.015992524102330208,0.11957347393035889,0.27857422828674316,-0.14732769131660461,-0.18314145505428314,0.37909284234046936,0.013784334994852543,-0.14159627258777618,-0.17967428267002106,-0.08739495277404785,-0.22667616605758667,-0.02655724249780178,0.01922500692307949,-0.5034995675086975,0.29827067255973816,-0.4025287926197052,0.0881728082895279,-0.17283639311790466,0.12476464360952377,-0.06790772080421448,-0.059138569980859756,-0.04098033905029297,0.26683202385902405,-0.00956805795431137,-0.006990970112383366,-0.18409161269664764,-0.33409199118614197,-0.0721869245171547,0.18777301907539368,-0.2965332567691803,-0.19975680112838745,-0.22233383357524872,-0.048747316002845764,-0.10548517107963562,-0.02442140318453312,0.12731263041496277,0.04102906957268715,0.03823736682534218,-0.08165565878152847,0.034691233187913895,0.09282385557889938,0.15821313858032227,-0.10322760790586472,0.054257456213235855,0.21267038583755493,-0.274366170167923,0.11145120859146118,-0.3557370603084564,0.399780809879303,0.11610018461942673,0.005833549425005913,-0.09665258228778839,0.21035397052764893,-0.13243620097637177,0.36102303862571716,0.14847387373447418,-0.3584464192390442,-0.14635193347930908,-0.1108289286494255,0.03359474986791611,0.03881300240755081,-0.39674806594848633,0.2522347867488861,-0.049497008323669434,0.12522238492965698,-0.1982693374156952,0.045161206275224686,-0.21521919965744019,-0.09337583184242249,-0.21990683674812317,-0.019821060821413994,-0.2819533050060272,-0.05662824213504791,0.1452290117740631,0.1939886212348938,-0.031015926972031593,0.12692947685718536,0.2525327503681183,-0.00032504278351552784,-0.2642453908920288,0.009963616728782654,-0.23223349452018738,0.11122318357229233,0.051182981580495834,0.09861768782138824,0.34159737825393677,-0.018453434109687805,0.12177774310112,-0.3716121315956116,0.2620850205421448,-0.22403296828269958,-0.26988446712493896,0.049560729414224625,0.08706025779247284,-0.004650198854506016,0.24880409240722656,-0.17930014431476593,0.10531369596719742,0.04617073014378548,0.2817157506942749,0.17512273788452148,-0.14359480142593384,0.32000863552093506,0.30683425068855286,0.11781343817710876,-0.06169659644365311,0.035127442330121994,0.3041246235370636,0.18364936113357544,-0.17871762812137604,0.0023884756956249475,0.09939399361610413,0.08453197777271271,0.2825370132923126,-0.1349238008260727,-0.0438997782766819,0.19455797970294952,0.4245271682739258,0.11592040956020355,0.21214289963245392,-0.15003719925880432,0.06063950061798096,0.03947477787733078,0.09102532267570496,0.05996442958712578,-0.27483534812927246,-0.15022803843021393,0.10954274982213974,-0.3936183750629425,-0.06671478599309921,0.02596563845872879,0.04205609858036041,0.019741572439670563,-0.20432095229625702,-0.04051026701927185,-0.0614766888320446,0.3322257399559021,0.09990249574184418,0.10317739099264145,0.04968412593007088,0.24775660037994385,-0.0641113817691803,0.3958565294742584,-0.3766506612300873,0.55522620677948,0.17726461589336395,-0.29051679372787476,-0.12687751650810242,0.3323856592178345,-0.0016065903473645449,0.5449737310409546,-0.07256295531988144,-0.572944164276123,-0.3863449990749359,0.13118195533752441,0.1222454383969307,-0.26389405131340027,-0.27640387415885925,0.018277060240507126,0.29870784282684326,-0.007886767387390137,-0.27895569801330566,0.009034713730216026,0.15385112166404724,-0.014477129094302654,-0.16359955072402954,-0.24545025825500488,0.29411473870277405,0.08566015213727951,0.2046831250190735,0.22575683891773224,-0.038367465138435364,0.18710601329803467,0.25300461053848267,0.0935506671667099,-0.023517832159996033,0.2752784192562103,-0.25815507769584656,-0.1915772259235382,-0.31108802556991577,-0.1943313032388687,0.3560616672039032,0.07385852932929993,-0.23469148576259613,-0.27749136090278625,0.02440093643963337,-0.13748271763324738,-0.34560495615005493,-0.13343298435211182,0.214810311794281,0.054418597370386124,-0.5325408577919006,0.10592533648014069,-0.05892641842365265,0.020302489399909973,0.3903566002845764,0.49562352895736694,-0.06145431846380234,0.22659064829349518,0.08640490472316742,-0.030733900144696236,-0.06955435872077942,-0.23667173087596893,0.12111948430538177,-0.17225812375545502,-0.11762699484825134,-0.13691794872283936,-0.28976887464523315,0.2547227442264557,0.12903432548046112,-0.04290053993463516,0.0999884381890297,0.28326416015625,0.31118670105934143,0.2715362012386322,-0.0029549109749495983,-0.20759806036949158,0.12964576482772827,-0.22491776943206787,-0.16155566275119781,-0.2043934464454651,-0.25947824120521545,-0.1916511505842209,0.08999162167310715,-0.11924246698617935,-0.06459695100784302,0.007506208959966898,0.03765442967414856,0.24009816348552704,-0.24676823616027832,-0.00749405100941658,0.1316823810338974,0.32715415954589844,-0.023429490625858307,0.10262703150510788,0.10714307427406311,0.3737019896507263,-0.2593446671962738,0.43124228715896606,-0.16160281002521515,0.4317857623100281,0.07895810902118683,-0.08061565458774567,-0.14268460869789124,0.21076640486717224,0.12596651911735535,0.7603162527084351,-0.2728760540485382,-0.4365620017051697,-0.20471666753292084,0.04559919610619545,0.17450156807899475,-0.32242655754089355,-0.10634774714708328,0.299998939037323,0.03177221864461899,0.07358145713806152,-0.4117451608181,0.11003671586513519,0.7316417098045349,0.24717876315116882,-0.26699724793434143,-0.222818061709404,0.0010543126845732331,-0.06193055585026741,0.07902571558952332,0.08951226621866226,-0.05499667674303055,-0.20056752860546112,0.19248472154140472,0.17996938526630402,-0.2557666599750519,0.21541252732276917,-0.192875936627388,-0.17239539325237274,-0.4087985157966614,-0.09199100732803345,0.6350802183151245,-0.2587512731552124,-0.27388936281204224,-0.17639218270778656,0.02687329426407814,0.11845236271619797,-0.20174796879291534,-0.24348993599414825,0.428069531917572,0.30650439858436584,-0.36055606603622437,-0.001839137519709766,0.4209822714328766,-0.06671210378408432,0.07628405839204788,0.4773794412612915,0.15753918886184692,0.1013728603720665,-0.5257412195205688,-0.3787674605846405,-0.2583772540092468,0.18691696226596832,0.2462373822927475,0.05649995431303978,0.05142189934849739,0.060303766280412674,-0.2648029625415802,0.4971095025539398,0.04706608131527901,-0.2995840907096863,-0.3493202328681946,-0.07997069507837296,0.21070429682731628,0.22378534078598022,-0.16786566376686096,-0.2681518495082855,-0.10751760005950928,0.04152730852365494,0.23841270804405212,-0.07313800603151321,0.016239266842603683,0.03646457940340042,0.17093439400196075,-0.035606998950242996,0.06313293427228928,-0.07032855600118637,-0.006501020863652229,0.12293890118598938,-0.3150331377983093,-0.30095812678337097,0.2806917428970337,0.09883606433868408,0.14026392996311188,-0.04865626245737076,0.09277300536632538,0.38709935545921326,-0.23874308168888092,0.2890893518924713,-0.13291297852993011,0.29744774103164673,-0.10564245283603668,0.19990457594394684,-0.09650769829750061,0.15295103192329407,0.1264854371547699,0.44533953070640564,-0.37559083104133606,-0.31887930631637573,-0.07100614160299301,-0.05295022577047348,0.20027601718902588,-0.0786520466208458,-0.06201062723994255,0.20573633909225464,0.11890368908643723,-0.21009188890457153,-0.332623690366745,0.22414076328277588,0.3799576461315155,0.01861991547048092,-0.2988014817237854,0.19405072927474976,-0.3791397511959076,-0.36813876032829285,-0.11287422478199005,0.19919826090335846,-0.12734609842300415,-0.15092574059963226,0.576404333114624,0.46083569526672363,-0.20996128022670746,0.19215422868728638,-0.14712953567504883,0.07255800068378448,-0.07213445752859116,0.010011046193540096,0.47725963592529297,-0.19711747765541077,0.1222289502620697,-0.20610198378562927,-0.10923471301794052,0.18958525359630585,-0.2402835637331009,-0.34877660870552063,0.04008752107620239,0.01802595518529415,-0.18401098251342773,0.21766480803489685,0.2562858760356903,0.27013370394706726,-0.3699829876422882,0.4967513978481293,0.22678391635417938,-0.19067321717739105,0.09492417424917221,-0.3695465624332428,0.19853246212005615,0.2702096104621887,0.3880106806755066,-0.006532175466418266,-0.041360966861248016,0.14467470347881317,-0.23185624182224274,0.38083747029304504,0.10518784075975418,-0.07283132523298264,-0.30954426527023315,0.022360611706972122,0.059377271682024,-0.20298145711421967,0.12025588005781174,-0.2586762011051178,-0.20780545473098755,0.1351296752691269,0.30587831139564514,-0.21328884363174438,-0.2578465938568115,-0.10796201229095459,0.017497364431619644,0.10950054973363876,-0.0006617867620661855,-0.0598425567150116,-0.07154452055692673,0.10782405734062195,-0.28810733556747437,-0.49024155735969543,0.3970057964324951,0.010731094516813755,0.13774916529655457,-0.037022899836301804,0.15511704981327057,0.2925349175930023,-0.0822259858250618,0.09411192685365677,0.050463657826185226,-0.16887608170509338,0.013293745927512646,0.19634252786636353,0.1492050737142563,0.14202485978603363,0.10398136079311371,-0.01595807634294033,-0.3689267933368683,-0.3623192608356476,-0.02676212601363659,-0.06882081925868988,0.07682134956121445,-0.07180854678153992,0.21484535932540894,0.0221793744713068,0.2620549201965332,-0.38372328877449036,-0.11857018619775772,0.1613931655883789,-0.24498291313648224,0.15348531305789948,0.06975516676902771,0.05517842248082161,0.018221652135252953,-0.44107893109321594,0.10629914700984955,0.15504764020442963,-0.06357766687870026,-0.02848661318421364,0.5899113416671753,0.6365424394607544,-0.03815969452261925,-0.026361310854554176,0.07335399091243744,-0.30094820261001587,0.19555968046188354,-0.22118912637233734,0.22262035310268402,-0.07323606312274933,-0.06778775155544281,-0.2055499106645584,-0.2921030521392822,0.37087541818618774,-0.29006168246269226,-0.29400041699409485,0.16418786346912384,0.31731197237968445,-0.1299448013305664,0.3073936998844147,0.2802962064743042,-0.06194695457816124,0.36691370606422424,0.26885220408439636,0.04790959134697914,-0.373359739780426,-0.33703532814979553,-0.10123012214899063,-0.1391013264656067,0.11290188133716583,0.17709127068519592,0.029712887480854988,-0.13352803885936737,0.2666969895362854,-0.21087436378002167,0.3808046579360962,0.031841181218624115,-0.1501409411430359,-0.08882391452789307,0.12846432626247406,0.18031373620033264,-0.23030488193035126,-0.10748197883367538,-0.2963819205760956,-0.38577476143836975,0.13305750489234924,0.07541003078222275,-0.15402619540691376,-0.42434602975845337,0.024912195280194283,-0.0842893049120903,0.15814322233200073,0.05445198714733124,-0.18485265970230103,-0.10712911188602448,-0.0019153701141476631,-0.04387208819389343,-0.36960458755493164,0.1097433790564537,-0.02107825130224228,0.0287203099578619,0.1117488369345665,0.177467942237854,-0.026917017996311188,-0.18161575496196747,0.021393416449427605,-0.25101879239082336,0.47882315516471863,-0.10940510779619217,-0.06340903788805008,-0.07243913412094116,0.032392311841249466,0.19106309115886688,0.13586005568504333,0.011242976412177086,-0.33331501483917236,-0.2404450625181198,0.03405352681875229,0.15663468837738037,-0.041029103100299835,0.009249155409634113,0.15042439103126526,0.0915871262550354,-0.014444537460803986,-0.08462807536125183,0.16030116379261017,0.19004784524440765,-0.06771013885736465,-0.3389408588409424,-0.013411395251750946,-0.02155171148478985,0.09326202422380447,-0.08097683638334274,-0.053929802030324936,-0.09587585180997849,-0.0586761012673378,0.2639855146408081,0.2959446310997009,-0.22168321907520294,0.04258309677243233,-0.2753516733646393,0.31541210412979126,-0.05395966395735741,-0.0008087511523626745,-0.21664702892303467,0.09108313918113708,-0.1431766003370285,-0.18005050718784332,0.03525608405470848,0.22219876945018768,-0.13981842994689941,0.13254226744174957,0.026192698627710342,0.054518625140190125,0.19919854402542114,0.10628114640712738,0.3084041476249695,0.07671903818845749,0.055795714259147644,0.34929904341697693,-0.10381604731082916,0.22242511808872223,0.1698821783065796,-0.045198313891887665,-0.01781044527888298,-0.27477991580963135,0.26824310421943665,0.1202048733830452,0.1625497192144394,0.048334233462810516,0.1030009388923645,0.1684291809797287,0.1402692347764969,0.19297471642494202,-0.22973643243312836,0.146238312125206,0.16888141632080078,0.05837804824113846,0.15551920235157013,-0.06562507897615433,0.22885505855083466,0.15620504319667816,0.11834654211997986,0.1343299150466919,-0.16913098096847534,-0.0429113544523716,0.11159814149141312,0.19240862131118774,0.09400933980941772,0.1110219806432724,0.018767403438687325,0.2436060905456543,-0.28646549582481384,-0.046540312469005585,0.18214409053325653,0.04318331554532051,0.1729300618171692,-0.13209781050682068,-0.014718348160386086,-0.062468331307172775,0.02500694803893566,-0.0027553800027817488,-0.07811731100082397,0.43894270062446594,0.13010627031326294,-0.31812000274658203,-0.27326321601867676,-0.10344073921442032,0.09006687998771667,-0.08730889111757278,-0.31899791955947876,-0.14168210327625275,-0.28618180751800537,0.3142271339893341,0.18393249809741974,-0.10650106519460678,0.13003183901309967,0.15855485200881958,0.5502522587776184,-0.06661049276590347,0.0035853651352226734,0.2755294740200043,0.23949846625328064,0.022195730358362198,-0.09049096703529358,0.1272093653678894,0.3326273262500763,-0.15789324045181274,-0.008245691657066345,0.0037622570525854826,-0.10609261691570282,0.11841321736574173,0.31358516216278076,0.28915223479270935,-0.06963153928518295,-0.12264706939458847,-0.09651791304349899,0.024902798235416412,-0.21680055558681488,-0.30143991112709045,0.10263322293758392,0.10277288407087326,-0.23964138329029083,-0.09523042291402817,-0.2680870592594147,0.072060227394104,-0.15575829148292542,0.12612639367580414,0.030554180964827538,0.03112281672656536,-0.41342318058013916,0.18612922728061676,-0.019012270495295525,-0.05348008871078491,-0.12285832315683365,0.24575747549533844,-0.1594919115304947,0.18011222779750824,-0.08705507963895798,-0.35727235674858093,-0.40806466341018677,-0.09404865652322769,0.28454115986824036,0.18081922829151154,-0.17711570858955383,-0.3147868514060974,-0.12839646637439728,0.23163378238677979,0.12091436982154846,-0.04247233644127846,-0.27711403369903564,0.008274918422102928,0.16694927215576172,0.18564148247241974,0.08327403664588928,-0.03239882364869118,0.042324498295784,0.13970443606376648,-0.14975373446941376,-0.1591048240661621,-0.12980954349040985,-0.18439316749572754,0.06798230111598969,0.15822634100914001,0.2010011076927185,0.014094761572778225,0.012225717306137085,0.25986093282699585,-0.11418711394071579,0.16048596799373627,0.07914663851261139,-0.21321536600589752,-0.20619851350784302,-0.1419893354177475,-0.1867469847202301,0.07577876001596451,-0.2306469827890396,-0.15312349796295166,-0.12828664481639862,0.2659919857978821,0.0909762904047966,-0.17154712975025177,0.021887069568037987,0.03252425789833069,-0.008872338570654392,0.24891023337841034,-0.42727965116500854,-0.019295604899525642,-0.06154368817806244,0.3568735718727112,0.06383630633354187,-0.16514714062213898,0.14981001615524292,0.1294558197259903,0.29367199540138245,-0.20575842261314392,-0.19222958385944366,0.29277274012565613,0.11186656355857849,-0.025925371795892715,-0.0682622417807579,0.3845866024494171,0.19953405857086182,-0.16959266364574432,-0.15909770131111145,0.0024181792978197336,-0.39697137475013733,0.21501144766807556,0.006471515167504549,0.2592184841632843,-0.0230102576315403,0.14058330655097961,-0.10607030987739563,0.1325458288192749,0.16309712827205658,-0.1156923696398735,0.25358203053474426,0.007773702498525381,-0.1833309680223465,-0.2009357362985611,-0.18989208340644836,-0.011284299194812775,0.0031817490234971046,0.07631479948759079,0.14377808570861816,-0.048852089792490005,-0.4021929204463959,0.04221413657069206,0.3501165509223938,0.1087019219994545,-0.08932945132255554,0.3095659613609314,-0.038101088255643845,0.2627667486667633,-0.21526603400707245,-0.046171609312295914,-0.2979673445224762,0.22809813916683197,0.3157462775707245,0.05688120424747467,-0.041559576988220215,-0.25288262963294983,-0.28933846950531006,0.21386943757534027,0.19864846765995026,-0.2655302584171295,-0.30602627992630005,-0.11185506731271744,0.24223411083221436,0.2770962417125702,-0.3011035919189453,-0.10066211968660355,-0.060232263058423996,0.19175145030021667,0.12400824576616287,-0.10263881087303162,-0.035172440111637115,-0.05725488066673279,0.09179656207561493,0.22668322920799255,-0.06656836718320847,0.11381015181541443,0.07385273277759552,0.24998679757118225,0.1044280081987381,0.12175584584474564,0.21054644882678986,0.07382751256227493,-0.018284587189555168,-0.018018148839473724,0.012354640290141106,0.10973646491765976,-0.056811388581991196,-0.09676335752010345,0.1563660353422165,-0.049494706094264984,0.2117234766483307,-0.018422050401568413,0.22858119010925293,0.15565472841262817,0.12941543757915497,0.5398363471031189,-0.5364430546760559,-0.09052678942680359,-0.010145756416022778,0.05629013851284981,-0.06842174381017685,-0.21077729761600494,0.25941985845565796,0.0008248625672422349,-0.12785577774047852,-0.2664329707622528,-0.2515365779399872,0.2822396457195282,-0.07173128426074982,-0.11087524890899658,0.16878990828990936,0.4889041781425476,-0.10903419554233551,0.1048496663570404,-0.09142600744962692,0.09609116613864899,-0.2807382643222809,0.1288941353559494,0.26139700412750244,0.3504403531551361,0.0031458819285035133,0.17472198605537415,-0.07938224077224731,-0.016529899090528488,0.14999526739120483,-0.07040126621723175,0.28547990322113037,-0.2413555532693863,-0.007166103459894657,-0.26090535521507263,-0.025756971910595894,-0.2346678078174591,-0.04251757636666298,-0.0013195802457630634,0.13545513153076172,0.1888074278831482,-0.12925751507282257,0.2664293944835663,0.17598873376846313,0.11650460213422775,0.2443668395280838,0.4214913547039032,-0.0620783232152462,0.12856391072273254,-0.22115343809127808,0.028773318976163864,-0.05016705393791199,0.23017148673534393,0.21184326708316803,-0.1254650056362152,0.009752189740538597,-0.04649295657873154,0.0009209472918882966,0.3284551501274109,-0.04193301498889923,0.03886040300130844,0.15493285655975342,-0.10743308067321777,-0.05373559147119522,0.3658319413661957,0.0338900089263916,-0.08351638913154602,-0.01450668927282095,0.2561948895454407,0.15332508087158203,-0.1076560690999031,0.008354945108294487,0.0871446281671524,0.17359203100204468,0.24445104598999023,-0.09725568443536758,0.19083768129348755,0.1921621412038803,-0.09145217388868332,-0.09024501591920853,0.21774376928806305,0.24096772074699402,0.22325554490089417,0.05956481769680977,-0.02392604947090149,-0.11456838995218277,-0.19154152274131775,0.1438356637954712,-0.10467743873596191,0.12998446822166443,-0.21804605424404144,0.011451113037765026,-0.028537573292851448,0.10269016027450562,0.17118890583515167,-0.07614165544509888,0.4121059477329254,-0.19751480221748352,-0.007264037616550922,-0.057726889848709106,-0.3157663345336914,0.13065767288208008,-0.027866924181580544,0.18389177322387695,-0.1748279333114624,0.012982062064111233,-0.1916615217924118,-0.14848679304122925,0.2503131031990051,0.013428579084575176,-0.12845487892627716,0.21747241914272308,0.4453718662261963,-0.10490968078374863,0.11210708320140839,0.019381290301680565,0.026894008740782738,-0.1567794382572174,0.07371468842029572,0.3973641097545624,0.4091230034828186,-0.131635844707489,-0.20403240621089935,0.03154263645410538,-0.16612736880779266,0.3506316840648651,-0.3067363202571869,0.14078913629055023,-0.2652846872806549,-0.11731228232383728,-0.20894259214401245,-0.25215330719947815,-0.042987093329429626,0.12445169687271118,-0.04979843646287918,0.21874412894248962,0.12972618639469147,0.11690469831228256,0.12120925635099411,0.22241657972335815,0.13696354627609253,0.36510005593299866,0.12653598189353943,-0.21763712167739868,-0.16036191582679749,-0.34420737624168396,-0.025228941813111305,-0.22479622066020966,-0.08978874981403351,0.22783632576465607,-0.13590097427368164,0.04126392677426338,0.10293842107057571,-0.11647822707891464,0.19266892969608307,0.1386439949274063,-0.20954999327659607,0.05435393378138542,-0.11230786144733429,0.021744223311543465,0.036650124937295914,-0.00827725138515234,-0.09326257556676865,-0.11746847629547119,0.04533907771110535,0.1064886599779129,-0.33256104588508606,0.08208923786878586,-0.08848676830530167,0.19429895281791687,0.3074210286140442,0.11309828609228134,-0.060127727687358856,0.1010592132806778,-0.30212607979774475,-0.005076998379081488,-0.2634963393211365,-0.05819333344697952,0.057703305035829544,0.0448487214744091,0.1120433360338211,-0.034625522792339325,-0.2339821457862854,-0.02062349207699299};


const float conv2d_2_biases[] = {-0.034536659717559814,0.010114255361258984,-0.1449226588010788,-0.05791780725121498,-0.09847110509872437,-0.28036707639694214,0.022569913417100906,-0.08428078144788742,-0.054937876760959625,0.20520122349262238,0.05883001163601875,0.348064124584198,0.027746936306357384,-0.03856281191110611,0.1944008767604828,-0.14064952731132507};

const float dense_1_weights[] = {-0.07730527967214584,0.04093736782670021,-0.11618278175592422,-0.10656768828630447,0.0653633177280426,0.26918238401412964,0.11869285255670547,-0.005396411754190922,0.15018512308597565,-0.17496851086616516,0.09224112331867218,0.0122717609629035,-0.1524583250284195,0.2161892205476761,-0.06136303022503853,-0.2430378794670105,0.10439649969339371,-0.02620627172291279,0.05784191936254501,0.02678070031106472,-0.0027935300022363663,-0.07401885092258453,0.16977182030677795,-0.20049826800823212,0.17871049046516418,0.21689634025096893,0.13687288761138916,0.05365379899740219,-0.10252078622579575,0.2437705248594284,-0.012281006202101707,-0.05947927385568619,-0.16767841577529907,-0.1605008840560913,0.029563136398792267,0.1361789107322693,-0.22287984192371368,-0.15277157723903656,0.1445561945438385,0.004624063614755869,-0.07491403818130493,0.07819833606481552,0.4447880685329437,-0.0423709861934185,0.09842672944068909,-0.017383810132741928,0.15366622805595398,0.01695767231285572,-0.09223096072673798,0.246595099568367,-0.17639665305614471,0.35038459300994873,0.07760541141033173,0.0559527762234211,-0.3073636293411255,0.026236869394779205,-0.025725601240992546,-0.05961834639310837,-0.04257825016975403,0.23375891149044037,-0.0053679561242461205,0.13831296563148499,0.12130162119865417,0.2580503821372986,0.050534218549728394,-0.10481298714876175,0.4025386571884155,-0.0012274449691176414,-0.15618759393692017,0.027170909568667412,-0.1271887570619583,0.007165106944739819,-0.16076494753360748,0.09797253459692001,0.26552435755729675,0.11935366690158844,0.029275890439748764,0.2150821089744568,0.016877245157957077,-0.2332320511341095,-0.06043308228254318,-0.2360323816537857,0.16272465884685516,-0.1478980928659439,0.10355757176876068,-0.09645958989858627,0.033939339220523834,-0.17781494557857513,-0.08463194221258163,-0.034883636981248856,-0.17551839351654053,0.01681995764374733,0.026258435100317,-0.04709751158952713,-0.012280265800654888,-0.06461457908153534,-0.13577470183372498,0.10077359527349472,0.06253939121961594,-0.08660930395126343,0.08729960769414902,-0.25777122378349304,0.1058383509516716,0.05702812969684601,0.049466874450445175,-0.024655932560563087,0.02772870846092701,-0.015910159796476364,0.2948653995990753,0.029988529160618782,-0.1309378445148468,-0.06121782958507538,-0.11525334417819977,0.1806418001651764,0.05405028536915779,0.04665178060531616,0.024312973022460938,0.01670505478978157,0.12054374068975449,0.028668807819485664,-0.0032551412004977465,0.2112898975610733,0.026623835787177086,0.10068895667791367,0.057223983108997345,-0.31337496638298035,0.01925838366150856,0.00266201701015234,-0.0799398198723793,0.4163441061973572,0.15938013792037964,0.0292231272906065,-0.3678893744945526,-0.01848745159804821,-0.03895239531993866,0.03112347610294819,-0.2653532326221466,-0.12225235253572464,-0.2680665850639343,-0.06806103885173798,-0.16970469057559967,-0.09708593785762787,-0.053612686693668365,-0.31581199169158936,-0.13349898159503937,-0.145260751247406,0.06592777371406555,-0.07477528601884842,-0.2691762447357178,-0.25738489627838135,-0.17878788709640503,0.05214681103825569,0.41209709644317627,0.013127284124493599,-0.18632373213768005,0.045909952372312546,-0.11562259495258331,0.1690663993358612,0.024123238399624825,-0.1318313181400299,0.23660366237163544,-0.122278593480587,-0.2676240801811218,-0.12564237415790558,-0.08996798098087311,0.21609771251678467,0.06379777938127518,0.06119189038872719,-0.008943122811615467,0.41658028960227966,0.5486630201339722,-0.04962491616606712,0.1021878570318222,0.06381290405988693,0.01682334393262863,0.24417561292648315,-0.09300448000431061,0.12338168919086456,0.2539944648742676,-0.27574458718299866,0.02281956374645233,-0.2152644395828247,0.035146407783031464,0.016498712822794914,-0.026239711791276932,-0.013272491283714771,-0.258661150932312,-0.3479958176612854,-0.04878886789083481,0.23294049501419067,0.20248810946941376,0.27665454149246216,-0.3424566984176636,0.012397446669638157,-0.06858344376087189,0.057608578354120255,-0.18047921359539032,-0.028368111699819565,0.17354868352413177,0.017560014501214027,-0.047120317816734314,-0.07558158785104752,-0.20682461559772491,0.0528578981757164,0.10243730247020721,0.007305598352104425,0.10708978772163391,0.19399750232696533,-0.058052025735378265,0.0208640955388546,-0.0873827189207077,0.10997860878705978,0.09209930896759033,-0.21396856009960175,0.36179453134536743,-0.2974647283554077,-0.047255340963602066,-0.1798107624053955,0.13559919595718384,0.2937515377998352,-0.026233429089188576,0.28646305203437805,-0.12716031074523926,0.04330560937523842,0.24365797638893127,-0.16036255657672882,-0.09237094968557358,0.02491077221930027,-0.35088011622428894,-0.24741753935813904,-0.10018262267112732,0.02743944711983204,0.015082837082445621,-0.20017912983894348,0.25650885701179504,0.13246145844459534,0.06786718219518661,0.027942731976509094,0.18106131255626678,-0.1476421058177948,0.017088348045945168,0.40055879950523376,0.025278376415371895,0.12450602650642395,-0.01312304474413395,0.29570838809013367,-0.10636422038078308,-0.20175939798355103,0.1485520303249359,-0.2632710337638855,0.19185620546340942,0.27479395270347595,-0.18257033824920654,0.1788490116596222,0.19526517391204834,-0.12174919992685318,0.012186326086521149,-0.0546218678355217,-0.13700562715530396,-0.11291739344596863,-0.16551196575164795,0.27176862955093384,-0.24556639790534973,0.4511048197746277,-0.04740498214960098,-0.027279939502477646,0.16490930318832397,0.2634243667125702,-0.011918548494577408,-0.06312266737222672,0.3191974461078644,0.03898627310991287,0.042388126254081726,-0.1396639496088028,0.1296604424715042,-0.10679200291633606,0.10493211448192596,-0.020359443500638008,-0.037433844059705734,0.013628763146698475,-0.3196583390235901,0.06859090924263,0.548005223274231,-0.09364499151706696,0.33008021116256714,-0.15674982964992523,-0.18805015087127686,-0.11065150052309036,-0.3081345856189728,-0.19261614978313446,0.003689403645694256,0.10839121788740158,0.015744531527161598,0.10849419981241226,-0.12049151211977005,0.0009651606669649482,-0.31452706456184387,0.002184442477300763,-0.2455432116985321,-0.15630601346492767,0.05600183829665184,0.18885666131973267,-0.23110216856002808,0.17265093326568604,0.022133786231279373,0.07172656804323196,0.1248348131775856,0.110865019261837,0.09014501422643661,0.08988688886165619,0.21579042077064514,-0.4092128574848175,-0.023549750447273254,-0.24081027507781982,-0.0006501837051473558,0.021971149370074272,-0.04274803772568703,0.19578170776367188,-0.37536269426345825,0.04885415360331535,-0.11936476081609726,0.015655629336833954,0.14196503162384033,0.12587454915046692,-0.3047543168067932,0.2079494595527649,0.3739347755908966,0.0880662053823471,-0.24815261363983154,-0.08329558372497559,-0.36588966846466064,-0.32170701026916504,-0.3529151976108551,-0.007132164668291807,-0.27506351470947266,0.09032824635505676,-0.057604603469371796,-0.07116801291704178,0.16522400081157684,0.1250300258398056,-0.09632296860218048,-0.3068336546421051,-0.08618726581335068,0.28708434104919434,-0.06574534624814987,-0.00435893377289176,-0.010623713955283165,0.16191567480564117,0.36902278661727905,0.1511455923318863,0.15430009365081787,0.3046807646751404,0.048279568552970886,0.07720949500799179,-0.1813850700855255,-0.2435752898454666,0.16427676379680634,0.06426072865724564,-0.22257961332798004,0.3955780267715454,-0.14711688458919525,0.18177714943885803,0.12021562457084656,0.19124174118041992,0.030566958710551262,-0.14165742695331573,0.33826443552970886,-0.031853243708610535,0.08466354012489319,-0.18722938001155853,0.1726449579000473,0.15605641901493073,-0.06336726993322372,0.01908123679459095,0.22370128333568573,0.09412677586078644,-0.12451162934303284,-0.25689151883125305,0.02038038708269596,-0.21313384175300598,-0.08397910743951797,0.19573384523391724,-0.13895447552204132,0.16913162171840668,-0.1833265870809555,-0.04895617812871933,-0.09311370551586151,0.35382774472236633,-0.0523507297039032,-0.35686880350112915,0.153864786028862,0.04459763690829277,0.21974334120750427,-0.24059538543224335,-0.0010625716531649232,0.11407529562711716,0.11831512302160263,-0.11764057725667953,-0.16039158403873444,-0.17181409895420074,-0.318652868270874,-0.04914335906505585,0.06314500421285629,0.04559271037578583,-0.007637877017259598,-0.19744403660297394,-0.3928496539592743,-0.05425475165247917,-0.31579744815826416,-0.0246846005320549,0.3035701811313629,-0.10710801184177399,0.16398967802524567,0.06413760781288147,-0.10178526490926743,0.0673012062907219,0.013810764998197556,0.1933342069387436,0.22115552425384521,-0.16233474016189575,0.2458949089050293,0.4498281180858612,-0.17040416598320007,0.048250969499349594,-0.21899005770683289,0.2995881140232086,-0.051775626838207245,-0.030393822118639946,0.10884882509708405,-0.12943488359451294,-0.021224966272711754,-0.07782186567783356,0.010460954159498215,-0.17963793873786926,-0.3553811311721802,0.018160363659262657,-0.055753033608198166,0.04798140004277229,-0.23353128135204315,0.41917675733566284,0.278675377368927,0.34614020586013794,0.08283877372741699,0.2078833281993866,-0.05141652002930641,-0.05854024738073349,0.5227165818214417,-0.19824619591236115,-0.06528335064649582,-0.28466981649398804,-0.3037818968296051,-0.09907691180706024,-0.3962806165218353,-0.043352074921131134,-0.011919506825506687,-0.08986681699752808,0.11573351174592972,0.22782015800476074,-0.010460064746439457,0.2256816178560257,-0.3370678424835205,0.08800500631332397,-0.3461182117462158,0.15562869608402252,0.10373133420944214,-0.009750770404934883,-0.03283558413386345,-0.09400629997253418,0.2280009239912033,0.10078288614749908,0.0637279599905014,-0.070029117166996,-0.2014770656824112,0.1834777146577835,-0.21996012330055237,-0.2136845737695694,0.06322445720434189,0.1653563529253006,0.02396211586892605,0.07178468257188797,-0.16050675511360168,0.36721497774124146,0.1972624957561493,-0.09545724093914032,0.04220586270093918,0.051761988550424576,-0.17846444249153137,-0.20545382797718048,-0.16270112991333008,-0.003530822228640318,0.09034796804189682,0.150396466255188,0.03208903223276138,-0.018111683428287506,0.020877327769994736,-0.003331840271130204,-0.06477116048336029,-0.36570504307746887,0.08691006898880005,0.054625123739242554,-0.21003247797489166,-0.10615012049674988,0.027199560776352882,0.07198139280080795,-0.01797471009194851,-0.0844016745686531,0.0038522942923009396,0.08218004554510117,0.0035161010455340147,-0.0740390345454216,-0.03523850068449974,-0.047114450484514236,-0.014175426214933395,-0.15172173082828522,-0.040707364678382874,-0.13912861049175262,-0.05134927108883858,0.008281082846224308,-0.10435689240694046,0.02862357348203659,0.05290834978222847,0.01292582880705595,0.027754534035921097,-0.10936535894870758,-0.15361446142196655,-0.14488786458969116,-0.20646438002586365,-0.021740742027759552,0.05681898817420006,-0.024658329784870148,0.20168723165988922,-0.11745350807905197,0.0599069744348526,-0.19771848618984222,0.17969109117984772,0.11820881813764572,0.072043776512146,0.30384328961372375,-0.09657810628414154,-0.12486094236373901,-0.15597042441368103,-0.062359519302845,-0.06824222952127457,-0.04193415492773056,0.0002871929027605802,-0.1273515373468399,-0.27174627780914307,-0.03382618725299835,0.24159392714500427,-0.006808524485677481,0.23570969700813293,-0.002067404333502054,-0.0061066546477377415,-0.021079931408166885,0.1330832690000534,0.02924499846994877,0.02377963438630104,0.09609687328338623,0.09342557936906815,-0.08304992318153381,-0.11052460968494415,-0.2307508885860443,-0.05114539712667465,0.03980093076825142,-0.010398940183222294,0.045754462480545044,0.08168216049671173,0.06149230897426605,-0.2128920555114746,-0.09596454352140427,0.08343290537595749,-0.04370986297726631,-0.05248013883829117,0.1644362509250641,0.09917888045310974,0.020800745114684105,0.12713459134101868,-0.06465320289134979,0.17584466934204102,-0.03375104069709778,-0.014208936132490635,0.12756378948688507,0.19767223298549652,-0.0812167376279831,0.09233256429433823,0.005069731269031763,0.059531521052122116,0.126913920044899,0.10815195739269257,0.12640318274497986,-0.1298336535692215,0.19921143352985382,0.17064952850341797,-0.0335567407310009,0.11914631724357605,0.031522419303655624,0.021429162472486496,0.04425342008471489,0.026465877890586853,0.09260242432355881,0.02277020551264286,0.49398091435432434,0.2823314666748047,-0.20910537242889404,-0.11007869243621826,0.047040730714797974,0.03615346923470497,-0.1164698451757431,-0.07160784304141998,0.0787372961640358,0.12039273232221603,-0.21636603772640228,-0.07763747125864029,0.012432149611413479,0.34685489535331726,0.05266103148460388,-0.04428434744477272,-0.07224639505147934,-0.02271374873816967,0.15736635029315948,0.021433264017105103,0.15699979662895203,0.014008603058755398,-0.06212928891181946,-0.09565389901399612,-0.06682492047548294,0.5370757579803467,0.038848016411066055,-0.11522925645112991,0.29188263416290283,0.13517379760742188,-0.2784779667854309,0.021556101739406586,-0.1963724046945572,0.014262471348047256,-0.10888325423002243,-0.04455016180872917,-0.13210323452949524,-0.03396191447973251,-0.019435858353972435,-0.118824802339077,0.11803120374679565,0.2636621296405792,0.08618904650211334,-0.010991178452968597,-0.10649879276752472,-0.15500056743621826,0.04830455034971237,-0.3434794545173645,0.0658504068851471,0.23655234277248383,0.06945593655109406,0.1457466185092926,0.1025710254907608,0.010850382037460804,0.018514074385166168,-0.16030021011829376,-0.3017204999923706,-0.21695250272750854,-0.17238464951515198,-0.3989161550998688,-0.3745242953300476,-0.2109268307685852,0.128531351685524,0.18570952117443085,0.004647382069379091,-0.1563679575920105,-0.050393808633089066,0.21340134739875793,-0.022225357592105865,-0.01664707064628601,-0.06202097237110138,-0.021105507388710976,-0.4372715651988983,0.1395868957042694,-0.026501599699258804,-0.1487731635570526,0.12697891891002655,-0.022586649283766747,0.1632559448480606,0.158246710896492,0.11532510071992874,-0.15061627328395844,0.07844286412000656,-0.03656866401433945,0.008096491917967796,0.046153731644153595,-0.04458694905042648,-0.2524849772453308,0.04264671728014946,-0.3130019009113312,-0.2518030107021332,-0.11779110133647919,-0.03865312784910202,0.27191561460494995,-0.2212207317352295,0.2621917426586151,-0.1765342354774475,0.04848390445113182,-0.11317270249128342,-0.24858149886131287,0.34326261281967163,0.3610118329524994,0.033099789172410965,0.08820796012878418,-0.02636205404996872,0.06723067909479141,-0.12315049767494202,-0.03059455007314682,0.20202475786209106,-0.07186906784772873,-0.026359638199210167,0.1575288027524948,0.14934587478637695,-0.017346521839499474,-0.0032524035777896643,0.13856662809848785,0.16570435464382172,0.4008715748786926,-0.14452823996543884,0.11533009260892868,-0.09862104803323746,0.10291528701782227,0.18299077451229095,-0.23948363959789276,0.07559464871883392,-0.19518037140369415,-0.002458826405927539,0.20519426465034485,-0.11088936775922775,0.45819658041000366,0.29249727725982666,-0.026860686019062996,0.1927502453327179,-0.08123542368412018,0.10585896670818329,-0.02523825503885746,-0.023284444585442543,0.1088026687502861,-0.18259458243846893,-0.09537294507026672,0.14760112762451172,-0.05877426266670227,0.008174030110239983,-0.10170743614435196,0.06646792590618134,0.016387004405260086,0.04626947641372681,0.12397722899913788,-0.14373745024204254,0.274975061416626,-0.04994110390543938,0.18031497299671173,-0.10893027484416962,0.023243097588419914,0.0977955311536789,0.10132119059562683,0.32800745964050293,-0.15902908146381378,-0.19334718585014343,-0.47262850403785706,-0.03092973493039608,0.18458494544029236,-0.21655727922916412,-0.04786783084273338,-0.27257588505744934,-0.22614361345767975,0.14273525774478912,-0.30414462089538574,-0.082188181579113,-0.09857470542192459,-0.14160038530826569,0.16643111407756805,-0.03996308892965317,-0.0901268795132637,0.13448262214660645,-0.06663091480731964,0.13234718143939972,-0.0008600477012805641,-0.004625903442502022,0.03502853587269783,0.056133419275283813,0.0641511008143425,0.0488891564309597,0.1900300532579422,0.11321358382701874,0.07478334754705429,0.1918024718761444,0.22375600039958954,0.04728788882493973,0.13432590663433075,-0.034852586686611176,0.02356402575969696,-0.11656749993562698,0.1112639382481575,0.14583371579647064,-0.07547903805971146,0.1565781682729721,-0.10056408494710922,-0.11977675557136536,-0.005118230357766151,-0.12338104844093323,0.11035404354333878,0.14375652372837067,-0.21911729872226715,0.2992691099643707,0.13457559049129486,0.010069075971841812,-0.08505263179540634,-0.1105618104338646,-0.20484885573387146,0.013613556511700153,0.06121848523616791,0.09192194789648056,-0.17360979318618774,-0.19494295120239258,-0.15832367539405823,-0.08800149708986282,-0.0011058348463848233,0.06182887777686119,-0.10968678444623947,-0.40680888295173645,-0.013280733488500118,0.045843690633773804,0.05780898034572601,0.10520545393228531,-0.03797069191932678,0.29659512639045715,0.13391944766044617,-0.002977262483909726,-0.017526641488075256,0.03508872911334038,-0.2983316481113434,-0.01896050199866295,-0.021119294688105583,-0.22895315289497375,-0.08155763894319534,-0.019360695034265518,-0.2470676451921463,0.5544393062591553,-0.022224875167012215,-0.15560580790042877,-0.2229231595993042,-0.05285731330513954,-0.03917588293552399,0.019259927794337273,0.13130450248718262,0.031437356024980545,0.011324687860906124,-0.2142886370420456,0.023330869153141975,0.0726286917924881,-0.01644984632730484,0.021850915625691414,-0.19163720309734344,-0.11901668459177017,0.1904190331697464,-0.23230941593647003,-0.05744323879480362,-0.14424729347229004,0.12560534477233887,-0.16180582344532013,-0.18929162621498108,-0.1811283379793167,0.16651389002799988,-0.08858112245798111,-0.0917409360408783,-0.034392111003398895,0.03234846144914627,0.00608039740473032,0.06938128173351288,0.2530136704444885,0.08242321014404297,0.17244821786880493,-0.15087652206420898,0.05007699877023697,-0.02167767845094204,-0.11601024866104126,0.3117252588272095,-0.021012719720602036,0.025903508067131042,-0.10526559501886368,-0.13259300589561462,-0.00196739099919796,0.22293369472026825,0.3310520052909851,-0.0066755362786352634,-0.1139344573020935,0.3153615891933441,0.05206253379583359,-0.363314151763916,0.12556388974189758,-0.2724759578704834,-0.1884671002626419,-0.15828131139278412,0.08171717822551727,-0.10563714057207108,-0.011798194609582424,0.21045131981372833,0.26060932874679565,0.11093071848154068,0.15248535573482513,0.05439610406756401,0.013265102170407772,-0.16448280215263367,0.18617016077041626,-0.11034192144870758,-0.08860642462968826,-0.23400607705116272,-0.13718444108963013,-0.19431447982788086,-0.011971334926784039,0.18208694458007812,0.11280699819326401,0.010684013366699219,0.07406161725521088,0.2305062860250473,-0.011045977473258972,-0.08320875465869904,-0.10877857357263565,0.010270793922245502,-0.13382703065872192,0.11462817341089249,-0.03155367448925972,-0.1672554761171341,-0.014406806789338589,0.008551583625376225,-0.12281982600688934,-0.30988097190856934,-0.2382975071668625,0.12153857201337814,-0.07641501724720001,0.042107004672288895,0.152085080742836,-0.04004960134625435,-0.06152177229523659,-0.00976494513452053,0.14916867017745972,-0.13590189814567566,-0.16714617609977722,-0.00814879685640335,-0.2031664252281189,-0.011467608623206615,-0.02907022461295128,-0.18626531958580017,0.04432492330670357,-0.07825683802366257,-0.06061845272779465,0.26568517088890076,0.06821148842573166,0.212212473154068,-0.18984155356884003,-0.04394621029496193,0.02123757265508175,-0.1413019895553589,-0.0214978139847517,0.13898895680904388,0.08631102740764618,-0.14116962254047394,-0.08385591953992844,0.13089217245578766,0.1491975337266922,0.0733802318572998,-0.20772048830986023,-0.1219881922006607,-0.1089998334646225,-0.1781056821346283,0.21873706579208374,-0.24790267646312714,0.07701986283063889,0.1781674474477768,0.04326501116156578,-0.05867019668221474,0.1044839397072792,-0.18579410016536713,-0.3454633057117462,0.13199293613433838,0.0274768378585577,-0.12853774428367615,-0.13588319718837738,0.16740581393241882,-0.1501777023077011,-0.010704128071665764,0.012375181540846825,0.01978689804673195,-0.10739608108997345,-0.08021429926156998,0.12254591286182404,0.3044884204864502,-0.43606236577033997,-0.04639657586812973,-0.014873516745865345,-0.16678199172019958,0.051846783608198166,-0.2543315589427948,-0.0943731814622879,-0.026650384068489075,-0.13268126547336578,0.14951540529727936,-0.06650114059448242,-0.017289400100708008,0.2710590362548828,-0.19807739555835724,0.3499976694583893,-0.1834581047296524,0.05949518457055092,0.08250117301940918,-0.21780608594417572,0.04966425523161888,0.11505056172609329,-0.18028587102890015,-0.0549599789083004,-0.1605045348405838,0.10978643596172333,0.20737354457378387,-0.16922122240066528,-0.030954528599977493,-0.06112886220216751,-0.0961063951253891,-0.06182283163070679,-0.1449672132730484,-0.030960071831941605,-0.15897586941719055,0.061989206820726395,0.010375256650149822,0.16968128085136414,-0.18575643002986908,0.0772273987531662,-0.010800820775330067,0.3042081892490387,-0.07742567360401154,-0.04942570626735687,0.17658162117004395,-0.11207517981529236,-0.04762934520840645,0.03214840590953827,0.1622704118490219,-0.3612237274646759,0.0029719232115894556,0.04109099507331848,-0.22506652772426605,-0.16984526813030243,-0.1988648921251297,0.14272505044937134,-0.28796711564064026,0.03037252649664879,-0.057614944875240326,-0.02948921173810959,-0.15653027594089508,-0.12011317163705826,-0.16349072754383087,0.2244146764278412,0.015068203210830688,0.5222018361091614,0.06578033417463303,-0.023691324517130852,-0.033157847821712494,-0.26345691084861755,-0.0752265602350235,-0.17885012924671173,-0.06205696612596512,-0.28953632712364197,-0.19440102577209473,0.0914362445473671,-0.010446122847497463,0.006814911495894194,-0.02170260064303875,-0.09608824551105499,-0.07323114573955536,0.07931992411613464,0.05465739592909813,-0.0672478973865509,-0.07983539253473282,-0.17589250206947327,0.2635357677936554,0.2971450984477997,-0.161715567111969,0.14603795111179352,-0.015847569331526756,0.0721140205860138,-0.06399621814489365,-0.11932110041379929,-0.07555624097585678,0.1157301738858223,0.12751887738704681,0.16552165150642395,0.15241064131259918,-0.1648956686258316,0.2007025182247162,-0.04968445375561714,-0.17688965797424316,-0.05299826338887215,0.014477165415883064,-0.1396203637123108,0.03840573877096176,-0.014768286608159542,-0.3475694954395294,0.09469538927078247,0.25998517870903015,0.27797988057136536,-0.2110758274793625,-0.05785192921757698,0.22463800013065338,-0.02006356604397297,-0.03245595842599869,0.10966768860816956,0.0015099563170224428,-0.2628288269042969,-0.23643715679645538,0.32012099027633667,-0.16680790483951569,0.02747347392141819,0.11653269827365875,-0.029224637895822525,0.13590458035469055,0.22234418988227844,-0.035031508654356,0.1998334378004074,-0.15380720794200897,0.07933355122804642,0.047919921576976776,-0.024928642436861992,-0.09089294075965881,-0.18211032450199127,0.19659343361854553,0.14596378803253174,0.2012924700975418,-0.021213563159108162,0.15028679370880127,-0.02401747927069664,0.10586825013160706,-0.0552791953086853,0.17675815522670746,-0.03147825598716736,-0.1424587368965149,0.14072756469249725,0.025571636855602264,0.20041850209236145,-0.004690905567258596,-0.024164777249097824,0.014508569613099098,-0.025247154757380486,0.08201172947883606,0.05374247208237648,0.15865583717823029,-0.1853545755147934,0.33301857113838196,-0.134172260761261,-0.018675338476896286,-0.05209116265177727,0.16937802731990814,-0.04013742879033089,-0.13300369679927826,-0.03655887022614479,-0.0011885316343978047,-0.03525904566049576,-0.16194747388362885,0.2365974634885788,0.16785350441932678,-0.3969332277774811,-0.17326197028160095,-0.1775595098733902,0.178061380982399,-0.04300961270928383,0.1958625465631485,0.04704328998923302,0.012948872521519661,-0.004777264781296253,0.07523668557405472,0.04644129052758217,0.24344050884246826,-0.008099286817014217,0.2764129638671875,-0.4452808201313019,0.10914064198732376,0.10697639733552933,0.010723909363150597,0.15563824772834778,0.21096932888031006,-0.05434814840555191,0.21132782101631165,0.06386653333902359,0.1217951774597168,-0.1045730784535408,0.16911475360393524,0.08399822562932968,0.1072261705994606,0.2393396496772766,-0.18034550547599792,-0.14058460295200348,-0.1722654402256012,-0.04477153345942497,0.23165415227413177,-0.12218861281871796,0.08150577545166016,-0.1705384999513626,0.009556649252772331,-0.10503986477851868,-0.08901836723089218,0.19009636342525482,-0.15689894556999207,0.010704793967306614,-0.0536617748439312,0.03426368534564972,-0.059510380029678345,0.002797286491841078,-0.11224893480539322,-0.08082778006792068,0.054851312190294266,0.07771554589271545,-0.022632470354437828,-0.02148379758000374,0.2731550633907318,-0.18529145419597626,0.06517250835895538,0.04180518165230751,-0.19244138896465302,-0.2196815311908722,-0.1561344414949417,0.07535375654697418,-0.005442058201879263,0.1872398853302002,-0.08503612875938416,0.1457495242357254,0.09961807727813721,-0.03296414762735367,0.03340129181742668,0.08933081477880478,-0.040232639759778976,0.08557376265525818,-0.023029014468193054,-0.10109332948923111,0.16952276229858398,0.15808488428592682,-0.051095373928546906,-0.03601423278450966,-0.0681086927652359,0.26944828033447266,-0.2922687530517578,-0.11630179733037949,0.21275222301483154,-0.05521289259195328,-0.3186587989330292,-0.09070189297199249,0.07648396492004395,0.11156729608774185,-0.042495179921388626,0.020450057461857796,0.15784649550914764,-0.037582527846097946,0.27742356061935425,-0.1612449288368225,0.057277269661426544,-0.15295709669589996,0.3628197908401489,0.03808823600411415,0.020844461396336555,-0.03778035566210747,0.03687254711985588,0.005838664248585701,0.1300550252199173,-0.21077704429626465,0.12002092599868774,-0.1922711580991745,-0.0310730691999197,-0.2738643288612366,-0.27812644839286804,-0.11757346242666245,-0.08311730623245239,-0.10992372781038284,0.1089664176106453,-0.0869612991809845,0.1469433307647705,0.20426517724990845,-0.0342959426343441,-0.3062136769294739,0.045621976256370544,0.22102804481983185,0.08070418983697891,-0.11997226625680923,0.15181568264961243,0.07227227091789246,-0.1382228583097458,0.11787555366754532,0.14189113676548004,0.10959519445896149,-0.07378677278757095,0.19177597761154175,0.04855500906705856,0.09206035733222961,0.15797047317028046,-0.08961110562086105,0.06518720835447311,-0.018568838015198708,0.21929974853992462,0.14622348546981812,0.03733520209789276,0.04062441363930702,-0.20527003705501556,0.19176101684570312,0.035281091928482056,0.21704944968223572,-0.05044148489832878,0.015521747060120106,0.0867740735411644,-0.26945367455482483,-0.049859680235385895,-0.06403033435344696,-0.12670797109603882,0.04559529572725296,-0.05816495418548584,0.16564121842384338,0.11994248628616333,-0.11541586369276047,0.044421035796403885,-0.22093048691749573,-0.05223676562309265,-0.21847380697727203,-0.04558498039841652,-0.026051657274365425,0.0868929773569107,-0.45499902963638306,-0.012079819105565548,0.15436002612113953,-0.11761952936649323,-0.10073816776275635,-0.10125003755092621,0.3123534023761749,-0.07407189905643463,0.1631997972726822,-0.1457279622554779,0.13461944460868835,-0.10730802267789841,-0.2479902058839798,-0.4320441782474518,0.43583914637565613,0.012205696664750576,0.15353156626224518,0.10876081883907318,-0.002493246691301465,0.1365126669406891,-0.030036896467208862,0.1317022293806076,-0.01848897710442543,-0.013272024691104889,-0.15113510191440582,-0.36659085750579834,-0.3573139011859894,0.04088477045297623,-0.17531590163707733,-0.22385649383068085,-0.05954783037304878,-0.007710747886449099,-0.007954305969178677,-0.22846513986587524,0.23849239945411682,0.027098286896944046,0.14378994703292847,-0.015249276533722878,-0.19686919450759888,0.09661249816417694,-0.11126209795475006,-0.5162175893783569,-0.485271155834198,-0.19574366509914398,0.21368160843849182,0.2082807868719101,-0.18757563829421997,-0.08037114888429642,0.1017235592007637,-0.11280927807092667,-0.18949179351329803,-0.06125558540225029,-0.35806992650032043,-0.15149188041687012,0.30070826411247253,0.07539048790931702,0.0879553034901619,0.2882630527019501,0.30193498730659485,0.14385414123535156,0.09927672147750854,0.28956982493400574,-0.2697310447692871,-0.3209288716316223,-0.004779167473316193,0.12321045994758606,0.035211268812417984,-0.14229314029216766,0.0021407047752290964,-0.040352966636419296,-0.00475601339712739,0.27589482069015503,0.29618099331855774,-0.07783084362745285,0.001990054501220584,0.1317237764596939,0.17040836811065674,0.169911727309227,-0.509739875793457,-0.23186172544956207,-0.35045284032821655,0.19127635657787323,-0.38062307238578796,0.1369537115097046,0.19587735831737518,-0.23708009719848633,0.0650729238986969,0.08059898763895035,0.07892046868801117,0.5182141661643982,0.44485682249069214,0.28134337067604065,-0.1699850708246231,-0.2122277170419693,-0.10165249556303024,-0.2107071429491043,0.2993587553501129,-0.1706593632698059,-0.046998463571071625,0.2892351746559143,-0.3497391939163208,-0.17333485186100006,-0.18399417400360107,-0.3418077528476715,-0.03913799300789833,0.09459646791219711,0.21990662813186646,-0.1896110475063324,-0.095066599547863,0.29014575481414795,-0.21957075595855713,-0.012503329664468765,-0.33021003007888794,0.38304269313812256,-0.37230610847473145,-0.12337131053209305,-0.06688924878835678,-0.4185638725757599,0.03301427140831947,-0.03608204424381256,0.09036246687173843,-0.2952398657798767,0.07486546039581299,-0.22757333517074585,-0.16893190145492554,-0.11707397550344467,0.11546294391155243,0.0906272828578949,-0.00026766493101604283,0.07437293976545334,0.062547467648983,0.020148567855358124,-0.0674981027841568,-0.017710527405142784,-0.3444558084011078,0.11141559481620789,-0.1089492216706276,-0.2758919298648834,0.16986289620399475,-0.100345678627491,-0.45158231258392334,-0.32017695903778076,0.20698504149913788,0.18149717152118683,-0.21080967783927917,-0.22885824739933014,0.2503109276294708,0.0057574487291276455,0.04976192116737366,0.08582466095685959,0.2070593535900116,0.12432725727558136,-0.13513723015785217,-0.11768580973148346,0.09786947816610336,0.15159623324871063,0.05334221571683884,0.16409756243228912,0.02871554158627987,-0.04426285997033119,-0.1591545194387436,0.06548018753528595,0.17004959285259247,0.07588673382997513,0.24737778306007385,0.06078748777508736,-0.16644352674484253,0.018024396151304245,0.21075814962387085,0.17300882935523987,0.06102505326271057,-0.32084521651268005,0.10618336498737335,0.09123428910970688,0.16220109164714813,-0.24930937588214874,-0.2508641481399536,0.22490434348583221,0.04929591342806816,0.09459246695041656,0.36214590072631836,-0.044478628784418106,0.2942676246166229,-0.24230878055095673,0.3037351369857788,-0.10011915117502213,-0.19304241240024567,-0.036853037774562836,0.6652792692184448,0.18153990805149078,0.18112468719482422,0.01235074270516634,-0.056065671145915985,0.28679120540618896,0.0468335896730423,-0.010120232589542866,-0.06151390075683594,-0.13164301216602325,-0.13687804341316223,-0.15156643092632294,-0.36755236983299255,-0.1257433146238327,0.2179449498653412,-0.2698054015636444,0.12497790157794952,-0.10012608766555786,0.09363474696874619,0.16073225438594818,-0.3293400704860687,-0.13240274786949158,-0.03803904727101326,-0.05316942557692528,-0.03602825105190277,-0.13809484243392944,-0.22245436906814575,-0.18154314160346985,-0.07908987253904343,-0.1406056135892868,-0.27491384744644165,0.14856013655662537,-0.397418737411499,-0.12879562377929688,-0.021258169785141945,0.03011678159236908,0.17547060549259186,0.01618858054280281,0.09670176357030869,0.5458545684814453,0.049112703651189804,-0.18842090666294098,0.2843066453933716,0.23477499186992645,-0.41143298149108887,0.012951438315212727,-0.03052549622952938,-0.3942148983478546,0.14516198635101318,-0.6173142790794373,0.18726694583892822,-0.3018437623977661,0.0786304920911789,0.17484115064144135,0.3302921950817108,-0.10451577603816986,-0.17762792110443115,0.03698509559035301,-0.2255558967590332,0.3689722716808319,-0.03245481103658676,0.06000642105937004,0.08317051082849503,-0.07308124005794525,-0.0980837345123291,0.09542325884103775,0.24993813037872314,-0.25132736563682556,-0.3607054650783539,-0.06948058307170868,-0.03542257472872734,-0.19343766570091248,0.160260409116745,-0.012905048206448555,0.06480766832828522,-0.34732457995414734,0.05650448054075241,-0.05894878879189491,0.37233343720436096,-0.12908440828323364,0.1077733039855957,0.1827075183391571,0.004307106602936983,0.05305304750800133,-0.1451665312051773,0.2245180904865265,0.14120380580425262,0.15198418498039246,-0.06701464205980301,-0.17956575751304626,-0.08176325261592865,-0.130418062210083,-0.17775511741638184,-0.07513141632080078,-0.18014885485172272,-0.11787274479866028,-0.2909141480922699,-0.11567036062479019,-0.14951182901859283,-0.11915658414363861,-0.11622855812311172,0.17406614124774933,-0.07184857875108719,0.01962766796350479,0.16508372128009796,-0.14381597936153412,0.023653075098991394,-0.04209045693278313,0.30946052074432373,0.32658693194389343,0.10018055140972137,0.036958448588848114,0.36748841404914856,-0.20088109374046326,-0.08155681192874908,-0.05840533971786499,0.11012062430381775,0.04520181939005852,0.03322305157780647,0.13526040315628052,0.011388312093913555,0.16299653053283691,-0.0770506039261818,-0.12168926745653152,0.08995060622692108,-0.17238624393939972,0.1665770560503006,-0.07501605153083801,0.23001302778720856,0.07120300084352493,-0.12989579141139984,0.027642108500003815,0.02861720137298107,0.17440678179264069,0.019356274977326393,-0.17566639184951782,0.05992070212960243,0.3000220060348511,-0.16182510554790497,0.1932075023651123,-0.34717631340026855,-0.016399027779698372,0.1525665521621704,-0.020845692604780197,-0.2557068467140198,-0.04018547013401985,-0.07512747496366501,0.010954279452562332,-0.009978611022233963,0.15782545506954193,0.3743251860141754,0.12209150195121765,-0.1607673168182373,-0.054839249700307846,0.05633788928389549,0.06894250214099884,0.16006377339363098,0.09942468255758286,0.08450884371995926,0.08006418496370316,-0.07873749732971191,-0.10519271343946457,0.19540348649024963,0.06688690930604935,0.100113146007061,-0.17715628445148468,-0.15457101166248322,-0.12062302231788635,0.17209435999393463,-0.15931126475334167,0.24035601317882538,-0.2054009586572647,-0.13156181573867798,0.11016584932804108,0.22379910945892334,-0.02136801928281784,-0.06644733250141144,0.08165791630744934,0.01646721549332142,-0.02721417509019375,0.1498967856168747,-0.14984717965126038,-0.005672988016158342,0.20114672183990479,-0.08494548499584198,-0.015990501269698143,0.1897648423910141,-0.16207236051559448,-0.02670675702393055,0.25574955344200134,0.06496956199407578,0.024626465514302254,-0.0603550486266613,-0.024500802159309387,0.022945888340473175,-0.12143921852111816,0.1053776890039444,0.011452369391918182,-0.16745948791503906,0.03726831451058388,0.27881112694740295,-0.13962776958942413,0.11236682534217834,0.09128540009260178,-0.0627046748995781,0.06799953430891037,0.24929146468639374,-0.15367238223552704,0.2087441086769104,-0.2617932856082916,0.032435040920972824,0.05195963755249977,-0.018153389915823936,-0.08855768293142319,-0.30028262734413147,-0.022261645644903183,-0.13218683004379272,0.1444980651140213,0.17169404029846191,0.12479440122842789,-0.08026520907878876,0.287752240896225,0.13261964917182922,0.1472909152507782,-0.29250386357307434,-0.070528544485569,0.12399798631668091,0.15014518797397614,0.2628622055053711,0.11273989081382751,-0.03818081319332123,-0.004128442611545324,-0.020565494894981384,0.17556102573871613,-0.17282573878765106,-0.0880347341299057,-0.3391949236392975,0.05387505516409874,-0.018630478531122208,0.09554776549339294,-0.037830207496881485,-0.02622624672949314,0.26246142387390137,-0.06525561213493347,0.12079116702079773,-0.0884297713637352,-0.016561981290578842,-0.1789473295211792,0.24686431884765625,0.20403748750686646,-0.22502529621124268,0.09872182458639145,0.06548432260751724,0.15426646173000336,-0.20583347976207733,0.05234690383076668,-0.14959076046943665,-0.05308093503117561,0.1213492602109909,0.039916086941957474,0.0720151737332344,0.2600383758544922,0.07184308767318726,0.2527681589126587,-0.4506937563419342,0.029764525592327118,-0.018991922959685326,0.1011185273528099,0.040516000241041183,0.3026566207408905,0.1702600121498108,0.2609652280807495,0.3015540540218353,0.17100036144256592,-0.18355703353881836,-0.08752699941396713,-0.0663067102432251,-0.005300263408571482,0.1036965623497963,-0.13348926603794098,-0.02471679262816906,0.16327674686908722,-0.05848029628396034,0.31133273243904114,0.11001008003950119,0.2276006042957306,-0.04517318680882454,-0.12718665599822998,-0.22514551877975464,0.24038009345531464,-0.05231894552707672,0.1823631078004837,-0.15047158300876617,0.20511379837989807,0.006302806083112955,-0.370601087808609,-0.1715758591890335,-0.22688034176826477,0.12272583693265915,-0.17037992179393768,0.20246078073978424,0.28864920139312744,-0.1760268211364746,0.04179035499691963,-0.04622001573443413,-0.11965292692184448,-0.024634597823023796,0.3020811975002289,0.06596861779689789,0.038739509880542755,-0.28546395897865295,-0.041326649487018585,0.022813566029071808,-0.055206190794706345,-0.018715273588895798,-0.08501406759023666,-0.17205500602722168,0.011003643274307251,-0.1833638846874237,0.028356289491057396,-0.13779141008853912,-0.27735617756843567,-0.2479897439479828,0.04438185319304466,0.14125683903694153,-0.21020445227622986,-0.0032829302363097668,0.09834528714418411,0.061332572251558304,0.11522773653268814,0.10217183828353882,-0.01143038272857666,0.0546569749712944,-0.11118645966053009,0.09614052623510361,-0.27402374148368835,0.09090587496757507,-0.13507331907749176,0.18690474331378937,-0.04470672830939293,0.09667390584945679,0.11860761791467667,-0.01181707251816988,-0.06564902514219284,0.10550308972597122,0.17741063237190247,0.008232997730374336,0.046759072691202164,-0.20430254936218262,-0.2966541647911072,0.16391101479530334,-0.25371742248535156,-0.010219099931418896,0.08035992085933685,-0.09781535714864731,0.011358370073139668,0.1914135366678238,-0.16621404886245728,-0.0748860314488411,0.2069600224494934,0.14148247241973877,0.0957510843873024,-0.050897832959890366,0.1486533135175705,-0.4616122245788574,0.083920918405056,-0.12601624429225922,-0.011528557166457176,-0.13746513426303864,0.24776175618171692,-0.046849384903907776,-0.26649320125579834,-0.27570998668670654,-0.1673440784215927,-0.09158673137426376,-0.032577335834503174,0.12137646973133087,-0.08112093061208725,0.15111123025417328,0.01745116338133812,0.1499607414007187,0.10942360758781433,0.08319854736328125,-0.06130513921380043,0.14439305663108826,0.05370991677045822,-0.4127274453639984,0.08896445482969284,-0.17102590203285217,-0.1313859075307846,-0.33386945724487305,-0.09463533014059067,-0.18478038907051086,0.19056068360805511,-0.05003846809267998,-0.022334255278110504,-0.07745418697595596,0.05297784134745598,0.32027101516723633,-0.13222846388816833,-0.1316627860069275,-0.06847404688596725,0.08280665427446365,-0.06820035725831985,-0.17626027762889862,0.09469936788082123,0.1153716892004013,-0.09332587569952011,0.1703222393989563,-0.26936572790145874,-0.007682337891310453,-0.3079465329647064,0.10328356176614761,0.14802052080631256,0.06082850322127342,0.2702009677886963,-0.3846083879470825,-0.19577656686306,-0.1194729134440422,-0.11566855013370514,0.22798670828342438,-0.18964749574661255,-0.04218698665499687,0.196212038397789,-0.021813401952385902,0.13115988671779633,-0.05043308064341545,0.002155318157747388,-0.05851422995328903,0.08095552027225494,0.20569802820682526,-0.2264164239168167,-0.5110048055648804,0.04565989226102829,-0.3155445456504822,-0.12714318931102753,-0.14437443017959595,0.13587790727615356,-0.09183651953935623,-0.04566502943634987,0.44521987438201904,0.13610155880451202,0.043805014342069626,0.1074134111404419,0.04729047045111656,0.029373370110988617,-0.0021361426915973425,0.04068887233734131,0.05782915651798248,0.02533460594713688,-0.10823586583137512,0.28742820024490356,0.1246577799320221,-0.0076628178358078,0.0957430973649025,-0.04748973995447159,0.15372511744499207,-0.15562595427036285,0.2270321547985077,0.37651684880256653,-0.3798796236515045,0.14006979763507843,-0.034239038825035095,0.021587951108813286,-0.005856751464307308,0.3141355514526367,0.05112307891249657,-0.16388584673404694,-0.09937729686498642,-0.17884030938148499,-0.47401201725006104,-0.14570580422878265,-0.09627384692430496,-0.12805522978305817,-0.010130837559700012,-0.0803695097565651,-0.3666488826274872,0.08148302137851715,-0.18627922236919403,0.08128079771995544,0.24926476180553436,0.06563390046358109,0.23850734531879425,-0.3100022077560425,0.005411070771515369,-0.14953573048114777,0.08586083352565765,0.1919400542974472,-0.21004369854927063,0.11505048722028732,-0.09250222891569138,-0.039690565317869186,0.3264877498149872,0.11119745671749115,0.10493055731058121,0.06274769455194473,-0.48998546600341797,0.06519896537065506,-0.08343144506216049,0.05602759122848511,-0.24644064903259277,-0.09984946250915527,-0.22368071973323822,0.04546605795621872,0.06208444759249687,0.35034996271133423,-0.2047102302312851,0.08446232229471207,-0.18907830119132996,0.05725586786866188,0.049496132880449295,-0.1887827068567276,0.27235016226768494,0.21042892336845398,-0.171365424990654,0.06004028767347336,-0.11007379740476608,0.18241415917873383,0.20136792957782745,-0.20621293783187866,0.08607836067676544,0.1711965650320053,-0.020816022530198097,0.4763452410697937,0.05013618245720863,0.2714802920818329,0.36283233761787415,-0.3231561779975891,0.09686873853206635,0.4263179898262024,-0.26042136549949646,0.015925323590636253,0.033685486763715744,0.07353059947490692,-0.05586066097021103,-0.08347658812999725,0.4726097881793976,-0.15071909129619598,0.16097931563854218,-0.07356175035238266,-0.018825484439730644,0.05801944434642792,-0.03391624242067337,-0.06819187849760056,-0.07196139544248581,-0.2439715564250946,-0.12611350417137146,0.15623603761196136,0.047336168587207794,0.1258563995361328,0.2565944194793701,0.015198853798210621,-0.01073675137013197,0.12421505153179169,0.15577565133571625,-0.0957445427775383,-0.046253133565187454,0.233338862657547,-0.19941861927509308,-0.011941837146878242,-0.1625215858221054,-0.3252685070037842,-0.11544144153594971,-0.33781102299690247,0.008736209012567997,0.136539489030838,-0.03622990846633911,-0.0615183524787426,0.11243201047182083,0.08613823354244232,-0.14153334498405457,0.015503409318625927,0.2644267678260803,0.11511397361755371,-0.028305228799581528,-0.12196358293294907,-0.053945980966091156,0.31400036811828613,-0.06803278625011444,-0.2567428648471832,0.16152915358543396,0.2131505310535431,-0.03315933793783188,-0.13584382832050323,-0.09366361051797867,-0.2402649223804474,0.0011722963536158204,0.292860209941864,0.07133425027132034,-0.15808644890785217,0.09448390454053879,-0.17923107743263245,0.017997397109866142,0.25049063563346863,0.07198929041624069,0.07504034787416458,0.026152530685067177,-0.1065412238240242,0.08570072054862976,0.22407594323158264,0.1045500785112381,0.1563710719347,-0.033850595355033875,0.35596999526023865,-0.031192895025014877,-0.0862053856253624,-0.03566284477710724,0.03381391987204552,0.09774304181337357,0.2130614072084427,-0.2132481336593628,-0.11667930334806442,-0.11631684750318527,-0.2301323264837265,-0.4973944425582886,0.2210552841424942,0.287553071975708,-0.26852947473526,0.09170469641685486,-0.35086438059806824,0.4288298785686493,0.22490738332271576,0.11894707381725311,0.23708179593086243,0.043099354952573776,-0.07187798619270325,0.07375030964612961,0.017251349985599518,-0.1831660270690918,-0.2119653970003128,-0.22625049948692322,0.1371917724609375,-0.11031826585531235,-0.15841172635555267,-0.07563124597072601,0.001934704720042646,-0.0297530684620142,0.10755755752325058,-0.011567712761461735,-0.09911146014928818,-0.32401132583618164,-0.02421313337981701,-0.051479049026966095,0.3056197166442871,-0.3051973581314087,-0.019632013514637947,-0.23662683367729187,-0.16228348016738892,-0.2667391896247864,-0.14980801939964294,-0.08527977764606476,-0.04239114001393318,0.2818085849285126,0.41697821021080017,-0.27808037400245667,0.06263396888971329,-0.041031431406736374,0.08696600049734116,-0.4690767228603363,0.09087912738323212,-0.20786598324775696,0.2063208371400833,-0.3953433632850647,-0.16300269961357117,0.13579842448234558,0.30476364493370056,0.07534079253673553,-0.016786321997642517,-0.07975790649652481,-0.22769767045974731,-0.06924696266651154,-0.062464263290166855,-0.02408267930150032,-0.0496574267745018,0.1270754635334015,0.13122417032718658,0.31716084480285645,0.3172735273838043,0.24535751342773438,-0.0449228473007679,0.10010679811239243,0.3792819380760193,0.10041502118110657,-0.12287721782922745,-0.1828966587781906,0.05638614669442177,-0.10070765763521194,0.08565586805343628,-0.07923666387796402,0.1804656982421875,-0.05300315096974373,-0.3165247440338135,0.1443653404712677,0.2090194821357727,-0.10918954759836197,0.07696482539176941,-0.11697188764810562,-0.13060139119625092,-0.05538507550954819,0.08248762786388397,-0.10541865229606628,0.19048504531383514,-0.002708428306505084,0.24145221710205078,0.19972045719623566,0.24570152163505554,-0.07866662740707397,-0.21075141429901123,-0.19681353867053986,-0.18632714450359344,-0.14976415038108826,-0.3881768584251404,-0.1489223688840866,-0.23767894506454468,0.19440782070159912,-0.1361178606748581,0.09189514815807343,-0.022448381409049034,-0.043493594974279404,-0.24864278733730316,0.2909475266933441,0.11053813248872757,-0.28695711493492126,0.049520570784807205,-0.3727201819419861,0.1181752160191536,0.05902877077460289,0.06443808227777481,-0.07878472656011581,-0.2296580970287323,0.36479759216308594,0.10808264464139938,0.11355913430452347,-0.03287670388817787,0.19092747569084167,0.0998367890715599,-0.22974039614200592,0.11925607174634933,0.029783736914396286,-0.013716567307710648,-0.1206202507019043,-0.24486181139945984,-0.35782304406166077,-0.19465088844299316,0.14545492827892303,0.013392413966357708,-0.2693285346031189,-0.03539027273654938,-0.06944534927606583,0.22675243020057678,0.04303387552499771,-0.16930995881557465,0.01820344664156437,-0.10984890908002853,0.1935674250125885,0.13879823684692383,0.08846075087785721,-0.012386464513838291,-0.15496714413166046,0.1161968782544136,0.23767869174480438,-0.013843953609466553,0.14427301287651062,-0.0059771351516246796,0.011952829547226429,-0.24066980183124542,0.36652377247810364,0.03581942245364189,0.2215874046087265,-0.06338170170783997,0.011686261743307114,-0.08208537101745605,-0.03078029677271843,0.25339367985725403,0.14234495162963867,0.08335985988378525,0.23262344300746918,0.44269323348999023,-0.00945375394076109,0.21562938392162323,-0.11168695241212845,0.10105649381875992,0.12959232926368713,-0.2973864674568176,0.204036146402359,-0.10247981548309326,0.15907688438892365,-0.2263946384191513,-0.24995103478431702,0.07448782026767731,-0.21035891771316528,-0.217940554022789,0.17769907414913177,-0.12932395935058594,0.05303684249520302,-0.08833729475736618,0.0762125551700592,0.06558120995759964,0.2929627597332001,-0.3072713613510132,0.010379118844866753,0.10497306287288666,-0.10242543369531631,0.006156977731734514,0.04587932303547859,0.02116926573216915,-0.012183019891381264,