static dtype CONV2D_1_WEIGHTS[150] = {28, 437, 341, -191, -718, 115, -311, 198, -523, -31, -299, -103, -178, -77, -351, 83, 63, 119, -325, -49, -159, -117, 173, -1, -133, -64, 231, 122, -142, -40, 68, 147, 48, -394, -1155, -300, -145, 287, -927, -109, 155, -23, -25, 370, -445, 92, 318, 10, -128, 132, -176, 377, 310, 257, 88, 37, 119, 277, 104, 243, 413, 333, -713, -747, -1206, -145, 784, 118, -815, -148, -74, 249, 655, 316, -104, 494, 220, 267, 679, 142, 298, 411, 236, 283, 514, -301, 71, 101, 182, 138, 195, 9, -862, -540, -892, -561, 409, 128, -118, 170, -340, -478, 354, -81, 35, 235, 54, -53, 362, -423, 320, 105, -127, -348, 288, -354, 42, -377, -93, 138, -310, -383, -517, -271, -162, 59, -341, -592, -106, -140, -59, -540, -195, -496, 179, 145, -72, -871, -196, 71, 298, -200, -37, -504, -287, 130, 173, -242, 6, -309};
static dtype CONV2D_1_BIASES[6] = {23, -14, -13, -26, -1, 16};
static dtype CONV2D_2_WEIGHTS[2400] = {-360, -64, -71, -140, -3, -56, 125, 151, -24, 76, 140, 15, -33, 123, -70, -129, -102, -221, -17, 197, -63, -7, 360, -234, 36, 208, 84, 109, 164, 9, -169, -66, -99, 56, 142, 387, -129, 120, -79, -216, 18, 103, 169, 110, 79, -154, 219, -98, -208, 357, 61, -237, -143, -280, -218, 106, 119, -251, 246, -223, -304, -64, 62, -6, 15, -169, 122, -50, 243, 88, -362, 95, 185, -136, 14, -58, 34, 5, 115, 292, 122, 72, 89, 102, 42, -72, 39, -6, 223, 48, 10, -88, 239, 233, -53, -149, -265, -113, 103, -306, -152, -33, 316, 400, 113, -153, 105, -18, -303, -246, -178, 145, -138, -103, 32, 424, 86, 6, 346, -118, 117, -134, 254, 72, -183, -404, -246, -506, 43, -41, -73, 372, -234, 39, 97, -325, 275, -170, 154, 209, 2, -124, 231, 25, -455, 32, -136, -424, -95, 16, -71, -197, 368, -411, 46, -311, -14, -150, 31, 390, -13, 58, 36, -15, 262, 30, -17, -279, 112, -234, -129, -26, 100, 99, 85, 62, 224, 196, -395, -158, -107, 14, -51, 62, 240, -356, -113, -152, 293, 330, -224, 134, -122, -139, -105, -318, -2, -353, 345, 378, 190, -152, 375, -54, -279, -107, -104, -53, 89, 13, -275, 303, -99, -120, 2, -141, 140, -347, 108, 149, -191, -155, -186, -380, -279, 19, 6, 346, -22, -103, 48, -293, 59, 131, -100, 86, -126, -19, 228, -64, -158, -75, -130, -317, 14, -4, 91, -123, 196, 213, 235, -6, 118, 188, -255, 460, -167, 43, 38, -210, 178, 122, -30, -241, -17, 135, 4, 106, -40, 124, -161, 29, 231, 152, -59, -37, 62, -137, 28, -105, 255, -80, -96, 124, -52, 281, -301, 133, -57, -75, -189, -314, -183, -276, -248, 487, 340, -136, 582, 126, 112, -5, 92, -205, 41, -450, -377, 153, -244, -82, -71, -44, 401, -69, 216, 260, -259, -92, -199, -116, -384, -150, -86, 25, 120, -186, 18, -450, 1, -40, -39, 359, -195, -178, 132, -94, -282, -74, -1, -354, 175, 61, -68, -224, -92, 289, 188, -152, 180, -2, -531, 283, -418, -131, 145, -350, 445, 138, 56, -231, 134, -46, 114, -133, -302, -30, -277, -33, 25, 108, 23, 14, 108, -87, 164, -53, 396, -92, -263, 77, -143, 66, -341, 12, -131, -24, -118, 90, -60, -85, -402, 123, 220, -182, 146, -34, 161, -39, 79, -55, -149, -679, -99, 98, 209, -95, 69, -313, 60, -155, 105, 364, -346, -185, -100, 52, -38, -175, -86, -96, -109, -29, -83, -296, 284, 9, 34, 171, -169, -94, -95, -35, -294, 120, 2, -53, 125, 1, -262, 36, 71, -63, -97, -280, 237, -168, -443, 181, -49, 80, -33, -147, 9, 140, 132, -116, 127, -186, 59, -363, -140, 136, -253, 106, -162, 16, 198, 52, 83, -56, 293, -16, 309, -240, -224, 49, -170, 222, -274, -71, -220, -180, 173, -177, -69, 90, 24, -8, -140, -150, -317, -21, -242, 56, -61, 241, -68, 0, -246, 511, -32, 179, 273, 25, 102, 170, 80, -10, -113, 96, -221, -161, -171, 21, 48, -9, -375, 146, 112, -87, -125, -129, 142, 196, -159, -215, -142, -108, -86, 235, 85, -159, -147, -574, -326, 138, -355, -35, -173, -237, -286, -28, -86, 443, 195, -251, 154, -129, 25, -99, 17, -260, -187, 21, -25, -36, -2, 76, -32, 126, 189, 122, -147, 341, 278, -60, -128, 419, -51, 93, 71, -400, 377, 398, -180, 99, -142, -296, 216, -94, -45, 405, 97, 199, -281, 287, -254, 110, -487, -273, -223, -83, 108, 74, 170, 446, 47, -117, 378, 373, 160, 163, 267, 93, -496, -103, -352, -40, -159, 91, 7, 31, -605, 177, 170, -36, -200, -65, 82, 478, -95, -545, -38, -112, -298, -26, 27, -440, 75, -34, 71, 299, -136, -100, 64, -76, -326, -80, 114, 206, -24, -237, 122, -321, 256, 120, -4, -335, -123, -141, -22, -54, 253, -126, 105, -45, 69, 197, -282, 202, 380, -413, -284, 362, 80, -322, 140, -87, 254, 218, 149, 88, -11, -30, 326, -8, 29, 538, 160, 85, -425, -284, 143, -206, -341, -442, -188, -68, -51, 28, 193, 428, 52, -495, 306, 466, 78, -157, -79, 343, -320, -383, 32, 58, -166, 112, 124, -5, -549, -10, 260, -308, -73, -106, 47, 277, 30, -363, -229, 125, -94, 102, -167, -17, 399, -276, 272, 115, -213, -182, 18, -129, -444, -221, -133, -52, -126, -242, -124, -448, 144, -77, 117, -279, -232, -90, -28, 0, -183, -77, 150, -174, -157, 159, -301, 134, 221, -1076, 52, 400, -4, -225, -30, 322, 8, 260, 178, -48, 416, -66, -52, 48, 37, 619, -34, 38, -337, -157, 195, -392, -96, -217, 90, -270, -33, 119, 86, 268, -113, -633, 201, 608, 103, -15, -1, 478, 54, -178, 360, -53, 297, -203, -37, -134, -444, 63, 65, -371, 52, 97, -63, 65, 160, -279, -175, 107, 93, -66, -96, -93, 225, -69, -144, 115, 89, 98, 258, -660, -100, -120, -324, -113, -327, -418, -282, -458, 139, -89, 183, -106, -91, -115, 120, -230, -522, -170, 189, -20, -201, 126, -2, 61, -12, -677, 33, 202, 342, -278, -39, 139, -94, 246, 205, -372, 353, -126, 44, -16, 115, 241, -252, -91, -247, -19, 352, -99, 82, -319, -27, -147, -112, -325, 148, 98, -152, -346, 172, 318, 1, -69, 165, 133, 112, -55, 33, 64, 294, -390, -47, -248, -148, -274, -231, -172, 328, 39, -27, 202, 244, -255, 11, 116, 454, 9, -163, -44, 304, 21, -277, -129, 199, -89, 78, -426, -108, -219, -162, -299, -170, -336, -49, -323, 179, 59, 46, -201, 221, -382, 118, -308, -237, -96, -95, -33, -282, 108, 110, -9, 18, -364, 198, 55, 364, -300, -27, -73, -98, 83, 13, -304, 63, -520, 214, -295, -190, -51, 216, -442, 235, -85, -386, 211, -305, -10, 86, -291, -16, 259, -20, 93, -171, 348, 352, 97, 289, -227, -201, 212, -252, -28, -21, 88, 10, 16, 27, -76, -372, 121, 221, 166, -147, 277, -206, 347, -308, -140, -120, -134, -158, 156, -44, -114, -116, -127, -46, -302, -158, -112, -220, -203, 225, 98, 99, 160, 24, -122, 22, 23, -163, 179, 234, -29, -101, 151, 113, 138, 53, 126, 138, -208, -27, 329, -317, 105, -67, 172, -162, 45, -160, -170, 208, -177, 138, 104, -17, 153, 76, -513, 609, -128, -151, 316, 209, -346, 237, 159, -545, -69, -158, -30, -366, -411, -90, 193, 106, -12, -153, 214, 258, 64, -110, 11, -34, 299, -326, -33, -14, 199, -27, 154, 189, -242, -512, 2, 318, 45, -130, -67, 92, 500, -514, -644, -126, -37, 51, -263, -182, 19, 168, 294, 246, 13, -108, 138, -262, 27, -453, -219, -302, -247, 233, -336, 83, 93, -144, 434, 211, 103, 157, 68, -174, 135, -87, -133, -252, -396, -138, 120, -411, 191, 128, 33, -43, 131, -287, -29, 206, 224, 235, 162, 300, -20, 405, -400, 471, -54, -126, 1002, 136, -198, -6, -360, -394, -484, -43, 85, -583, -28, -157, -161, 136, -238, 167, 424, 133, 96, -270, -59, -163, 455, 74, -68, -109, 372, 64, 13, 149, -353, -572, -250, 173, 206, -130, -293, 51, 52, 11, -316, -355, 354, 237, -11, 243, 433, 205, 253, 136, 43, -389, -433, -290, -299, -461, -16, -268, -10, 130, -173, 234, -166, -278, 417, 149, 87, 334, 1, -282, -139, -219, -80, -80, 45, -239, 257, -204, 179, 5, -60, -74, 4, -335, 7, 191, 184, 47, 230, 405, -195, 527, -98, 289, -18, 34, 640, 111, -58, -278, -419, -393, -151, -58, 64, -380, 15, -86, 198, 215, 95, -61, 491, 37, 50, -267, -235, -245, 284, 242, -150, -60, 499, 590, -27, 87, -388, -119, -634, 147, 264, -247, 287, -165, 115, 433, -286, -353, 104, 539, -42, 68, 290, 224, 354, 229, 236, -294, 53, -28, -331, -274, 237, 54, -67, 144, -198, -57, -109, -69, 147, 181, -18, 183, 282, -19, -34, -409, -99, 167, -113, -314, -49, -190, 121, -203, 220, 148, -57, -276, 141, 162, 283, -238, 266, 238, -188, 235, 75, 209, 98, -42, 600, -22, 97, -418, -33, -122, -20, -119, -72, 60, -8, 46, 12, -230, -96, -420, 380, 338, -111, -365, -242, -172, 55, 336, 4, -268, 326, 534, -13, 202, -247, -355, -321, -354, 331, 247, 191, -106, -313, 478, -438, -56, 141, 419, -230, 16, 122, 285, -151, -188, 388, 14, -145, -184, -89, -232, -27, 20, -516, 305, -412, 90, -177, 128, -70, -61, -42, 273, -10, -7, -189, -342, -74, 192, -304, -205, -228, -50, -108, -25, 130, 42, 39, -84, 36, 95, 162, -106, 56, 218, -281, 114, -364, 409, 119, 6, -99, 215, -136, 370, 152, -367, -150, -113, 34, 40, -406, 258, -51, 128, -203, 46, -220, -96, -225, -20, -289, -58, 149, 199, -32, 130, 259, 0, -271, 10, -238, 114, 52, 101, 350, -19, 125, -381, 268, -229, -276, 51, 89, -5, 255, -184, 108, 47, 288, 179, -147, 328, 314, 121, -63, 36, 311, 188, -183, 2, 102, 87, 289, -138, -45, 199, 435, 119, 217, -154, 62, 40, 93, 61, -281, -154, 112, -403, -68, 27, 43, 20, -209, -41, -63, 340, 102, 106, 51, 254, -66, 405, -386, 569, 182, -297, -130, 340, -2, 558, -74, -587, -396, 134, 125, -270, -283, 19, 306, -8, -286, 9, 158, -15, -168, -251, 301, 88, 210, 231, -39, 192, 259, 96, -24, 282, -264, -196, -319, -199, 365, 76, -240, -284, 25, -141, -354, -137, 220, 56, -545, 108, -60, 21, 400, 508, -63, 232, 88, -31, -71, -242, 124, -176, -120, -140, -297, 261, 132, -44, 102, 290, 319, 278, -3, -213, 133, -230, -165, -209, -266, -196, 92, -122, -66, 8, 39, 246, -253, -8, 135, 335, -24, 105, 110, 383, -266, 442, -165, 442, 81, -83, -146, 216, 129, 779, -279, -447, -210, 47, 179, -330, -109, 307, 33, 75, -422, 113, 749, 253, -273, -228, 1, -63, 81, 92, -56, -205, 197, 184, -262, 221, -198, -177, -419, -94, 650, -265, -280, -181, 28, 121, -207, -249, 438, 314, -369, -2, 431, -68, 78, 489, 161, 104, -538, -388, -265, 191, 252, 58, 53, 62, -271, 509, 48, -307, -358, -82, 216, 229, -172, -275, -110, 43, 244, -75, 17, 37, 175, -36, 65, -72, -7, 126, -323, -308, 287, 101, 144, -50, 95, 396, -244, 296, -136, 305, -108, 205, -99, 157, 130, 456, -385, -327, -73, -54, 205, -81, -63, 211, 122, -215, -341, 230, 389, 19, -306, 199, -388, -377, -116, 204, -130, -155, 590, 472, -215, 197, -151, 74, -74, 10, 489, -202, 125, -211, -112, 194, -246, -357, 41, 18, -188, 223, 262, 277, -379, 509, 232, -195, 97, -378, 203, 277, 397, -7, -42, 148, -237, 390, 108, -75, -317, 23, 61, -208, 123, -265, -213, 138, 313, -218, -264, -111, 18, 112, -1, -61, -73, 110, -295, -502, 407, 11, 141, -38, 159, 300, -84, 96, 52, -173, 14, 201, 153, 145, 106, -16, -378, -371, -27, -70, 79, -74, 220, 23, 268, -393, -121, 165, -251, 157, 71, 57, 19, -452, 109, 159, -65, -29, 604, 652, -39, -27, 75, -308, 200, -226, 228, -75, -69, -210, -299, 380, -297, -301, 168, 325, -133, 315, 287, -63, 376, 275, 49, -382, -345, -104, -142, 116, 181, 30, -137, 273, -216, 390, 33, -154, -91, 132, 185, -236, -110, -303, -395, 136, 77, -158, -435, 26, -86, 162, 56, -189, -110, -2, -45, -378, 112, -22, 29, 114, 182, -28, -186, 22, -257, 490, -112, -65, -74, 33, 196, 139, 12, -341, -246, 35, 160, -42, 9, 154, 94, -15, -87, 164, 195, -69, -347, -14, -22, 96, -83, -55, -98, -60, 270, 303, -227, 44, -282, 323, -55, -1, -222, 93, -147, -184, 36, 228, -143, 136, 27, 56, 204, 109, 316, 79, 57, 358, -106, 228, 174, -46, -18, -281, 275, 123, 166, 49, 105, 172, 144, 198, -235, 150, 173, 60, 159, -67, 234, 160, 121, 138, -173, -44, 114, 197, 96, 114, 19, 249, -293, -48, 187, 44, 177, -135, -15, -64, 26, -3, -80, 449, 133, -326, -280, -106, 92, -89, -327, -145, -293, 322, 188, -109, 133, 162, 563, -68, 4, 282, 245, 23, -93, 130, 341, -162, -8, 4, -109, 121, 321, 296, -71, -126, -99, 26, -222, -309, 105, 105, -245, -98, -275, 74, -159, 129, 31, 32, -423, 191, -19, -55, -126, 252, -163, 184, -89, -366, -418, -96, 291, 185, -181, -322, -131, 237, 124, -43, -284, 8, 171, 190, 85, -33, 43, 143, -153, -163, -133, -189, 70, 162, 206, 14, 13, 266, -117, 164, 81, -218, -211, -145, -191, 78, -236, -157, -131, 272, 93, -176, 22, 33, -9, 255, -438, -20, -63, 365, 65, -169, 153, 133, 301, -211, -197, 300, 115, -27, -70, 394, 204, -174, -163, 2, -406, 220, 7, 265, -24, 144, -109, 136, 167, -118, 260, 8, -188, -206, -194, -12, 3, 78, 147, -50, -412, 43, 359, 111, -91, 317, -39, 269, -220, -47, -305, 234, 323, 58, -43, -259, -296, 219, 203, -272, -313, -115, 248, 284, -308, -103, -62, 196, 127, -105, -36, -59, 94, 232, -68, 117, 76, 256, 107, 125, 216, 76, -19, -18, 13, 112, -58, -99, 160, -51, 217, -19, 234, 159, 133, 553, -549, -93, -10, 58, -70, -216, 266, 1, -131, -273, -258, 289, -73, -114, 173, 501, -112, 107, -94, 98, -287, 132, 268, 359, 3, 179, -81, -17, 154, -72, 292, -247, -7, -267, -26, -240, -44, -1, 139, 193, -132, 273, 180, 119, 250, 432, -64, 132, -226, 29, -51, 236, 217, -128, 10, -48, 1, 336, -43, 40, 159, -110, -55, 375, 35, -86, -15, 262, 157, -110, 9, 89, 178, 250, -100, 195, 197, -94, -92, 223, 247, 229, 61, -25, -117, -196, 147, -107, 133, -223, 12, -29, 105, 175, -78, 422, -202, -7, -59, -323, 134, -29, 188, -179, 13, -196, -152, 256, 14, -132, 223, 456, -107, 115, 20, 28, -161, 75, 407, 419, -135, -209, 32, -170, 359, -314, 144, -272, -120, -214, -258, -44, 127, -51, 224, 133, 120, 124, 228, 140, 374, 130, -223, -164, -352, -26, -230, -92, 233, -139, 42, 105, -119, 197, 142, -215, 56, -115, 22, 38, -8, -96, -120, 46, 109, -341, 84, -91, 199, 315, 116, -62, 103, -309, -5, -270, -60, 59, 46, 115, -35, -240, -21};
static dtype CONV2D_2_BIASES[16] = {-35, 10, -148, -59, -101, -287, 23, -86, -56, 210, 60, 356, 28, -39, 199, -144};
static dtype DENSE_1_WEIGHTS[48000] = {-79, 42, -119, -109, 67, 276, 122, -6, 154, -179, 94, 13, -156, 221, -63, -249, 107, -27, 59, 27, -3, -76, 174, -205, 183, 222, 140, 55, -105, 250, -13, -61, -172, -164, 30, 139, -228, -156, 148, 5, -77, 80, 455, -43, 101, -18, 157, 17, -94, 253, -181, 359, 79, 57, -315, 27, -26, -61, -44, 239, -5, 142, 124, 264, 52, -107, 412, -1, -160, 28, -130, 7, -165, 100, 272, 122, 30, 220, 17, -239, -62, -242, 167, -151, 106, -99, 35, -182, -87, -36, -180, 17, 27, -48, -13, -66, -139, 103, 64, -89, 89, -264, 108, 58, 51, -25, 28, -16, 302, 31, -134, -63, -118, 185, 55, 48, 25, 17, 123, 29, -3, 216, 27, 103, 59, -321, 20, 3, -82, 426, 163, 30, -377, -19, -40, 32, -272, -125, -275, -70, -174, -99, -55, -323, -137, -149, 68, -77, -276, -264, -183, 53, 422, 13, -191, 47, -118, 173, 25, -135, 242, -125, -274, -129, -92, 221, 65, 63, -9, 427, 562, -51, 105, 65, 17, 250, -95, 126, 260, -282, 23, -220, 36, 17, -27, -14, -265, -356, -50, 239, 207, 283, -351, 13, -70, 59, -185, -29, 178, 18, -48, -77, -212, 54, 105, 7, 110, 199, -59, 21, -89, 113, 94, -219, 370, -305, -48, -184, 139, 301, -27, 293, -130, 44, 250, -164, -95, 26, -359, -253, -103, 28, 15, -205, 263, 136, 69, 29, 185, -151, 17, 410, 26, 127, -13, 303, -109, -207, 152, -270, 196, 281, -187, 183, 200, -125, 12, -56, -140, -116, -169, 278, -251, 462, -49, -28, 169, 270, -12, -65, 327, 40, 43, -143, 133, -109, 107, -21, -38, 14, -327, 70, 561, -96, 338, -161, -193, -113, -316, -197, 4, 111, 16, 111, -123, 1, -322, 2, -251, -160, 57, 193, -237, 177, 23, 73, 128, 114, 92, 92, 221, -419, -24, -247, -1, 22, -44, 200, -384, 50, -122, 16, 145, 129, -312, 213, 383, 90, -254, -85, -375, -329, -361, -7, -282, 92, -59, -73, 169, 128, -99, -314, -88, 294, -67, -4, -11, 166, 378, 155, 158, 312, 49, 79, -186, -249, 168, 66, -228, 405, -151, 186, 123, 196, 31, -145, 346, -33, 87, -192, 177, 160, -65, 20, 229, 96, -127, -263, 21, -218, -86, 200, -142, 173, -188, -50, -95, 362, -54, -365, 158, 46, 225, -246, -1, 117, 121, -120, -164, -176, -326, -50, 65, 47, -8, -202, -402, -56, -323, -25, 311, -110, 168, 66, -104, 69, 14, 198, 226, -166, 252, 461, -174, 49, -224, 307, -53, -31, 111, -133, -22, -80, 11, -184, -364, 19, -57, 49, -239, 429, 285, 354, 85, 213, -53, -60, 535, -203, -67, -292, -311, -101, -406, -44, -12, -92, 119, 233, -11, 231, -345, 90, -354, 159, 106, -10, -34, -96, 233, 103, 65, -72, -206, 188, -225, -219, 65, 169, 25, 74, -164, 376, 202, -98, 43, 53, -183, -210, -167, -4, 93, 154, 33, -19, 21, -3, -66, -374, 89, 56, -215, -109, 28, 74, -18, -86, 4, 84, 4, -76, -36, -48, -15, -155, -42, -142, -53, 8, -107, 29, 54, 13, 28, -112, -157, -148, -211, -22, 58, -25, 207, -120, 61, -202, 184, 121, 74, 311, -99, -128, -160, -64, -70, -43, 0, -130, -278, -35, 247, -7, 241, -2, -6, -22, 136, 30, 24, 98, 96, -85, -113, -236, -52, 41, -11, 47, 84, 63, -218, -98, 85, -45, -54, 168, 102, 21, 130, -66, 180, -35, -15, 131, 202, -83, 95, 5, 61, 130, 111, 129, -133, 204, 175, -34, 122, 32, 22, 45, 27, 95, 23, 506, 289, -214, -113, 48, 37, -119, -73, 81, 123, -222, -80, 13, 355, 54, -45, -74, -23, 161, 22, 161, 14, -64, -98, -68, 550, 40, -118, 299, 138, -285, 22, -201, 15, -111, -46, -135, -35, -20, -122, 121, 270, 88, -11, -109, -159, 49, -352, 67, 242, 71, 149, 105, 11, 19, -164, -309, -222, -177, -408, -384, -216, 132, 190, 5, -160, -52, 219, -23, -17, -64, -22, -448, 143, -27, -152, 130, -23, 167, 162, 118, -154, 80, -37, 8, 47, -46, -259, 44, -321, -258, -121, -40, 278, -227, 268, -181, 50, -116, -255, 352, 370, 34, 90, -27, 69, -126, -31, 207, -74, -27, 161, 153, -18, -3, 142, 170, 410, -148, 118, -101, 105, 187, -245, 77, -200, -3, 210, -114, 469, 300, -28, 197, -83, 108, -26, -24, 111, -187, -98, 151, -60, 8, -104, 68, 17, 47, 127, -147, 282, -51, 185, -112, 24, 100, 104, 336, -163, -198, -484, -32, 189, -222, -49, -279, -232, 146, -311, -84, -101, -145, 170, -41, -92, 138, -68, 136, -1, -5, 36, 57, 66, 50, 195, 116, 77, 196, 229, 48, 138, -36, 24, -119, 114, 149, -77, 160, -103, -123, -5, -126, 113, 147, -224, 306, 138, 10, -87, -113, -210, 14, 63, 94, -178, -200, -162, -90, -1, 63, -112, -417, -14, 47, 59, 108, -39, 304, 137, -3, -18, 36, -305, -19, -22, -234, -84, -20, -253, 568, -23, -159, -228, -54, -40, 20, 134, 32, 12, -219, 24, 74, -17, 22, -196, -122, 195, -238, -59, -148, 129, -166, -194, -185, 171, -91, -94, -35, 33, 6, 71, 259, 84, 177, -154, 51, -22, -119, 319, -22, 27, -108, -136, -2, 228, 339, -7, -117, 323, 53, -372, 129, -279, -193, -162, 84, -108, -12, 216, 267, 114, 156, 56, 14, -168, 191, -113, -91, -240, -140, -199, -12, 186, 116, 11, 76, 236, -11, -85, -111, 11, -137, 117, -32, -171, -15, 9, -126, -317, -244, 124, -78, 43, 156, -41, -63, -10, 153, -139, -171, -8, -208, -12, -30, -191, 45, -80, -62, 272, 70, 217, -194, -45, 22, -145, -22, 142, 88, -145, -86, 134, 153, 75, -213, -125, -112, -182, 224, -254, 79, 182, 44, -60, 107, -190, -354, 135, 28, -132, -139, 171, -154, -11, 13, 20, -110, -82, 125, 312, -447, -48, -15, -171, 53, -260, -97, -27, -136, 153, -68, -18, 278, -203, 358, -188, 61, 84, -223, 51, 118, -185, -56, -164, 112, 212, -173, -32, -63, -98, -63, -148, -32, -163, 63, 11, 174, -190, 79, -11, 312, -79, -51, 181, -115, -49, 33, 166, -370, 3, 42, -230, -174, -204, 146, -295, 31, -59, -30, -160, -123, -167, 230, 15, 535, 67, -24, -34, -270, -77, -183, -64, -296, -199, 94, -11, 7, -22, -98, -75, 81, 56, -69, -82, -180, 270, 304, -166, 150, -16, 74, -66, -122, -77, 119, 131, 169, 156, -169, 206, -51, -181, -54, 15, -143, 39, -15, -356, 97, 266, 285, -216, -59, 230, -21, -33, 112, 2, -269, -242, 328, -171, 28, 119, -30, 139, 228, -36, 205, -157, 81, 49, -26, -93, -186, 201, 149, 206, -22, 154, -25, 108, -57, 181, -32, -146, 144, 26, 205, -5, -25, 15, -26, 84, 55, 162, -190, 341, -137, -19, -53, 173, -41, -136, -37, -1, -36, -166, 242, 172, -406, -177, -182, 182, -44, 201, 48, 13, -5, 77, 48, 249, -8, 283, -456, 112, 110, 11, 159, 216, -56, 216, 65, 125, -107, 173, 86, 110, 245, -185, -144, -176, -46, 237, -125, 83, -175, 10, -108, -91, 195, -161, 11, -55, 35, -61, 3, -115, -83, 56, 80, -23, -22, 280, -190, 67, 43, -197, -225, -160, 77, -6, 192, -87, 149, 102, -34, 34, 91, -41, 88, -24, -104, 174, 162, -52, -37, -70, 276, -299, -119, 218, -57, -326, -93, 78, 114, -44, 21, 162, -38, 284, -165, 59, -157, 372, 39, 21, -39, 38, 6, 133, -216, 123, -197, -32, -280, -285, -120, -85, -113, 112, -89, 150, 209, -35, -314, 47, 226, 83, -123, 155, 74, -142, 121, 145, 112, -76, 196, 50, 94, 162, -92, 67, -19, 225, 150, 38, 42, -210, 196, 36, 222, -52, 16, 89, -276, -51, -66, -130, 47, -60, 170, 123, -118, 45, -226, -53, -224, -47, -27, 89, -466, -12, 158, -120, -103, -104, 320, -76, 167, -149, 138, -110, -254, -442, 446, 12, 157, 111, -3, 140, -31, 135, -19, -14, -155, -375, -366, 42, -180, -229, -61, -8, -8, -234, 244, 28, 147, -16, -202, 99, -114, -529, -497, -200, 219, 213, -192, -82, 104, -116, -194, -63, -367, -155, 308, 77, 90, 295, 309, 147, 102, 297, -276, -329, -5, 126, 36, -146, 2, -41, -5, 283, 303, -80, 2, 135, 174, 174, -522, -237, -359, 196, -390, 140, 201, -243, 67, 83, 81, 531, 456, 288, -174, -217, -104, -216, 307, -175, -48, 296, -358, -177, -188, -350, -40, 97, 225, -194, -97, 297, -225, -13, -338, 392, -381, -126, -68, -429, 34, -37, 93, -302, 77, -233, -173, -120, 118, 93, 0, 76, 64, 21, -69, -18, -353, 114, -112, -283, 174, -103, -462, -328, 212, 186, -216, -234, 256, 6, 51, 88, 212, 127, -138, -121, 100, 155, 55, 168, 29, -45, -163, 67, 174, 78, 253, 62, -170, 18, 216, 177, 62, -329, 109, 93, 166, -255, -257, 230, 50, 97, 371, -46, 301, -248, 311, -103, -198, -38, 681, 186, 185, 13, -57, 294, 48, -10, -63, -135, -140, -155, -376, -129, 223, -276, 128, -103, 96, 165, -337, -136, -39, -54, -37, -141, -228, -186, -81, -144, -282, 152, -407, -132, -22, 31, 180, 17, 99, 559, 50, -193, 291, 240, -421, 13, -31, -404, 149, -632, 192, -309, 81, 179, 338, -107, -182, 38, -231, 378, -33, 61, 85, -75, -100, 98, 256, -257, -369, -71, -36, -198, 164, -13, 66, -356, 58, -60, 381, -132, 110, 187, 4, 54, -149, 230, 145, 156, -69, -184, -84, -134, -182, -77, -184, -121, -298, -118, -153, -122, -119, 178, -74, 20, 169, -147, 24, -43, 317, 334, 103, 38, 376, -206, -84, -60, 113, 46, 34, 139, 12, 167, -79, -125, 92, -177, 171, -77, 236, 73, -133, 28, 29, 179, 20, -180, 61, 307, -166, 198, -356, -17, 156, -21, -262, -41, -77, 11, -10, 162, 383, 125, -165, -56, 58, 71, 164, 102, 87, 82, -81, -108, 200, 68, 103, -181, -158, -124, 176, -163, 246, -210, -135, 113, 229, -22, -68, 84, 17, -28, 153, -153, -6, 206, -87, -16, 194, -166, -27, 262, 67, 25, -62, -25, 23, -124, 108, 12, -171, 38, 286, -143, 115, 93, -64, 70, 255, -157, 214, -268, 33, 53, -19, -91, -307, -23, -135, 148, 176, 128, -82, 295, 136, 151, -300, -72, 127, 154, 269, 115, -39, -4, -21, 180, -177, -90, -347, 55, -19, 98, -39, -27, 269, -67, 124, -91, -17, -183, 253, 209, -230, 101, 67, 158, -211, 54, -153, -54, 124, 41, 74, 266, 74, 259, -462, 30, -19, 104, 41, 310, 174, 267, 309, 175, -188, -90, -68, -5, 106, -137, -25, 167, -60, 319, 113, 233, -46, -130, -231, 246, -54, 187, -154, 210, 6, -379, -176, -232, 126, -174, 207, 296, -180, 43, -47, -123, -25, 309, 68, 40, -292, -42, 23, -57, -19, -87, -176, 11, -188, 29, -141, -284, -254, 45, 145, -215, -3, 101, 63, 118, 105, -12, 56, -114, 98, -281, 93, -138, 191, -46, 99, 121, -12, -67, 108, 182, 8, 48, -209, -304, 168, -260, -10, 82, -100, 12, 196, -170, -77, 212, 145, 98, -52, 152, -473, 86, -129, -12, -141, 254, -48, -273, -282, -171, -94, -33, 124, -83, 155, 18, 154, 112, 85, -63, 148, 55, -423, 91, -175, -135, -342, -97, -189, 195, -51, -23, -79, 54, 328, -135, -135, -70, 85, -70, -180, 97, 118, -96, 174, -276, -8, -315, 106, 152, 62, 277, -394, -200, -122, -118, 233, -194, -43, 201, -22, 134, -52, 2, -60, 83, 211, -232, -523, 47, -323, -130, -148, 139, -94, -47, 456, 139, 45, 110, 48, 30, -2, 42, 59, 26, -111, 294, 128, -8, 98, -49, 157, -159, 232, 386, -389, 143, -35, 22, -6, 322, 52, -168, -102, -183, -485, -149, -99, -131, -10, -82, -375, 83, -191, 83, 255, 67, 244, -317, 6, -153, 88, 197, -215, 118, -95, -41, 334, 114, 107, 64, -502, 67, -85, 57, -252, -102, -229, 47, 64, 359, -210, 86, -194, 59, 51, -193, 279, 215, -175, 61, -113, 187, 206, -211, 88, 175, -21, 488, 51, 278, 372, -331, 99, 437, -267, 16, 34, 75, -57, -85, 484, -154, 165, -75, -19, 59, -35, -70, -74, -250, -129, 160, 48, 129, 263, 16, -11, 127, 160, -98, -47, 239, -204, -12, -166, -333, -118, -346, 9, 140, -37, -63, 115, 88, -145, 16, 271, 118, -29, -125, -55, 322, -70, -263, 165, 218, -34, -139, -96, -246, 1, 300, 73, -162, 97, -184, 18, 257, 74, 77, 27, -109, 88, 229, 107, 160, -35, 365, -32, -88, -37, 35, 100, 218, -218, -119, -119, -236, -509, 226, 294, -275, 94, -359, 439, 230, 122, 243, 44, -74, 76, 18, -188, -217, -232, 140, -113, -162, -77, 2, -30, 110, -12, -101, -332, -25, -53, 313, -313, -20, -242, -166, -273, -153, -87, -43, 289, 427, -285, 64, -42, 89, -480, 93, -213, 211, -405, -167, 139, 312, 77, -17, -82, -233, -71, -64, -25, -51, 130, 134, 325, 325, 251, -46, 103, 388, 103, -126, -187, 58, -103, 88, -81, 185, -54, -324, 148, 214, -112, 79, -120, -134, -57, 84, -108, 195, -3, 247, 205, 252, -81, -216, -202, -191, -153, -397, -152, -243, 199, -139, 94, -23, -45, -255, 298, 113, -294, 51, -382, 121, 60, 66, -81, -235, 374, 111, 116, -34, 196, 102, -235, 122, 30, -14, -124, -251, -366, -199, 149, 14, -276, -36, -71, 232, 44, -173, 19, -112, 198, 142, 91, -13, -159, 119, 243, -14, 148, -6, 12, -246, 375, 37, 227, -65, 12, -84, -32, 259, 146, 85, 238, 453, -10, 221, -114, 103, 133, -305, 209, -105, 163, -232, -256, 76, -215, -223, 182, -132, 54, -90, 78, 67, 300, -315, 11, 107, -105, 6, 47, 22, -12, -187, 41, 53, 158, -94, -115, -131, -448, 261, -281, 6, -83, -117, -275, 177, -22, 109, -17, -28, -96, 170, 290, 41, -69, 80, 97, -11, -190, -98, -248, 21, 263, -11, -44, 287, -326, 243, 10, -291, 24, -57, 249, -90, 167, 48, 429, 250, -276, -112, 37, 370, -140, -344, -63, -145, -243, 55, -8, -42, 74, 63, 31, 320, 322, -34, 154, -137, 11, 139, 128, -128, 58, 124, 212, -72, 49, 128, 91, 47, -470, 13, 176, 145, -54, 107, -36, 190, -68, -91, 4, -80, -62, 138, 138, 161, -268, -59, -389, 107, 95, -119, 38, 44, 30, -37, 58, -56, 104, -12, -78, 88, -128, -83, 208, -64, 68, -74, -6, 170, -47, 10, 117, -4, 79, 144, 187, 155, -78, 116, -34, -143, 276, 10, 33, 97, -99, 189, 24, 102, 118, -94, -121, -343, 83, -105, -178, 205, -32, 173, -292, -19, 183, 78, 111, 18, 54, 266, -186, -18, -142, -206, 397, 78, 30, -7, 148, -50, -47, 105, 386, -125, -118, -12, 169, 57, 33, -127, -247, 48, -9, -181, -185, -218, -132, 30, -105, 112, 213, -127, 2, -45, 38, -67, -43, 3, 141, -101, -45, 26, -58, 117, -212, -44, -257, -128, 268, 516, -291, 12, 37, -53, -61, -123, 182, 129, -74, -126, 23, -118, 113, 238, 178, 73, -87, -85, -81, 148, -77, -165, -46, 369, -286, -83, -23, 233, -201, -182, -141, -32, -161, -27, 18, 31, -26, -10, 425, 257, 12, 20, -182, 53, 313, -314, -75, 179, 239, -82, -180, 130, -88, 70, -52, -185, -121, -328, -333, 126, -25, 79, 24, 63, 107, 318, 7, 390, -20, 140, -480, 240, 146, -65, -12, -67, -38, -19, 159, 105, -252, -77, 263, 23, 149, -333, -2, 102, -215, -186, -28, -242, -162, 88, -276, -21, -290, 137, 253, 363, -441, 141, 193, 129, 187, 83, 296, 122, -47, 263, 153, 218, -164, -3, -79, -15, -254, 130, 148, 130, 81, -158, 405, 33, -241, 218, -184, 297, -288, -219, 158, -41, -306, 206, -114, -281, -132, 114, 41, 88, 167, 57, 121, 117, 3, -78, 234, 216, 76, -131, 62, 161, -114, 152, 194, 286, 131, -150, 169, 209, -368, 213, 208, 27, -189, -156, -21, 7, 16, -97, -58, -175, 157, -240, -320, -65, 110, -215, -117, 157, 229, 28, -82, 81, -42, -203, 274, 450, -222, 32, -242, 244, 45, -257, 270, -159, 31, 13, 5, 286, -21, -230, 255, -80, -169, -323, 182, -303, -428, 94, -298, -220, 119, -138, 75, -31, -93, 207, -175, 77, 43, 140, 128, -239, -179, 219, 56, -200, -145, 263, 63, 17, -174, 32, 12, -102, 175, -182, -74, -170, 21, 94, -147, -2, -119, -120, 84, -60, -242, 264, -31, 139, -19, -27, -115, -106, 46, 165, -66, -50, -150, 329, 2, -92, -151, 30, 4, -124, 164, -101, 94, -89, -157, -42, -7, 2, -66, 146, -252, -324, 240, -204, 217, 76, 239, 208, 65, 6, -95, 39, 143, 77, 62, -48, -214, -162, -19, -64, -83, 62, 141, 171, -112, 78, -183, -490, 55, -423, 158, -43, 170, 159, -99, 12, -69, 191, -156, 30, -75, -86, 103, 105, -204, -138, 40, -17, 164, 114, 16, 159, -68, 306, -36, -53, 179, -82, -130, -61, 54, -172, -18, -30, -73, 98, 106, -168, -118, 13, -54, 87, 237, -13, 70, 65, 35, 129, -158, 5, -1, 55, 55, 37, -386, -34, -117, -132, -193, -145, 20, -214, 65, -167, 61, 142, -51, -210, -186, 228, 23, -318, -260, 13, -4, -62, -27, 181, -487, -275, 196, -125, -106, -207, -177, 144, -200, 290, 17, -111, -18, -90, 109, -327, 76, -137, -175, -488, 182, -46, -215, -157, 260, -265, -175, -258, -10, 396, 75, 16, 353, -203, 35, 129, 241, 35, 160, -151, -44, -99, 122, -16, -66, -107, 170, 90, -414, -14, 256, 121, -137, -326, -139, -215, -62, 18, -209, 36, -87, -73, 33, 82, 104, -126, -111, 99, -85, 162, 49, -190, -302, -38, 95, 119, 428, 148, -321, 149, 123, -14, -155, 5, 125, 154, 232, -158, 362, 49, -60, 90, 119, -120, -48, 2, 183, -76, -89, 40, 249, 67, 100, 259, -45, 14, 15, 103, 49, -41, -38, -187, -132, -7, 253, -112, 86, 8, 119, -28, 52, -67, -228, 193, 164, 248, 142, 110, 166, -171, 108, -108, 3, 215, 193, 43, -199, -193, 53, 238, -250, 165, -37, 89, 31, 159, 64, 25, -17, -309, -141, 136, -191, -95, -20, -88, 38, -331, -154, 329, 53, 52, -6, 14, -162, 81, -90, 64, -23, -100, -60, -82, -20, -274, 253, 183, -72, -203, 205, 136, 119, -72, -5, 6, 63, -132, 89, -47, -174, -16, 93, -148, 104, 237, 108, -136, -113, -23, 192, 68, -77, 77, 129, 25, -366, -250, -26, -174, 50, -188, 227, 163, -148, -49, 27, -115, 177, 90, 2, 251, -79, 65, 264, -25, -280, -146, 4, -265, 203, -99, 27, -159, 98, 108, 220, 62, -123, -93, 184, -222, -98, -294, -62, 186, -207, 116, 92, -64, 20, -355, 170, 233, -32, -98, -46, -146, -44, 85, -104, 81, 292, 105, -167, 170, -246, 2, -21, 221, 411, -79, 212, 194, -206, 193, -101, 23, -197, 113, -10, -216, -126, -88, -33, 84, 369, -19, -252, -159, 278, -29, -178, -25, -272, -26, 174, 247, 340, -22, 282, 263, 310, 85, 162, 66, 43, 36, 224, -118, 82, -221, 205, 197, 31, -52, 96, -173, -73, -270, -135, -99, -116, -135, 40, 55, -83, -70, -440, 198, -367, -93, 346, 374, -647, -697, -22, -281, 256, 91, 294, 69, 56, -143, -222, 121, -56, -205, -49, 158, 389, 47, 10, 416, -67, -234, -48, 321, 302, 11, -265, 126, 133, -367, -67, 61, 282, -22, 35, 87, -23, 124, 114, -47, 117, 47, -28, 54, 330, 255, 105, -70, 333, -111, 81, 132, 100, -274, 155, 81, -356, 78, 741, 137, 59, 91, 148, 115, 273, -22, 11, -315, 136, -200, 96, 122, 130, 339, -193, 36, 46, -110, -203, -61, -402, -48, -62, 277, 341, -542, -230, 346, 502, 228, 243, 523, -357, -35, -13, -307, 16, -188, -254, 216, -387, 141, -220, 3, -115, 120, -43, -203, -289, -89, -129, -336, -360, 100, 177, -236, -67, -228, 129, -89, 170, 48, 99, 14, 76, 33, -90, -112, 256, -274, -219, 131, 138, -33, 203, -90, 308, -184, 180, 240, -25, 239, -323, -89, 498, -141, 3, 220, -223, -301, -149, 121, -15, -71, -19, 296, -35, 112, -356, -155, 48, 49, 197, -247, -92, 48, 230, -87, 348, 288, -350, 28, 571, -18, -349, 32, -273, 282, -117, 206, 38, -257, 303, 112, 270, -166, -177, -33, 6, -390, 351, -119, -85, -223, -196, 14, -476, -122, 164, 75, -42, -424, -188, 274, -49, -87, 171, 224, 26, -235, -54, 224, -525, 256, 122, 194, 113, 204, -108, -280, 54, 111, 218, 165, -79, 74, -20, -498, 87, -50, -278, 115, 357, 336, 608, -188, 376, 238, -279, 47, 127, 265, 302, 71, -30, 382, 157, 320, -42, 219, -24, -59, -123, 98, 117, -169, -163, 125, -84, -105, 148, -138, 122, -291, 178, -151, 332, -100, 134, 66, 46, -36, -122, 41, 13, 87, 197, 67, 69, -63, -27, 189, -182, 267, -236, 31, -173, -88, -286, 196, -86, -23, 47, -10, 249, 183, 218, 121, -122, 163, -2, -72, 155, -346, -127, -222, -128, 77, 23, 197, -175, 213, -102, -107, -196, -13, 264, -103, 662, 267, 459, 10, -83, 153, 156, 363, 210, -69, -52, -105, -232, -314, -243, -103, 88, -135, 26, 88, 318, -60, 340, -84, 104, -117, 46, -224, 43, 77, 196, -142, 140, -37, 58, 198, -154, -57, 48, 229, -71, 210, -28, 84, -82, -2, 293, -66, -32, 245, 184, 124, 65, 74, 38, 41, -195, -24, 253, 232, 144, -26, -36, 15, 236, -69, -304, 222, -165, -129, 181, 168, -158, 69, -77, 173, -68, -76, 313, 67, -118, 183, 177, -80, -18, 122, -27, 105, 147, -27, 170, 137, 231, 98, -67, 9, 225, 89, -8, -232, 167, -83, -344, 293, 76, 79, -221, 22, -71, 24, 33, 273, -50, -82, -38, 214, -173, -182, 214, 280, -218, 147, -122, 111, 166, -27, 241, -62, -39, -219, 302, 93, 175, 77, -58, -33, 104, -129, -55, -127, -16, 109, 150, 353, -163, -182, -147, 109, 14, -208, -103, -106, -12, 97, -187, 94, -365, -131, -279, 95, 199, -36, 272, -436, 27, -21, 255, 60, 385, -191, -75, -4, -2, -170, -6, -123, -295, 315, -18, 268, -84, 336, -79, 73, -239, 205, -186, 173, -364, 315, -454, -79, 124, -165, 91, -253, -62, 0, 24, 356, -171, -34, -5, 391, 7, 32, 512, 282, -240, -417, 395, -134, 94, -249, 267, -193, -62, -71, -383, 135, 178, -129, 80, 195, 261, -12, 175, -216, 3, 131, 17, -180, 216, 350, -461, -7, 43, 2, 10, 95, -203, 171, -403, -69, -156, -122, 310, -376, -175, -418, 255, 58, -88, 109, -222, -152, 34, 194, -110, -41, -308, 84, -434, -63, 85, -25, -26, 83, -102, 101, -186, -198, -177, 78, -44, 24, 307, -94, 208, -84, -245, -364, 681, 183, 120, 258, -155, -206, 507, -290, 518, -50, 102, -80, 235, 155, -112, 203, 48, 276, -163, -186, -127, -141, -287, -142, 115, 113, 162, -11, -40, -98, 190, 40, 168, -180, -99, -395, -87, 61, 23, 404, 148, -95, 215, 325, 151, 92, -213, -15, -87, 74, 19, -324, 141, 89, -346, 193, -103, -18, -553, 28, 60, -64, -221, -52, -83, -237, -76, 387, 27, 429, 547, -386, 40, -97, 150, 25, -22, 184, 43, 178, 424, -49, 115, -346, -260, 36, -282, -58, -326, -137, 51, -137, 217, -36, 118, 492, -206, 365, 7, -18, 277, 38, 265, 45, 114, 359, 38, -130, 178, 313, -99, -110, 200, 116, 349, -51, 93, 187, -213, 197, -252, -128, -386, -304, 247, 173, 108, 148, 114, 396, 226, 108, 90, -111, -334, -28, 326, 53, 163, 151, -257, -63, 141, 138, -179, 70, -330, -2, -163, -16, -264, 17, -235, -191, 177, -78, 86, -26, -74, 60, 42, 101, -90, 83, 70, 168, 219, 32, 538, 25, 168, 186, -361, 140, 51, -101, -62, 131, 593, 107, -105, 132, 151, 213, 166, -23, 15, 14, 40, 229, 81, 107, 127, 187, 219, 87, 100, 135, -533, -248, -512, 23, 286, 92, 537, -171, 101, 58, 303, 266, 275, 52, 220, -139, 108, -400, -39, -397, -295, 99, -598, 151, -83, -102, -347, -200, 19, 111, -129, -200, 145, -56, -350, 179, -120, 39, -177, -172, 76, -299, 366, 190, -139, 89, -343, -31, -56, -168, 83, 101, 13, -60, 449, -91, 539, 3, -292, -77, -4, -19, 106, 303, -150, -66, 100, 181, -323, -84, -26, 139, -38, -47, 24, 143, -123, 104, -112, 207, -116, 72, 121, 173, 180, 17, 74, -287, 192, -8, -18, 113, -118, 69, 102, 223, 33, 33, -115, -70, -625, -44, 4, 78, -110, 160, -88, -117, -267, -172, -83, 190, 152, -151, -191, -396, -37, 29, -78, 96, 332, 26, 577, 26, -279, -249, 22, 155, -17, -228, -176, -193, -409, 207, -76, 170, -127, -73, -194, 352, 11, -241, 250, 196, 125, 57, -151, 249, 45, -26, 385, 132, 20, 241, 106, 0, 196, -139, 174, 330, -498, 214, -348, 264, -267, 173, 54, 325, -130, 603, 38, 376, 96, 6, 85, 20, -121, -336, -56, -120, -215, -228, 41, -98, -49, -100, -177, -152, 15, -195, 217, -3, -369, 130, -22, -9, 84, 36, 301, 42, 125, 190, -136, -326, -174, 246, -32, -224, 184, 584, 98, 326, 154, 402, -230, 87, 181, -31, 154, -194, -147, 208, -81, 40, -323, 14, -403, -8, -218, -220, -50, 289, -29, -193, 83, -56, -179, -31, 302, 34, 34, -315, 413, 189, 536, 174, 175, 149, 240, 170, 63, -67, -194, -17, -25, -3, -66, -222, -57, 94, 361, 188, 73, 12, 4, -63, -49, 106, -28, -126, 173, -166, -109, -21, -74, 210, -287, -307, -252, 231, 156, 150, -174, -1, -91, -205, 338, 117, -211, 132, -152, 330, 227, -118, -181, -3, -298, 134, 129, 208, 13, -354, 161, -79, 124, -247, 0, 99, 13, 55, -251, -16, -161, 92, 77, 70, 29, -343, -36, 146, -24, -17, -248, 398, -145, 227, -165, 128, 117, 55, 102, -48, 30, -115, 16, -101, 64, 105, 90, -123, 529, -63, -158, 271, -103, 294, -123, 73, 230, -19, -62, 103, 64, 140, -20, 48, -17, 160, 237, 29, -135, -213, -229, 107, -22, -30, 342, 212, 154, -126, -82, 60, -31, 5, 31, -32, -399, -7, -102, -190, -126, -232, -173, -13, 87, -175, -30, -299, 97, 64, -18, 119, -25, -77, -23, -9, -486, -113, -187, -344, 367, 255, -275, 228, -283, 16, 81, 186, 194, -154, 2, 253, 92, -156, 78, -249, -122, 245, 69, 81, 49, 228, 95, -14, 92, 272, -10, -51, -362, 178, -353, -15, -343, -98, -131, -37, -150, 234, -53, 277, 175, 60, 451, 250, -160, 377, 106, -14, -15, -88, 494, -50, 352, 23, 127, -77, 92, -274, -101, -8, 17, -84, 64, 48, -51, 169, -179, -60, 73, 216, 51, -11, 140, -33, -402, -58, -2, -125, 274, 102, -14, -53, 72, 239, -233, -262, 329, -151, 40, 6, 17, 347, -220, 56, -259, -146, -204, -146, 22, -285, -244, 203, -303, -69, -182, 98, -140, 209, 71, 85, 167, 117, -318, 24, -209, 321, 84, -196, -14, 139, -410, -185, -113, 386, -218, 159, 33, 158, -62, 29, 227, 215, -186, 49, -121, 373, -177, -91, 45, -137, 88, -54, -137, -76, -270, 154, -36, 342, -158, 225, 27, -9, -68, 133, -109, -94, 278, -128, 156, 304, 24, 68, 46, 94, -357, 147, 93, 154, -34, 641, 95, 48, 61, 245, -135, 191, 26, -387, -287, -142, -56, -3, -47, 93, -210, 481, -500, -35, -111, 74, 182, -317, 295, -228, -108, 77, -325, -238, -54, 225, -264, -113, 48, 287, 432, -53, -26, 25, -88, 241, -229, 114, -287, 41, -269, 254, -42, 55, 13, -261, -56, 149, -1, 99, 249, 205, -311, 132, -240, -219, 90, -101, -112, 208, 110, 314, 133, -57, -178, -43, 115, -112, 276, -84, 134, -40, 80, -22, -88, 27, 116, 19, 69, 125, 92, -68, -82, 105, -10, 97, 95, -42, -14, 290, 11, 43, -96, 170, 64, -54, 275, -44, 237, 62, 81, -62, -150, -191, -98, -68, -32, 357, -236, -255, 213, -134, -18, 62, 65, 169, -86, 217, 68, 181, -21, 238, -137, 270, 16, -116, -109, 65, -195, 122, -133, 123, -89, -36, -152, -118, 45, 174, 248, -246, 84, 99, -118, -48, 192, 79, -157, 7, -70, 54, -22, -19, -192, -137, 2, -125, -60, 199, 26, 202, 144, 377, -57, 224, -25, -17, -60, -260, 250, 58, 141, 152, -265, 113, 234, -56, 23, -21, -151, 29, 231, -177, -48, -150, -119, -31, 43, -181, 30, 139, 404, 54, -245, -8, -19, -158, -117, 1, -118, -283, -175, 43, -74, 127, -68, 40, -193, 227, 167, 17, -211, -133, -25, -48, -72, 257, -238, 149, 244, -103, -56, -260, 106, -245, 70, -39, 82, -138, 4, -205, -262, 80, 288, 187, -168, -139, -3, -25, 26, -354, 204, -143, -45, 37, 51, 231, 162, 9, 168, 51, -110, 234, -167, 141, -61, 8, 203, 2, 23, 350, -8, -166, -65, -86, 69, 276, 62, 170, 12, -97, -45, -101, -45, -193, -174, -278, -116, -142, 9, -145, -223, -146, 114, 51, 105, 83, 140, -10, -6, -238, -17, -76, 133, -135, -183, -114, -159, -237, 78, 86, 202, 390, 8, 124, 121, 42, -115, 123, 174, -138, -295, 56, 218, -77, 0, 233, -143, -94, 147, -11, 115, -13, 228, 70, -250, -159, 37, -170, -6, 119, 323, -62, 140, 219, 331, -269, -22, 232, -59, 140, -229, 170, 22, 167, -104, 157, -190, -238, -117, 294, -53, -28, -302, -36, 20, -181, 65, -200, -148, 248, -18, -281, 36, -5, 41, 76, -50, 188, 36, -214, 422, -144, 738, 140, -272, -76, 40, -122, -52, 41, -24, -224, 58, 90, 13, -457, 134, 149, 26, -29, 94, 147, -134, 189, 20, 207, -40, -109, 29, -123, -157, -377, 36, -186, 76, -11, -142, -245, -117, -6, 117, -210, 136, -71, -166, 370, -39, 210, 208, 53, -153, -415, -97, 120, 172, -275, 39, 268, -324, -286, -72, -183, 94, -2, -274, 246, -197, 35, 42, 202, -134, -107, 38, -115, 60, 10, -2, -25, -65, -84, 194, 202, -126, -41, -32, -38, 22, -118, -59, -77, -21, -13, -175, 211, 84, 27, -101, 76, -214, -2, 103, -421, -273, -2, 133, -133, 132, -23, -137, 118, -136, -8, 3, -230, 170, -76, 86, -7, -81, 3, -46, 22, 96, 73, 157, 43, -89, -22, -165, 379, 186, 18, -102, 28, -23, -164, -165, -152, -349, -137, 50, 14, 290, -261, 10, 323, 90, 100, 136, -86, 101, -91, 21, -387, 44, -193, -177, -119, -184, 150, -250, 41, 117, -266, 205, 129, -128, -60, 98, 53, -350, -453, -343, -27, -137, -299, 199, 271, -225, -375, -158, -174, 173, 182, -139, 115, 194, -16, 6, -27, 340, -101, -458, -60, 208, -338, 283, 251, 129, 170, 51, 257, -99, 48, -201, 188, -41, -72, -167, 138, 21, 116, 235, 109, 48, 307, -128, 158, -146, 219, -200, -94, 104, 300, 52, 205, 342, -37, 165, 209, -105, -41, -66, -464, -174, 268, 145, -4, 33, -261, 22, 208, 353, 35, -106, -17, -140, -109, 194, -36, 173, -56, -308, -79, -118, -355, -430, -214, -641, 94, 203, 88, 43, -477, 210, 416, 160, 169, -185, 273, -475, 97, 161, -257, 251, -136, -477, -65, 112, 61, -75, 638, -238, 487, 130, -48, 16, -40, -146, 436, 274, -220, 272, -309, 166, -200, 48, -130, 130, 116, -86, 16, 31, -80, 347, 117, 52, -194, 359, -142, 168, -177, 88, 60, -190, 220, -50, -417, -68, 40, 43, -252, 15, 109, -1, -186, 32, 39, -175, -218, -54, 178, 15, -48, -166, -229, -205, -252, 90, 1, -213, -87, -139, 29, 57, -255, -226, -156, -159, -45, -65, -281, 105, 158, 416, 360, -127, 122, 80, 18, -118, -131, 70, -10, -304, 98, -263, 322, -6, 189, -201, -479, 147, 82, -22, -7, 38, 175, 68, 79, -522, -17, 39, 309, 60, -365, -1, -25, 2, 123, 185, -332, -126, 230, -124, 260, 212, -17, -92, 68, -92, 45, -17, 64, 217, -12, 91, -205, 10, 153, 78, -57, -164, -20, 98, -16, -4, 15, -249, 314, -258, -341, 198, 253, 86, 306, 230, 332, 157, -108, 421, -144, -133, 141, -6, 52, -30, -286, -5, 0, 65, -114, 114, 122, -67, 116, -248, -108, -282, -128, 135, -41, 81, -275, 111, 272, -166, -229, -42, 198, -270, 185, -176, -135, 12, 126, -138, 120, 146, -27, -39, -189, 457, 290, 200, 25, 66, 49, 103, 214, 44, 160, 125, -55, 68, -82, 5, 228, -169, 98, -225, -27, -31, 128, 201, 161, 30, -228, 119, 227, 161, 50, 353, 261, 134, -230, 193, 4, -285, 35, 9, 22, -260, -289, 23, -4, -131, 160, -164, -64, -15, 33, 130, 30, 269, -236, 51, 236, -216, -164, -43, -107, -143, -217, -264, -30, 340, 96, -46, -72, -271, -295, 359, 103, -272, 394, -22, -19, 227, -163, 4, 39, -104, 119, 195, -51, -44, -95, -48, 11, 454, -3, -50, 245, 72, -220, 47, -72, -153, -14, -27, 338, -69, -70, -145, -34, -81, 48, 43, 263, 31, -41, -429, -22, 138, 107, 9, -75, 131, 110, -81, -26, 37, -114, 60, -44, 382, 42, -184, 21, 206, -103, 189, 15, 54, -45, -49, -18, -76, 146, 105, 48, -142, 23, 353, -120, -297, -108, -209, -96, -52, 151, 208, 45, 146, 167, -40, 281, 52, 94, 107, -199, -171, -378, -182, -98, -146, 97, -264, 241, -27, -89, 86, -109, 97, 326, -6, -26, 29, -45, -296, -439, -477, -52, -173, -351, 274, -209, -472, 25, 161, -63, -226, -35, -233, -513, -32, -66, 62, 180, -171, 47, -237, -147, 85, 183, 218, 174, -35, -118, 82, 216, -66, -9, -188, 129, -364, -41, -32, 63, -271, -141, 46, 195, 24, -272, 76, 7, 107, -261, 140, -188, 114, -101, 366, 63, 140, -158, 72, 118, -111, -34, -52, -144, 21, 145, 515, 45, 141, 24, 27, 226, -208, 165, -93, 40, -28, -70, 99, 57, 128, 196, 29, -17, -127, 41, -601, 44, -479, -65, 3, -67, 173, -429, -29, 15, 298, 181, 198, 103, 72, 353, -269, 121, -50, -329, -47, -85, -272, -137, -166, 121, -430, -103, -48, -96, -281, -151, -260, 215, 276, 336, 204, -99, -37, -113, -55, -39, 69, 71, 61, 150, 302, 105, 117, -22, -150, 41, 92, -428, -125, 298, 48, 76, -129, 76, -148, -320, 380, 55, -398, -166, -68, 8, -48, -55, 75, 33, 246, 291, 229, 51, 2, -591, 3, -238, 224, 55, -10, 29, -516, 416, 67, 3, -48, -18, -92, -39, 109, -651, 4, -135, -169, 199, 195, -95, 66, 81, -245, 328, 26, 108, -284, 126, 166, 411, -176, 74, 158, -85, 93, 17, -2, -114, 448, 6, -117, 349, 258, -160, -112, -14, 117, -32, 29, -601, -152, -188, 21, 155, 109, -87, -141, 183, -157, 200, 283, 198, 16, -198, -37, -18, -174, -265, 62, -78, -176, -110, -156, -14, -140, 227, 132, 122, 166, -89, -50, 4, -229, -208, 116, 18, -62, -140, -162, 0, -112, -145, -354, 247, -255, 178, -125, -211, -152, -101, -52, 437, -175, 42, 50, 409, -11, 106, 58, -216, 17, 9, 6, -202, -277, 119, -11, 331, -138, -89, 178, -82, 78, 137, 61, -280, 225, 37, 8, -104, -121, 26, -7, 344, -28, -222, -61, -244, -267, -17, 482, -73, 161, -248, 405, -244, 147, 39, -118, -68, 24, -219, -124, 65, -77, 290, -12, 87, -34, -33, -157, -91, -404, 80, 71, 197, 28, -344, 52, 180, 116, 148, 23, 98, -286, 63, 233, -142, 212, -220, -27, 69, -204, -131, -162, 56, -53, -339, 41, 124, -127, 89, 163, 105, -27, 218, 26, -32, 153, -262, -24, -146, -291, 226, -149, 322, 128, -90, 218, -112, 88, -3, 115, -125, -13, 123, 167, 103, -145, 174, 26, -4, -107, 162, -80, -35, -430, 116, -159, 13, 77, -52, 214, 3, 38, -99, 181, -267, -70, -119, 181, 324, 137, 186, -315, 200, 84, 202, -150, 59, 14, -1, 74, -157, -89, 93, 224, 105, 112, -241, 96, -15, 141, 15, -28, 91, -473, -21, -15, 131, -96, 200, 163, -18, 31, -73, -72, -5, 495, 367, -49, -36, 60, 297, -194, -87, 58, 22, -40, -245, -199, 250, -130, 144, 84, 132, -23, 154, -40, -120, 85, 15, -132, -134, -61, -41, -214, 41, 97, 45, -78, -152, -130, 15, -67, 347, -8, -27, 107, -91, -92, 33, -36, 253, -32, 46, 113, 119, -106, 345, 317, 129, 64, -3, -48, 88, -57, 150, 46, -364, 5, 33, -257, 122, -355, 23, -117, 105, 68, -50, 47, -271, 34, -25, 64, -92, -9, -245, 116, 108, 17, 164, -76, -10, -66, -188, -202, 50, -115, 106, 1, 217, -39, 75, 10, 21, -82, -200, -10, 20, 98, 138, 84, -45, 92, 135, 14, -2, -78, -27, 28, 176, 230, -86, 39, -233, 63, -199, 70, 120, -120, -119, 72, 96, 85, 114, 27, 23, 10, 122, -82, 128, -9, 324, -57, -48, 8, 125, 155, -165, -117, 25, -9, -11, 60, 42, 188, 271, 92, -64, 24, 78, 78, -205, -138, -1, -108, -57, -102, 64, -18, -169, -36, 130, -59, -188, 28, 239, 1, 209, -168, 365, 64, 233, -13, -60, -153, -117, -104, 6, 390, -126, -192, 363, 418, 54, 226, -164, -95, -209, -107, 25, -264, -149, -153, 50, -54, 217, 296, 46, -231, -224, -185, -91, -88, 253, -260, -4, 308, 146, -75, 25, -98, 61, 84, 108, 104, 158, -222, 121, 297, 99, 157, -84, 452, -264, 118, -197, 52, -286, -14, 55, -172, 456, -155, 3, 21, 189, 182, -225, -112, -212, -202, 36, 10, 141, 285, 221, -47, 18, 240, 22, -1, 220, -132, 6, -193, -272, -233, -33, -245, 84, -344, 91, 76, -160, 118, -260, -105, 215, 189, -65, -95, 140, -106, 82, -204, -157, -9, -176, -105, -215, -553, 26, -13, 104, 78, -49, -57, -65, 46, 47, 134, 486, 3, 166, -175, 124, 22, 94, 305, 170, 53, -75, -42, 299, 24, -18, -144, 267, -149, -125, -91, 23, -206, -80, -72, -20, 151, -44, 302, -161, 2, 213, -221, 97, 135, -218, -132, 170, 140, 96, 363, 264, -28, -24, -399, -450, -171, -73, 256, 20, 192, -234, 76, 152, -508, -47, -22, 22, 55, -91, 118, -510, -147, 366, -337, -135, 164, -110, -271, -297, -260, 206, 282, -71, 103, -46, -24, 468, -136, 257, -208, 443, 23, 136, -32, 145, 109, -20, 102, 171, -84, -365, 46, 242, -113, 93, 155, -22, -50, 79, -71, -82, 252, 412, 250, -324, 13, -160, 201, -57, 230, 175, -138, 85, 56, -145, 53, -72, 312, -28, -145, 100, 161, 28, 41, -104, -212, 2, 195, 99, -273, 50, 32, 108, -173, 159, 66, 55, -203, -214, 69, -123, 48, -193, -154, -89, -68, 162, -2, 135, 27, -16, 126, -54, 18, 25, -149, 181, 163, 268, -260, 43, -108, 92, 36, -56, -150, -34, -151, 0, -35, -131, -27, 139, 20, -159, -21, 91, -32, -23, 168, -32, -157, -65, 105, -109, -44, 373, -173, -55, -118, -47, 124, -109, -7, -146, -9, -117, -178, 277, -164, 107, 240, 228, -74, 8, 65, -27, 3, -148, -75, -131, -98, 331, 33, 105, 219, -160, 96, -31, 59, 158, -125, 70, 5, -72, 21, 134, -39, -169, 494, -16, 74, -13, -2, -25, -76, 137, -24, -199, 136, -107, -41, 179, 186, -42, -106, -5, 39, -231, 34, -12, -28, -185, 60, 84, 248, -48, 296, -75, -31, 109, 132, 154, -175, -193, -83, -185, 29, 218, 13, -137, 110, 44, -101, -78, -113, 45, -86, 290, 75, -6, -79, 288, 36, 130, 158, 0, -388, 154, -140, -87, -111, -145, 129, -114, -98, -9, -155, 218, 70, -143, 129, -70, -47, -44, -25, -113, 61, 292, 250, -45, -13, 42, -105, 239, -96, -15, -35, -34, -117, 19, 130, 169, -20, 202, -89, -23, 119, -133, 215, 171, 167, -52, -5, 137, -19, -50, 62, 47, 162, 40, 138, -157, -156, 56, 111, 5, 35, -181, -24, 87, 308, -75, -25, 291, 202, 144, -38, 266, -186, -274, 99, -210, -111, -30, -155, -44, 123, 12, 93, 125, 27, -13, -270, -130, 11, 246, -83, -230, 18, -166, -29, -80, 278, -294, 174, 236, -295, -137, -240, -115, -340, 4, -122, 101, 106, 164, -122, -45, 236, 109, -100, -74, 13, 22, 168, 352, 88, 142, 399, 293, -12, 252, 93, -60, 164, -83, 45, 26, 66, 170, 60, -78, 57, -56, 172, 180, -229, -87, -18, 294, -110, -88, 66, 97, 79, 83, 93, 116, 24, 55, 33, 55, -138, 155, -77, 167, -96, -66, -15, -226, 145, -82, -26, 16, -105, -28, -173, -183, -104, -71, 99, 296, -47, -182, -72, -56, 12, 262, -48, -55, 11, -70, -208, -185, -526, -114, -229, -325, -361, 139, -274, 160, 167, -122, 115, -21, 22, -168, -194, -34, 142, 240, 276, 318, -384, -175, -1, 429, -45, 1, -169, 227, -121, 137, -287, 87, -115, 197, 415, 166, 66, -147, 84, -32, 174, 248, 88, 41, -111, -113, 192, 112, -17, -311, -366, -82, -120, -426, -41, -48, 124, 78, -184, 380, -314, -175, -48, 36, -130, 232, -31, 78, -287, 155, -227, -110, -22, -5, 40, -299, -25, 335, -122, -113, 23, -59, 64, 34, -100, -18, -29, 162, -186, -114, -164, 260, -95, -252, 263, 81, -220, -284, -190, -345, 76, 19, 165, 62, 160, 595, -53, -289, 223, -38, 164, 84, -160, 287, 4, -302, -184, -415, -332, -6, -407, 141, -65, -257, 1, 125, -33, -270, 326, -42, 8, -208, 89, 34, -207, -14, 339, -34, 306, 31, 138, -296, -93, 47, -250, 123, 155, 443, -301, 463, 13, 198, -103, -173, -100, -25, 341, -458, -197, -267, 215, -207, 94, 49, -249, 156, 375, -81, 286, 118, -120, -41, 31, 46, -248, -69, 173, -257, 742, -92, -19, -415, 36, -102, -70, 291, 234, 197, -70, 194, -281, -318, 117, -69, -292, -342, -117, 359, 141, -292, -10, 300, 210, -111, -40, -405, -357, -99, 89, -408, -59, 118, -236, -218, -166, 447, -147, -135, 179, -24, -91, 271, 466, 115, 162, 144, -134, -635, -392, 75, -41, -128, 67, -199, 234, 35, -122, 17, -281, -291, 103, -27, 395, -497, 228, 185, 94, 88, 38, -258, 139, -98, 384, -186, -357, 101, -32, 124, 332, -264, 166, -106, -156, -61, -131, 289, -156, -41, -115, 396, -171, 46, -201, 181, 127, -26, 375, -317, -37, -206, 25, -186, 20, 14, -101, 219, 215, 195, -59, -45, -55, -10, -281, -72, -60, -589, -91, 72, 99, -78, -161, 5, 24, 15, 243, -200, 24, 13, -30, 106, -505, -273, 217, -82, 111, -142, 110, 138, -204, 35, -59, 329, -69, -105, -136, 107, -222, -16, 208, 203, -67, 260, 31, -77, 68, 326, -101, 235, 256, 337, 183, -204, 259, 145, -20, 203, 141, -9, 73, -94, -1, 2, -88, 258, -99, -36, 116, -143, 171, 204, -90, 139, -98, 196, -12, -87, 121, -64, 8, 98, 62, 48, -233, 310, 51, -41, 110, -74, 156, -63, -305, -7, 51, 31, 126, -205, 197, 106, 423, 129, 84, 73, -122, -116, 302, 153, -229, 48, 92, 189, 109, -117, 139, -110, 93, 7, 80, -129, 188, 80, -177, 161, 133, -224, 139, 38, 358, -93, 182, 100, 50, -253, 183, 31, -26, 264, -293, 111, 20, -147, 78, 190, 94, -195, 0, 267, -137, -23, 206, -187, -7, -100, 302, 23, -87, 112, 36, -115, -161, -409, 187, -282, -164, 36, -172, -284, 43, 23, -169, -234, 94, 58, -76, 153, -86, -230, -395, 83, -5, -1, 236, 91, -299, 118, -358, 317, -264, -170, 322, 144, -182, 223, 60, 264, -385, -269, 276, -283, -61, 19, 64, -210, 73, 225, -97, 179, -147, 196, 50, 226, -477, 89, -153, -157, -19, -207, 75, -37, -47, 175, 406, 458, -475, -47, 86, 147, 50, -120, 303, 95, 412, -74, 191, 80, -6, 17, -27, -485, 305, 8, -279, 133, 276, -159, 160, 81, 508, 298, 43, 94, 39, -243, 391, -178, -79, 232, -73, -98, 4, 28, 57, 293, -399, -383, 192, 435, -156, 145, 280, -187, -86, -184, 262, 221, 178, 212, -195, 3, -124, -704, 296, -247, -350, 136, -139, -70, -213, 309, 133, -27, -24, -244, -169, -33, -267, 167, -400, 91, -34, 120, 35, 166, -487, 51, 86, 51, -119, -108, -74, -171, -292, -50, 175, -53, 46, 211, 136, -147, 62, 76, -34, 10, 32, -269, -270, 325, 240, 109, 291, 103, -328, -378, -26, 38, -120, 197, 154, 248, -136, 56, 230, 238, -115, -243, 152, 168, 203, -12, -150, -332, 307, 50, 81, -200, 24, 215, -98, 72, 24, -144, -359, -67, -400, -9, 33, -242, 255, -175, 182, 126, -323, -86, -81, -196, 216, 195, -88, -32, 32, 248, 7, -158, 31, -224, 322, -111, -93, 21, 38, 159, -20, 221, 6, -135, 118, 1, -216, -177, -8, -477, -178, -94, -257, -124, -72, 78, 77, -175, 62, 42, 202, -27, 268, 209, 101, 154, -25, -141, -167, 71, 56, -56, -192, -56, 145, -444, 154, 50, 98, 96, 200, 12, -102, 90, 138, 9, -175, -10, -309, 172, -64, 38, 82, 492, 61, 157, 179, 8, -175, -184, 183, -176, -205, 71, 4, -230, -152, 25, 45, 225, -13, -266, 358, -150, 4, 297, -67, 23, -7, 16, 4, -308, -83, -122, 106, 206, -32, -112, -173, -122, 137, 243, 96, 89, 184, -174, 115, -264, -88, -276, -119, 427, -28, -21, -188, -75, 76, 291, -46, -166, 146, -433, -30, 23, -367, 207, -68, -272, 26, 15, -151, 154, 47, -78, 61, -117, -54, -168, 261, 0, 15, 235, 8, -38, -252, -71, 254, -2, -60, -86, 5, 319, -113, 149, 31, -97, 157, 340, -258, 149, 118, 84, -307, -3, 68, -35, -87, 281, 135, 5, -20, 110, -177, 342, 14, 358, 406, -92, 67, 230, 2, 258, -134, -36, -12, -50, -181, 125, 209, -78, -390, 182, 319, 105, -188, -125, 180, -116, 433, -338, 323, -190, 106, -76, 334, 106, 36, 294, 47, 106, 185, 347, -31, -229, 197, 178, -58, 14, -237, -210, -184, -154, 238, -33, -134, 317, 8, 224, -403, -105, -458, 117, -229, 327, 84, -710, -170, 59, -349, 60, 295, -18, -198, -221, -143, 357, 152, -224, 101, -66, 52, 37, -169, 76, 41, -87, 79, -210, 147, -147, -233, -180, 289, -48, 112, -341, 192, -92, -160, -346, 33, 140, 42, -165, -191, -95, 141, 350, 154, -186, 15, 269, -49, -43, -51, 122, 63, 62, -248, -67, -223, 173, 22, -203, 205, 23, -33, -159, -62, -309, -95, -220, 88, 226, -196, -49, 316, -19, -168, 55, 14, -66, -313, 18, -122, 32, -103, -97, 167, 400, -144, 256, 38, -98, 123, -171, 33, -167, -108, 123, -98, 87, 77, -77, -171, 268, -65, -63, 222, -61, 108, 230, -43, 1, 126, -166, 89, -71, 202, -124, -339, -332, -132, 205, -76, -106, -31, 13, -146, 108, -135, -149, 51, -291, -309, -251, -123, 149, -97, 115, 56, 501, 14, 88, -148, -82, -267, -382, -133, -32, 205, -58, -25, -138, 182, -19, -64, 12, 98, 42, -135, 78, 340, 23, -35, -96, 249, -148, -156, -224, 311, 96, 55, -25, -78, 8, 7, 118, 283, 107, 193, -90, 34, 568, -7, 378, 168, 203, -25, 81, 59, 347, 120, 99, 104, -177, -160, 175, 26, 11, 44, 278, 215, 39, -29, 0, 96, -132, 125, -330, 333, -176, 322, 156, -12, 197, -84, 296, 152, 100, -81, 347, -33, -74, 303, -29, -96, -244, -260, -56, 15, -263, 363, -99, -49, 217, 48, 99, -322, 182, -131, 148, -72, 42, 42, -622, 57, 214, -146, -329, 156, 108, -188, -203, -328, 141, 338, -256, 561, -191, 52, 82, -128, 436, -114, 104, 78, 247, 235, -101, 11, 53, 6, -72, -71, -197, 98, 27, -417, -231, 444, 7, -429, -17, -325, -328, 78, 390, 146, -132, 73, -80, 48, 184, 79, 54, -164, -8, 43, -67, -147, 145, 116, 28, 99, -210, 114, -52, 136, -103, -71, -84, 111, -78, -28, -26, 83, -89, -200, 421, -160, -64, 51, -64, 85, 213, 100, -92, -41, -177, -14, 91, -66, 185, -48, 37, 29, -35, 68, -104, 33, -111, 157, 310, -208, 113, 3, 25, 52, 50, -215, -106, -127, 150, -115, 118, 190, 27, 243, -86, -82, -148, 201, -22, 217, 147, 120, -163, 156, 65, -19, 14, 90, 67, -87, -99, 40, 37, 170, -1, 5, -274, -117, 85, -168, -65, -115, 66, 81, -188, -1, -93, -103, 31, -50, 125, -45, 295, 81, -27, -61, 26, 43, -108, 149, 92, -66, -283, 1, 25, 52, 85, -178, -60, -289, -16, -49, -63, 139, -102, 1, 26, -138, -116, -72, 373, 33, 167, 31, 31, 53, 150, -17, 10, -109, -12, -31, 261, 22, -140, -217, 194, -268, -28, -201, -267, -4, -132, 75, 15, 30, 92, 22, -132, -205, -329, -150, 130, 80, -83, 75, -16, 90, -71, -82, 415, -238, -228, 233, -151, -270, 143, 106, 101, 519, 111, 305, 23, -287, -22, -350, -336, -159, 132, -44, 67, -201, -154, -145, 72, 211, 68, -316, -321, -135, 259, 120, -155, -89, 151, -40, 282, 321, 66, -194, 8, 88, 48, -218, -225, 136, 10, -64, -116, 34, -344, 160, 117, -397, -63, 148, 68, 101, 322, 8, 52, 60, 193, 57, -200, 16, -2, -85, -200, -56, 222, 128, -70, -318, 151, -301, 202, 195, -214, 361, 287, -84, 240, 32, -240, -136, -40, 70, 445, -79, 23, -155, -154, -49, -172, 291, 47, -114, -25, 50, -162, -24, 16, -105, 104, -263, -111, 592, 133, -259, 27, -68, -18, 36, -219, -233, 220, 28, 117, -174, 273, -120, 65, -102, -386, 298, 268, 115, 81, 198, -547, 223, -125, 71, -50, -152, 267, -40, -73, -29, -175, -53, 76, -258, -89, 76, -12, 193, -29, -72, -205, -18, -226, 11, 33, -318, 409, -143, 185, -246, 279, 61, -37, -58, 234, 7, 252, 168, 23, 26, -278, 100, 137, 101, 114, -29, 374, 25, 138, -105, -266, -57, 202, -38, -308, 445, -48, 125, 120, 227, 183, -20, 87, -32, -105, -63, -20, 94, 39, -136, -169, -83, 204, 150, -39, -228, 134, -57, 27, 115, -27, 70, -7, -110, 115, -148, -130, -9, -91, 158, -22, 89, 101, -113, -42, -50, 80, 105, 193, -92, -168, -62, 99, 53, -107, 57, 69, 42, 116, -107, -17, -5, 78, 29, 43, -89, 6, -141, 145, -155, 91, 66, 7, 155, 48, -29, 108, -118, -28, 12, -98, -106, -117, 182, -179, 141, 193, -100, 136, -33, 38, 20, -81, -66, -92, -191, -210, -127, 51, -93, -118, 53, 156, 103, -35, 37, -83, 66, 32, 108, 158, -106, 206, -33, -17, 42, -44, -38, -133, -30, 9, -116, -246, 44, 71, -48, 120, -18, 93, 216, -124, -145, -36, 122, -158, 15, 64, 125, -152, 28, -152, -199, 1, 176, 160, -198, -129, -189, -109, -180, -34, 34, -276, 118, 230, 54, -100, 131, 44, 234, 234, 222, -67, -72, 14, 145, -83, -53, 222, 235, 50, 164, 55, -53, -1, -116, -24, 41, 56, -120, -39, 93, 264, 93, 114, -241, -273, -150, -1, -312, 107, -52, -101, 202, 13, -84, 241, 66, 88, -36, -85, 15, -222, -70, -151, 54, -178, 101, 177, 103, -126, -166, 200, 120, -34, -120, -479, -206, -211, 30, 58, -149, -53, -120, -73, -70, -21, -35, 21, -39, 218, 37, 109, 15, -124, 74, -76, 106, -39, 74, 19, -197, -385, 21, 100, -63, 37, -98, -734, 17, 224, 95, 31, -122, 51, 663, 384, 80, -47, 6, 6, -91, 23, 118, 59, -151, 1, 217, 204, 111, 197, 93, 87, -195, -515, 165, 297, 3, -177, -28, -191, -18, -173, -33, 122, 73, -12, -86, -173, -359, -53, -212, 234, -31, -5, 14, -115, -93, 81, 289, 206, -353, 368, 123, -43, 168, 148, 48, 289, 398, -291, 105, 122, -76, -147, 224, -82, -98, -69, 101, 297, 101, 4, 80, 103, 151, -186, -370, 107, -108, 342, 104, -187, -135, 323, -13, 231, 156, -159, -1, 298, 116, 61, 63, 141, 121, 26, 203, -1, -359, -125, 447, 131, -347, 101, -130, 110, -115, 34, -45, -301, -47, 283, -8, -175, -137, -198, 37, 0, 0, -4, 63, -18, -278, -150, -280, 52, 243, -71, 238, 350, 210, -166, 135, 14, 4, 18, 113, 130, 232, 30, 305, 231, -103, 70, 330, 48, -245, -111, -169, 17, -162, 5, -224, 346, -241, 162, 411, -90, -32, -18, 316, -22, -83, 9, -30, -116, 238, -162, -305, 139, 373, 176, -118, -157, -69, 275, -24, -53, 100, -415, -34, -169, 252, -100, -92, -166, -193, 137, -42, -350, -187, 45, -202, 75, -506, 48, 329, -410, -510, -340, -61, -330, -91, 30, -272, 382, -168, 86, -297, 69, -95, -267, 81, 74, -6, 137, -25, -325, 6, 143, -81, -150, 148, 37, -193, 231, 209, 159, -181, 85, 309, -166, -26, -270, 288, -17, -15, 204, -93, -188, 49, -253, -274, -213, -466, -114, -84, -506, -146, 63, -295, -296, 68, -306, 153, -264, -84, -120, -217, 125, 216, 244, 4, 212, -84, -244, -255, 201, -133, 155, -18, 79, -202, 304, -3, 336, -270, -46, 104, -54, 147, -327, -12, -40, 216, -157, 170, 0, -167, 306, 413, 59, 505, 119, -369, -24, -47, -187, 34, 26, 84, 18, 301, -39, 145, -374, 59, -44, -144, 510, -58, -64, 122, 156, -388, -166, 67, 74, -107, -123, -340, 79, -48, -56, -56, -85, 39, -223, -133, -289, -209, 178, -88, -212, 279, -155, -462, -99, 98, 196, -84, -4, 142, 56, -234, -106, 264, -69, 139, 363, 50, -407, -4, 355, -139, -108, 14, 277, 340, 38, -81, -142, -42, 6, -8, -152, -151, -325, 216, -96, -29, 136, 156, -18, 139, 139, -28, -316, 141, 4, -37, -57, 58, 243, 22, -290, 238, -25, 164, 220, 51, 369, -268, 86, -371, -108, 306, 223, 133, -170, 178, 165, -1, -193, -131, -150, 80, -7, -134, -269, 97, 250, -188, 167, 36, -145, -415, 22, -393, -1, -77, -313, 160, 124, 13, 19, -140, 47, 128, -112, -153, 81, 20, -195, 51, -318, 304, 384, 236, -332, -336, -6, -134, 121, -102, -138, -220, -273, -129, -108, 6, -172, -256, -6, -67, 224, 247, -120, 81, 287, -181, 42, 8, -62, 168, 149, 19, 127, 124, -142, -23, -314, -53, 351, 121, 111, -60, -22, -520, 113, 3, -81, 100, -95, -189, 73, 21, 260, -125, 36, 109, -180, -68, 34, 221, 44, 80, -10, -51, -253, -118, 197, -102, 54, -148, 131, -182, 163, 56, -133, -140, -277, 297, 17, 137, 109, -366, -102, -12, 112, -63, -161, 302, 197, 235, -20, -77, -161, -28, 250, -37, -463, 221, 107, -68, 189, 430, -130, 278, 169, 209, 124, 5, 23, -98, -302, 23, -27, -32, 125, -104, -1, -61, 43, -61, 250, -368, -317, -246, 341, 261, -76, 154, -204, 88, 29, 248, 219, 108, 118, 41, -4, 142, -418, 289, -193, -31, 10, 67, -404, -104, 156, -40, -50, -129, -110, -58, 10, -195, 150, -34, 110, 127, -236, 51, 26, 18, 40, -386, 8, -215, 43, 374, -7, -123, 357, 353, 177, -131, 223, 136, -268, -98, 85, 275, -177, -10, 30, -189, -6, -224, 73, -57, 255, -208, -48, -138, -50, -247, -193, -36, -336, 435, 27, 122, 177, -294, 54, -82, 129, 45, -140, 350, 348, 264, 249, -53, 47, -385, 353, -179, -578, 314, -51, 17, 190, 464, 2, 411, 163, 57, 266, -347, -26, -394, -332, 54, -82, 303, 106, 47, -139, -98, -17, 159, 395, -393, -559, -349, 608, 307, 113, 262, -62, 114, 350, 126, 410, 21, 12, -49, -27, 269, -329, 316, -358, -334, 4, -113, -308, 25, 111, -57, 78, -44, -215, -126, -112, 27, -54, -70, 43, -142, -188, -74, 201, -116, 30, -199, 121, -190, 39, -211, -233, -262, -345, 190, -108, 194, 234, 18, 57, -315, 130, 26, -18, 178, 58, -190, -230, 259, 278, -200, 259, -349, 1, -536, -125, -300, 27, -306, -57, -98, 284, -255, 373, 137, -308, 135, 54, 180, -117, 260, 237, 18, -406, 282, -8, -114, 16, 305, -269, 377, -91, -516, 90, -135, -93, 545, -331, 183, -37, 95, -281, 13, -116, 9, -143, 257, 78, -332, 97, 71, 32, -310, -157, -5, -376, -423, 169, 101, -114, -228, 166, -53, 131, 7, 127, -220, 139, -32, 71, -226, -226, 312, -61, -296, -206, -215, 4, -105, 375, -20, -121, 158, 1, 142, 399, -11, 228, 78, -64, 232, -97, -1, -78, 130, -59, -567, -74, 179, -92, -212, 207, -334, -2, -390, -153, 37, 11, -123, 296, -8, -4, 18, -43, -32, 110, 208, -14, -185, 137, 349, -286, 226, 151, -213, 23, -73, -198, 172, 35, 198, -62, -209, -248, 372, -208, -145, -243, -478, -53, -80, -262, -187, 187, -278, 0, 156, -28, -146, -304, -169, -192, 160, 353, 366, -48, 221, -115, 71, -29, -185, -8, -108, -162, -16, -82, -3, -41, -121, 142, -317, -57, 236, -191, 48, -24, -12, -123, 79, 138, -74, 62, -183, 411, 30, -138, -168, 57, -191, -38, -354, 219, 34, 185, 220, 58, -60, -245, -51, 91, -252, -318, 210, 1, 15, 206, -37, -229, 60, 109, -184, -189, 237, -116, 242, 38, -73, -185, 162, 18, -37, 201, 6, 70, -241, 64, -157, 81, -69, 136, -191, 0, -50, 159, -273, 45, 316, -168, -60, 129, -118, -52, 199, 117, 151, 155, 74, -134, -133, -45, -44, -136, 40, 145, -23, -94, -92, -60, -187, 20, 97, 27, -181, -194, -81, -109, 417, -161, -112, -172, -174, 81, -227, 53, 107, -28, 207, 150, 83, -62, 66, 213, -22, -205, -32, -34, 98, -97, 60, 276, -43, -204, 70, -9, -10, 129, 112, 17, -61, -273, 45, 94, -131, -171, -12, -168, 33, -233, -141, -85, 205, -33, 255, -37, -182, -9, 40, -108, 175, -26, -13, -113, -32, -109, 33, -97, 128, 17, 174, 171, -77, 228, 62, 269, -35, 1, 44, 87, 85, 70, 40, -170, 52, -30, -65, 248, 195, 370, -77, -64, 62, -191, -112, 212, -102, -146, 25, 210, 148, -202, -34, 48, -66, -111, 81, 178, -280, 49, 189, 144, -225, -7, 266, -221, -11, -158, 124, 80, -93, -123, -84, 100, 47, -1, -408, 17, -41, 18, -503, 102, -79, 243, 177, -140, -180, 111, -55, -31, -145, -211, -178, -250, 72, 388, -194, 141, 13, 148, -188, 20, -166, -66, 147, 95, -70, -276, 114, 97, -83, 271, 120, 53, 249, -279, 50, 49, -14, -2, -2, 103, 107, -72, -38, 182, 48, -54, 103, -70, 22, -44, -220, -139, 364, 1, -62, 85, 47, -12, -190, 60, -261, -54, -138, -149, 108, -108, -59, -39, 301, -84, -35, 279, -37, -360, -447, -314, -85, 334, -82, 105, 323, 209, 209, 252, -232, 235, 232, 88, -22, -21, -5, 21, 110, 3, -91, -227, -248, -262, 177, 214, -166, 17, -334, -64, 284, 145, 214, -120, 191, -269, -216, -134, -241, -385, 122, -99, 42, -128, 214, -68, -442, -46, -523, -127, -36, -114, 191, -86, -145, 19, 232, -48, 174, 58, -236, -229, -87, 204, -179, 49, 118, 12, -478, 24, 199, 10, 95, -323, -127, -57, -120, 56, -255, -3, 261, 33, -28, 51, 610, -144, -205, 92, -48, -190, -156, 48, 35, -81, -215, -332, 160, -116, 173, -40, 135, -48, -126, -82, 142, -214, 286, 252, 149, -92, -200, 24, 7, 49, 149, -206, -295, -89, 203, -186, 26, -91, 19, 262, -35, -238, 310, -272, 116, -46, 26, 79, 147, -235, 67, -132, -33, -83, 92, 260, -375, 21, -279, -181, -54, 21, -173, 128, 204, -359, 24, -23, 29, -217, 171, -312, -141, -101, -42, -151, 335, 179, -300, 56, 30, -44, 2, 120, 101, -73, 100, -256, -96, -1, -5, 18, 213, -236, 149, 45, -202, 305, -82, 285, -183, -81, 155, -25, -57, 244, -54, 1, -146, -203, 143, -31, 195, -8, 261, 178, 192, 98, 236, 197, 422, 201, 41, 30, -152, -195, 99, -6, 94, -219, -260, -24, -62, -224, 305, -75, -65, 144, 46, -158, -98, 284, 31, -197, -77, 194, 16, -3, 278, 48, 120, 52, 150, 197, -93, -181, 31, 57, 296, 14, 391, -63, 193, -22, -41, 84, 38, 68, 49, -25, 156, -173, 121, 83, -96, 1, -483, -148, 51, 114, -35, 14, 48, 102, -181, 206, -158, 37, 45, 43, -34, 17, -237, 1, 38, -163, 192, 142, -195, 52, 99, -38, -102, 158, 8, 449, -206, 162, -110, 172, -70, 202, 204, -273, 289, 229, -263, -127, 103, -96, -71, -373, 100, 96, -140, -267, 152, -108, 83, 123, -52, -40, -43, -181, -201, -1, -182, -42, 114, -228, -67, -72, 58, -13, 108, -35, 297, -122, -125, -78, 73, 117, 86, -3, -38, 33, 359, -131, 51, -218, 73, -176, 174, 26, 100, -109, 16, -143, 488, 281, -210, 153, -6, 83, 62, -453, -70, -136, 138, -407, 330, -3, 14, 144, -139, -208, 46, -114, 240, -363, 237, -67, -146, 99, 277, 41, -509, -82, 2, -83, 114, -164, -264, 317, -231, 142, -88, 128, 386, 110, 485, -420, 8, -75, -432, -143, 262, 20, -123, 1, 220, -22, -545, -41, 4, 110, -311, 101, -22, -307, -71, 121, 535, -449, 8, 53, 119, 218, -24, 119, -357, -279, 369, 147, -495, 41, 378, 233, 92, -311, -163, -172, -82, 248, 76, 19, 131, -161, -100, -110, 719, -222, -279, 194, -101, -98, 75, -296, 21, -350, -41, 28, 315, 27, -196, 248, 212, -145, 263, 54, -111, -162, 116, -64, 284, -105, -161, 33, -79, -98, 100, -16, -1, -191, -82, -101, -71, 62, 114, 37, -21, -254, 114, 132, -89, 102, -123, 226, 54, -261, -155, -226, -71, -87, 1, 96, -463, -72, -95, 12, -11, 37, -234, 21, 26, 98, 94, -143, 35, -21, 122, -326, -214, -279, 137, -119, 186, 102, -37, -69, -2, -138, -235, 99, -84, 46, -82, -69, -48, 95, -216, 196, 229, -421, 100, 152, 166, -158, 62, -77, -154, -164, -9, 186, -289, -119, -316, -33, -253, -284, 7, -216, -74, -197, -16, 115, 34, 189, 212, -43, 342, -171, -58, 355, -178, -207, 93, 57, -121, -48, -127, -43, 5, -114, 43, -5, 324, 130, -44, -172, 114, -159, 216, -79, 106, -106, 111, 7, -37, 193, -10, -2, -253, 46, -319, 91, 39, 7, -11, -32, 155, 9, -22, -134, 167, -13, -56, 108, 51, -89, -139, 10, 136, 44, 135, 35, -46, 89, -179, 79, 110, 259, 92, -90, -143, -187, -61, -317, -58, 171, 75, -158, -403, -46, 159, -180, 143, -36, 68, 40, 6, -57, 139, 55, 208, 58, -45, -66, 15, -251, 49, 142, -138, 35, -15, -15, -376, -72, 210, -386, 32, -265, 175, -149, 92, 279, -184, -40, 77, 191, -374, 31, -102, 321, 28, 65, -72, -128, 251, 91, -267, 170, -44, 135, 18, 351, 99, 210, -22, 163, 29, 34, 17, 170, -25, -248, -37, 369, -292, 205, 181, 241, -15, 20, 203, 334, -96, 74, -268, 89, 72, 215, -460, -54, 3, -324, 314, -309, -243, -127, -26, -157, 182, 80, 199, 396, 303, 224, -497, -293, -260, 51, -274, -128, -133, -95, -97, 35, 375, -73, -33, -54, 167, 16, -476, 399, -9, 295, 266, -218, 422, -273, -138, -77, -42, 148, 190, 60, 100, -358, 32, 122, 181, 10, -164, 278, -138, 171, 42, 50, 72, -159, 334, -110, 159, -18, 108, -267, 466, -48, 319, -3, 270, 418, -502, 140, 82, 435, 193, -92, -119, 222, -252, -134, -82, 40, -242, 139, 235, 56, 24, 84, 75, -29, 312, -17, -406, 67, -1, 109, -546, -108, -11, 313, -327, -101, 321, 149, -93, 341, 7, 53, 279, -91, 31, 414, -449, 32, -29, -184, -110, 47, 362, 22, -50, 63, 51, 298, 26, 129, -343, 280, -248, -92, -325, -119, -244, 96, 27, 196, -31, 83, -91, -83, 61, -125, 165, -166, -83, 188, -51, -319, -3, -56, 271, -40, 190, -155, -50, -160, -158, 337, 32, -186, -83, 416, -184, 53, 193, 144, -98, 332, 103, 68, 103, -358, 109, -161, -7, 278, -25, -13, -229, 112, 168, 192, 269, -141, -206, -214, -126, 148, -424, -201, 90, -266, -18, -465, -66, 34, 397, 44, 331, -391, -56, 31, 231, -175, -327, -25, -306, -19, 94, 3, 7, -256, 149, -156, 119, 24, 194, -106, -24, -53, 32, 55, -78, -155, 136, 9, -113, 27, -170, 281, -251, -265, 193, 20, 162, 156, -62, 23, 131, -116, -163, -66, 105, 169, 4, -119, 22, 103, 43, -37, 209, -111, 46, -170, -82, 78, 114, -45, 171, -3, -303, 30, 146, 41, -3, 220, 66, -229, 29, -198, 102, -296, 124, -71, 49, 238, -50, 29, -84, -84, 169, 68, -73, 112, -77, 79, 77, -108, 30, 71, 118, -2, 18, -99, -113, -70, 106, 246, -167, 295, -27, 95, -70, 224, 55, -35, -135, -144, -111, -126, 176, -205, 47, -194, -126, 351, 47, 112, 66, 10, 45, 72, -98, 15, -151, 157, -272, 50, -218, -123, 11, 226, 4, -20, -26, -3, 158, 77, -129, -11, 91, 53, -77, 131, -94, -87, -88, 118, -3, -31, -149, -279, 225, 152, -33, -191, -14, -96, 6, -81, 143, -4, 452, 14, -150, 152, -144, 74, -70, -69, 197, -88, -81, 48, 60, 269, -33, -51, 32, -55, -526, -27, 161, -218, -86, 141, 163, -118, 41, -114, 357, -354, 124, 59, -16, -87, -318, 141, -51, 46, 413, 220, 58, -14, 33, 8, -74, 350, 143, -27, 15, -62, -211, -270, -274, 16, -70, 115, -440, -220, -138, 260, -18, -116, 55, -175, 171, -38, -493, -160, 87, 93, -111, -224, -88, -208, 212, 72, 135, -279, 201, 26, -50, 29, 152, 192, -534, 424, 56, 61, -235, 81, 267, -119, 325, 25, 355, 12, -394, 48, 278, -248, -169, 394, -23, 33, -90, 196, 65, -150, -47, 110, 87, 229, 203, 182, 119, -10, -96, -47, -81, -106, -248, -312, -274, 181, 40, 50, 433, -25, 24, 177, -110, -25, -82, 261, -259, -197, -45, 50, -251, 27, 202, -135, -92, 75, 141, 348, 108, -31, -54, -60, -159, 83, 401, -340, 98, -153, 10, -52, 120, 203, -178, -134, 18, 140, -97, 99, 95, 3, 88, -64, -9, -397, -189, 83, 134, -63, -168, -64, 11, 285, -397, -211, -106, -36, -307, 191, 42, -108, -37, 61, -257, -77, -78, 184, -291, 387, -30, 186, 329, 182, 17, 0, 88, 208, -124, 171, -440, -70, 17, -90, 122, 54, 210, 218, -66, -340, -117, -68, 462, -421, -187, 237, -90, -280, 94, 1, 52, 195, 134, 278, -259, -166, 119, -194, 24, 81, 169, -147, 31, -20, 241, -51, 145, 149, 128, -267, 240, -239, 37, -94, -7, 281, 252, -70, 61, -80, -36, -78, 213, 236, -84, -18, -295, -72, -251, 129, -260, 302, 191, -34, -137, 6, -61, -352, -12, -92, -18, -332, -86, -100, 199, 269, -61, 182, -34, -170, -154, -114, -138, 258, -219, -210, -71, -114, -49, 250, 102, -601, 23, 10, 9, 123, -37, -235, 10, -72, 65, 37, 29, -172, -145, -156, -166, -52, 110, -126, 195, 21, -87, 27, 220, 20, 15, -13, -111, -29, 3, -59, -77, -102, 444, -40, 222, -176, -110, 299, 147, -288, -3, 99, 235, -117, 192, -48, -330, 68, 147, 18, 11, -111, 42, 208, 40, 81, -239, -126, 363, -23, -19, 99, 110, 241, -99, -7, 28, -70, 77, -277, -169, -382, -165, -48, 253, 78, 255, -100, 63, -42, -43, 104, -141, 70, -82, 211, 61, -161, 67, 145, 320, -112, -2, -278, -52, 138, -320, -130, 142, -88, -152, 127, -221, 2, -14, 150, 74, 50, -53, 73, 392, -170, -168, -12, -61, -117, -62, 96, -225, 145, -47, 168, 4, 184, 63, -24, -201, -35, -209, 140, 65, -164, 105, -329, 14, 29, -72, -91, 319, -69, 263, 264, 55, -48, -107, -118, -180, -55, -76, -296, -37, -12, 186, -258, 57, -249, 132, 385, -59, -132, -12, 95, 113, -79, 217, -162, 29, 78, -81, -47, -82, -173, 234, 67, 120, 188, -85, 40, -297, -283, 34, -268, 122, 247, 191, 92, 134, -94, 250, 89, 23, -83, -88, 37, -174, -145, -21, -292, -95, 236, -193, 167, -37, -154, -88, 345, 121, 36, -109, 53, -43, 116, -197, -19, 116, -162, 169, -26, -92, -75, 125, 95, 9, 189, -15, -82, -187, 398, 252, 212, 186, -34, -266, 249, -441, 17, -202, -3, -65, -171, -62, 92, 17, -217, 50, 255, 130, -156, 105, 193, 101, 225, -149, 132, -132, -201, -82, 153, -147, -28, 418, -27, -116, 202, 229, 30, 163, 53, -40, -108, -164, -58, -40, -172, 18, 109, -27, -77, -43, 11, 90, -115, 13, 59, -108, -287, -216, -152, 170, -119, -115, 72, 32, -133, -14, -109, 273, -224, -17, -115, -59, 2, 74, 122, -237, 114, -303, 170, -45, -118, 66, 499, -246, -149, -339, 242, -169, -88, 18, -182, 318, -374, -79, -83, 90, -6, -330, -171, 60, 165, 94, -151, -329, 150, 28, -114, -90, -111, 212, 132, 408, 199, -373, 103, 90, 259, 178, 19, 215, 633, 82, 114, 285, 280, -126, 486, -69, -375, -261, 93, -196, 9, 192, -39, -93, 75, 188, 214, -83, -2, -273, 131, -153, 39, -121, 191, 263, 448, 416, -310, 462, 49, 151, -156, 35, -196, -146, 211, 87, 114, 122, 30, 249, 177, 16, -171, 52, 117, -78, -205, -7, -222, -120, -470, -11, 165, -64, 225, -54, 97, 145, -7, -192, 132, -245, -116, 16, -53, 384, 113, 265, -116, -17, 235, -134, -92, -488, 201, -16, 121, 99, 55, -179, 42, -46, -142, 10, -74, -169, 39, -151, -70, -5, -1, -80, 241, -97, -204, 96, 89, 332, -130, 253, 20, -180, 51, -221, 349, 273, -87, -89, -82, 71, 121, -80, -99, -179, 169, 251, 55, 45, -346, 328, 99, -167, 382, -170, 17, -34, 300, 146, 166, 208, 57, 9, 248, -14, 178, -330, -99, 448, 96, -177, 55, 138, 62, 261, 85, 297, -364, 95, -75, 269, 104, -2, -94, -132, -140, 112, -268, -98, -231, -120, 27, 7, -99, 314, -243, -180, -170, -282, -147, -416, 120, 56, -138, -107, -120, -247, 217, -302, -99, 261, 33, 121, 100, -41, -327, -320, -118, -233, -262, -145, 221, 3, 7, 116, 249, -143, 414, 35, 127, -145, 11, 264, -107, -192, -51, -60, 121, 233, -8, -689, -97, -98, -433, 85, 327, -6, -7, -117, 24, -126, -290, 235, -111, 293, -351, 66, -28, -308, -216, 72, 5, -245, -16, 4, -87, -191, 135, -111, -73, 31, -122, 210, -143, -124, -259, 464, -79, 194, 154, -245, -17, -328, -153, -386, 88, 211, -328, -307, 201, 91, 4, -28, -84, 108, -263, 47, 52, -73, -37, -170, -251, -270, -153, 360, 120, -222, 104, -10, 101, -63, 242, -303, -49, -155, -146, 217, 282, 648, -30, -88, 131, -220, -439, 24, 177, 51, -205, 364, -165, -73, 350, 68, -186, 6, -602, 59, -46, 137, -21, -217, 80, -98, -169, -194, -81, -381, 230, 143, 189, -74, 310, 212, -276, 170, 84, -271, 102, -264, 234, -245, -90, -116, -307, -102, -118, 39, 65, 74, -7, 24, -140, -29, 252, -186, -92, 111, 153, -164, -543, 349, 110, 106, -279, 198, -284, -1, -151, -45, -27, 196, -118, -59, 312, -88, -140, 173, -81, 15, 40, 49, 417, -160, 153, -292, 246, 77, -257, -158, 169, 14, 36, -215, -122, 215, 20, 126, -191, 28, -62, 320, -225, 30, -66, 123, -130, -60, 208, 26, -31, -207, 286, -207, -53, -111, -19, -25, -27, 8, 141, -87, 31, 4, -22, -125, 113, 28, -70, 88, -253, 176, 150, -211, 343, 171, 181, -131, 144, -142, 23, -60, -90, -53, 67, 43, -85, 204, -74, -409, -349, -12, 77, 273, -449, -68, -49, -49, 24, -202, 268, -71, 21, -43, 50, -36, 57, -281, 103, 363, -86, 191, -322, 152, -17, -179, 13, 12, -305, -550, 69, 82, 332, -266, -146, -285, -8, 55, -312, -110, 1, -274, -9, -16, -335, -105, 97, 26, -263, 34, 93, 94, 99, -374, 177, -415, -83, 75, -133, 2, -96, 10, 40, 225, 158, -245, -196, 296, 120, -98, -96, -69, 126, -766, -98, -161, -60, -52, -127, 117, -71, 80, 217, 195, -92, -376, 324, 141, -136, -84, -224, 57, 119, -76, 90, -22, 46, -20, 57, -124, 42, 164, -86, 288, 267, 0, -123, -378, 100, -236, -339, -120, -149, -172, -296, 273, -99, 202, 194, -198, -335, -57, 295, 339, -215, -260, 134, -140, 98, -129, 294, -547, -49, 67, -172, 41, 45, -193, 227, -222, 283, -78, -54, 315, -237, 226, -222, 55, -284, -290, -136, 300, 140, -188, -187, 284, -50, -362, -217, -100, 296, -243, -205, 180, -227, 33, -27, 249, -338, 70, -105, -30, 149, -105, -91, -268, -205, 66, 34, -435, 16, 362, 74, -114, -145, -239, -68, -32, 82, -188, -22, -106, -246, -349, -81, 108, -5, -283, 184, 108, 97, -47, -125, -83, -1, 73, 303, 367, 192, -356, 20, 254, 60, 71, 32, 66, 156, 581, -29, 370, 17, -428, 61, 253, -91, 129, -495, 44, 78, -237, -62, -381, 74, -91, -89, 232, -62, 47, 196, -327, 131, -92, 396, 132, -225, -74, 123, -85, 173, 227, 147, 90, -68, -78, -151, -268, 96, -405, -56, -147, 12, 61, -56, 142, -12, 54, -8, -61, -19, -394, -367, 220, -24, 185, -78, 125, -129, -332, -131, -317, 183, -63, -45, 24, -50, 32, -142, 418, 27, 167, -115, 76, -147, -440, 21, -235, 196, 44, -312, -20, -41, 4, 14, -201, 120, 10, -198, 115, -78, -265, -59, 1, -90, -310, 106, 107, 13, -98, -62, 237, -211, -164, 63, -202, -104, -6, 74, 182, -82, 87, 171, 93, 96, -27, -373, 148, -43, -86, 29, 56, -196, 35, -66, 123, 238, 82, -181, -188, 59, -8, 267, -60, 71, 19, 68, -47, 188, -23, 179, -222, 353, -102, -273, 86, 57, 430, -163, -58, 73, 178, -415, 388, 441, -174, 58, -150, 71, 0, -95, 306, -339, 222, -168, 45, 225, -286, 332, -99, -105, 177, 43, -360, 123, 128, 110, -96, 111, 270, 125, 118, 56, -191, -83, 38, -35, -51, -475, -202, 46, -112, 267, -1, 616, -250, 50, -236, -54, -95, -189, 365, 170, 125, 238, 157, 67, -57, 81, 194, 388, 299, -358, 86, -170, -255, -298, -186, -143, 135, 221, 56, 345, 115, -94, 126, 220, -229, -155, 15, -57, 342, 244, 68, 203, 228, 332, -110, -74, -472, 122, 122, -261, 228, 68, -150, -168, 15, 185, -266, 235, 57, -370, 158, -478, 243, 28, 238, -159, 147, -205, 44, 311, 177, -141, -14, -305, 25, 161, 2, 130, -27, -44, 73, 49, -111, 122, 365, -31, -222, -152, -322, 71, -68, 228, -152, -329, 192, -145, -175, -91, -123, 141, 78, 4, 254, -202, -35, 51, -83, 24, -100, 400, -320, -120, -87, -194, 35, -135, 193, -227, -110, -20, -118, -185, 327, -128, 123, -134, 419, 39, -22, -23, 96, 127, 29, -207, -310, -23, -256, 24, -215, -40, -24, 114, 530, -66, 268, 163, -43, 71, -81, 204, -184, -69, 263, 168, -391, -2, 138, -67, 220, -290, 148, 144, -149, 123, 323, 103, 224, -177, 72, 539, -142, -64, 21, -27, -14, -132, -4, -44, -69, -75, -35, 203, 102, 58, -121, 53, 194, 123, 291, -190, -91, 151, 29, 341, -133, 103, 13, 20, -72, 146, -72, -129, -40, 206, 303, 95, 115, 90, -132, 107, -63, 13, 119, -98, 285, -104, -168, -170, 177, -24, 100, -126, -362, -50, 13, -105, 96, -19, -203, -50, 181, -42, -64, 109, -295, 299, 129, -134, 28, -30, -182, -80, 24, 144, -203, -169, -198, 173, 213, -83, -41, -116, -40, -138, 3, -134, -100, -240, -35, 74, -84, -63, -122, 24, 135, -189, -78, -84, -91, -135, 57, -170, 69, -35, 216, -239, 7, -21, -85, -110, -95, 34, -136, -338, -202, -105, 209, 5, 33, 11, -127, -130, 17, 188, -104, 220, 216, 82, 4, -11, 67, -6, 205, -90, -272, 18, 222, 116, 128, -137, 40, -87, 91, 321, -69, -7, 178, -7, -346, 131, 270, 121, 38, 179, 286, -391, 247, -141, 28, 51, 215, -128, -64, 285, -183, 556, 26, 56, 19, -83, -128, 40, 154, -143, -70, 114, 138, -291, 19, -82, -129, -99, 78, 39, 125, -3, -446, 214, 68, 4, 216, -68, -92, 199, -281, -119, -443, -16, 650, -141, -4, -262, 103, 75, -37, 84, -112, -82, 28, 46, -43, 23, -304, 8, -517, -105, -158, -76, -113, 80, -9, -151, 315, -58, 246, -129, -122, 247, -200, 50, -190, 186, -41, 31, -197, 355, 15, -192, -240, -12, 24, 148, -28, -185, -91, -44, 452, -304, 41, -6, -5, -95, 327, -16, 70, -91, -203, 465, 79, -268, 243, 8, -69, 197, 93, 72, -234, 170, -325, 172, 118, -64, -14, 95, -18, 197, -109, -82, 85, 189, 211, 44, -177, 173, 162, -58, -69, 62, -152, -121, 93, -251, 83, -261, -84, -38, 27, -650, -226, 4, 176, -284, 117, 6, 72, 94, 98, 211, 115, 72, 320, 47, -100, 155, -34, -16, 203, -39, 177, -177, -717, 0, -618, -65, -205, -265, -209, -331, -31, -65, -119, 293, -15, 209, -55, -299, -111, 175, -151, -233, -601, -174, -116, 194, 54, 198, 88, 231, 101, 393, -92, 77, -122, 238, -145, -283, 138, -252, -34, -323, 475, 123, 91, -319, -130, 238, -61, -139, 184, -157, -145, -286, 53, -229, -2, -144, -100, -24, 220, 76, 184, -519, -6, 163, 23, -294, -21, -95, 8, -99, -153, -105, 96, -152, 254, -88, -53, -15, -113, -308, -137, 315, -54, 191, 247, -79, 317, 328, 70, -200, 16, -21, -173, 200, -229, -278, -235, 649, 186, 173, 131, 108, 38, 245, -44, -170, 82, 101, -136, 150, 92, 555, 376, 326, 66, 75, 417, 88, 260, 534, -35, 35, -164, 23, -282, 299, 353, 136, -247, -296, 253, 113, 334, 192, 295, 8, -49, 63, -13, 82, 6, -16, -197, 280, -384, -43, 41, -98, 314, 28, -202, -157, 150, -17, -527, -134, -279, -99, -257, -175, -22, 77, 115, 13, -12, -94, 99, 39, 6, 167, 184, -13, 11, -98, -176, 160, 53, 69, -8, 31, 76, -111, 195, 56, 58, 39, -126, -88, 239, -74, -102, -248, -221, -88, -167, 292, -50, 111, -54, -182, 197, 7, 361, 131, -15, -53, 121, 34, -224, -215, 84, 104, -140, 209, -2, -150, -222, 87, 64, 58, 109, -57, 0, -24, -243, -112, 93, 28, 293, 127, 7, 85, -143, 191, -120, -22, -78, -265, -191, 145, 136, 37, 82, 12, 72, 220, 249, -117, 237, 275, 237, 12, -59, -152, 109, -189, 243, 40, 39, -210, 123, 292, 26, -116, -231, 319, 38, 31, -160, 20, 4, -210, -9, -59, -65, 0, 80, 55, -20, 31, 2, 225, 240, -6, -127, -59, 487, 85, 160, 125, -179, -56, 90, -102, -152, -152, 84, -66, -35, -338, -38, -74, 19, 191, 315, -300, 64, 211, -155, 134, 29, -129, 58, 9, 72, -198, 14, 197, 47, 8, -90, -79, 27, 258, -106, 196, 101, -62, -227, -103, 27, -81, -45, -157, -91, -170, 100, -187, 247, -81, 72, 44, 56, 132, 30, -133, 132, 103, -34, -21, 326, 294, -106, 165, -244, -202, 13, 224, -39, -399, -63, 69, 32, -91, -236, 47, 186, 123, 151, -105, 161, -25, -173, -18, 42, -412, -62, -31, -207, -160, 107, -190, 51, -288, 300, -11, 52, -166, -189, 279, 153, -371, 389, -70, -324, -150, -53, 106, 151, -550, 395, 276, -135, -29, -78, 98, 79, 105, 184, 86, -332, -114, 313, -119, 214, -111, 27, -228, -112, -35, 23, -420, 353, 8, 89, -203, 78, -23, 285, -326, -85, -144, -53, 272, 74, 62, -45, -290, -100, -377, 156, 27, -320, 196, 128, -163, -70, 16, -74, -240, 193, -234, 111, -45, -121, 80, -413, 182, 435, -78, -58, 113, 5, 110, -33, 127, -135, 401, 2, 373, -347, 210, 330, 149, 203, -40, 289, -143, -38, 60, -9, 124, -18, -50, -474, 150, -120, 144, 4, -83, 287, -16, 164, 183, 202, -48, 254, 188, -57, -30, -299, -182, -39, -5, 70, 16, 127, 54, 142, -60, -291, 87, 21, -37, 376, -177, -333, 375, -188, 211, -204, 127, 0, 35, -13, 139, -5, -102, 73, 276, 44, 188, 387, -23, 253, -118, 58, -63, -337, 27, 74, -70, -50, 166, -124, -439, -23, -206, 139, -2, 240, -225, 2, 17, 228, 43, -85, -89, -246, 250, -145, 252, -80, 36, 26, -30, 66, 64, 32, 153, 47, -250, 160, -135, -70, -109, 37, 494, 176, 470, -207, 560, 134, 254, 236, 32, 286, -141, 98, -77, -136, 168, 460, 235, 198, -447, 410, 234, -30, 9, -215, 91, 54, -40, -340, 52, 382, 255, -153, -115, 106, 32, 34, 67, 30, -12, 166, -43, -15, 85, 126, -43, -507, 52, 87, -233, 168, -56, -166, -51, 20, -329, -135, -402, -72, -179, -353, -148, 348, -104, -222, 63, -228, 35, 132, 20, 333, 112, 66, -13, -12, 101, -52, 123, -351, -68, -96, 9, 326, -175, 106, -123, -38, 4, 235, 34, 58, 46, 1, 98, -58, 63, -50, 212, 171, -213, 134, -272, 84, -227, -106, -220, -229, 117, -127, 142, 2, 60, 177, 319, -29, -198, 96, -84, -249, -107, 162, 228, 39, 21, 227, -101, -54, 6, 232, 214, -76, 224, -38, 284, 19, -194, -5, 104, 102, -19, -106, 40, 214, -218, -402, -262, -162, -84, -80, 66, -18, 134, 224, -229, -105, -135, 229, 32, 170, -20, -107, -86, -117, -221, -19, 137, -12, -125, 122, -242, -158, -368, -194, -168, -114, -21, 126, -210, -18, -34, -82, 62, -303, -199, 375, -201, 8, 179, 141, -160, -620, -80, -205, -178, -292, -367, -116, 77, -54, 293, 433, -68, -391, -35, 68, 56, -31, 241, -93, -243, 212, -20, 160, -467, -113, -67, 74, -80, -52, -88, -255, -114, -51, -95, 130, -4, 96, -108, -2, -408, 226, 93, -14, -328, -140, -100, -170, -120, -172, -171, -78, 183, -36, 228, 99, 261, 357, 150, 109, -253, 577, -28, 236, -164, -204, -130, 81, 230, -41, -36, 329, -127, -144, 497, 276, 225, -66, -152, -199, 89, 65, -32, -451, -218, -253, -333, -32, 263, -35, 39, 86, 75, 264, 117, 61, -96, -601, -274, -216, -75, 280, -138, 243, 118, -84, -123, -30, -339, -182, -36, -119, 448, 332, 37, -84, -156, -379, -32, 96, -379, -96, 390, -243, -138, -88, -240, -215, -42, -63, 205, -276, 382, 259, -53, 176, 371, -66, 70, -37, 180, 27, 23, -148, 145, -283, -166, -5, -66, -225, 33, 2, 116, 77, 316, 58, -64, 349, 166, 1, -281, -30, 167, -40, 54, 384, -107, 19, 9, 136, 0, -302, -548, -520, 254, 416, -205, 141, 37, -125, 226, -67, 182, 329, 153, 284, -332, -182, 98, -339, 64, -121, -309, -308, -29, -221, -165, -585, -58, -43, -169, 495, -551, -43, 340, -14, 265, -113, 346, -132, 2, -185, 363, 71, -148, -382, 181, -450, -87, 19, 198, 189, 410, 107, 6, -17, 14, -280, 267, -202, 133, 267, -241, 230, -525, 39, 208, -291, -70, 130, -50, 405, 133, -75, 63, 204, 393, 10, 52, -94, -37, -77, 74, 139, 5, -34, -2, -48, -120, 27, 362, -123, -83, 140, 226, -328, -23, -270, 55, -67, 125, 107, 295, 114, 86, 69, -85, 107, -114, 244, -157, -105, -129, -69, -6, 30, -202, -321, -237, 292, 74, 179, 10, -20, -145, 297, -42, -14, 297, -327, 114, -54, -140, -18, -5, -204, 123, -164, -107, -1, 118, -110, -136, -31, -335, 147, -284, -209, 180, 256, -134, 221, -91, 196, 161, -128, 59, 101, -206, 72, -279, 256, -34, 11, -156, 71, 117, 9, -52, 248, -148, 151, -3, 65, -88, 44, -148, -32, -269, -337, -41, -92, 141, -288, -175, 55, -36, -311, 231, 131, 45, -149, 10, 4, 26, -3, 15, -68, -126, 111, -78, -27, 50, 68, -226, -96, 151, 172, -5, -314, 104, -46, 132, -259, 105, -167, -5, -120, -61, -118, -179, 104, -127, -190, 95, 151, 23, -73, -30, -326, 12, 26, 149, -220, -53, 197, 136, 178, -171, -175, -308, -39, -257, -64, 208, 48, -228, 213, 64, -130, 191, -180, -103, 143, -127, 39, -213, 58, 200, -125, -176, -119, -22, -286, 305, 0, -145, -68, 134, -184, -336, 19, 222, -148, -127, -37, 27, -19, 89, -58, -64, -23, 136, 176, -64, 41, 124, -86, -266, -274, 303, 238, 85, -189, -57, -79, -175, -79, -48, 229, 396, 19, 122, 122, 140, -117, 20, -244, -2, 295, -41, -135, 149, -410, -15, -57, 82, -265, 52, -142, 116, 251, 98, 104, -197, 0, -194, -193, 263, -207, -20, 23, 16, -128, -113, 1, 28, -172, -5, 88, -127, 280, 25, -17, 97, -277, 121, 145, -38, 135, -408, 262, 53, -38, 239, 114, 263, -265, 62, 392, -41, -151, 132, -108, 75, 308, 198, 144, 229, -121, -53, -78, -132, -109, -202, -9, 44, -90, 122, -243, -258, -200, -159, -231, 43, -7, -314, 19, 227, -86, 93, 170, -75, -75, 161, -176, 92, -300, 9, -39, 195, -172, 102, 70, -126, -145, -143, 161, -136, -134, 314, 209, 116, 65, -302, -76, -439, -162, 170, -155, 20, 150, -71, 172, 131, -370, 11, 47, -16, -192, -79, -312, 205, -95, 73, 125, 182, -202, 9, -20, 229, -278, -171, 126, 211, 119, -46, -41, 101, 526, 43, 127, -53, -107, -107, -87, 63, -19, -31, -98, -72, -54, 246, 38, 169, 17, 198, 307, 170, -149, -6, 61, 125, 278, 233, 79, -96, 86, 151, -42, 30, 186, 120, -217, 145, 166, -31, 12, 138, 409, -332, 71, -180, 69, -216, 110, 64, -146, 24, -206, 104, 24, 17, -167, 23, -257, 89, -309, 156, -116, 6, 454, -151, 137, -145, 49, 226, 43, -86, -305, -107, 65, 31, 16, -9, -124, -250, -83, 172, 9, -116, -192, -49, 215, 264, 116, 177, -245, 215, -583, 139, -348, -223, 182, -312, -91, 142, 288, 246, -203, -460, 57, -146, 61, -102, 214, -127, 13, 9, 186, -273, -377, 345, -135, 215, -281, 59, 132, -413, -126, 155, -230, 34, -215, 228, 91, 290, -303, -136, 39, 224, -232, 72, 203, -55, 164, -243, 592, -111, 94, 199, 150, -13, -450, -344, -91, 218, 100, 111, 127, 109, -29, -167, -121, 70, -296, -331, -121, -161, -189, -117, 59, -241, -28, 152, 19, 319, -398, -281, -383, 308, 38, -314, -201, 64, 310, 26, 241, 140, -63, -442, -100, 14, 276, -324, 436, -98, -378, -57, 161, 179, -54, 132, 41, 158, -255, 428, 165, -137, -426, 483, 113, 381, 206, -233, 327, 179, -45, 227, -28, 35, 246, -116, 262, -12, 81, -72, 112, -71, 32, -37, -229, 252, -29, 205, -75, -163, 81, -109, 292, 23, 489, -125, 42, -137, 123, -170, 354, 19, 31, 152, 448, 101, 68, 50, -198, -178, -21, 168, 217, 237, -110, -98, -92, 95, 47, 54, -206, -40, 325, -61, -404, -372, -143, -142, 601, -27, -291, -49, -38, -184, -128, -139, -1, 152, 5, 110, 85, -59, 211, 4, 19, 39, 55, -293, -445, -170, 191, 42, 16, -149, 21, -74, -21, 148, 6, -17, -13, -191, -282, -5, -37, 226, -230, 230, 37, 52, -73, 163, -33, -168, -173, 19, -210, 293, 72, -240, -83, 284, -90, 116, 262, 109, -42, -376, 6, -21, -165, -310, 323, -296, -39, 30, 91, -32, -162, 14, -142, 71, -253, -2, 261, 133, 305, -210, 17, 194, 23, 26, -116, -30, -39, 125, 527, 23, 330, -5, 42, 171, 303, 173, 145, -146, -191, 206, -274, -77, -203, 175, -177, 82, 227, 91, 178, 275, -205, -3, -72, -23, 61, 306, -230, 26, 166, 257, 335, 55, -123, 69, -62, 164, 187, -169, -80, -6, 121, -166, -50, -31, -53, 494, -345, 0, -14, 12, 40, -358, -168, -71, -157, 215, -189, 48, 165, -199, -105, -317, 5, 8, 409, 3, -62, -62, 179, 165, 117, 336, -75, 184, 124, 2, -170, -153, -222, -91, -24, 0, -69, 17, 105, 88, -242, 82, 114, -129, 41, 329, -86, 144, -104, 14, 219, -369, -330, -424, 165, 7, 320, -414, -165, -83, -242, 57, -275, -101, -286, -189, -129, 239, -165, 419, 235, -214, 89, -74, 263, -199, 98, 280, 218, 133, 469, 42, 64, -212, -106, -200, -73, 84, -152, 307, 149, 329, -99, -170, -278, -38, 228, 203, 323, -407, -253, -72, 296, -30, 378, 316, -250, 568, 273, 37, -319, 102, -273, -64, 321, -79, 58, -287, 167, 34, -109, 43, -106, -311, 66, -372, 16, 81, 185, 275, -88, -163, 26, -286, 43, -149, -177, -214, -153, 536, -83, -216, 164, 344, 235, -117, 226, 49, -107, 129, -28, -103, -73, -218, -117, -312, 43, 135, 129, -78, -88, -95, -10, 110, -86, -121, 43, 323, -100, 27, 211, 79, -25, -299, -274, 179, -26, -413, 46, 80, 195, -50, -130, -142, -55, -20, 195, 63, -397, -208, -293, -347, 97, 82, 210, 296, -17, -340, 320, 57, -340, -185, 56, -194, -90, -94, 124, 343, -273, -205, 1, 15, -458, -390, 388, 21, 141, -99, -290, 252, -2, -175, 98, -96, 269, 314, 425, 18, -333, 336, 34, -39, 3, 74, 38, 258, 168, 3, -71, -217, -99, -340, 82, 178, -115, 231, -88, -62, 400, 138, 202, 264, -152, -74, 14, 221, -35, -260, 296, 252, -16, -277, 89, 273, 187, -23, 387, -123, 70, -75, 203, -272, -58, -529, 225, -55, -89, -524, 211, -53, -223, -149, -337, 395, 70, 127, 482, -112, -429, 163, 35, 46, -184, -181, 302, -29, -128, 77, 20, -55, 12, 43, -142, 190, -55, 39, 317, -156, -154, -141, 152, -41, -34, -65, -181, -159, 106, -8, 334, -65, -177, 105, 43, -36, -147, -44, -125, 116, -9, 256, 94, -94, -225, 5, -27, 99, 47, 79, -143, -305, -123, 12, -63, 188, 311, 43, 249, 83, -209, 76, 140, -75, 165, 154, -70, 161, -7, 51, -161, 61, 71, 58, 216, -76, -223, -131, -43, 223, 193, -49, -8, 96, 18, -60, 87, -56, -91, -98, -48, 211, 11, -5, 242, 70, -327, -25, 221, 75, 118, -102, 50, -241, -75, -224, 210, -26, -1, -105, -38, -98, -91, 28, -31, 203, -6, 2, 251, -169, -369, -99, -271, 185, -165, -131, 253, 140, -42, -145, 138, 93, -13, 176, -38, 125, -224, 83, -103, 86, -139, -78, 74, 164, 22, -354, 39, 115, 29, 61, 297, 293, -159, 40, 142, 198, -65, 27, -56, 21, 20, 231, 287, 68, 33, 94, -60, -117, -89, 227, -177, 23, 33, -138, -192, 174, 136, 115, -157, 341, -169, -21, 14, -84, -78, -136, 171, -82, 223, -149, 227, 126, -98, 12, 38, 76, 14, -271, -399, 143, -96, -92, 36, -56, 35, -74, -160, -12, -35, -23, -14, -4, -47, -12, 153, 283, 3, -14, -44, 70, 72, -115, 29, -271, 125, -290, 180, 90, -73, -188, 109, 25, -247, -145, -166, -21, -158, -180, 163, -101, -248, 201, 33, 269, -185, 47, -163, -45, 215, 8, 42, 408, -6, -148, 127, -28, 64, 109, -139, -80, -208, -11, -326, -59, -63, 64, -161, -2, -171, -368, -156, -177, -147, -203, -58, 21, -47, 298, 53, -35, 56, -80, 166, -19, -186, -249, -124, -118, 125, 15, -401, 184, 93, -85, 98, 79, -272, 106, -37, -243, -157, 145, 114, -126, 157, -131, -139, -280, -65, -143, -228, -109, -206, -31, -39, 418, 204, 65, -9, 41, -27, 233, -119, 147, 249, -139, 215, 74, 315, 110, 262, 166, -399, 250, 304, -81, -190, -155, 94, -284, 66, -347, 104, 120, 30, -55, 193, 350, 107, -80, -67, -154, -35, -254, -194, 73, 107, -102, 381, 144, -90, 4, -83, 2, -36, -70, 103, 121, -113, -245, 27, 55, 104, -1, 8, 101, 302, 100, -273, -324, 52, 25, -221, 144, -113, -190, -226, 397, -220, 95, -334, 51, -154, -30, -169, -31, -148, -107, 164, -320, 38, 149, 39, -75, 282, 157, -6, -252, -77, -117, -428, -32, 67, -17, -211, -263, 212, -198, -55, 184, -342, -78, 303, 44, -125, 27, -2, 458, 280, 64, 5, -113, -78, -158, 137, -146, 215, -191, -147, -73, -167, -69, 280, -49, 43, -138, -245, 60, -107, 506, 30, 150, 112, -97, 89, -139, 1, 64, -122, 145, 23, -225, 99, 315, -38, -111, -148, 170, -307, -322, 314, 496, 185, 158, 110, -222, -128, -46, 267, -34, -62, 106, 9, -97, 246, -179, -56, -67, 291, -288, 44, -277, -74, -16, -70, -3, 38, 121, -222, 127, 14, -230, 24, -256, 154, 25, 188, 225, -12, -43, 236, 320, -53, -14, -51, 114, 131, 85, -103, -208, -297, 283, -121, 560, 87, -295, -143, -240, -136, -208, 198, 103, -79, -438, 66, -173, -84, 44, -206, 172, -55, 34, 96, -144, -131, -37, -27, -190, 51, -213, -131, -207, 254, -68, -105, -78, 61, 120, -434, 116, -261, 290, 98, 107, -298, -31, -102, 150, -98, 5, 311, -32, -12, 87, 203, 282, 197, -120, -121, -206, 54, 158, 19, -64, 133, 78, 6, 180, -100, 105, -235, -142, 212, -165, 253, -47, 88, -36, -5, -10, 59, 221, -16, -102, -142, 140, 43, -53, -31, 91, 273, 400, -277, 107, -171, -49, -233, 231, -3, -189, -244, -22, -139, -57, -70, 153, -241, 119, -32, -119, -23, -46, -348, -289, -144, -112, -263, -46, 9, -20, 162, -147, 457, -264, -51, 60, 108, 14, 194, -362, -321, 140, 347, 95, -140, 143, -118, -11, -98, -206, -112, 16, 234, 99, 134, 285, 132, 308, 245, 327, -289, -68, -144, 13, -96, -7, -173, 27, 235, 41, 7, -301, 46, -34, -59, 52, -36, 67, -74, 147, 48, -10, -24, -8, -106, -101, -118, -190, -35, -92, 14, 48, -79, 295, -139, -284, 166, -105, 139, -252, 101, 151, 104, 19, -9, -3, -26, -68, -48, -141, 128, 217, -89, 170, 310, 88, -56, -238, -62, -185, -180, 101, -227, -202, -4, -70, 126, -161, 178, 320, -153, -21, -29, -43, -7, -84, 615, 108, -210, 365, 468, 241, 303, 2, 100, -89, -266, -155, -151, -62, -334, 226, -34, 289, -160, 130, 47, -340, 94, 439, 218, -220, -70, 87, -29, 12, 313, -81, -247, 400, 1, 51, -68, 4, -384, 190, 78, 161, 444, -531, 397, 43, 225, -290, -4, -44, -139, -314, -84, 55, 73, -157, -154, 44, -267, -416, -96, -108, -595, -31, -38, -190, 211, -56, -51, 415, -155, 90, -117, 324, -128, 148, 182, -15, 88, 45, -239, -188, -383, -170, 110, 140, -101, 322, -9, -14, 78, -6, -26, -5, 102, -49, -16, -72, 88, -235, 55, 237, -225, 105, 179, -53, -90, 189, -107, -98, 8, 124, -121, -56, -142, -71, 117, -80, -45, -425, 103, 87, 39, 45, -6, 261, -17, 89, 176, -289, -288, 112, 39, -10, -88, 177, 99, -1, 69, -147, -81, -104, -77, 142, 18, -60, -105, -286, -210, -121, 28, 4, -7, 20, -259, -133, -92, -147, -64, -112, -2, -124, -65, -25, 82, -29, 97, 95, 365, -129, 2, -172, -75, 346, 149, 40, 83, -232, -296, 62, -30, 92, 64, -17, -136, 144, -16, 102, 224, 328, -48, -100, 50, -75, 8, 146, -46, -133, 445, -88, -87, 64, -130, 125, -446, 78, -40, -185, -128, -145, -191, -270, 355, -67, -155, -23, -22, 331, -37, -126, 123, -61, -137, 281, 214, 11, -171, 424, 121, 139, 23, 108, -148, -163, -118, -214, -78, 51, -92, -172, 220, 72, 45, -11, 228, -67, -352, 129, -16, -52, -169, -76, -175, -152, 136, -378, 491, -178, -52, 41, 84, -169, -108, -40, -190, 46, 123, 365, -255, 95, 20, 42, -73, 131, -341, 83, 101, -114, 102, 456, 354, 30, 314, -70, 37, 108, 63, -102, 134, 164, 66, -13, -60, 47, -24, -187, 66, -171, 14, 333, -78, -274, -441, 79, 48, -25, -95, -7, 107, 281, -127, 438, -16, -34, 40, -36, -176, 178, 150, -273, -73, 236, -195, -310, -24, -4, -145, 146, -270, 166, -259, -137, 77, -225, -29, 221, -347, -196, 42, -81, 47, -18, 274, 17, 66, 152, -196, -130, -47, -211, 106, 98, 34, -59, 83, -68, 12, -8, -121, 47, 111, -177, -142, 162, 98, 25, -240, 155, 39, -193, -11, -116, 29, 129, -37, 7, 205, 96, -79, 210, -292, 84, -43, 121, 276, 69, 107, -14, -112, 151, 218, 46, -97, 76, -49, 196, 21, 80, -154, -43, -166, 237, 217, 98, 21, -114, 187, -193, 93, -28, -83, -16, 115, 88, -137, -145, 156, 231, 31, 167, -133, -39, -261, 124, 73, -146, -1, -39, -96, -75, -166, 75, -95, 79, 160, 162, 16, -57, 155, -36, -134, -150, -59, -38, 6, 93, 68, 103, 197, 85, -125, -274, -175, 33, -141, 42, -89, -159, 189, 139, -307, -175, -99, -364, -155, -187, -323, 18, -147, -17, -21, -269, 185, 90, 18, 23, 198, -391, -51, 213, 81, -39, -217, 205, 270, 97, 271, -134, 52, -81, -156, -239, -91, 42, -236, 85, -10, 109, -301, 39, 169, -92, 104, -72, 27, 68, -18, -99, 359, 40, 290, -199, -36, 315, -60, 56, 410, -13, -111, 129, 191, 266, 359, -399, 442, -252, -76, -93, -17, -271, -253, -134, 169, -13, 169, -128, -160, 277, 117, -56, -89, 73, -464, -212, -123, -45, -154, -113, -21, 174, -284, 29, 60, 325, 38, -232, -166, -269, 51, -25, 109, -487, -265, -62, 284, 3, -126, -268, -174, 546, -134, 233, -187, -10, 20, -55, -136, -313, 181, -380, -12, 147, -88, -4, 176, -213, -34, 50, -329, -156, -105, -210, -165, -203, 34, 182, 245, 42, 132, -56, -373, -170, 205, -186, 34, -98, 175, 2, 38, -209, -145, 110, -258, 16, 341, -140, 478, 85, -255, 120, -115, 150, 404, -245, -8, -262, 43, 110, 40, 79, -247, -9, 52, 217, 225, 18, 120, 65, 93, 211, 36, -152, -75, 20, -496, -164, -69, -22, 81, -79, -113, 30, -169, -181, -24, 167, 326, -146, -248, -63, 209, -25, 114, 228, -54, -51, -113, -103, -31, 99, -98, -16, 20, -214, -243, 22, -28, -67, 184, -298, 103, 90, 322, -101, -181, 53, 304, 278, -70, -179, 5, -25, -224, -48, 39, 124, -79, -88, 400, 76, -212, 4, 182, -30, 107, -22, -67, -179, 121, -425, -296, 103, -51, 113, -240, -129, -76, -67, -24, 247, 68, 248, 215, -113, 158, 280, -621, -90, -253, -20, -160, 202, -78, -222, -299, 539, -197, 207, -143, -167, 199, 18, 279, -13, 53, 41, 75, -134, -122, -224, 21, 308, -264, -137, 198, 294, 271, 0, 7, 25, -54, -192, 142, -4, 150, -81, -180, -156, 3, 166, -78, 184, -237, 175, -326, 195, 179, -72, -81, 126, 280, 304, 72, -27, -46, -82, 208, -9, 407, -364, -127, -154, -217, -130, -105, 238, -168, 322, 17, 15, -57, 22, -43, 46, -132, 160, -81, -182, 427, 266, 73, -223, -2, 392, -312, 77, 25, 124, -142, -40, -117, 129, -79, -1, -285, -211, 221, -127, 123, 47, 11, 44, 32, 412, 278, 31, -13, 70, 402, -117, 427, 109, 136, -144, -47, 69, 212, 98, -62, 164, 17, -22, -230, -55, -20, 254, -248, 24, -150, -146, 89, -62, -153, 256, 113, 141, -237, 60, 2, -178, 183, 78, -206, 66, 192, -151, -328, 16, -189, -164, 12, -370, -198, -259, 264, 213, -64, 248, -83, 104, -179, -97, -12, -50, -55, 366, -231, -18, -77, 157, -52, 168, -82, -243, -107, -69, -6, 93, 23, 156, 70, 201, -61, 192, 133, 277, -189, -337, -47, 164, -190, 102, -67, 60, -88, 94, -249, -216, 332, 139, -144, 141, 19, -83, 82, -64, 168, -95, -159, -148, -83, -54, 282, -133, -30, -57, -177, -305, 34, -185, -287, -101, 255, 247, -117, 150, -61, 116, 92, 131, 85, -91, 141, 284, 131, -62, 73, 150, 231, 74, -132, 111, -8, 289, -244, 260, -287, 168, -595, 40, -25, 84, 76, 135, -38, 70, -112, -135, 16, -195, 213, -64, 70, -266, 119, 79, -400, 330, -82, -1, 65, -241, 122, -97, 93, -48, 5, -189, 15, 54, -282, 180, 32, -9, -6, 124, -82, 244, -105, 82, 165, 10, -62, -153, -118, -113, -110, 98, -335, 0, -170, -122, -152, -18, -202, 103, -39, 237, 19, 218, 26, -151, -56, 166, -7, -261, -157, -294, 9, 33, 33, -57, 93, 170, 231, -55, -213, 41, -67, -84, 97, 80, 116, -208, -23, 18, -27, -30, -328, 392, -35, -315, -118, 19, -8, 31, 66, -128, -333, -314, -50, 155, 109, 32, -12, 108, 114, 40, 150, -37, 136, 179, -1, -320, -217, 120, -135, 104, -113, -196, -4, -12, -191, -150, -65, -339, -213, -228, -75, 43, -131, 36, -184, 51, -166, -298, -34, -567, -8, 186, -213, -69, 177, -476, 12, -162, 441, -293, -231, -226, 50, 94, -279, -162, -127, 3, 66, 43, 0, -519, 42, -63, -24, -326, -32, 9, -395, 241, -142, 585, 104, -167, -24, 89, 18, -67, 161, 140, 245, -27, -83, -91, 343, -128, -182, 176, 21, -199, 1, 43, 30, 139, 187, -67, 260, -287, 157, -152, 347, -31, 156, 116, -246, 105, 144, 29, -78, -31, -173, 216, -93, -89, -472, -129, -334, -66, 74, -64, -1, -446, 54, 293, -161, 269, 164, 188, 77, 110, -69, -462, 84, 121, 57, -22, -429, 161, -233, 379, 247, 88, -104, -253, -41, 223, 44, -322, 31, -48, 50, 14, 132, -81, -123, -126, -189, -158, 269, -215, -232, -29, 82, 29, 110, -38, 232, -18, 281, 56, 59, -251, 397, -77, -333, 353, -111, 44, -196, 274, 86, -234, 65, -206, -183, -31, -257, 106, -126, 16, -60, 21, -131, 5, -112, 92, -224, -274, 110, -37, 352, -248, -192, -17, 21, 197, -428, -103, 112, -214, -160, 65, 14, -202, 446, 201, -200, -158, -146, 374, -102, 14, 131, 203, -246, -151, 243, 3, -131, -86, -22, 10, -110, 3, -298, 317, -310, 65, 247, -515, 91, -25, 219, 215, -104, 158, 36, 439, -157, 145, 201, -314, 254, 14, 24, -217, -352, 111, 2, 349, -218, -357, -103, 146, -381, -139, 165, -269, 130, -129, 238, 195, -143, 14, -415, 263, -154, -220, 123, 0, -106, 41, 296, -272, 286, -331, 76, -208, -133, -68, -214, -261, -253, 131, 82, 23, 34, 206, -146, 55, -173, 126, -52, -28, -87, 92, 412, 157, 24, -4, 188, 229, 1, -121, -225, -137, 68, 441, -79, -276, 377, 24, 217, -244, 81, 27, -358, -28, -341, -323, 58, -20, 11, -222, 208, -106, -50, 172, -72, 171, -94, 12, 126, -246, 195, -132, 70, 30, -155, 59, 122, 64, 24, -185, -165, 180, 23, -24, -150, -44, -53, 36, -122, 164, 81, -213, -111, 6, 323, -230, 246, 88, 18, 95, -34, -28, -19, -170, 