#include <stdint.h>
#include "math/matrix.h"


#ifndef NEURAL_NETWORK_PARAMS_GUARD
#define NEURAL_NETWORK_PARAMS_GUARD

#define FIXED_POINT_PRECISION 10
#define NUM_OUTPUTS 1
#define IS_MSP
#define LEA_RAM_LENGTH 1800
#define LEA_RESERVED 2

#define MODEL_ARRAY_OUTPUT_LENGTH 16384
#define MODEL_ARRAY_TEMP_LENGTH 16384
#define PADDING_BUFFER_LENGTH 8128
#define FILTER_BUFFER_LENGTH 1024
#define INPUT_NUM_ROWS 28
#define INPUT_NUM_COLS 28
#define INPUT_NUM_CHANNELS 1
#define OUTPUT_NUM_LABELS 10
#define TAYLOR_SERIES_ITERATIONS 5

#define INPUT_LENGTH (INPUT_NUM_ROWS*INPUT_NUM_COLS*INPUT_NUM_CHANNELS)
#define OUTPUT_LENGTH (OUTPUT_NUM_LABELS*LEA_RESERVED)

#pragma PERSISTENT(TEMP_0)
static dtype TEMP_0[MODEL_ARRAY_OUTPUT_LENGTH] = {0};
static matrix TEMP_0_MAT = {.data=TEMP_0, .numRows=0, .numCols=0};

#pragma PERSISTENT(TEMP_1)
static dtype TEMP_1[MODEL_ARRAY_OUTPUT_LENGTH] = {0};
static matrix TEMP_1_MAT = {.data=TEMP_1, .numRows=0, .numCols=0};

#pragma PERSISTENT(MNIST_OUTPUT)
static dtype MNIST_OUTPUT[10] = {0};
static matrix MNIST_OUTPUT_MAT = {.data=MNIST_OUTPUT, .numRows=10, .numCols=1};

#pragma PERSISTENT(MNIST_INPUT); // This is a 28*28 matrix with a label of 1 MNIST_TEST[14]
static dtype MNIST_INPUT[784] = {0,0,0,0,0,0,0,0,0,0,0,0,0,0,0,0,0,0,0,0,0,0,0,0,0,0,0,0,0,0,0,0,0,0,0,0,0,0,0,0,0,0,0,0,0,0,0,0,0,0,0,0,0,0,0,0,0,0,0,0,0,0,0,0,0,0,0,0,0,0,0,0,0,0,0,0,0,0,0,0,0,0,0,0,0,0,0,0,0,0,0,0,0,0,0,0,0,0,0,0,0,0,0,0,0,0,0,0,0,0,0,0,0,0,0,0,0,0,0,0,0,0,0,0,0,514,1024,767,0,0,0,0,0,0,0,0,0,0,0,0,0,0,0,0,0,0,0,0,0,0,0,0,0,767,1024,1024,257,0,0,0,0,0,0,0,0,0,0,0,0,0,0,0,0,0,0,0,0,0,0,0,0,1024,1024,1024,514,0,0,0,0,0,0,0,0,0,0,0,0,0,0,0,0,0,0,0,0,0,0,0,0,1024,1024,1024,0,0,0,0,0,0,0,0,0,0,0,0,0,0,0,0,0,0,0,0,0,0,0,0,0,1024,1024,1024,0,0,0,0,0,0,0,0,0,0,0,0,0,0,0,0,0,0,0,0,0,0,0,0,0,514,1024,1024,514,0,0,0,0,0,0,0,0,0,0,0,0,0,0,0,0,0,0,0,0,0,0,0,0,1024,1024,1024,514,0,0,0,0,0,0,0,0,0,0,0,0,0,0,0,0,0,0,0,0,0,0,0,0,1024,1024,1024,514,0,0,0,0,0,0,0,0,0,0,0,0,0,0,0,0,0,0,0,0,0,0,0,0,1024,1024,1024,514,0,0,0,0,0,0,0,0,0,0,0,0,0,0,0,0,0,0,0,0,0,0,0,0,1024,1024,1024,514,0,0,0,0,0,0,0,0,0,0,0,0,0,0,0,0,0,0,0,0,0,0,0,0,1024,1024,1024,0,0,0,0,0,0,0,0,0,0,0,0,0,0,0,0,0,0,0,0,0,0,0,0,0,1024,1024,1024,0,0,0,0,0,0,0,0,0,0,0,0,0,0,0,0,0,0,0,0,0,0,0,0,0,1024,1024,1024,0,0,0,0,0,0,0,0,0,0,0,0,0,0,0,0,0,0,0,0,0,0,0,0,0,1024,1024,1024,0,0,0,0,0,0,0,0,0,0,0,0,0,0,0,0,0,0,0,0,0,0,0,0,0,767,1024,1024,514,0,0,0,0,0,0,0,0,0,0,0,0,0,0,0,0,0,0,0,0,0,0,0,0,767,1024,1024,514,0,0,0,0,0,0,0,0,0,0,0,0,0,0,0,0,0,0,0,0,0,0,0,257,1024,1024,1024,514,0,0,0,0,0,0,0,0,0,0,0,0,0,0,0,0,0,0,0,0,0,0,0,767,1024,1024,1024,514,0,0,0,0,0,0,0,0,0,0,0,0,0,0,0,0,0,0,0,0,0,0,257,1024,1024,1024,257,0,0,0,0,0,0,0,0,0,0,0,0,0,0,0,0,0,0,0,0,0,0,0,257,1024,514,0,0,0,0,0,0,0,0,0,0,0,0,0,0,0,0,0,0,0,0,0,0,0,0,0,0,0,0,0,0,0,0,0,0,0,0,0,0,0,0,0,0,0,0,0,0,0,0,0,0,0,0,0,0,0,0,0,0,0,0,0,0,0,0,0,0,0,0,0,0,0,0,0,0,0,0,0,0,0,0,0,0,0,0,0,0,0,0,0,0,0,0,0,0,0,0,0,0,0,0,0,0,0,0,0,0,0,0,0,0,0,0,0,0,0,0,0,0,0,0,0,0,0,0,0,0};

static matrix MNIST_INPUT_MAT = {.data=MNIST_INPUT, .numRows=28, .numCols=28};

#pragma PERSISTENT(CONV2D_1_WEIGHTS); // 6 5x5 filters
static dtype CONV2D_1_WEIGHTS[150] = {28,-311,-178,-325,-133,68,-145,-25,-128,88,413,784,655,679,514,195,409,354,362,288,-310,-341,-195,-196,-287,437,198,-77,-49,-64,147,287,370,132,37,333,118,316,142,-301,9,128,-81,-423,-354,-383,-592,-496,71,130,341,-523,-351,-159,231,48,-927,-445,-176,119,-713,-815,-104,298,71,-862,-118,35,320,42,-517,-106,179,298,173,-191,-31,83,-117,122,-394,-109,92,377,277,-747,-148,494,411,101,-540,170,235,105,-377,-271,-140,145,-200,-242,-718,-299,63,173,-142,-1155,155,318,310,104,-1206,-74,220,236,182,-892,-340,54,-127,-93,-162,-59,-72,-37,6,115,-103,119,-1,-40,-300,-23,10,257,243,-145,249,267,283,138,-561,-478,-53,-348,138,59,-540,-871,-504,-309,};

static matrix CONV2D_1_WEIGHTS_MAT = {.data=CONV2D_1_WEIGHTS, .numRows=5, .numCols=5};

#pragma PERSISTENT(CONV2D_1_BIASES)
static dtype CONV2D_1_BIASES[6] = {23, -14, -13, -26, -1, 16};

static matrix CONV2D_1_BIASES_MAT = {.data=CONV2D_1_BIASES, .numRows=6, .numCols=1};

#pragma PERSISTENT(CONV2D_2_WEIGHTS) // 16 5x5 kernals with a depth of 6
static dtype CONV2D_2_WEIGHTS[2400] = {-360,-265,-122,-57,-131,-220,-142,-11,416,353,63,76,405,527,235,114,405,442,296,96,22,-3,-157,-99,-107,-102,-138,89,41,-149,-68,108,-51,-33,-112,-16,-90,-157,-86,46,258,19,307,211,23,154,162,133,1,-179,-99,43,-279,-384,-38,-171,-159,-166,297,294,10,-27,64,590,534,0,96,184,472,652,303,296,265,359,419,-208,-455,-158,-282,-294,-86,-298,-94,93,454,-158,51,237,539,419,-5,56,314,18,325,56,32,-50,193,133,15,-13,-167,-418,-49,195,-24,-126,-327,-170,24,233,130,144,305,2,-140,62,148,273,49,-322,-259,-48,105,122,224,231,25,-162,189,69,-157,-201,-282,-27,-138,-239,-314,-205,-154,-196,37,-111,26,-44,-189,-59,89,-91,-64,-113,-139,-75,-24,-180,-296,-30,-66,-126,-520,-513,-400,-98,75,-364,-386,-165,-136,52,-257,-80,-131,160,133,-221,-103,13,-450,-679,0,74,28,119,-325,259,193,-161,198,12,-51,306,33,122,268,94,563,301,-131,13,56,-41,19,-150,-175,21,91,112,-203,-390,16,154,13,-27,-13,-271,-24,-262,-215,-39,-227,-71,-24,3,-135,357,32,-75,-74,120,235,-26,102,-66,9,156,-263,-11,-42,-230,255,-545,-369,-188,-133,204,-423,-412,-132,120,-169,58,43,-131,80,-251,-237,-242,-418,-336,-122,-336,-173,-198,-412,102,-297,-271,-237,-216,105,-131,-296,1,-119,72,196,152,108,16,122,197,159,126,108,329,120,257,-49,-228,112,92,175,18,-86,114,70,94,178,199,-71,103,-105,-189,-118,173,216,326,-52,44,214,609,471,289,209,409,569,442,305,-173,490,449,272,-51,-223,-17,32,-275,-377,-99,-246,170,193,86,148,-20,106,136,215,-230,128,-8,75,-215,-393,-15,-68,-211,-273,-196,142,-73,6,-86,-86,48,7,124,-37,-47,27,189,149,87,202,10,282,221,197,-27,44,-126,144,179,-209,61,-136,-130,-1,2,85,27,-167,-96,-163,-44,-182,243,68,16,-184,108,-2,223,315,109,191,43,273,124,122,36,38,145,-33,154,122,-124,-282,-49,22,83,234,-57,90,87,261,509,390,390,172,237,219,336,197,89,-395,-59,23,198,-147,-282,-301,-2,110,-317,-411,-204,-190,-50,-403,-122,-36,112,162,197,162,232,250,315,-140,-306,-318,-314,90,-177,-94,-8,48,-16,-295,-128,-54,-18,98,119,182,81,-108,14,-112,133,93,217,12,197,424,303,153,98,511,446,428,268,98,93,-12,-238,95,-96,-203,-286,-422,-341,-121,-87,4,-197,-258,-152,387,372,346,25,-96,-9,31,-5,-134,-248,-76,-242,-353,-388,-247,-238,-264,-198,-151,75,-282,-99,-109,-81,32,-237,-424,-317,-354,-53,-159,-440,-17,-93,-44,-114,19,433,290,122,108,-60,431,262,287,316,-19,359,180,228,-50,-15,-210,-350,-147,-129,-321,-448,-458,-323,23,93,-166,-109,-177,289,132,48,108,33,144,124,203,-43,142,102,-158,-37,14,52,341,202,134,61,-9,105,191,179,121,-108,-68,-66,65,-1,56,96,206,-68,-100,116,-3,-152,-2,-183,-60,-69,-45,29,37,115,-190,-151,-126,34,-42,6,-297,-83,205,201,-65,-326,-176,-19,-29,-63,86,-99,-244,209,-32,47,52,-113,-152,-171,-153,167,-61,-420,46,9,113,230,165,164,282,300,289,256,-129,-234,-22,120,-109,-375,-605,-549,-444,-148,-372,-512,-572,-119,-355,114,-196,-177,74,-308,323,26,136,-17,-170,-143,-95,14,175,125,-147,75,399,225,304,-116,168,205,224,285,47,21,-68,277,-63,79,-55,111,119,140,243,262,178,445,9,25,256,144,139,179,-163,-144,-278,-69,128,-138,-44,-307,-75,-154,198,-43,-272,40,-215,42,-107,62,108,83,278,380,221,-12,18,-67,128,5,-203,-25,27,8,-72,-61,-189,114,14,117,195,-62,-56,-33,-353,-276,-85,90,405,538,619,241,-51,316,1002,640,600,-99,-130,-146,-99,153,-74,-280,22,234,105,-7,6,-120,-82,-95,179,-117,-495,-633,-346,348,214,424,491,380,-220,158,749,389,-251,195,245,115,-73,14,120,39,-103,-186,-29,146,177,-10,63,-274,121,2,-250,-634,-321,52,-319,-419,-74,200,-55,-222,167,154,359,-280,16,-4,61,1,-574,-34,-276,-69,21,-127,294,253,354,-151,288,400,78,-379,376,57,-126,-91,250,374,88,30,122,138,140,-99,120,-77,-89,59,179,434,417,147,-70,-45,102,-358,-317,-91,-235,-284,-313,159,56,-72,14,-137,-87,-56,-60,-413,-1076,-677,-364,172,33,-60,220,130,43,39,-7,-73,-110,19,13,76,197,103,125,316,345,-248,-402,24,97,160,-34,-252,216,209,136,111,-22,215,340,216,157,145,33,-106,33,159,175,360,346,2,-71,69,273,378,306,201,172,352,258,133,37,338,-96,-15,253,19,157,-69,23,-27,-114,-132,-79,97,48,18,-83,112,170,260,65,-231,221,318,173,147,-354,101,-199,-94,10,-226,-1,-309,-118,-72,-314,-218,-71,91,-68,-262,-326,71,272,-144,-277,-46,246,136,229,-188,179,508,489,509,275,358,252,317,432,130,-362,-17,-30,56,132,17,-4,117,183,46,234,211,149,181,-61,199,290,-82,23,132,150,8,-115,-110,-115,39,-51,28,164,293,-128,-284,52,33,198,-162,-43,-74,148,42,20,246,126,110,-2,249,266,256,-94,-309,151,400,378,487,123,-8,199,85,38,-91,-442,-346,-198,-58,97,-136,-2,129,130,106,196,92,-9,133,-78,-234,-118,-141,-44,-313,25,373,466,608,318,97,64,96,50,-111,-225,-168,-273,-306,71,-347,-93,-70,173,223,-216,-325,-293,-450,-296,-87,-36,-308,-371,-172,166,45,206,264,331,350,365,650,489,228,-222,105,260,292,144,106,-197,-123,-224,36,138,299,115,115,-129,-302,13,43,236,388,-147,-63,161,232,49,-106,-163,-39,-64,-223,95,-279,-241,-231,-116,-260,-335,-279,-106,-201,-29,103,87,-18,-42,435,319,216,61,185,173,171,248,-55,22,-6,62,-105,-53,-16,419,362,400,202,55,45,131,4,-57,39,-209,-253,-323,-295,-45,-293,-117,107,-92,-5,-24,113,190,340,220,-140,-281,-425,-337,-247,235,237,-6,-278,-418,370,558,779,456,-16,139,-89,255,553,422,36,117,140,401,60,102,160,78,103,1,289,-110,-270,-267,-365,-20,-251,-228,199,57,-14,130,394,501,456,18,275,59,1,284,-125,-200,-73,52,328,-147,-130,-130,-247,247,-19,76,-265,-202,-75,93,105,8,-247,-272,119,368,196,-92,71,-355,-136,-213,89,199,-158,-108,-389,-294,14,328,232,104,-195,-382,228,184,269,132,-164,185,112,-17,134,127,-187,-123,-232,-91,221,-101,157,334,183,273,119,278,229,-208,-236,60,190,284,375,38,223,240,255,396,309,-51,80,-4,342,364,-160,-287,-335,-276,-84,-41,-8,-308,-502,-378,-48,164,125,223,-270,76,-153,-152,-136,-182,-150,287,-284,-157,-19,-85,159,-360,-419,-33,152,-74,-279,-385,-378,12,-327,-438,-549,-202,208,-134,-347,-69,-155,170,163,-157,-15,-69,-227,11,-59,-235,-242,-289,301,1,-388,19,-22,341,204,-112,-107,103,-170,131,-40,9,-129,-65,-106,97,39,277,-67,-293,287,191,125,-240,-280,125,-69,-147,-245,-188,-7,-120,-251,-411,213,289,-63,-35,-100,-182,98,-89,-112,138,-433,53,-145,314,88,-538,97,-345,174,-89,-220,-226,-352,-136,-234,135,-46,-186,21,-141,-90,-115,-382,151,68,1,282,-10,217,-3,-172,123,-110,159,85,-308,35,-8,48,-356,-80,-92,-240,93,-322,-225,-278,-300,-170,-29,7,141,36,-63,135,287,407,112,187,81,216,247,-60,140,105,375,582,146,-317,-254,143,195,352,-386,-545,-394,-393,-122,-367,-587,-447,-327,-371,-341,-145,-20,-93,-7,84,254,108,216,105,80,267,-79,-1,165,-201,-34,-163,-245,-172,-58,88,-63,-377,-452,96,-162,-174,107,115,169,154,-100,-39,34,142,82,47,-63,-27,-206,92,51,-165,-106,-381,-284,-181,-211,-210,-184,-98,-206,-267,-214,246,46,235,188,-97,-173,64,18,258,78,-220,-262,-290,-28,-184,121,-31,-388,-378,-104,-46,-366,-47,29,-26,14,-129,4,114,59,-25,-22,-28,120,118,113,-174,-282,-19,-7,-154,-213,-275,-265,-303,-67,-33,-103,-86,-96,10,-113,-96,-263,-224,71,140,-30,-39,-27,208,206,191,162,95,340,335,101,11,-22,44,-218,76,229,59,15,-18,-54,126,-34,-21,110,-206,-392,-99,211,-69,-484,-151,-20,-150,-396,-210,-73,-27,-246,-293,-63,-10,-59,109,72,149,260,364,-10,93,343,478,133,212,299,455,284,55,149,210,81,-116,109,-83,-8,-163,-94,20,110,209,86,359,171,196,478,277,65,202,347,500,52,115,-313,268,25,28,-112,-299,36,-275,-194,-26,-258,-223,-311,-6,-152,-280,-237,-76,-129,-660,-426,-203,27,-299,-331,-89,-63,-71,-265,203,-142,-18,-418,-305,-51,-230,-58,-26,106,-133,-363,-36,-54,0,-230,-308,138,135,-139,-34,-189,62,133,-110,-213,-395,234,43,-62,-15,-120,-88,-152,124,77,49,-400,-87,322,139,-73,-177,224,184,283,162,102,-24,144,141,29,177,-211,-19,61,46,-33,-303,-279,112,161,-242,-487,-341,-96,82,-305,-158,-43,-58,-119,-113,134,47,-54,-70,35,322,365,58,-323,164,-183,-191,-259,-346,-113,-496,-320,54,112,-252,-326,74,242,336,199,231,92,204,159,-55,4,2,98,28,79,2,-126,-195,-169,-159,-95,30,160,244,-308,-514,11,433,478,-229,-141,121,194,380,228,74,-12,-240,-44,-304,-14,118,180,237,-286,-326,-444,-100,-108,225,-453,-461,-274,-232,36,-242,191,277,116,-281,-96,234,236,-92,34,100,-40,-302,-140,-2,253,-183,-522,-237,53,-87,-219,-409,-342,40,-230,43,138,136,160,143,196,262,46,239,293,-52,-143,-170,377,254,8,-94,-98,138,235,47,-238,-106,106,105,-50,-38,114,-135,-145,-18,-25,115,123,-246,-107,-5,-39,56,-273,-442,-217,-319,-10,-30,85,64,-72,34,125,179,205,79,160,188,65,-70,134,9,-404,-155,-92,-185,96,-103,-383,-178,-55,-28,-33,-68,-150,4,-32,-39,-56,-130,-65,-98,-109,-406,-287,-161,-154,-124,-19,-178,-94,-215,-545,-363,-279,-255,-140,-644,-316,-286,-438,-276,-354,-207,-246,-297,-143,-159,3,-44,127,-64,-150,188,-2,-168,-28,-80,-221,-120,-219,98,-219,-16,237,-27,311,124,252,397,181,275,291,323,217,233,5,99,124,-30,136,76,-126,-77,-170,-96,126,-133,-80,-99,-74,93,-165,244,313,77,121,-153,127,157,109,233,330,281,66,222,398,218,260,246,83,104,162,230,266,56,51,110,95,159,182,-15,-191,13,-117,-35,-70,-178,-104,92,79,-61,-223,-188,90,-27,86,-366,-583,-380,60,40,-270,-330,-81,-74,-42,-109,-169,-216,-29,-169,-246,-186,-199,-100,-221,-352,32,360,33,-21,-14,-109,-60,-268,130,192,-205,-155,-29,-60,121,220,132,75,219,231,228,132,-95,-142,-38,-229,-175,11,-120,-126,-355,-353,-56,51,-137,-249,-357,-301,136,129,78,-1,-51,62,31,-255,-531,-443,-86,114,-133,-324,-162,99,-302,-268,54,20,188,-176,58,-7,30,123,185,58,-128,-139,115,85,-161,-277,-253,-32,105,150,189,-95,138,-252,-80,167,192,61,-209,-75,-218,-158,138,-163,-105,-110,-341,-53,-224,-301,-341,-274,-180,149,178,205,13,-17,300,405,238,218,254,383,396,300,-28,-64,78,112,-196,-240,-129,145,-53,-205,-55,241,-83,-68,-270,-147,-291,-411,-28,15,-8,-406,-283,-109,-63,220,9,133,153,266,188,-66,-506,-380,-116,52,-161,-40,58,-53,64,88,199,372,499,326,259,259,197,590,604,270,321,7,268,407,-98,25,-64,-94,-35,-108,-112,125,107,116,-134,-37,354,104,141,89,220,438,41,168,27,31,147,139,224,-6,390,460,283,181,443,206,-52,-113,-299,160,-247,-10,-67,-516,-183,-120,53,-42,-137,166,-181,-43,10,42,292,62,29,-33,106,126,-45,-174,-20,-33,-208,-396,45,-113,-304,-281,-266,17,-264,-435,-173,-133,-36,9,84,-149,134,133,12,-71,99,88,-48,-372,-304,153,-20,-195,-188,-281,-66,-266,-244,-84,-186,26,-236,-58,147,-21};

static matrix CONV2D_2_WEIGHTS_MAT = {.data=CONV2D_2_WEIGHTS, .numRows=5, .numCols=5};

#pragma PERSISTENT(CONV2D_2_BIASES);
static dtype CONV2D_2_BIASES[16] = {-35, 10, -148, -59, -101, -287, 23, -86, -56, 210, 60, 356, 28, -39, 199, -144};

static matrix CONV2D_2_BIASES_MAT = {.data=CONV2D_2_BIASES, .numRows=16, .numCols=1};


#pragma PERSISTENT(DENSE_1_WEIGHTS) // 120 X 400
static dtype DENSE_1_WEIGHTS[48000] = {-79,-3,17,-151,-164,23,118,-23,134,-66,-161,89,-37,-309,-210,187,-315,16,-43,-84,107,-128,130,-182,5,90,163,374,-89,47,210,-36,-364,197,-299,214,150,255,-185,-112,-181,123,268,271,-130,15,96,-209,-39,4,-146,33,-169,-215,-57,-169,-181,262,287,-199,258,118,51,-56,-3,-43,-25,184,-60,-200,120,93,-734,0,204,277,-22,40,30,-59,38,1,-108,24,-3,-143,33,7,74,32,20,152,229,-166,208,67,-133,132,33,350,150,-86,61,-66,68,-64,-130,148,123,77,225,276,127,63,-201,-156,208,-36,20,11,142,-72,14,7,179,-29,140,-45,121,-67,-53,-238,237,-61,-18,-175,147,4,129,-54,80,116,203,-246,-18,-100,-334,84,-90,-632,-58,-18,133,-68,207,76,286,107,174,-73,46,-26,273,401,-9,165,213,55,-221,-76,-23,-27,128,174,54,106,178,-186,50,192,44,21,126,165,-94,115,-42,-78,31,157,-39,-133,116,166,473,300,-34,-21,300,162,-614,297,82,436,57,82,14,-95,-56,-233,69,372,-77,-64,325,331,-31,-63,-236,243,-95,233,-21,-148,59,-30,-45,140,206,169,135,-103,375,33,-174,19,-100,229,-269,-173,7,-360,88,-102,35,-88,102,44,-226,176,39,-145,-119,63,-57,-351,-470,-177,-190,-92,-130,-193,-39,-84,-261,-30,21,307,-210,-236,293,38,20,-135,-302,222,164,-229,69,-56,72,128,325,237,-334,1,66,-286,138,-31,-63,-222,-201,23,13,-20,-125,-321,-129,-434,-18,-34,-296,-155,-207,-75,213,-186,-240,225,-2,-282,-313,-54,-223,-89,-102,-273,-194,81,40,-330,324,-299,-146,-375,-26,226,34,118,-196,22,-176,26,-323,-316,153,10,207,135,-154,-331,244,86,247,-136,-181,154,15,277,23,98,-318,305,-188,-309,61,-30,-102,-83,332,-21,39,-418,-104,154,-160,108,-56,77,-104,-450,347,44,-164,6,-133,57,243,-209,235,-77,11,66,-404,-55,174,-80,-67,-1,-292,52,78,-315,10,-475,-114,-338,86,293,42,216,410,186,376,506,-101,-159,153,-122,11,-466,93,81,-135,-154,106,34,289,-32,-36,268,148,-74,-1,119,-148,-647,170,127,-28,272,681,-252,366,-348,-174,-275,-113,276,30,174,-324,-225,130,-249,-46,-472,69,-229,-291,-36,-36,-553,230,494,-24,-48,4,234,-99,-358,86,145,68,-51,-78,79,-289,-56,227,216,17,0,-93,340,-520,-386,-199,-567,-73,44,-59,7,278,488,-79,-37,-268,-29,162,-33,203,119,40,120,-14,-245,121,68,-211,288,253,123,-150,21,17,-28,91,115,240,-135,0,-228,8,-379,-291,-311,-244,47,288,112,-142,320,-26,-128,-42,215,-113,291,-31,-62,-225,-137,274,-99,-88,182,-79,282,116,-246,-246,195,-142,-101,-69,128,117,255,179,53,-85,-367,44,156,312,-234,414,135,25,-16,144,-131,199,51,-75,103,46,-104,231,-116,-75,198,-162,56,165,-155,79,-44,10,-216,127,181,-2,142,-310,51,-248,294,-21,-23,-137,-124,-196,98,123,75,247,-191,255,99,-90,-44,-219,36,-320,53,520,174,160,43,-64,51,-73,-258,-147,-215,-127,139,209,36,53,98,68,-225,333,195,127,222,354,206,-18,-397,-132,-161,-158,87,106,204,148,137,-15,-76,67,88,-33,-66,95,139,43,-95,-145,-27,-104,-33,53,-83,-225,-222,-23,25,-225,-95,-134,15,182,-145,-224,36,-176,-144,-202,65,-81,-131,15,-133,-39,65,-263,-50,179,297,-4,70,280,234,101,3,16,19,231,-38,82,-182,50,-7,181,-91,-124,-400,8,-45,184,-8,135,-31,-246,-53,102,139,-151,-174,7,-71,-41,-159,38,85,128,261,143,-7,38,212,-101,118,-158,142,-14,-102,167,36,-204,-63,-49,-183,290,-46,-128,6,-53,5,105,-113,-149,-297,-67,-158,-392,80,-9,-74,-33,-37,-221,-187,33,93,153,-47,1,-24,73,48,101,51,-253,155,-151,163,112,-88,-118,230,2,-128,141,67,44,219,101,116,-146,-174,-138,117,181,12,102,-187,291,-127,317,126,-60,-48,-44,-61,-119,27,26,123,202,289,105,-228,75,-77,-55,-12,-302,179,113,210,152,75,427,259,190,516,130,-170,55,-120,-49,-697,48,265,84,-436,183,-128,190,264,-1,228,386,-84,139,-138,-286,-375,116,314,-72,25,71,-208,226,253,130,26,175,-16,87,-55,-302,35,-36,317,51,-444,-35,122,8,54,-16,222,183,-124,224,-4,-188,38,113,8,121,-74,-185,87,-39,49,48,281,-98,193,89,-184,156,-191,182,-194,81,188,-109,-116,100,-186,343,267,-91,238,-168,-27,188,-185,-319,13,-6,-29,35,35,179,-32,-70,231,-2,-16,246,-71,71,-414,-413,77,-145,8,-245,-288,91,-185,105,281,17,-364,-4,-30,-1,-133,-208,105,-151,-132,-175,189,147,30,230,137,-124,-227,-242,-14,17,69,-4,73,200,227,-72,-3,-8,-74,-49,1,-182,188,277,-28,-104,121,221,-223,29,480,148,67,302,-394,194,56,28,1,-97,-65,-146,-236,-18,-296,-208,190,101,94,66,-88,197,60,101,9,-109,-51,-302,-77,235,48,-51,-6,-16,81,111,-146,180,275,39,-8,-60,241,-88,-140,-199,366,100,293,-215,241,-103,-133,12,55,-106,-118,160,-72,201,-22,311,81,254,142,-134,-41,-23,33,12,318,124,-126,-230,12,175,28,69,-109,28,153,209,150,405,340,-395,-19,184,86,98,139,-40,120,296,46,93,-265,25,-169,7,138,10,-99,174,115,-205,-180,110,330,-325,-26,-216,-350,-11,-62,27,313,22,-111,300,254,128,-41,-42,285,13,169,125,-372,74,-6,-15,453,164,78,104,30,417,-188,-98,-42,-193,-69,-103,-92,-55,-3,20,289,144,12,-32,211,22,-46,326,32,-213,1,159,-61,73,-333,-290,133,-42,82,13,142,297,-294,-103,-77,-292,-175,-5,-128,42,-126,-253,175,-15,62,147,-243,125,-85,-41,-100,-68,-139,-84,-197,-279,-26,-83,-55,104,-225,-67,44,-7,-191,-151,-194,-37,-111,-20,-41,-151,113,-241,-45,177,338,-57,-133,-163,-107,188,-77,84,-242,172,164,-109,103,127,196,-98,-214,187,-54,-213,119,35,158,77,338,229,6,62,-57,-285,146,-68,-291,81,21,55,-48,27,-22,99,302,-82,27,120,-386,-139,-267,-91,-283,-218,134,404,-295,-72,-158,-86,-258,-271,161,61,116,-149,-32,-59,-13,-138,74,308,11,-184,-122,116,-264,-119,154,-87,63,7,-164,-49,128,-20,-145,95,63,49,-81,3,-215,-190,179,162,85,301,149,120,-210,100,-10,72,-110,-62,-14,119,24,-239,-85,273,16,-41,6,171,0,129,82,15,-14,-104,-91,-130,-12,-127,-78,-13,132,141,96,130,131,295,-192,-203,32,-253,-165,46,20,138,42,27,44,273,-180,179,214,66,-155,176,107,-285,-30,-23,144,243,70,-22,141,131,192,-122,65,-1,62,105,-196,-168,36,189,-37,361,125,37,-174,-47,-310,-82,160,-118,-22,-334,318,63,149,-240,15,123,-124,-11,58,-128,235,-82,-7,-69,140,-361,75,-65,51,-234,195,232,-80,15,-65,-425,253,132,47,165,85,-40,-310,324,231,-153,-55,-36,-173,-37,-139,210,93,-6,242,23,149,100,39,-156,83,-316,105,-258,-187,-143,-146,-177,-8,188,11,83,-98,302,-244,-286,107,-70,18,29,28,-177,310,-172,-95,-57,-460,-30,36,100,311,28,147,177,66,-61,72,-74,112,-277,-268,241,-297,-214,154,-17,-141,198,172,-151,-56,-106,131,-133,138,-390,-301,-6,-55,-407,63,353,-353,193,-499,175,-336,-195,45,-63,-71,153,-268,-148,-99,-164,18,249,250,196,-153,-110,-277,-33,-79,101,85,-83,-104,49,103,-146,1,-348,-107,201,146,152,-79,12,303,97,-141,-180,-33,-191,24,-103,-108,-34,454,-145,31,-173,-295,41,-14,276,78,334,-108,-261,213,-150,-168,-330,372,-139,-19,531,-68,-176,245,-144,69,247,-103,-385,214,-12,-153,-261,26,43,-61,243,-201,-46,179,-199,-207,394,-195,-22,221,-42,101,-15,99,-108,268,29,-121,28,-14,368,-267,-82,54,39,-80,16,-1,108,56,144,168,77,150,115,-265,67,59,-13,31,43,-113,-245,-40,-125,131,-61,-120,-233,-107,-22,-379,277,-85,64,85,-91,12,-158,94,37,2,-115,-281,14,71,-2,-21,258,-304,89,173,-205,16,159,-40,54,56,-183,-174,16,-341,-295,-63,150,18,322,46,-188,104,85,-13,-75,-70,-415,17,-143,-170,-108,50,281,62,118,-8,-63,-70,87,-36,31,-18,-253,-142,-81,43,39,-92,18,70,-84,-206,52,153,-16,-2,215,47,23,-96,-10,81,-126,40,-224,-53,-327,-602,181,-123,-495,-181,185,-132,220,-44,238,-94,-59,98,139,20,-160,-379,-50,45,-41,-79,-460,-37,-2,-83,80,-55,93,408,55,-277,400,101,-53,11,152,-187,-213,-22,-211,-57,18,29,3,30,348,-332,282,190,-110,38,253,147,281,-170,-298,-2,-129,-41,69,-429,138,-160,300,101,-71,5,-26,121,-21,-189,-124,87,310,-44,-129,116,-146,-21,332,91,-333,141,-101,-62,60,216,-217,187,239,-9,-89,35,188,-242,-101,-47,-5,-107,-210,440,-34,87,-7,254,-69,186,85,-325,271,-420,76,282,109,-78,237,327,403,-319,254,-17,-451,-203,-448,-397,125,-497,59,-146,-183,130,302,-70,-25,24,-294,-18,-387,-143,-190,-250,-91,-8,100,-86,-30,350,-108,-75,-182,142,169,264,24,3,173,261,97,-40,114,217,57,-17,163,211,284,192,119,415,-223,163,161,-331,95,212,83,80,98,8,136,-25,187,284,36,-157,-114,46,-211,-169,-408,-64,-97,-203,91,106,-69,-481,84,-162,107,-238,122,-291,-236,61,-138,-62,-18,-580,-165,187,-248,-198,-196,14,-97,-180,-2,-7,202,492,-229,72,-346,-101,131,-156,-168,39,60,23,446,258,-366,-105,2,-36,38,-17,-96,116,34,88,-33,271,-244,-22,143,-197,-41,112,198,-61,-134,-26,-163,-68,279,-148,46,-74,4,-165,-114,-71,-74,257,-82,185,-87,18,-31,-64,239,366,-92,-315,7,-134,128,91,109,130,149,130,65,214,211,-104,153,-181,-182,-86,271,-35,-99,-91,154,-131,128,99,276,-321,303,-145,53,48,77,20,-112,169,3,-103,-173,-182,-68,-176,-394,484,-42,238,4,37,405,-147,-386,183,177,256,76,-30,293,255,-155,247,-343,54,338,81,33,80,-245,218,94,173,31,198,359,-226,302,-62,128,113,28,78,56,-2,-25,-208,-332,-281,171,322,-74,98,135,-248,283,43,139,-318,-32,122,-122,-278,-274,-42,100,374,-211,-212,-37,40,-35,-295,150,-6,-1,-253,-460,362,131,6,-96,169,363,-297,-17,384,-320,59,-131,-378,44,-188,-266,-4,216,452,-61,99,487,79,-5,333,-620,-96,405,-149,-135,-312,57,-229,261,-242,195,12,-13,-6,104,-74,-277,-227,-90,-171,-196,-323,-34,-67,221,-177,-27,-78,-131,-155,194,-144,-39,-480,-282,-128,17,-14,-53,-199,43,104,-182,-452,-151,-124,216,110,-10,-33,-164,-701,8,50,-271,-82,-107,-63,317,308,114,-322,123,135,2,214,-139,-513,83,374,-238,-247,198,220,191,97,194,-233,152,99,130,438,-53,-138,-77,126,-211,-171,162,-158,103,286,140,37,-254,76,-66,166,81,20,18,308,-8,209,-163,254,-149,194,131,11,-161,16,-222,8,-64,39,-16,74,262,4,109,93,103,8,-119,-51,-80,-96,-67,-243,249,-530,21,16,-91,170,-169,62,18,116,-212,-66,-56,-243,-93,2,-166,88,-77,54,4,-235,-265,-23,-79,-229,-145,-46,56,146,-129,-117,-96,-35,-190,-49,0,49,-40,-30,38,83,45,-123,-41,-36,-97,36,280,-178,217,-50,-83,101,127,-27,78,58,-3,38,49,-1,-69,79,-28,58,-45,-42,-36,105,-48,54,72,-161,-152,-57,-70,-174,18,-143,281,-103,75,9,38,-47,-34,-93,-267,-29,-111,-74,-65,215,170,7,-88,-99,-225,-125,-21,176,-410,119,136,-44,-177,48,-35,-25,165,-153,-15,-102,-176,46,108,-18,47,22,288,213,-90,162,-165,-91,-78,-14,59,-76,75,219,25,97,65,35,-91,216,-28,38,-12,191,126,161,99,272,83,-25,-77,6,105,80,174,-38,247,-69,122,20,-109,346,-183,37,-200,134,-182,156,-115,-104,-120,38,84,-232,-200,-154,89,453,-80,-53,33,-2,-34,-76,90,91,33,382,-66,60,-206,173,-31,325,117,186,158,-22,-8,-77,-2,182,-80,253,103,-35,105,-140,-90,119,239,-49,-145,-25,291,-185,-6,-291,204,144,-171,96,5,-67,107,-67,-102,151,-105,-158,51,-150,-213,6,-95,-7,-233,207,201,-170,279,-89,197,83,-191,46,-54,22,-116,-81,-47,-147,-23,-283,-115,113,-118,-46,144,100,78,59,235,-44,82,-304,-139,39,85,105,-102,112,-80,390,133,10,149,205,-146,252,133,57,-50,43,176,-148,-1,-16,107,-202,189,424,-130,18,50,-179,-127,-305,-30,-31,-86,59,24,-231,336,-115,-368,-26,-8,-66,109,3,-158,88,79,87,263,105,-64,-48,63,-271,58,72,-309,-176,-12,45,41,-158,-38,-244,134,-147,49,125,-47,64,254,287,206,184,-533,-8,132,374,-67,177,34,-16,-145,-15,-198,-79,194,-40,28,0,261,-170,4,-236,-25,-94,-115,22,-44,182,-96,-168,148,120,-60,-35,300,137,138,-171,81,136,58,58,94,-323,36,-106,-194,55,-21,-95,107,-71,-188,-184,-126,-104,-263,-125,-242,164,-348,129,-140,-204,-139,262,134,36,-137,85,36,-183,79,241,165,-35,-444,-232,-184,-166,-362,20,-337,-294,206,-61,-88,41,-169,-105,-219,82,-67,12,-1,63,-45,126,-59,-339,3,-7,142,110,99,173,-73,173,92,-78,368,247,-243,-182,418,-139,-79,-408,-16,23,6,127,347,-54,317,-231,285,477,-172,-350,265,191,-477,-174,-74,-244,-281,142,101,87,181,172,-170,-95,205,-139,251,-278,-187,-16,373,-237,-336,165,-27,13,470,-273,-2,1,-56,-178,69,84,-211,-244,172,-298,-106,22,287,53,129,251,-196,120,-19,197,-313,78,2,87,96,87,102,31,-138,-10,47,86,143,477,39,396,-505,74,194,-19,-137,-284,49,210,-170,-160,410,-45,-21,343,179,140,-94,32,-63,211,-245,-91,200,-54,-6,3,-207,-33,-210,-119,-3,32,224,-169,-83,320,118,-231,17,126,-122,165,-480,-10,-62,-61,-241,-119,-117,-89,2,294,-90,157,-32,385,507,108,-56,-130,-211,194,-62,-88,-19,0,-274,-139,347,86,-272,-233,117,-162,218,-106,1,-57,53,-76,202,-526,-407,103,-90,-182,-292,200,-20,-223,193,-147,1,-301,-63,15,663,-280,-466,-8,-189,-123,-262,-334,6,52,-37,203,-93,62,-82,-319,3,-50,-163,143,-81,31,-19,34,-59,265,-233,137,-142,-236,-237,-8,57,-69,4,41,184,6,160,184,73,66,-205,-243,-75,4,-410,-95,61,-29,305,-275,-130,-142,-38,127,8,-70,-171,-4,-107,121,-47,-147,-329,121,123,34,-328,-173,-22,122,-243,-46,31,-291,-234,460,-55,-138,39,17,-46,-140,-308,-431,-221,-94,323,-83,67,170,24,165,-146,254,-133,-76,-208,35,-250,-54,49,-45,54,-107,149,105,-123,-67,46,313,-23,26,-137,94,99,-220,-83,0,50,-152,44,-163,-174,259,-163,-3,232,-118,-173,47,-99,37,-80,103,-271,109,-47,50,191,235,-14,240,-139,104,-22,-11,343,129,116,226,-212,76,-204,-135,74,154,-116,65,346,-143,116,-118,119,9,323,534,-137,-276,-138,-41,2,342,105,127,29,-257,86,-11,-7,-100,-95,183,53,-56,353,126,24,215,-49,166,381,-26,-119,-1,187,-70,15,209,83,-134,450,-2,-107,265,109,263,165,320,-21,-132,131,-93,-147,-64,209,-185,162,154,203,116,-48,-271,-154,139,-36,45,106,5,55,42,57,130,-70,165,-216,187,-9,-8,-255,149,54,315,216,-46,136,80,27,132,131,86,84,334,-257,170,161,-440,144,59,182,-124,-98,244,37,-122,45,153,-73,224,-58,200,-73,38,51,-90,66,4,77,-120,-363,-71,-88,215,237,-82,102,-29,-444,364,180,460,-303,12,218,-229,-498,214,-401,37,263,40,-53,72,59,160,443,271,-73,-72,109,-130,-1,432,-195,285,-58,-215,-250,-31,-237,127,484,205,331,212,134,70,154,-82,152,87,-167,-73,210,12,-254,206,56,-76,93,378,-28,-174,-118,-75,93,221,138,-123,218,-120,-132,40,251,69,-112,320,245,-191,-290,148,-168,603,132,-154,29,27,-158,233,246,115,117,306,394,-513,-22,0,-112,345,209,-65,-72,137,144,-114,141,-27,139,223,-50,12,110,173,-90,145,26,202,-20,64,384,52,-114,-152,73,357,-345,-2,70,-30,-360,-186,-181,-453,-101,91,-324,63,-66,-4,-106,-20,99,-268,2,-116,-262,-21,23,-339,-62,267,-370,-75,-11,-6,-157,167,125,86,276,-13,-178,-138,63,26,-15,73,-102,205,-210,-101,-142,190,125,-28,101,-3,-49,-70,-98,139,-211,-17,-156,-425,47,-185,392,216,10,64,382,42,155,-262,7,-54,-228,63,-130,-13,-186,71,-141,-1,110,153,132,17,0,-188,37,-367,-37,95,43,-71,-280,-61,405,-102,-146,8,27,43,54,-200,-68,46,214,149,162,-29,-55,-214,118,-424,-567,261,227,138,81,-300,196,-222,-344,15,40,83,-294,-101,95,9,-322,111,118,-316,85,-227,17,254,85,176,274,51,122,-115,-83,-192,-197,28,-371,6,-121,-131,-29,-68,-119,86,21,63,377,201,-245,-171,382,327,-36,-231,-203,24,-21,95,-29,19,-149,-59,89,-19,-41,-209,-82,107,-32,-213,306,30,-6,74,52,-153,63,248,-229,40,-345,-147,-151,135,-176,66,-84,-78,16,-66,36,-171,15,35,-27,24,-84,-239,45,74,71,-3,223,376,-214,49,347,-164,-172,-33,-266,150,81,48,178,284,-549,186,0,152,160,95,82,-129,105,291,139,325,-220,127,-36,18,-219,-12,94,27,333,113,55,-134,92,-138,51,-161,-177,197,-22,0,-54,244,-126,27,21,-150,-347,-18,-3,239,237,30,263,115,114,44,89,25,-56,172,266,197,-38,32,58,-24,304,-137,62,-48,-41,-15,-82,-105,111,160,24,78,309,-17,252,-21,-132,-56,-355,-257,86,-192,52,82,97,307,-16,-156,41,-191,-176,22,-210,88,213,58,80,-78,-179,426,-270,-192,-4,81,-114,-219,79,-51,80,167,0,-33,153,207,233,-19,-213,-114,138,182,-184,84,-193,249,-79,56,256,-42,184,-75,518,114,83,38,-152,2,227,116,-117,-143,-197,194,52,230,-22,-32,-150,-112,88,317,-168,46,312,-24,-38,-229,-65,395,-98,60,175,-102,-177,22,34,116,-138,195,94,125,80,243,-84,-151,21,353,190,-390,-241,-65,-447,26,31,-70,-71,39,314,51,105,452,-248,241,110,122,74,-17,-145,-217,-60,-120,-381,-60,158,-35,67,-5,-145,184,-179,-332,44,-12,-292,-88,204,-3,-57,125,214,-75,17,-286,-55,-55,-224,64,302,38,-233,126,8,23,106,-21,-105,-296,11,-287,-35,-93,-110,24,307,-106,320,-50,135,236,72,-3,195,-273,-250,-345,8,-202,-120,-131,112,-176,380,138,17,233,80,25,636,-185,-335,-55,208,-191,-172,182,278,103,83,-318,189,27,-294,-118,313,51,-179,-226,61,-160,-217,-102,124,-4,116,-278,-106,-147,-171,235,-51,26,-379,-153,71,47,-202,-78,67,-227,-88,-224,90,133,-168,-3,-158,-210,155,-291,23,-98,159,343,-90,-150,235,97,-121,269,187,100,-45,-135,133,92,-113,-287,124,342,-136,-214,303,245,123,576,192,146,5,-153,-73,132,1,-170,-93,232,-380,-189,381,45,-65,305,-117,-300,385,217,147,106,-63,-44,-71,220,-24,195,-13,-249,332,-91,-37,-415,-24,312,-42,-4,132,99,-30,92,91,126,34,-56,0,-68,174,-69,-13,-147,92,-318,-157,-86,57,-107,-82,-17,88,188,-199,11,202,-118,-4,-10,-3,126,3,138,-50,-56,-258,-56,35,-78,75,118,27,-20,-13,-105,246,-71,-157,209,135,-4,-385,181,-316,56,-104,67,-98,-56,44,-35,246,145,-111,-39,217,-95,-64,81,-31,67,255,-1,-260,36,-270,207,195,120,134,273,8,-62,-412,7,-245,138,304,-68,-2,129,64,-96,140,263,74,105,26,-10,-493,524,-410,181,151,181,-188,78,-35,-20,325,-183,61,109,134,-62,94,163,196,177,93,123,469,24,182,-181,-23,-149,76,61,-153,296,-194,59,211,103,161,129,297,-60,-145,67,65,-143,-274,219,124,-4,-50,396,101,376,330,253,215,19,1,-94,35,-16,-194,332,-19,-66,41,-145,-3,129,365,47,-28,-199,266,-325,-257,-497,196,264,-53,90,342,-203,568,28,-116,-214,39,-152,-47,-71,-506,-325,260,177,-108,-153,64,248,-314,-91,57,-136,62,7,-309,298,169,14,-312,-51,241,247,122,235,221,80,-90,-149,74,71,-478,203,-6,-95,-286,-13,-56,-114,188,101,-367,-240,393,15,82,182,-127,-163,194,-189,-20,39,83,109,100,121,231,-161,124,108,98,-269,-210,103,44,-101,-315,-89,3,-185,199,-143,194,-571,48,-34,10,-72,-28,11,-167,-70,-227,-357,-212,223,59,93,-38,-142,-279,-515,-80,138,-85,216,31,28,297,-66,-244,-79,287,-176,-136,-44,-316,-464,-120,136,-6,15,225,26,50,-23,-189,-58,-179,242,-218,252,-258,-222,28,118,-73,-82,291,168,-141,-60,62,-153,-265,-138,-134,-106,-225,125,173,275,-56,-74,148,196,-187,-179,139,272,-128,127,-252,161,43,31,-118,258,312,-79,-4,6,-42,-18,76,-22,-307,-179,-10,-284,171,-352,-212,-24,138,230,-57,-9,-25,-278,12,-26,-112,109,195,-126,-31,-99,112,-129,-26,37,-390,179,-174,-153,-10,-127,-136,-118,-149,-88,-109,-62,-260,-15,188,-217,97,-189,346,-216,110,155,40,144,139,29,106,191,-107,-21,-361,373,13,162,287,64,237,-125,-43,55,-76,115,29,208,197,-161,-255,57,63,55,-10,-284,149,-13,-182,122,127,218,-284,29,-3,-227,-64,137,13,-55,52,-218,20,167,186,-18,12,-67,115,-213,-12,96,-9,311,-180,72,453,62,-200,245,-50,-26,218,58,-162,208,40,23,67,92,-247,-5,-167,66,-186,-41,-74,-17,62,36,65,-77,-169,158,-73,-34,130,-41,-34,205,256,176,157,-61,-15,186,87,-61,162,146,243,-11,124,109,103,-11,34,-162,13,30,281,160,154,-222,300,74,44,-54,-22,138,64,85,-6,-180,-43,-35,-405,133,-268,-74,-288,-242,20,100,264,-222,-219,-24,65,-2,102,226,13,96,227,92,-186,69,-118,147,42,6,359,157,227,62,92,-354,115,64,64,134,-145,136,-186,-361,1,228,-12,-385,46,138,14,205,-7,99,-72,361,-136,28,6,238,-146,216,-125,-131,194,37,-157,195,-85,19,296,138,114,-11,-243,26,4,-150,-274,145,-99,191,-237,-134,3,-98,-53,-172,-91,19,243,102,205,327,53,11,90,313,387,-52,-116,-215,10,-68,-265,-202,13,81,23,-129,195,317,-103,-139,-273,-222,-3,178,-121,-148,34,185,-165,-51,32,255,-118,-472,-298,-165,-209,393,-49,188,-321,-358,55,298,-221,284,167,328,-182,-304,207,-151,-113,9,72,-95,224,-68,177,-27,-18,265,208,-271,-22,162,-3,12,-9,255,-259,227,-346,117,177,19,-143,-59,279,-12,201,132,379,50,-121,-49,-128,-201,307,69,178,104,-46,-26,168,22,-229,149,-103,-229,-211,-10,-82,-84,52,-77,228,-23,404,42,113,159,-175,105,-96,-111,-249,236,-203,88,-19,112,-122,-27,-144,-73,144,-38,73,137,247,-214,126,318,-87,107,-366,-41,-200,-21,-168,98,-36,196,241,212,257,-24,322,120,-32,288,94,-166,181,239,92,-114,-203,125,-10,313,30,-75,-65,178,132,137,175,116,158,156,360,-167,-410,-277,38,-23,-308,51,-64,32,7,-362,-54,165,40,-335,145,128,-278,-268,148,36,29,129,190,177,-81,-389,241,-119,-202,-97,-467,-65,219,24,509,428,228,202,450,-233,15,21,-140,-428,-216,213,-99,5,-200,44,51,207,-61,-225,406,-234,438,54,44,269,278,227,-86,-273,-99,-400,190,94,-230,-192,-237,-183,232,-60,35,323,362,18,-72,-338,-298,57,-311,-58,217,2,202,-330,311,-90,-161,276,16,-9,40,-16,-256,-101,-66,-76,162,-184,495,-244,197,282,-64,-682,-187,241,346,-313,-329,7,-29,229,-102,-23,-156,-377,-187,-65,33,-80,-28,-17,-60,15,280,-110,21,-75,206,43,201,-70,-167,-305,-59,-126,-219,264,-214,259,-25,121,131,-59,74,-170,-80,108,-60,6,-118,-156,49,125,-283,-11,202,-27,-142,-108,-163,180,-428,247,-125,-3,233,486,100,-107,-274,139,125,185,-87,-269,211,9,358,23,378,-210,373,287,-169,-152,6,350,63,-96,36,223,234,11,81,370,334,262,14,-407,37,-32,-127,129,-119,152,181,149,-7,92,114,-92,7,-169,67,-296,-89,68,28,58,-90,-16,-229,-98,-102,-119,-23,123,77,-42,52,-126,52,9,9,-109,26,239,63,-156,86,-80,-324,127,-189,320,-56,-163,-59,90,-203,113,412,247,19,-129,317,180,18,194,-246,143,199,-121,-226,31,-56,223,147,-197,77,179,-287,-149,131,-11,-150,128,-316,-11,11,62,-326,214,352,-19,-240,14,286,-87,-22,29,-166,17,-9,-165,69,46,-292,100,120,79,9,-105,167,62,-468,228,-102,-12,-264,57,-51,-354,19,-211,36,-71,142,11,-112,285,-203,106,-293,-5,-196,-14,-259,-167,-129,-187,91,285,270,-45,196,66,-86,82,192,70,94,-354,-186,100,86,114,185,-168,106,288,-180,-300,55,11,12,-57,-24,-246,116,-129,-80,94,-131,16,-77,319,207,-136,122,135,-231,84,28,47,192,-106,-249,-94,-267,28,306,275,150,139,154,-103,58,25,-15,35,371,66,391,-314,-224,-70,18,162,79,-13,467,-252,137,143,-126,315,82,-89,192,-62,-354,-149,28,150,-30,-23,41,-429,309,-42,-248,-108,155,-106,84,-10,-398,-179,-232,127,-361,-34,-128,72,-116,23,0,-314,105,106,93,-131,36,23,90,-55,-125,-29,147,142,77,119,15,-152,-53,49,-193,-54,66,-294,-192,-81,-14,-296,27,-105,239,288,-41,277,14,351,-323,-227,-104,-68,39,63,17,105,182,-242,379,51,157,414,258,15,173,99,-296,-233,-136,-38,-100,98,214,-272,465,-286,42,235,33,-188,220,-83,-338,-60,-232,-326,-244,-109,221,-19,183,20,-19,13,197,22,107,-143,-190,-254,-69,-100,-87,-47,-22,-74,139,209,-389,23,158,-31,65,-45,-280,-56,138,-123,38,-6,235,90,449,85,-181,78,-121,92,-175,115,-134,340,168,421,4,-171,-125,-255,-13,-48,-13,3,161,-41,99,-274,-33,94,121,276,136,-175,406,-33,168,114,33,-84,-83,-199,-91,210,-295,-29,109,136,18,-123,-69,-77,-82,-35,391,330,-21,155,-26,-343,22,-144,40,128,28,134,-303,-488,116,-194,43,273,232,-47,238,-121,-272,70,-2,-176,-152,214,253,-351,-54,-63,-94,111,-142,-20,186,292,-116,-165,-397,-154,-139,-208,52,14,-244,-153,-142,-118,83,18,34,-240,278,-117,-8,-334,-310,23,-96,-300,-6,-41,-15,57,-128,38,-179,-126,-8,-145,-71,-230,-88,-31,174,-155,-247,-228,-54,102,-289,339,393,-435,-34,-168,-129,-492,-147,356,23,98,403,41,88,152,169,305,-192,49,-64,-14,46,40,43,165,-119,10,294,-245,167,102,-132,-63,241,144,-342,-189,-123,-90,109,264,56,44,34,-107,210,-26,-302,-369,-71,93,27,-77,367,-20,128,48,-12,47,82,-155,-73,-107,-229,-66,32,-162,-1,-206,-82,-43,-32,259,184,-446,423,-15,-74,427,18,-213,293,-160,-275,-193,289,-387,-420,39,175,-306,364,102,-108,-30,229,-218,444,94,116,-50,-365,299,-234,3,43,40,82,221,203,-17,148,-23,-66,-11,-117,168,-88,-130,-91,-191,-115,-69,-52,124,109,105,17,-13,134,-104,-282,-217,-21,57,215,38,-60,109,-64,-17,13,-19,-40,56,-192,0,92,-29,-52,15,156,-69,-20,-17,-179,13,43,225,-380,281,-351,33,245,93,-19,187,216,1,-142,-99,102,-70,79,119,-181,138,23,92,108,-117,-135,-128,0,72,241,47,-58,58,76,31,50,229,-152,66,103,134,77,82,203,93,9,-50,-25,84,59,15,170,296,153,-101,-42,-43,-291,73,1,-154,178,430,23,-129,204,59,64,-276,206,-61,-81,-101,27,134,36,13,-63,-40,200,229,21,355,-83,-196,-190,39,67,-442,-18,98,-16,-123,134,-250,312,-105,107,-118,-41,139,-167,14,-146,-205,-33,98,41,-123,155,-111,-91,20,-3,-249,373,-68,43,-13,-107,-101,-177,-144,39,47,298,178,123,88,-60,166,28,179,-210,160,-270,88,-64,-283,-147,-10,-92,-159,203,-52,167,240,204,1,23,-166,-296,136,-180,-268,57,296,136,-64,105,-238,-63,-3,-254,9,-157,280,103,74,50,-267,-70,-94,170,201,249,-81,-85,-99,-62,188,-159,53,18,-91,-144,160,-152,-111,-118,-68,293,205,-37,-78,116,229,-273,23,-30,419,-208,-141,-78,-11,25,-230,-22,-21,-71,-214,-68,23,182,-129,31,150,31,-66,65,-24,104,80,92,227,-405,-29,21,185,-137,42,87,407,-52,-119,109,93,-71,72,-110,-28,-66,48,-68,-316,-400,236,223,109,-321,24,405,-353,-36,49,-180,339,-52,-90,17,-33,-408,273,293,59,85,597,75,-490,-102,-173,-286,285,-316,-54,239,-223,393,-35,183,-101,-83,22,-13,-332,-223,128,21,-133,-114,112,248,-294,373,-106,153,-75,18,-73,-33,43,59,-22,238,-86,103,-20,5,-83,520,-11,-124,-191,-15,158,-261,-166,-122,470,-200,-63,-7,-196,-189,210,97,209,-227,-41,-72,454,40,-148,-161,58,-272,-291,352,-178,-84,13,-40,13,136,-501,101,421,-36,-293,38,-39,-306,-45,335,14,34,-126,130,-292,24,-453,248,187,205,10,281,46,25,-148,151,29,-196,43,-73,54,38,-201,34,81,-91,86,27,-98,248,-1,105,170,-153,-161,-165,18,-267,-316,-190,-77,-121,255,238,-25,95,323,57,107,118,174,-160,115,-229,20,61,130,69,-33,-27,72,-165,-29,206,-96,127,-423,17,249,-135,-28,-132,318,-135,152,-43,265,-283,-195,15,-145,-202,-122,87,48,36,-10,330,87,8,200,-87,111,64,-160,-53,-11,-176,54,-313,115,177,10,171,-94,-144,177,153,-74,-164,-234,-193,-100,90,144,157,134,152,147,-114,-299,-74,-51,-249,32,-125,96,-3,54,108,-122,-354,-15,43,446,-353,256,194,-25,-52,-129,77,163,95,113,-306,-19,61,15,4,-49,203,117,-195,-295,-112,-334,539,-121,-298,-122,-177,-82,-74,228,38,-458,88,-133,-104,-237,48,-125,167,-57,-153,-175,41,186,-111,167,326,38,8,-61,62,-309,67,-62,-25,136,31,32,150,176,118,135,68,156,-68,-98,-315,-8,-191,62,323,310,193,14,114,-22,182,-248,43,-70,433,240,77,250,-45,-16,-143,-381,204,202,47,-23,147,194,222,-203,-100,53,84,27,58,-96,433,-276,-77,-27,251,-278,-377,489,-39,235,-293,152,74,-326,-221,24,-139,-29,117,-78,12,198,245,-76,-13,-61,66,74,247,-150,-78,77,-15,263,89,-45,115,-82,169,151,55,5,176,365,234,-98,-128,227,-107,243,-68,238,-92,76,7,-36,73,155,-2,-135,113,-56,-501,-148,-177,-22,-47,-83,-5,-66,146,150,107,288,-315,57,168,131,-92,130,-151,-34,368,-223,-80,0,-3,174,26,155,-12,137,200,-224,98,-256,-66,-82,294,-259,202,165,315,-516,-95,-46,214,201,-157,-53,110,62,138,-223,-83,221,151,-80,46,-165,-486,-397,-151,258,-106,233,187,207,-256,-2,-132,76,-6,93,-258,88,15,-136,40,-121,51,337,-31,58,-46,230,74,-148,62,135,10,-192,136,329,-57,16,38,188,93,257,-201,49,313,-13,-212,-187,175,-31,84,-146,-230,44,-220,-5,344,21,-319,-103,-6,72,-174,-331,352,-286,-4,-424,95,-127,-450,69,2,31,71,-93,-30,-23,-263,-73,-167,-193,-14,-177,21,-404,75,224,409,-268,211,-55,-139,-61,92,224,-137,81,-81,232,56,-142,-79,-96,337,115,35,215,-311,-290,295,165,87,-141,-255,113,81,10,-17,166,-77,272,-58,-106,179,97,-41,-331,52,49,-85,-373,5,7,-161,-70,-23,96,322,-515,27,167,-188,-149,-190,-144,-121,-103,138,-91,33,386,263,-191,170,146,105,193,125,116,110,-6,-143,8,-428,-284,-123,-110,107,-272,12,-127,-66,-45,-26,195,135,-356,-197,12,114,-257,-166,309,2,160,-17,-232,-119,238,206,-27,142,103,-265,158,-90,-169,-24,315,203,-28,3,-336,134,245,-91,105,127,70,-115,-60,60,141,119,-147,76,-211,103,150,-117,124,-104,-42,-30,-122,-42,-258,98,19,76,172,230,-309,81,-103,31,-240,-39,160,59,14,-306,-18,34,85,130,-4,0,-191,209,-272,-22,144,132,-134,80,-92,-37,-69,-25,-239,-277,89,-118,121,414,230,-74,194,196,179,-205,123,116,465,-24,69,-66,-228,-63,9,-68,382,74,50,98,-171,345,-125,125,-214,-347,-41,164,-59,144,-256,-57,-43,-80,51,-8,-391,42,-67,70,116,-128,-64,-515,-44,-95,-44,-44,-233,-341,-351,-62,-267,-247,127,9,-112,-242,-340,-123,147,-68,-186,-241,139,-346,-9,-134,72,-306,-79,-54,402,-122,-242,364,73,-38,118,-9,-35,60,-160,-35,-45,-189,89,-45,2,-330,-56,198,74,-109,301,-390,121,281,120,-47,-281,96,53,77,-27,89,27,-11,47,-32,23,122,-127,167,306,-231,-204,166,55,-75,-170,373,208,116,29,-500,210,-30,-153,-74,-212,-354,-78,277,158,191,-15,-131,-116,149,262,-110,10,173,-157,-103,-241,-2,-21,139,-3,-68,8,215,4,-197,202,-330,197,162,87,174,-66,100,144,113,22,193,-97,-270,-92,-15,32,-115,261,-248,78,367,85,156,115,167,-135,142,-165,280,125,149,128,-57,-1,61,127,-89,150,-26,72,372,9,-160,39,-241,327,-68,-189,-4,-44,-197,-76,-39,75,-426,-17,-211,94,61,-232,232,334,-44,50,-3,-107,-194,210,-162,117,74,-21,-486,314,105,-10,-84,117,310,-193,-154,-21,140,527,-187,-96,71,-21,-165,-72,-47,227,-49,472,69,-109,-47,209,-312,119,501,312,64,-130,-171,61,304,188,274,245,100,8,-314,284,-154,-197,474,449,162,-91,-332,140,145,105,-21,-88,227,-22,312,224,228,-115,486,168,-434,-305,243,245,-187,-197,252,325,107,214,-27,-125,-56,-263,-374,-74,-24,-238,28,97,-225,157,-112,-369,-27,68,-60,48,-82,-256,38,178,-114,-115,-51,49,203,389,308,-163,253,-18,48,326,-292,-56,129,69,45,-10,-68,-250,60,208,-190,-6,195,85,-129,-152,-145,46,-104,22,-212,-106,-155,115,8,139,62,64,-34,-64,2,-95,59,-71,53,-136,-228,-198,-151,4,153,139,221,275,26,18,-50,-112,209,116,-41,-139,-89,167,199,-325,209,197,24,37,-169,23,66,99,35,143,-409,-198,-327,-222,44,291,128,79,220,-8,-35,-112,-337,326,-391,259,139,68,104,126,-135,42,527,89,97,-34,22,-63,-113,154,-70,-7,-45,-92,-121,-51,132,-24,402,92,-333,-1,91,-53,0,-85,16,-45,-167,-212,-39,-108,174,115,147,22,33,163,-110,-58,265,-51,221,302,-29,206,358,-196,-68,-5,-168,-227,186,418,48,11,-84,-59,376,28,105,277,230,-127,-261,195,-317,42,-74,422,82,-133,-59,28,-243,129,258,161,25,-439,75,68,-113,20,503,80,268,287,-307,247,-310,-78,313,125,15,-103,-57,-39,137,-115,240,71,391,49,165,85,168,-281,375,286,-141,-396,285,-22,-373,-464,-102,285,-183,140,13,-162,127,-5,24,120,41,272,-168,-39,275,-92,-24,207,475,-368,-235,-305,-233,-109,27,-42,452,-96,-113,45,-118,-318,-201,4,64,-53,155,62,-255,220,-59,-30,195,-61,-33,-253,-64,47,-168,27,-98,-8,304,-18,-111,301,113,22,-115,55,-68,-48,91,-233,154,4,-92,7,108,-253,200,26,-260,80,-50,216,-107,94,-149,84,-103,-331,-101,-306,-2,-63,-54,156,58,-333,-120,-74,-6,150,-96,-159,-299,289,-185,62,30,-13,133,-12,42,-157,-107,15,-178,111,27,-19,-178,-68,3,-4,79,159,183,-26,109,66,-168,259,-71,-176,75,-125,256,-78,12,192,161,-171,127,161,-146,53,198,89,302,56,-142,-169,-94,-262,-124,-78,169,-121,393,-222,-195,124,-160,72,13,88,-200,-251,-237,-431,-215,-48,59,-275,-140,21,89,-23,111,-59,-132,266,-160,111,-283,-71,262,40,83,129,-233,76,44,73,-281,-106,-210,-41,-99,47,-184,125,232,268,276,53,-77,-120,208,81,-137,97,40,-159,10,-338,220,52,-51,183,76,-101,174,-364,6,94,2,-5,-44,-21,-208,-98,48,-210,10,38,258,-220,347,-84,150,-40,134,-129,1,18,-264,139,44,-177,-18,-43,159,212,252,-46,84,-208,102,-13,396,-119,-111,-88,177,-94,-382,-83,499,55,127,189,-349,-335,131,353,311,-190,-137,-268,76,31,-338,-35,27,-175,-35,-53,5,-226,-197,211,215,-137,23,-74,82,-65,-354,64,-190,25,153,-84,-425,-172,47,213,-56,247,-117,131,-314,-446,-25,36,-6,-143,-56,84,-332,50,-66,147,-25,-68,104,39,-93,-50,-214,-58,356,37,291,161,-18,309,-45,-122,-527,313,3,63,117,418,361,-301,363,-335,319,241,95,179,154,-25,-17,30,-178,148,-126,-72,56,-478,-73,-81,55,103,-329,58,186,-332,274,51,-226,-80,-377,-298,-37,-51,32,174,65,-76,-12,-123,-104,-134,1,-24,-340,96,192,-268,122,43,58,27,91,-124,180,-170,232,-38,304,85,55,-53,-29,-38,27,-153,-81,379,-373,-599,433,-517,-343,39,61,5,576,-77,-205,64,213,-402,-39,214,-395,-297,302,-142,-98,63,-281,-270,522,-144,25,57,131,0,86,-19,-147,40,74,82,137,302,-110,54,98,33,160,41,275,217,-41,60,73,38,-4,137,-59,148,49,-132,174,-16,-152,-168,121,73,-270,-11,-20,112,86,224,-107,-16,-158,190,-66,199,11,151,-32,196,-51,48,-94,243,39,-87,76,62,-50,461,-216,62,142,-21,-20,-31,1,112,290,-41,35,-27,-159,-265,-47,171,38,-168,166,59,-47,331,-73,70,-154,209,19,-133,3,-47,341,-72,-122,-72,149,156,6,40,38,-192,-75,188,-74,200,231,130,93,73,141,270,-65,-176,-207,29,8,56,35,5,-19,101,-29,117,117,95,277,80,78,32,61,-64,27,-70,-116,-218,56,161,-187,-148,-139,285,77,-3,174,-36,67,-292,211,263,-71,-215,30,-87,-132,46,-186,-38,27,10,180,-84,144,-84,-163,163,-4,-215,13,49,88,95,-193,37,-2,283,-50,-30,-44,218,-148,-52,26,5,390,305,195,39,123,22,89,384,-233,73,32,82,-134,88,120,111,-17,70,-57,-189,217,113,-84,-28,80,-10,178,-32,-273,-102,-232,26,38,46,-123,-56,303,-244,46,-81,-110,-7,-165,-88,-246,-179,-145,-74,-12,-57,-92,-102,177,-91,40,243,184,76,-38,23,74,106,68,176,-34,-96,0,119,-281,123,330,263,210,-181,39,-161,-226,188,-241,615,103,220,111,81,-373,68,427,85,-50,54,219,-122,-289,127,-176,276,164,330,-110,71,-106,-60,247,-102,-171,139,91,-57,-55,-42,-60,83,22,150,-108,157,274,-31,58,-14,-181,-314,-147,134,-43,147,-70,-308,140,103,-236,107,223,-50,-78,-144,98,54,-65,256,25,129,145,-40,-60,-78,129,-49,210,18,-334,-63,129,41,-212,18,242,-101,-114,29,261,-42,-98,-98,41,-203,108,-213,87,437,45,61,358,233,44,28,120,34,1,90,220,-293,-5,-545,183,223,198,169,112,-188,149,8,-35,185,16,-258,303,-143,-244,-28,28,-205,-120,190,-133,181,121,8,92,158,108,-180,177,80,4,-10,-81,54,-15,9,130,-145,248,229,119,120,130,55,-73,67,-207,-265,-185,-14,-288,-121,493,-164,-25,-197,125,233,-173,-91,-24,-47,-317,-274,-102,223,-83,87,426,-279,225,-34,-45,-67,71,-48,154,-158,-399,42,-273,-393,-98,-46,-200,-162,-248,34,73,280,78,95,-167,-261,291,106,-207,78,384,148,3,172,-102,198,70,388,-117,105,-244,292,269,228,-314,45,263,-73,-110,-34,33,-73,214,-107,-180,11,-202,167,113,-175,136,-5,27,46,-176,-1,-145,-488,17,-479,-239,-97,-2,102,0,-120,152,-124,-20,60,-91,31,-265,-264,-370,-228,90,389,-92,-249,112,-37,-13,-533,-322,4,-3,-174,-169,-86,-215,22,-98,129,171,-216,-6,140,-103,-198,25,-42,-232,16,-64,-223,-37,-85,114,165,228,-187,-159,416,240,-105,-26,336,-186,151,-19,-228,-354,228,-54,-42,227,-170,-25,251,-417,-286,-95,174,-320,437,-4,33,-126,170,99,-231,12,-168,34,-186,310,225,-269,492,-36,226,99,-78,10,445,27,-109,204,130,-120,-316,-10,30,58,110,45,-146,235,79,68,-114,226,108,224,96,-170,48,-25,281,-48,37,-149,42,11,310,77,295,396,-273,-141,151,-87,8,-519,-111,-74,-420,-70,-123,56,371,-2,151,-194,-46,59,-170,-5,-199,296,-159,115,-2,397,225,119,108,87,72,-177,-39,-170,248,109,-91,155,293,215,164,91,-126,258,165,-209,33,-63,371,-453,-26,-54,112,95,-31,206,-47,-173,166,-185,131,-4,309,153,-208,46,-47,113,-166,-254,335,57,-27,-150,-171,-86,101,379,112,-37,50,71,-195,179,149,235,165,67,342,23,26,161,-106,-56,14,-100,131,141,58,-7,-219,-52,-122,219,131,103,-94,8,-158,-206,-140,-159,-60,0,333,83,163,-9,-48,-47,-5,178,-127,-66,220,-264,-456,-113,-26,101,-20,101,166,117,-72,-152,-44,15,-92,214,44,67,-76,63,355,226,38,-233,10,-211,79,-65,-90,-46,94,-82,-90,286,333,53,-296,-51,-170,-36,-293,59,85,-19,106,-176,-24,-219,-226,111,-210,16,-121,24,51,-179,317,219,153,511,195,350,275,-95,-165,217,-105,-97,72,-37,241,-10,142,-91,195,42,-115,-16,1,-230,-152,322,72,35,-158,-191,-161,63,-175,-41,58,-353,27,-153,-46,162,0,13,236,-175,-85,-125,-255,-66,-388,281,-285,-211,-5,-109,29,-358,-79,73,79,189,-40,57,-74,232,79,-210,-150,126,288,-338,642,118,160,43,-24,-40,211,-65,133,144,267,-225,75,152,354,-147,82,-184,-102,256,-62,-89,3,51,100,260,69,315,223,37,44,-36,229,-323,-28,211,-82,34,8,96,115,430,-110,-46,-27,-23,195,-76,-99,278,200,-109,161,151,-166,-154,-59,192,-31,-462,164,-62,23,-523,-11,-25,182,58,-81,41,-66,23,-132,98,-67,-25,148,-36,-79,-127,-257,106,41,161,95,-137,-14,167,-6,-65,129,-68,-5,-48,-35,380,-175,-107,-257,-192,53,-273,34,93,-194,-207,-357,51,-97,-270,61,-12,-196,104,-28,-109,-79,115,-180,111,232,-217,141,-51,-189,-190,208,316,25,232,147,49,240,54,51,-497,27,-82,60,-82,252,253,-174,-339,-46,264,212,273,339,132,86,-14,29,91,-69,-6,195,19,353,-50,-38,-31,-66,-48,172,-193,-41,132,354,42,98,-17,106,29,-171,-220,-12,-32,-210,39,45,-142,-217,205,215,136,141,109,-161,-104,81,-270,104,-108,90,-215,-144,-5,-123,-205,251,131,326,-72,-30,268,380,36,111,-174,-309,272,-223,-229,239,-290,299,256,-30,189,383,260,-221,-224,92,-103,-111,5,-75,234,71,-90,-72,607,-132,-159,9,-18,95,-351,164,201,51,-93,-144,48,-98,-144,228,-83,309,149,139,379,-42,132,291,-317,73,284,56,38,-193,171,117,34,145,-154,193,-69,82,209,-116,-51,80,192,-31,97,-174,86,34,-131,238,-39,108,-70,-460,-73,358,-229,-232,-12,-583,-187,123,-186,201,199,-54,278,143,179,-215,84,-6,-250,-218,-97,-149,210,-189,-286,-93,-95,418,-163,-19,166,-40,-10,242,-162,-3,23,-40,-98,-82,-179,-262,59,204,-60,358,10,0,-251,-66,-88,368,9,-178,81,-45,-82,70,338,386,207,38,106,-270,-75,60,5,-35,130,-20,84,75,-107,-166,99,-133,100,75,-146,93,-112,93,-302,49,425,-276,326,-430,207,-153,-161,15,-258,91,-103,29,122,-79,-137,-165,-270,-25,-112,-178,19,69,-262,91,98,-11,-108,-197,180,262,76,18,70,28,-146,198,-72,-335,-31,-74,180,134,59,217,171,-126,-87,-13,-152,-20,78,87,-35,-137,-219,176,-14,-42,-87,-395,183,139,57,-106,-107,55,-126,-62,-295,-18,116,-64,196,32,69,-130,174,-55,-251,-142,28,14,-60,-194,-11,230,-87,135,-328,-13,-25,-57,47,127,-51,-132,-56,148,88,-50,-318,-7,108,-234,239,-138,15,73,-141,-63,303,-98,-79,-14,-76,290,17,119,-84,170,40,0,11,-118,55,42,162,122,363,-75,50,-12,125,-34,-14,101,-41,179,325,157,-50,-49,-177,-26,-12,23,-27,-34,197,30,125,4,-253,-6,-230,-14,-168,210,88,-235,-25,-363,-261,-89,-293,196,78,269,261,-70,78,-145,242,-142,-107,-276,-449,-215,-225,57,-305,341,321,197,163,56,191,8,166,4,241,70,-120,-5,263,101,-413,19,171,280,-340,-8,61,-368,95,-43,-119,365,45,-11,162,205,-186,-113,-144,284,32,269,158,-213,-64,-176,57,-16,88,3,234,160,42,197,-239,187,137,-85,208,-238,-93,-215,-551,233,-277,-312,-251,-33,-66,-33,450,160,158,-92,223,-307,-90,-47,-195,-102,-129,-401,-124,-8,-126,162,199,345,-52,279,-3,-111,240,-63,-271,94,-318,-282,-39,-39,-37,-65,273,-149,125,-123,-42,-355,-265,-176,-177,101,-3,-453,108,202,-198,-184,309,142,-141,-118,-54,-411,51,-36,-199,56,-51,-210,-93,159,179,-321,-153,-6,-15,-106,-14,-75,-237,389,342,374,107,39,305,-282,76,-46,-416,-168,20,307,-225,117,-37,37,-59,-347,355,-283,-66,-229,216,150,-279,-174,96,328,-190,-72,-116,-144,-103,-194,95,-224,-15,-154,337,106,-78,-479,1,39,-117,-190,92,-33,52,-187,-14,-454,-110,-193,187,-101,71,-363,245,-102,-208,373,-211,267,-299,-28,-138,25,-130,-137,11,-15,386,7,-28,-214,176,186,-77,-183,160,369,117,39,137,354,-58,-177,31,-54,-1,143,190,-57,-90,101,177,124,127,-39,108,-79,-61,237,-396,95,-314,172,58,101,-169,196,-50,-262,94,63,13,-264,143,-14,-309,-331,4,179,-24,101,-220,208,11,-219,71,-18,-281,8,-83,-8,108,-99,162,303,127,131,-363,4,163,137,146,295,-238,120,2,-73,-47,53,-33,145,255,371,-205,-323,462,173,74,-64,8,-185,13,-21,149,-19,212,66,23,-19,-323,160,130,54,104,-77,167,-150,-260,253,220,-48,-323,122,236,-239,-287,141,-150,-49,124,92,-270,11,-211,323,194,51,43,65,454,82,-398,50,-80,-355,418,-42,32,-28,27,142,339,-32,110,-147,240,179,-181,316,-160,83,-31,-155,70,34,93,305,216,-37,-118,-224,259,-185,-60,148,-22,67,156,237,-155,-139,-260,-31,114,-33,-259,61,255,-21,-169,10,-192,170,-68,-260,-74,430,25,-133,-69,93,23,58,315,89,-124,235,-93,-37,27,-314,-207,526,-126,31,303,218,320,334,297,-156,-334,236,-23,468,-6,228,98,270,34,158,-47,131,-12,164,36,-111,-231,229,-217,53,265,122,-124,-27,218,60,-4,-215,294,495,-189,115,139,0,-154,-118,-329,-214,58,225,-349,73,130,151,-125,36,116,-153,421,-4,84,21,-135,-152,-60,98,51,-25,-144,195,49,104,64,111,-57,-336,127,-127,-251,8,129,-92,133,-185,-173,-126,-297,-19,-422,-53,216,-237,-110,-107,-66,72,-74,5,78,-49,-25,168,11,146,82,-61,401,363,222,9,63,236,27,74,-69,135,-63,-377,166,235,-160,191,248,82,-118,-61,-71,-178,-85,71,-93,-162,26,-27,157,80,50,-15,52,61,-260,-158,82,11,-41,193,27,-169,214,-22,49,-244,129,52,-155,109,204,-1,175,89,170,-121,111,113,148,-259,-493,-233,-79,-24,-31,18,-158,-197,-186,-83,-221,-85,-283,82,118,-33,53,-289,35,124,101,116,33,19,-124,-155,65,342,-508,43,149,228,-4,-191,51,75,153,-287,36,-80,-35,-273,256,261,162,-251,-79,34,-177,-179,-53,-39,-77,338,-142,208,67,-142,28,44,-11,137,-146,24,-58,38,68,64,-233,364,-141,-245,208,0,-312,-92,-228,177,237,155,133,166,113,225,-94,22,-32,-6,41,-183,-275,-48,231,89,107,216,337,-46,78,239,558,-134,-85,215,-290,-232,144,168,358,16,33,231,-92,-116,-76,-187,183,-137,-49,-188,-18,-98,-104,171,20,-33,102,-14,186,-356,-124,-87,-130,-98,134,-90,-12,-165,57,329,13,-112,62,321,-89,-291,-69,205,-142,138,-66,-100,-247,272,154,43,-133,-62,202,257,-252,-114,-3,216,-166,409,-35,23,54,299,108,-185,-13,240,-34,124,-74,196,109,8,125,-19,175,-89,261,-154,-7,-276,87,231,244,-57,197,73,278,137,129,-202,-21,-132,-173,-67,-226,10,51,83,-45,-51,-197,-80,-100,-292,-88,-74,-51,84,-49,134,123,-163,161,103,-7,72,-294,39,-300,-203,-439,34,-243,180,362,104,-20,43,155,152,173,133,57,-65,293,-177,51,320,-46,241,261,-67,25,97,-98,280,69,-62,108,188,439,6,-76,-152,-27,35,204,-110,-47,169,96,8,12,-150,68,199,-321,48,-23,-91,402,-23,-49,167,-30,19,312,-434,-180,-153,473,-28,-233,-118,35,-24,151,165,146,128,171,-237,-136,29,-193,-228,-56,197,-112,142,-137,189,30,-49,21,-109,52,-256,-372,49,-119,213,170,314,211,40,375,-42,96,140,94,-174,-79,26,-70,11,-218,-28,211,325,88,-167,120,-14,149,301,-129,-107,265,49,138,-216,-121,192,-16,4,-173,-115,-52,-379,294,-39,143,451,256,-226,-195,184,-75,-135,-240,-73,53,-177,-328,101,52,51,-2,234,39,-255,-228,168,-110,147,-248,-287,159,-161,208,-147,-349,131,-43,-233,-280,-44,-78,45,190,0,130,-159,198,-84,231,-36,-96,-4,-19,-181,52,205,-127,34,13,-29,-445,-86,-167,-311,-25,-258,-250,-8,46,47,265,-131,317,-59,-72,44,-162,-277,-208,-199,-436,2,-214,-9,37,-131,283,123,77,-310,256,-29,-246,196,-150,119,-113,110,-518,144,248,-322,35,147,196,111,-68,351,-102,162,160,585,199,289,-107,-225,130,-212,-434,-193,186,357,32,-227,177,0,-210,110,-258,213,-159,-303,-220,-332,-239,-161,-400,-197,157,-125,257,-43,34,296,-116,-42,-117,14,-10,263,5,165,-372,-114,49,-11,-56,-318,147,256,222,-149,-28,-50,-86,-68,68,-91,-110,112,-34,-155,-216,58,108,-176,-148,-47,325,78,-78,-46,121,2,-4,86,-123,302,498,178,-304,-186,115,-179,100,-177,0,-10,-36,-96,-25,140,-126,-99,15,114,-50,-66,-68,-11,-430,-117,226,24,-173,60,-270,276,306,332,156,50,291,-175,209,-168,26,-200,22,-49,-110,118,-195,-103,4,58,-102,-57,-200,349,-118,-34,-5,-33,121,-146,-71,136,-274,-91,171,32,-45,-36,63,-95,18,-169,-60,-271,-49,-140,-85,-58,2,13,178,-234,-21,-126,64,78,-23,58,212,27,-123,-46,23,127,-230,448,145,469,-340,-177,-159,-147,-154,-53,-348,303,-17,-352,-240,271,175,-621,212,73,114,77,-157,323,112,27,61,-147,-95,-140,-140,14,273,292,166,-174,-62,-252,-297,-289,329,98,-323,59,24,-135,-78,180,-118,-201,-81,-31,185,-176,-5,74,-191,-121,28,-128,16,-110,131,213,46,60,-215,115,12,-149,-224,217,-33,14,-168,-253,63,-144,-474,-245,-71,175,-142,82,72,6,121,154,-116,373,-288,7,-54,-143,-372,-280,-343,20,203,-158,383,-71,42,35,-512,232,-3,-207,-61,46,-329,-48,-504,344,210,195,-141,-133,55,-25,201,-78,-190,-51,-88,-245,-36,200,171,-189,-169,-90,350,-382,-140,123,156,-278,134,88,-265,-78,154,-4,204,-51,-273,50,51,-216,-119,387,28,142,150,117,-151,-130,178,-86,27,-239,-200,188,-162,116,-89,-128,-355,-156,-8,225,-299,2,123,-143,221,-103,160,162,108,248,198,77,-279,372,-119,214,79,-128,-289,168,150,13,391,-20,-13,285,45,-2,160,-116,98,179,7,133,214,-118,-83,4,-37,36,166,47,-43,82,89,65,243,99,30,4,-5,-36,118,-135,-130,29,-83,-285,-142,-196,51,63,359,74,202,102,74,-36,-30,-11,-115,-192,-137,132,9,8,92,-82,94,-2,251,348,144,-390,77,-64,-375,-57,28,5,128,-97,493,399,157,-205,555,190,-253,-303,-1,126,-287,-261,171,320,292,134,140,68,169,-95,4,550,17,-94,-82,2,34,-375,-234,-60,12,11,139,239,325,67,88,369,117,-92,-62,8,-93,11,-141,-151,222,173,113,70,181,-152,99,-51,342,170,-48,219,-41,48,109,122,245,-9,8,106,116,105,-164,-18,159,84,-130,318,31,-264,-63,226,103,-184,-78,55,11,421,-140,-172,115,230,-515,70,212,243,54,255,259,-286,-52,48,21,-83,83,99,-87,44,-128,-83,-3,-55,50,-78,-42,236,-182,39,121,102,24,98,173,73,130,20,-7,170,-95,-88,211,-23,-206,46,-20,23,-83,132,16,-53,34,101,-146,42,-185,105,40,-203,-30,-14,-289,2,89,129,155,-134,2,-90,98,150,40,110,145,-230,78,-19,-174,12,177,-102,-10,-31,334,-408,-2,-333,49,265,-100,-152,56,34,-173,-36,-155,87,-233,103,123,-286,151,121,-352,-335,-36,-205,-388,43,10,20,6,-6,6,130,163,-13,123,77,32,-155,-238,213,-200,22,-119,-193,-9,-194,125,164,236,226,-138,122,-52,-129,74,91,241,98,-85,79,295,-186,-57,45,231,-185,-80,-239,-112,86,-185,68,84,-45,213,-178,117,415,78,-319,62,12,-189,-359,202,-2,-175,172,214,-79,395,211,-90,305,-27,95,236,-92,-162,63,403,-82,-316,139,2,-259,405,61,-292,415,222,82,258,377,70,-11,-196,197,-410,13,-6,-48,143,23,-47,-104,-64,-101,-163,358,-111,115,69,54,-103,-107,109,-9,-139,1,18,111,-270,108,-227,141,64,96,340,92,-48,139,86,28,236,-71,69,4,-42,354,159,-43,-5,157,-223,-148,102,110,18,-118,25,-159,111,610,-58,-300,-129,89,129,-55,-198,275,120,-187,-152,-189,-86,-12,179,145,296,-56,123,-76,-24,149,-289,217,259,-227,-36,-9,-337,-243,29,-419,-52,-18,283,92,199,226,150,57,176,32,72,393,-609,-140,-199,-244,-305,-218,212,278,274,107,227,-170,-132,-53,-203,58,-370,-46,-200,-153,-12,90,-437,-73,462,-33,116,-96,-221,151,55,-77,270,362,84,40,47,-35,125,-269,91,-366,256,381,-171,-188,-94,-204,251,300,-128,-286,3,-151,-27,119,184,-265,3,332,-165,-364,162,-330,-323,15,13,-362,-158,64,-72,331,-32,-201,-1,-67,72,-188,-48,58,-159,68,-95,-144,66,248,11,-384,138,166,-305,-477,-328,183,-390,14,44,-160,-217,291,-148,54,165,330,-84,22,-148,-208,-349,226,199,-66,110,92,-96,277,1,135,-133,61,-303,-526,-251,213,-43,-193,318,-151,233,-264,-202,-129,227,178,-27,-72,-346,-325,8,239,-155,285,139,1,160,-148,140,-259,-128,-107,-215,68,-191,64,56,43,142,-58,-169,-51,-144,100,176,-16,39,52,38,-253,-62,231,150,-69,201,246,122,234,334,41,-90,220,-54,-143,-79,318,22,-241,23,63,-94,112,-75,-245,74,-452,23,88,-214,16,137,-185,227,-224,-69,-250,-279,-53,-29,-191,257,-52,-235,142,143,107,23,-213,-39,-30,-85,-236,5,-61,213,-210,134,-172,-254,-160,165,55,29,-36,90,-4,-353,-57,-184,-16,-84,40,-344,337,-116,29,392,154,-44,-166,140,555,-144,-81,105,-309,504,-226,90,35,-187,91,-92,352,-107,-104,-70,-149,22,-59,-134,-175,-20,67,-141,-179,-157,111,76,-195,-180,-31,-29,66,-281,-162,114,241,142,-40,-345,-300,88,-19,-174,-181,181,275,-28,115,-364,-127,-125,28,-159,4,-63,-257,86,-22,-238,-162,-108,135,125,-55,3,-77,164,79,-153,-10,-188,-175,-71,-37,-98,-204,-31,-276,126,-42,163,-206,235,310,385,42,92,-210,141,69,44,76,-139,55,-83,-35,-225,-329,-211,-235,-13,254,-317,-105,-34,6,-22,89,48,59,38,269,-21,-200,72,83,24,361,342,-49,109,270,-72,110,31,182,-38,113,158,92,131,150,-152,18,-92,-65,184,-120,-230,-31,69,-213,-53,-190,168,297,-119,177,274,-38,8,42,-167,76,90,222,43,-32,125,129,180,0,69,37,221,-280,313,80,-254,-217,58,244,41,-30,143,146,-36,-411,-120,-96,-105,-276,-12,-54,4,-118,127,33,312,-242,-41,42,6,-132,38,29,-47,-12,-46,-315,-83,-83,-78,30,181,-28,-222,126,220,-100,-129,315,-11,-2,-84,-195,55,178,225,-54,257,-269,-38,188,-186,116,-220,129,-55,-216,13,-50,-209,267,55,-48,246,-175,-296,-106,-7,89,-378,-176,182,-66,278,-64,194,47,-130,-100,297,48,-244,-290,131,-48,1,151,117,-111,3,260,1,41,96,35,-95,-125,30,-27,27,236,104,167,-374,-70,-8,234,268,294,147,-415,-44,146,131,172,-99,-74,134,-326,-2,98,-467,145,226,105,-113,-107,228,50,206,-212,-194,-36,198,21,-31,114,-112,-89,-289,-52,-193,-81,-209,-20,164,74,-37,-462,-314,88,59,-176,-51,-171,-274,-84,-86,56,-366,-124,-85,40,-85,-349,37,281,-138,148,-38,67,51,-213,201,368,414,-279,8,-148,-15,130,1,134,-339,206,-70,-44,120,-68,-177,57,3,14,21,9,-34,194,264,196,-549,452,-347,-69,442,179,-320,-225,-61,5,178,196,228,238,323,305,-261,112,-51,-282,43,21,-610,-356,137,14,231,-269,301,36,59,254,138,364,-11,46,-172,-50,-84,11,-99,222,194,-3,-116,-49,-128,-254,126,-354,126,-56,260,179,233,-179,-30,174,-74,-79,-29,50,-76,-53,-221,130,70,18,-79,-124,221,-321,167,101,-287,30,-139,-55,113,-12,452,231,-154,92,154,0,-8,-105,-113,-297,87,-91,415,165,279,91,77,-80,21,302,61,232,88,191,-36,-47,-40,-112,100,212,34,23,148,-49,209,91,106,-83,-69,50,30,141,19,-109,124,375,-47,-87,-205,120,-118,16,4,58,-18,292,44,-291,304,-230,-162,-158,-67,43,-22,-115,-8,125,78,-128,-13,353,-267,60,19,207,67,153,243,222,576,153,95,201,237,174,37,272,-252,170,75,-84,-68,296,120,55,272,-314,65,20,-178,-116,394,210,78,-44,-180,187,-119,-268,93,-227,97,86,86,-28,-148,-211,142,93,-290,21,-190,43,-200,-16,-177,-67,250,-264,-65,-365,-76,299,-147,6,-447,328,88,-180,51,110,286,-141,456,-166,103,11,208,-23,234,4,-487,52,-98,133,-223,134,181,-454,-40,-163,-26,217,-251,-353,27,275,-238,-22,22,-41,32,-248,47,-364,75,17,77,47,-107,-149,-203,296,-83,-1,-93,-156,51,-153,-26,-205,319,-313,215,51,-268,-114,-9,131,3,-245,-255,238,-182,-138,-536,-213,151,81,-91,-375,-483,-509,-463,-46,-97,165,146,161,202,-84,-141,-37,-79,-5,-689,-245,-71,-547,90,388,73,-72,270,118,-153,-102,29,-85,240,-58,-113,-283,-328,-167,1,-87,91,-198,-274,-106,-90,-147,-65,-47,-148,131,-263,-266,-288,-169,-11,-156,-145,-160,17,-132,136,84,254,18,-46,-92,-117,-148,-120,56,-48,-28,-40,69,-70,-105,-30,-88,-5,-234,136,-184,-45,-13,-356,-396,-80,-155,-147,66,143,80,-357,21,108,-357,104,184,-125,160,-30,-127,34,-139,-46,-76,-25,126,254,37,-159,310,163,-242,291,-83,-109,249,-56,-28,350,-66,-130,-185,39,79,-108,-83,32,-143,211,-204,140,-69,-35,150,134,-151,-47,-240,-100,90,42,34,-61,-95,143,-134,366,40,-61,-93,-204,-91,26,-119,-134,98,172,183,86,-17,272,70,127,195,-87,-228,51,-8,-256,-146,-216,68,18,-339,33,83,96,255,427,121,-10,107,-23,126,176,-30,193,193,216,93,113,-108,93,-144,72,206,126,56,245,5,-100,2,-155,-439,-57,153,155,298,128,-71,92,53,32,-60,-174,330,70,187,61,-109,-12,-39,-222,51,57,-104,116,-233,-226,-195,-256,93,133,-11,65,-8,234,103,101,38,236,-211,350,192,28,-30,-321,188,-70,74,-51,235,185,-69,-216,80,-99,-109,275,-50,-34,-85,11,121,198,96,12,235,144,206,-241,117,-97,45,-231,-24,-139,-90,-234,-79,51,280,176,-72,16,60,91,310,123,296,-34,-9,-30,229,-184,299,97,168,187,301,-2,18,-12,-143,-176,348,159,-248,407,342,502,-42,-42,336,-126,-32,-115,-390,-13,-183,327,158,-36,138,282,71,-48,-171,-24,-229,88,187,-143,-284,139,-333,388,107,-64,233,216,-124,-275,-67,-294,-367,-301,66,168,-79,-98,-16,139,-3,-16,-15,-9,-44,149,232,-118,-72,39,-108,-72,-41,33,9,-52,-271,25,-125,-214,-75,-230,429,47,-61,31,-157,38,71,105,18,39,-64,-28,-25,-91,44,-177,-111,201,-25,163,-50,-125,23,155,178,-227,21,-148,-82,-72,89,35,-166,41,-218,-135,-18,70,-154,-83,-1,-97,-90,21,-49,-68,441,49,-129,121,-64,-105,-248,-129,-144,-225,63,-67,-166,-23,-5,28,63,290,-178,-77,-200,-94,-44,27,298,-107,85,-46,-155,112,-76,-116,-239,110,202,-22,111,179,121,14,95,44,172,-78,-86,40,16,-64,-82,78,52,152,20,161,127,34,51,9,-102,228,89,-23,-278,-15,131,152,-232,-90,9,374,-238,-328,27,187,-242,151,-325,-378,181,79,-84,143,95,-518,-248,-74,-139,-413,188,-138,6,161,197,-161,82,102,-272,-99,184,-166,518,-126,77,47,9,188,-212,54,-14,-137,-128,-120,266,-42,-296,-54,185,80,52,199,-411,-39,-107,-3,84,-29,-386,57,-132,58,-16,-168,-147,-49,235,-212,-214,-218,-291,-13,69,108,463,119,-175,-206,79,10,-128,-300,-52,140,-166,-93,-156,-26,-66,283,35,-244,8,-168,372,234,-66,244,-237,324,-193,220,-86,-263,164,12,-251,120,-295,267,-37,350,176,-203,-149,189,-122,317,-209,-206,52,-6,-135,187,66,-113,11,-23,-186,-119,-125,-174,-27,-233,-18,84,132,-32,0,-47,-73,182,89,-191,-77,17,90,-59,-19,-341,60,-109,25,200,-153,292,303,99,-28,167,248,32,-43,95,370,-271,294,-373,-64,2,-349,-389,72,213,4,139,134,236,53,76,432,-211,387,-268,-89,366,-166,-240,-17,-242,215,181,-8,138,200,-147,422,-121,328,-161,36,265,66,-102,-66,-235,-56,300,1,201,71,46,400,188,85,-22,-53,261,449,-205,-10,-171,76,-34,-43,229,-108,256,247,-61,53,40,46,-48,-285,-51,259,-15,28,-104,-61,212,4,115,-254,45,-118,103,-105,68,-201,76,164,196,-228,-62,-67,-149,46,-158,124,190,-264,-38,-369,-161,-343,-68,237,244,-59,-59,-167,-175,-282,-153,-32,246,6,214,34,-264,-91,69,-31,18,-45,-250,-131,126,-19,-120,4,-188,-122,-29,85,-201,50,158,234,-28,-169,-133,164,56,-247,-300,-73,74,-280,-248,-279,51,2,-95,-179,375,-83,-3,-86,-92,-295,-82,-88,90,-80,-98,-116,-43,67,-78,-174,-111,-40,38,-14,96,-221,58,-53,2,-50,74,-5,-270,-120,-172,-19,-303,-21,-203,-73,124,-125,-56,53,164,-103,9,-151,39,-175,29,-91,-258,-78,-230,-8,-1,57,24,-34,6,-203,91,149,-20,226,227,80,158,-216,-90,-26,-99,-157,-63,-193,81,-33,-66,0,-87,177,18,288,334,-152,-322,-106,35,-111,-340,136,-262,-93,26,-254,-176,-237,-305,-27,367,-64,-146,-141,263,-115,-282,199,90,-65,155,-271,-74,-118,-73,-111,-114,219,-324,283,-115,-135,151,3,99,-45,-10,-18,2,-74,-128,139,-452,165,400,7,36,-151,-94,-80,-9,-150,-163,82,118,74,102,25,-166,-148,73,148,-122,-265,191,137,363,-225,326,20,-185,395,-157,42,288,-10,-28,59,154,-345,-371,137,-331,-94,259,47,-59,-49,-52,-64,365,262,121,114,-42,-77,-211,64,-33,67,54,-135,-1,-214,-254,-50,-244,486,62,388,119,126,-85,-126,-379,168,-161,-76,115,-340,43,95,-369,22,318,126,241,287,102,-55,-256,278,-278,291,23,1,26,199,228,-20,374,38,54,101,333,16,35,60,-25,-89,146,358,-346,-121,-100,37,4,-64,-15,-30,110,-10,-373,0,37,-194,-93,43,190,-354,243,-77,106,265,-128,-115,47,255,13,-78,-42,-203,36,-424,-370,78,-69,207,-24,31,98,59,156,-289,-12,201,-466,109,83,-295,158,167,97,8,142,74,154,415,11,-19,-92,170,-409,95,10,88,-163,-111,-171,179,108,78,271,298,197,88,-172,422,43,225,-15,22,185,84,-171,119,174,-8,127,54,93,45,110,-346,-126,6,-74,-182,-131,-101,-125,193,186,61,121,-36,69,-165,40,17,-47,130,92,-98,133,62,-103,140,-77,138,-218,-128,-14,63,291,-202,3,-25,-149,23,-123,109,-166,1,123,289,-205,-207,197,-230,-125,32,0,213,-267,-162,-22,234,-191,17,155,220,-133,-193,27,-198,-134,49,-262,-181,114,-83,12,79,-73,188,220,141,75,-72,211,345,-6,241,-433,-307,50,-172,-151,58,122,206,179,95,-152,-88,9,272,17,212,-80,-66,55,-61,-5,-31,-136,168,175,84,343,116,21,-35,-320,-208,-20,-62,-10,-152,129,42,16,-222,-55,289,-320,-22,-217,-28,-316,108,-188,-248,71,26,-53,-131,345,-194,180,-234,-178,-51,-224,-15,-172,27,-196,-83,-198,-240,159,-19,84,-58,72,89,88,-206,-109,51,186,49,177,10,-80,-240,129,-72,-44,-28,-53,9,308,359,-71,233,76,-64,-37,54,220,-72,-29,-151,178,-181,6,92,-169,110,-94,10,-444,394,-203,48,270,49,178,-235,282,93,238,-117,-5,56,153,-53,175,325,74,-299,213,337,-327,-149,-39,223,-118,-282,213,91,149,532,-21,-178,76,307,74,183,197,-36,-161,-200,-192,25,141,152,37,28,661,-252,515,77,-144,-48,61,56,174,-116,-223,-82,-52,-48,-231,-534,140,204,187,148,-96,-42,163,202,-184,-23,-404,-8,-128,-59,-129,-105,17,98,99,167,139,50,274,89,-61,84,-240,-115,229,249,54,215,283,165,162,9,311,-38,-182,-224,-90,69,107,209,229,283,459,166,322,-334,-176,-35,161,-178,11,136,215,-151,79,-22,-199,-207,165,-26,249,-242,373,-169,-177,-39,198,-98,-240,-95,-316,-320,-312,-243,-412,-306,177,-447,82,123,-322,81,129,20,-166,-271,85,-91,50,-120,39,88,152,-334,122,138,-500,-24,372,555,50,-126,-34,144,-69,-131,240,-215,-133,-160,31,552,-253,-324,268,414,193,-65,-19,146,-264,163,-246,-440,-164,13,-143,-246,-155,-201,-112,177,53,-30,162,-8,-138,-149,-64,145,48,9,-187,47,-6,-141,62,94,-106,164,-207,282,-15,-122,-77,91,168,-235,24,-22,77,-131,-109,81,-56,-229,-21,21,-54,135,-27,-271,229,-277,38,64,-153,-206,48,132,-29,-169,155,-156,197,75,154,-152,180,-103,96,100,-4,-24,89,222,-18,-162,-18,51,-140,-36,-306,172,-133,189,177,-54,-35,114,-11,110,-33,-51,66,163,141,-251,61,121,-330,-97,85,-102,-36,41,-268,-150,365,303,286,-18,254,-167,72,74,228,171,-52,-225,-67,-118,88,-98,39,217,-177,-152,-273,-9,20,56,38,-297,162,-334,-88,136,-37,-236,341,-299,-20,-244,-217,-429,-352,-19,-130,129,-187,-155,-267,-118,76,-82,30,-214,107,159,109,-233,237,75,113,-47,-301,122,-226,-192,-36,137,-216,-106,114,215,-261,-227,297,-89,-469,52,-41,36,-126,84,-135,-210,106,-27,144,262,100,-58,52,98,-184,226,-341,-56,52,42,-409,-205,-206,123,144,-74,315,66,174,-84,-334,-52,-109,117,260,258,19,19,132,-234,176,-32,-102,-37,75,55,-104,-29,-16,-7,212,324,85,-356,258,202,-258,-134,-129,212,-126,179,89,-61,225,87,69,67,-32,133,275,-165,-265,-8,115,-18,-325,62,151,115,188,310,-240,39,242,220,401,-65,-178,-186,154,151,-164,400,60,162,245,-55,104,-23,180,-119,339,65,-272,-9,132,199,-19,-4,66,149,-134,218,-35,-90,115,-269,136,-2,91,-63,117,0,56,-123,-12,168,-74,136,-161,50,-308,126,-518,107,371,155,-8,-73,83,235,246,-130,98,-108,36,296,-200,-93,-316,152,73,-107,-104,-88,323,-60,144,-159,198,134,-132,0,179,-122,-388,-59,105,247,-6,-39,48,-142,-444,50,0,36,217,163,240,-122,-220,34,83,63,-147,-8,163,46,-282,214,-70,228,321,326,-17,-20,-63,357,-20,277,-155,278,334,-73,456,355,-336,190,27,26,-510,-10,73,-36,226,-135,293,237,127,231,30,-191,133,-1,-42,15,24,-154,-260,139,-52,-234,-121,230,70,-215,30,140,58,22,170,-32,161,-89,-207,248,116,-22,-71,41,173,-253,-180,-191,143,-9,70,-37,-94,-62,-260,170,-13,116,178,-41,338,-141,51,119,-99,-92,50,-80,-193,154,-80,227,443,-41,106,-37,248,25,-116,-97,-132,-92,-132,16,101,-67,-173,5,79,369,-277,-336,-57,35,-45,144,214,21,14,-164,37,259,-54,-319,-229,-118,348,129,-161,36,-171,-204,327,-118,57,45,96,71,-31,95,-391,197,-88,292,-198,62,43,-213,-88,33,125,-179,-127,-72,224,237,82,307,-205,256,231,-80,149,283,-147,226,177,-378,7,85,-140,539,254,260,120,161,111,-170,-214,133,-281,343,26,-93,104,73,-183,171,325,374,83,171,213,66,147,-154,-10,-58,-196,105,76,-287,-30,230,2,14,-62,12,7,-104,86,-126,-15,-10,82,17,117,-44,-26,-144,184,-23,-440,-208,-138,-306,-220,159,-73,160,-69,-242,104,-14,-92,-1,-2,248,-153,-98,79,-139,175,273,-179,-54,227,-451,-133,118,-15,133,-62,118,81,239,150,-487,-81,-49,-384,217,194,-479,71,6,-66,-300,155,-131,248,290,8,26,-112,110,-239,-85,-226,-207,-172,2,61,206,-33,89,-277,-123,202,-69,45,60,-536,-102,-23,-266,-131,82,12,-331,-23,-157,158,-86,-62,273,-24,27,-61,-30,-188,-28,-23,-258,-119,-106,66,344,-92,-65,-173,-1,228,118,-198,-290,-75,-189,-30,-149,3,334,-13,9,58,-67,46,41,-66,37,-325,-276,89,63,127,-268,-244,88,296,91,-98,-16,156,-9,246,-219,44,30,-118,-245,115,7,51,147,-323,53,83,84,-201,-74,171,72,204,-137,-119,-345,275,-4,263,46,-201,-117,204,-199,-262,-81,86,30,144,13,-263,-324,152,-197,311,-284,-323,-17,-31,-144,-150,-94,-97,163,-80,5,-111,-109,-75,-48,7,91,-93,-35,23,145,-42,-171,-76,-88,-287,11,53,0,-74,105,186,-99,-2,52,374,135,255,85,139,47,-109,117,-142,-111,100,51,-97,228,-37,244,100,145,255,-3,-2,-37,-103,-12,-47,-161,-114,-157,-177,142,92,35,-19,13,-68,-62,-99,177,-123,84,29,-150,278,-150,106,22,-175,235,15,81,-69,46,2,-11,181,-9,-54,-72,-154,-175,278,-121,-301,-115,423,-47,-136,45,433,167,125,-41,75,-105,-113,-72,-33,-224,-202,-268,297,435,-98,198,-44,-225,-166,-173,48,-264,-234,92,167,-3,29,41,108,-260,67,-109,60,96,-6,39,-281,-193,-405,0,-222,115,247,-109,-53,-50,14,-45,-85,134,-255,2,107,104,280,-54,-232,-110,227,149,1,94,287,166,39,-121,457,-34,99,491,205,-10,478,-197,-248,-287,-135,-233,2,111,437,-174,278,-303,23,122,-84,-135,163,420,-413,-117,-165,85,96,172,-9,-209,285,-161,160,156,33,-287,-188,16,-205,24,204,41,-110,-111,9,27,230,165,-18,-14,-54,-163,51,134,-228,242,-31,45,242,-284,253,90,-590,287,257,-28,-216,-144,-102,50,300,-285,90,272,334,-183,-184,-79,316,99,36,498,193,287,-86,-12,17,-62,-101,-280,-139,171,-329,-364,22,-200,16,129,-134,-189,28,86,-388,177,-249,-195,-139,-13,-97,-33,-281,-88,-197,-170,40,148,86,-163,194,-9,-149,-74,42,-17,55,299,-180,126,166,-178,-137,245,-392,-218,-167,199,30,452,3,-39,-286,-129,90,-197,83,21,-61,223,107,-179,17,-213,302,82,-210,63,-83,98,94,129,-221,-65,-136,29,324,-238,169,-14,128,-103,94,85,-80,138,-143,172,-268,147,68,-17,-142,159,232,165,-333,-245,-303,-313,66,97,382,56,8,-59,147,-149,-41,432,-153,-52,66,167,17,-112,297,-75,166,-106,-57,90,82,-53,-123,120,-255,-322,47,-42,12,-96,380,-102,275,169,-54,355,346,123,16,93,-200,-100,-194,89,48,-281,-173,-145,137,139,-10,236,109,-56,9,-25,-97,79,-275,-124,-158,-221,-61,69,172,242,-144,94,-68,-275,103,115,-74,-90,132,222,415,-74,-228,-118,107,121,-53,-46,104,-22,-27,-36,-70,28,155,156,-157,101,42,-63,88,-187,10,-27,152,-42,144,110,-64,87,296,87,-76,0,-395,-78,104,36,-343,234,-128,-191,-245,167,211,109,-48,-275,-70,195,-591,331,-267,-245,217,-20,-89,-193,-294,137,463,396,129,175,56,225,-338,400,-330,-177,15,104,-42,14,122,346,304,86,17,27,284,-62,-136,-7,17,128,102,317,21,-90,16,-56,-198,-114,-31,302,145,53,165,89,-7,65,103,227,-56,-95,-152,90,-141,-82,-15,111,197,-290,-89,-272,-114,116,295,-127,25,246,72,-98,91,329,15,-94,68,-19,-75,560,-264,289,-1,-178,96,109,85,207,24,168,104,379,349,26,101,90,-70,231,263,-127,-75,175,72,54,185,-263,172,292,-203,-18,-158,-108,192,3,-264,246,203,39,-103,-4,29,7,44,93,127,-55,-3,-238,107,111,-20,-76,-193,88,108,-4,88,-59,-119,91,0,-88,-63,-33,41,58,-276,-116,183,200,-138,-249,60,-23,30,-101,-63,110,-34,192,-125,-66,-89,-214,-67,156,-521,201,-130,231,-162,99,-103,177,465,269,133,-27,129,333,6,103,-121,-18,-337,53,243,-83,-172,-78,150,-212,201,46,-155,104,-79,117,-240,22,-53,124,-69,194,37,-367,-194,-45,-193,88,129,21,292,-95,-134,-309,-361,26,-135,58,133,296,99,-134,-65,-99,-28,94,58,-233,194,-279,-24,-211,203,-149,57,79,-222,-37,212,-98,-427,-9,17,65,183,-4,155,-64,70,-45,91,-48,60,53,-3,-262,-191,20,-125,115,-360,107,194,142,52,-214,18,-262,228,-128,-299,-394,43,-545,-194,192,401,-354,149,-28,-112,-221,-369,-267,198,-3,152,70,83,87,304,382,-75,-56,37,-105,-11,32,-28,-114,-44,-132,411,249,1,297,59,147,-81,-113,-162,-301,-287,128,-24,85,-369,15,241,51,264,176,69,-406,357,-6,-302,-1,-238,81,-204,99,302,34,192,40,161,-98,-390,-334,464,31,-121,-248,124,257,-51,-146,-156,173,-21,-120,8,-135,336,-119,-136,205,276,147,55,-69,214,63,59,115,-81,41,117,18,194,-7,-200,166,20,-23,-35,197,313,24,-87,86,-112,301,-36,-53,156,-98,70,-104,84,48,-166,111,-145,24,3,-138,-70,116,296,151,-68,-83,174,-287,13,-171,84,406,230,-13,323,-144,333,-14,30,-263,-50,145,73,-241,-3,-371,137,122,-255,-209,40,266,-334,204,-181,-231,26,-143,-476,271,102,357,-54,191,320,-43,94,332,-117,74,363,-222,-147,306,-322,-132,28,85,-113,-54,47,-100,-246,84,-51,77,114,-190,-17,38,203,-92,178,-99,-458,-225,33,-186,282,87,-51,-160,69,-52,-79,-301,-255,-143,-150,-595,-113,247,-218,30,462,-275,158,-592,19,184,-171,-180,144,-112,-435,-177,41,-2,-155,228,232,111,-176,1,-363,-524,-295,236,-209,28,94,101,176,40,86,7,256,129,-336,234,-51,-244,-66,328,-261,-77,301,-44,-57,-25,-39,103,-150,-64,-126,146,-106,198,-173,-229,198,-118,19,83,135,103,31,132,-26,-175,82,-255,46,12,-209,105,-140,-24,88,-54,347,38,173,116,-328,-137,-61,-224,-14,-84,-67,159,-25,-33,25,101,-376,-312,-241,50,164,118,182,62,-241,-311,-94,-169,170,270,-466,189,243,76,-109,65,30,-101,-108,9,74,-235,-157,82,-113,46,15,62,509,-91,-178,166,-10,140,-154,120,-187,224,100,53,78,18,-51,54,-109,-219,133,47,-177,17,229,143,-133,-19,35,-175,72,360,-40,-60,195,-23,-18,-205,-259,111,-47,189,-124,-33,-45,55,-247,202,82,329,74,-75,138,-35,-191,-182,43,-247,59,-163,51,126,78,52,69,-14,-38,-156,104,42,6,123,-215,-3,26,-306,-182,-111,137,46,-132,248,313,-153,71,200,26,17,130,-9,30,100,-74,-126,-5,70,91,124,-68,-104,-136,-135,-350,-18,-48,178,261,63,23,-30,213,-11,-67,197,-208,246,-21,5,11,207,-53,138,246,103,-41,-114,56,246,-81,232,154,467,273,-24,148,25,-38,-164,-107,-35,-163,319,153,-157,-299,-16,168,-184,-268,118,26,88,185,53,-4,31,286,2,290,-171,-355,124,112,67,67,356,61,-26,207,42,146,277,304,-68,-39,157,27,307,-229,272,-34,-272,-238,-89,-119,108,46,-44,162,-185,236,87,198,46,73,458,238,-266,-190,256,-176,91,92,-111,80,-83,-12,162,336,-108,109,177,373,-248,145,-221,-64,-359,206,142,98,-187,399,-40,-296,-354,-60,-34,-112,116,-151,-130,24,-7,-86,283,12,-339,71,107,51,189,-308,-182,8,-377,250,-227,-95,316,86,95,97,169,-55,95,275,-170,-390,5,94,-249,157,-295,60,130,-147,41,210,39,120,-167,-146,40,-196,88,-357,-101,29,-88,-39,-70,271,42,-55,-142,1,-281,-295,-368,60,253,37,240,-242,-108,-109,-102,17,312,62,35,286,-90,-7,-34,2,-186,-136,129,-235,133,192,13,161,88,0,-212,83,70,-133,-18,-60,104,31,326,89,169,-281,-269,572,-318,-87,-277,-171,132,82,-307,144,-10,74,17,272,-208,137,-595,93,21,-66,-185,89,-35,-138,-377,148,-150,-116,115,149,83,17,-198,-31,-261,35,18,-42,-41,-106,-47,-291,-224,-30,128,117,-148,26,-80,66,96,-136,-160,55,332,-68,-27,-59,-171,234,-85,-26,189,-77,-26,-100,-67,109,-205,79,41,73,136,34,-113,50,-80,-115,186,-206,-19,42,-157,-15,-148,-191,242,217,184,411,-31,63,-89,-255,192,-126,-19,-48,-140,2,105,-290,120,37,458,-122,-115,129,-27,-476,216,-227,102,26,112,-168,-99,-102,73,344,262,-36,-232,152,-112,54,-5,-251,-173,-428,-215,-632,185,-12,119,-56,-397,142,-183,-321,-202,-176,-18,117,-205,-84,-18,84,65,-154,-192,-12,119,267,98,-34,361,-316,-141,111,21,-307,106,139,36,168,-87,14,84,-48,87,209,-187,122,-84,-233,76,39,-153,46,181,-10,-163,103,266,203,95,161,-150,-209,118,-1,221,-50,-209,154,207,84,-62,114,-172,-122,33,-73,-152,5,-135,14,-176,29,-20,-198,-22,-68,81,-119,-202,29,-84,33,105,-111,-145,-54,158,79,-26,131,-66,17,108,170,114,-356,69,-118,-171,23,-74,-116,125,-24,175,24,-32,82,-190,-101,-128,-205,-166,-81,76,224,178,181,17,-231,302,-2,29,-295,-115,-103,-201,-122,-475,-115,358,106,38,322,-66,22,592,105,-53,-86,411,-270,306,-366,-294,137,372,-23,-11,284,24,-158,-88,94,-61,-9,190,124,124,-159,-137,-2,-197,-329,253,-126,24,191,-78,61,222,-68,-63,215,211,-137,197,-90,156,-145,-106,130,58,69,151,-277,17,164,47,-205,-278,388,-27,-60,-124,-6,-143,108,47,-81,84,-292,169,-115,199,89,-25,-4,-104,-103,146,-325,257,-162,334,-277,-428,229,181,-360,427,412,572,10,23,365,-150,-283,198,-241,139,68,-142,75,-32,36,16,152,35,-79,344,-20,205,-7,-38,-90,-155,-186,143,-288,-246,-287,259,69,-26,188,-48,155,-178,-237,234,38,-307,-20,158,-200,38,-17,2,249,-14,115,76,131,112,-39,9,-92,29,-119,-401,142,99,136,125,70,222,60,252,204,-132,-43,62,-38,572,-150,-427,260,211,-44,128,242,-41,-126,425,-235,-559,137,325,-265,92,-131,-164,220,105,-139,32,-62,-156,-71,179,65,136,-128,-209,-11,-158,-320,-156,-105,126,155,-13,18,-15,214,-265,62,-117,99,47,-166,-97,33,-314,33,28,63,81,-142,177,-86,277,-15,127,220,-204,-255,-209,176,42,-15,-197,-163,214,-97,115,-336,24,-250,-319,97,-181,63,-304,435,-115,-1,-399,48,-280,-228,-331,-79,277,-282,134,-9,-298,59,88,-9,-143,287,77,-250,45,61,99,-68,9,33,88,53,-104,-59,175,-117,107,-106,-188,88,-149,-218,175,-144,-160,202,225,-157,319,-24,-4,-72,-132,-51,-61,35,267,161,185,18,-23,-165,88,105,43,-105,-105,-72,-236,-275,168,-170,26,175,-19,300,3,-8,244,-21,190,-67,-273,226,183,242,306,196,-22,147,-204,-56,-94,-100,119,-77,242,-327,-326,54,-122,-484,27,-18,49,218,99,-45,-134,53,-12,294,16,-324,-94,144,-10,-150,146,-111,-108,233,-47,-155,-63,183,-34,404,60,72,190,-17,60,68,357,-138,-238,76,158,-252,-229,48,7,55,-82,324,164,-224,-161,135,218,-137,197,-173,181,-116,-47,-243,-150,-76,-98,156,185,-132,133,193,222,-173,-90,-46,223,-102,54,-308,-208,-94,-158,145,-23,37,128,-143,-317,295,-155,-71,59,83,6,-278,-19,150,20,-290,-140,-322,-54,-56,-168,228,13,-128,44,315,7,-79,27,252,-220,-4,-64,-85,23,121,198,-243,54,-3,-38,21,99,-117,-118,-252,-240,14,-340,-104,-169,84,-92,150,18,-62,84,-12,-253,146,-359,-323,234,-251,74,-226,-171,156,178,-5,129,250,370,170,-11,372,-169,-54,57,302,312,253,179,271,-130,362,14,-281,-101,-34,219,-218,-89,177,-2,120,-78,26,-56,-98,-182,152,-44,-169,-237,193,158,-235,64,111,-42,127,82,-79,-132,326,-161,242,76,-53,-210,-86,-182,-155,-462,33,-28,80,188,-150,-342,251,11,11,-195,-86,82,-332,-74,-20,-332,190,87,26,36,83,111,-170,-148,124,-277,-381,-398,128,265,26,77,-136,40,104,96,438,282,66,-110,-109,-78,0,-79,47,196,233,46,-32,-91,-168,-49,326,169,165,-336,-6,163,39,35,-399,23,266,-137,-286,189,-176,-113,394,-38,-30,-468,-140,-124,11,-63,5,-241,-168,232,192,-14,92,-402,-182,-45,-464,-122,130,-230,38,-209,496,-142,17,248,-16,-68,191,178,128,-11,100,214,-174,-270,67,-23,-260,-303,-41,234,96,108,-42,276,21,-12,129,272,-22,-298,36,-235,-238,187,-141,75,-220,171,-227,53,207,-180,129,10,209,-5,7,-88,-15,181,-193,184,-154,74,-245,48,60,-186,-58,14,-227,-46,47,-45,553,86,96,222,307,20,232,-189,-98,153,-113,386,-144,53,79,-119,-94,-101,-92,68,-157,-353,69,140,38,-109,125,95,-119,61,-180,283,-227,-56,-204,-54,80,-125,70,-50,13,121,-32,-108,278,-26,-57,-114,-163,-182,-19,56,128,271,148,-115,187,425,169,-252,-18,3,-32,117,48,-27,177,-5,148,42,121,-136,-248,451,46,-236,4,-117,-214,-146,90,-42,43,107,-10,78,137,-76,-185,2,27,13,-240,415,-100,127,302,86,152,4,334,123,-12,-48,-205,-259,-92,235,-359,-32,104,133,-12,-82,135,-145,-92,124,214,29,45,386,35,-58,266,-50,49,-16,401,-61,-52,116,28,-180,235,-29,152,315,142,45,-152,119,-64,-177,-54,361,27,-320,-80,-229,96,349,107,-73,145,307,592,-206,-72,228,141,47,-89,125,-77,-136,194,94,-77,-108,-43,104,404,279,-153,76,-191,-41,-381,-15,22,64,-28,-73,-8,-316,-80,-1,-21,136,37,-27,-11,37,45,-313,190,191,-211,35,-208,243,-113,138,-257,64,155,128,-10,63,283,200,350,-137,157,-226,-128,-52,-33,401,-326,-16,-91,-47,96,-158,-132,-147,-104,-243,-10,-116,-101,117,163,222,292,-185,-118,-42,-179,-157,85,-98,77,-307,132,127,-296,-32,-48,-110,8,-7,-267,268,-27,-223,-192,-82,-84,33,154,14,-65,-175,-158,-183,-37,62,29,-388,-85,338,-197,38,238,-452,3,-188,-197,5,-67,25,350,127,210,16,22,-112,-82,-351,-209,-12,-268,-63,-93,56,46,-12,59,-75,221,-22,-168,-245,21,-109,-455,131,-420,-32,70,101,334,-87,237,-258,15,238,-212,-258,1,89,201,-111,19,-344,64,379,-178,-411,275,-325,-104,-439,-140,25,-54,119,-12,-124,189,-222,135,0,-184,-447,16,-38,-440,-452,117,305,-187,92,-160,206,47,14,63,214,32,-335,-44,381,-185,11,-116,18,204,-138,-278,74,-143,51,378,-110,102,48,17,-86,42,331,-32,314,225,47,-191,468,-324,222,408,107,-186,-41,-110,-79,286,144,310,66,110,361,41,405,91,15,410,160,-173,-102,76,176,94,-226,-77,-23,31,151,137,117,102,-250,352,-176,-99,-213,321,55,-121,-191,-123,84,-281,115,455,-274,561,65,28,270,189,-136,-203,-93,-326,-529,67,-77,-91,-114,-8,118,214,-131,155,257,209,-324,-90,215,-98,47,49,189,-80,391,-95,101,173,-326,398,250,94,-255,-205,294,-2,219,1,198,263,-261,29,137,186,-10,-91,213,-16,-137,-115,166,-25,-26,153,147,168,297,106,-171,197,37,-329,27,-168,50,-53,-18,-54,-170,112,129,54,-243,-60,80,-120,-217,43,110,-21,171,-218,-160,238,-87,-340,-352,138,-162,-114,51,-111,252,-17,-237,-12,225,-329,-98,285,173,191,131,258,196,36,117,-108,166,-114,-30,-38,170,-111,-40,-23,203,-99,79,227,15,-117,-208,-362,439,142,-40,121,-72,-245,-13,256,135,-150,223,-139,-122,216,-64,-40,-180,60,-72,-147,-35,19,-224,-94,-274,-253,-3,-55,-157,381,22,-83,-132,-224,-286,-132,139,-53,-49,-166,22,396,172,-198,19,119,-27,63,171,-202,-116,231,66,-88,-216,-43,202,-282,-150,-57,-176,-107,28,-129,133,93,180,-32,307,-57,207,-61,51,-189,-209,-27,116,-244,46,-45,212,21,98,-164,-95,228,-187,56,-374,-101,127,-277,-56,-70,183,60,-258,-40,1,-367,-61,-12,149,66,-261,287,149,81,198,36,-271,2,-195,-42,-33,-50,-16,-43,78,-77,-242,-170,-169,-63,-340,-255,83,-80,156,-143,-10,259,8,1,-69,-75,136,133,217,-62,199,-251,115,-309,93,147,136,122,-169,-61,-96,38,-190,-95,25,169,-10,-3,140,68,-35,259,387,-86,-408,46,35,82,-157,79,358,123,244,145,106,66,-217,188,-103,-329,-244,-46,-45,-121,-127,64,212,51,159,-134,-145,292,-245,12,145,-213,-144,122,-139,-11,-337,195,10,-116,108,-150,65,-288,19,198,31,47,-21,212,11,142,408,-69,222,209,131,14,483,-316,281,396,50,-192,79,-287,277,285,116,-25,89,11,88,92,433,-191,18,194,209,-224,32,-337,224,291,-49,430,39,250,298,129,161,-87,129,418,-127,-7,19,-29,218,169,60,77,128,5,16,-43,-129,-96,47,-112,88,-222,-2,358,-186,-93,-497,174,-184,-307,98,98,-29,-112,-448,-78,12,-368,240,109,193,-46,-28,197,-182,-18,7,215,-90,180,-174,-145,-160,-357,213,-262,-53,103,-200,-213,-270,31,140,-516,61,-315,-66,-88,-221,126,110,-340,66,341,375,-229,50,203,-67,36,33,-84,29,-150,-68,-62,164,-212,316,147,178,-63,45,180,-478,-187,-93,191,171,-34,485,122,75,422,-158,-50,-318,98,-12,-320,169,-90,-221,293,-186,-179,226,54,-286,192,285,-183,162,247,-15,-106,128,26,-127,-2,1,244,-326,135,-149,94,325,61,323,-290,-143,-177,-401,-428,198,-321,218,18,-190,276,27,-8,53,113,-38,-65,44,165,151,44,-162,-180,-91,261,44,-122,-71,405,-128,-126,-357,56,221,-230,-317,87,-174,221,-12,32,424,165,-121,101,-79,44,-149,-102,-173,7,113,150,38,169,147,-88,219,-42,-96,-229,181,-126,-38,-222,133,265,71,42,57,126,92,206,-82,125,-13,-181,-94,-176,-49,181,101,104,138,-52,91,84,98,5,-335,42,-61,-117,-28,-261,-182,198,186,323,-114,335,127,305,-124,509,95,-158,-96,-32,-138,-306,-484,-81,181,-99,-111,-9,75,95,242,52,325,206,-261,51,-69,150,165,48,-180,106,254,79,220,-71,-10,176,-148,-123,107,29,97,-65,106,-59,-125,-5,-135,382,33,53,23,-251,-264,50,188,-108,82,63,-183,113,-297,-353,-204,-111,12,67,-22,-378,-86,142,254,-44,-195,91,215,-238,-200,-28,28,-297,-120,-101,17,-359,48,144,63,-83,-46,48,9,-36,-109,-31,-199,45,164,-490,58,-53,-208,91,218,192,-124,114,407,-133,215,88,175,156,-126,101,-41,-26,133,-194,139,-120,89,-132,-145,-288,-14,-200,-227,-219,-443,146,-148,156,100,0,-106,163,-199,32,-230,15,7,81,-33,-44,-131,31,-16,164,-30,18,57,280,-211,120,-35,109,36,221,-145,-96,15,-36,41,-95,-147,3,190,-56,-205,62,-307,-198,-92,-153,283,101,-92,338,-8,-157,-11,-49,228,-188,201,78,-200,78,-121,-23,-281,-49,-125,79,261,116,20,213,-204,-327,43,-146,54,-247,267,122,32,325,83,17,246,227,377,147,-134,80,-28,-421,-94,-87,185,-41,-188,416,-280,200,-188,253,97,-54,44,4,-147,-458,-317,48,-120,-12,23,294,-167,296,-35,130,-18,99,55,234,-22,-327,165,-161,-140,-117,-53,20,-123,-269,-312,17,-420,-326,-158,-273,337,29,141,-153,-92,-130,-26,-111,349,-351,-92,13,-222,-8,332,-145,-104,556,-58,-79,-53,196,-163,-30,142,-408,-281,-157,12,-408,-6,199,-61,306,-407,252,-305,23,184,-32,103,140,-220,-60,46,69,68,-262,41,141,70,-339,-322,-269,102,-156,-106,-13,-233,-352,-44,118,100,-303,-32,158,235,-131,-340,18,-24,213,16,111,-69,-284,-273,113,-29,83,106,-135,-42,165,34,-154,45,-139,218,54,-271,189,-135,66,208,-270,131,-187,100,169,16,-12,78,-226,173,-57,-35,-145,286,-319,-181,18,134,104,65,-23,32,29,112,28,311,-153,71,126,98,-87,-197,-53,-51,106,71,387,127,228,431,132,-117,98,53,106,36,42,122,205,87,128,-3,-87,59,-73,140,45,-116,181,-14,-17,386,-136,-228,-230,139,-203,-151,-93,-204,105,-242,-86,-270,128,328,-274,36,209,-39,-152,20,227,67,85,101,175,-35,206,-226,72,252,-328,-110,272,232,202,-92,-197,541,76,102,110,-231,263,-10,102,240,-62,-200,370,322,59,72,-11,95,65,80,-263,-214,240,-253,94,39,-313,67,273,211,43,-16,-279,-190,-325,-136,-129,-10,88,-210,299,-51,119,-97,-100,264,225,-298,-61,-116,90,57,-159,-186,-245,-255,36,78,178,18,79,-303,117,-218,-132,-188,-231,-120,-65,83,180,-94,-240,-137,-130,0,-117,-131,-76,-3,-88,-29,-1,-103,113,-212,116,-142,22,-90,38,140,-33,-154,-49,177,106,91,-101,-61,-158,-40,-367,-229,124,-78,-119,-85,135,-156,-104,-167,25,247,21,-236,51,-7,-18,221,-161,-202,-148,-109,-279,339,61,149,114,219,253,-298,-135,93,157,-55,-120,-281,-34,-182,208,217,76,-199,-44,330,-92,-236,-27,512,151,70,74,-32,-165,106,93,-18,288,-302,-273,104,-139,-176,-429,114,67,225,84,-202,-260,135,18,-101,-122,84,-197,-37,92,303,-150,-7,47,-108,152,68,80,36,53,-53,-31,-83,-12,-1,302,350,260,-80,97,-84,-216,-141,-237,8,-214,-403,-138,32,-84,-51,10,-18,142,-92,212,273,66,111,12,55,-61,-99,-175,-168,26,-69,317,121,101,-70,66,2,226,-30,-105,26,262,61,150,-404,-230,-253,-2,-123,33,93,67,-79,347,-70,-105,123,107,-18,43,75,-237,-112,-213,31,130,-127,-14,-246,-186,103,207,-175,52,235,139,-104,30,-164,-100,-105,-80,-179,-177,-37,-118,73,-19,-40,-157,261,256,-469,67,185,-447,-197,-88,176,253,-31,-250,-136,-48,-6,-463,-107,-172,180,233,-227,15,-186,128,122,-2,-98,140,122,-195,310,108,177,-127,-442,112,-35,-91,-92,103,-40,-259,-87,179,110,-26,90,151,147,60,-70,-200,6,-240,68,-206,17,142,-92,99,-285,201,517,-232,-178,31,97,-231,-159,52,68,-169,439,-249,12,480,411,67,527,286,-304,159,51,-199,64,211,29,-478,363,-147,-251,702,186,-52,139,-125,-81,244,473,-216,69,-194,171,-221,-277,118,-92,144,167,-33,38,163,89,252,91,143,-58,112,-14,29,-36,-261,-66,33,-8,-49,277,84,-7,230,-21,-57,12,-11,-179,-194,-83,28,50,239,33,-153,104,-143,-149,-58,248,-106,128,97,138,290,54,-382,202,-269,181,-122,289,-266,-28,-206,-8,684,107,-55,35,489,-30,-36,0,41,-18,310,13,-183,378,-99,-142,232,72,-165,274,140,-227,-196,-115,-179,-15,174,-51,209,109,-152,-82,183,-119,26,127,20,-211,-231,117,-171,-111,178,375,159,-69,164,108,243,53,212,211,332,270,-210,124,-8,186,34,91,-192,11,207,283,129,-15,-109,172,9,-22,157,65,-193,-402,-211,-159,-232,-7,84,206,-44,213,62,-118,148,-138,-159,322,-134,6,-143,53,27,76,-137,-193,85,255,48,31,105,282,92,168,-287,-224,128,-14,154,62,187,-36,-2,300,29,-135,-22,-101,3,37,202,50,-4,-218,25,-78,101,-32,-267,-206,189,95,-332,16,106,123,100,-104,-83,-219,-107,-1,-5,9,-40,-193,197,348,237,-262,27,100,-134,-101,1,-75,-279,-46,-77,-186,-84,46,-52,-332,-88,-75,132,-87,-28,153,-305,-284,-19,-105,-91,-170,56,62,328,34,-62,16,64,60,93,167,-129,149,53,125,-13,-372,26,-72,-175,12,-138,-85,-17,-438,95,87,-286,365,-14,-99,110,-134,60,-135,-228,-48,-129,-133,76,-81,90,-210,-86,-15,-84,-68,-158,20,-130,-62,17,69,222,-100,238,-216,260,-27,5,-25,-66,115,207,-236,162,48,179,-276,-287,-10,35,-20,378,134,-94,162,-116,305,106,23,-283,-94,-242,-285,-29,-15,119,-268,54,32,-93,335,-21,118,186,-65,-210,-234,-399,15,-147,95,-209,-410,-61,-166,-79,107,163,-68,275,-144,-124,-52,-122,-235,-354,12,-177,172,-2,-66,-149,-31,-287,-173,207,-28,105,-313,-17,237,-111,311,158,-272,233,453,-48,474,131,-95,-173,-297,-133,-82,-25,151,-162,-257,-244,-89,-5,124,56,323,149,-273,44,333,159,299,-187,372,222,-40,-374,285,-149,58,341,167,21,-47,-37,-58,144,-215,223,16,258,149,280,-47,128,-223,44,662,-215,66,320,-309,-141,-251,16,-36,33,303,-175,111,304,-93,243,98,9,-152,110,173,-495,-238,-297,50,-79,32,-225,-72,89,-88,321,14,94,203,221,-400,255,-7,-191,288,-131,147,-118,78,-259,294,197,65,134,331,366,-117,153,91,-42,332,30,62,170,186,-272,371,317,90,-172,303,-180,59,379,-159,275,89,-26,-64,-159,176,45,200,131,199,-21,149,21,188,206,92,63,-43,-120,-20,-350,128,109,45,62,76,37,-146,-137,234,61,231,-391,-15,-264,-27,17,63,-113,-56,-22,49,146,-117,-223,-22,21,-192,-170,-153,176,191,232,-70,-57,-83,276,313,-189,239,-175,53,-104,105,230,-173,147,-240,-213,219,192,184,117,-15,-34,65,-168,20,133,52,57,12,138,366,-48,8,-150,-115,308,-132,-149,-113,106,174,215,25,109,412,307,4,185,-98,-81,33,75,-233,57,-116,14,-30,216,-131,235,264,18,-187,-181,47,-241,-42,38,-432,137,159,-42,-83,169,413,120,-86,-152,125,408,-89,-308,-164,-550,-290,-394,177,-123,177,19,-152,70,-224,-227,-74,32,177,-14,-40,-69,-220,-38,278,-450,-143,166,296,98,-63,-192,98,-211,66,-140,-29,-210,-255,-112,359,40,-122,2,16,-75,50,238,-169,126,-97,-10,-31,-32,-109,1,73,180,22,-21,-115,47,291,-287,-171,2,76,272,495,-176,-100,272,-139,42,-75,-142,42,74,156,-19,79,176,-66,197,158,-120,-236,-168,-265,346,42,-194,123,318,14,-45,28,40,-76,-94,149,-338,-27,159,-170,250,-80,184,126,-172,-239,-242,-141,-293,-218,84,-8,-421,-166,-125,-28,126,-374,-84,192,-148,-403,-403,-245,257,-110,138,-309,85,331,-267,-423,155,3,-411,-352,83,119,-296,50,-23,-127,-21,172,108,235,178,242,-101,34,-77,-12,-130,361,120,-143,-135,28,84,-32,255,280,-126,13,-17,66,-339,99,-24,-9,283,302,273,23,16,77,112,156,-48,-142,103,92,86,-205,104,-143,-94,142,24,-174,24,-242,113,257,-175,-106,88,-61,2,-374,444,-230,170,264,-148,-45,371,-102,-6,59,-55,-54,83,393,-158,-128,-295,-285,114,68,115,67,90,-208,-34,-132,95,215,221,-179,48,-146,84,128,-219,116,65,19,-91,-132,43,-358,146,158,39,32,-11,103,4,32,-47,30,189,-112,482,3,-68,-61,-54,-70,-162,77,33,-133,181,-46,-56,93,-25,-35,103,109,-111,54,15,22,-180,3,-7,115,-7,-23,183,341,-68,21,173,310,25,360,141,110,-425,316,-160,193,-258,-81,-26,5,-94,-9,-316,-323,58,-352,-311,323,51,154,162,-82,18,-122,128,-46,386,-263,84,-117,10,-314,-156,208,-488,238,81,-70,-87,-88,-27,-417,-15,32,-8,584,55,-88,641,169,-139,-181,-133,205,-255,126,107,63,-18,-104,59,106,146,170,181,45,164,248,-207,-186,-117,-74,50,-308,347,87,347,-111,-16,220,69,-24,-115,-116,-157,-150,-20,249,-406,187,-194,-1,-385,-151,-163,-143,-119,-180,148,416,68,220,203,-100,127,95,199,-82,-216,-543,69,-136,-367,43,141,-24,-83,-121,-200,-215,-103,-240,153,319,-328,54,-6,-53,239,233,-344,-142,257,-30,-96,188,174,79,-263,-173,143,12,-121,95,151,40,79,-224,-178,-195,43,14,195,120,249,-214,-75,-30,167,66,165,129,187,117,-118,-225,31,-33,22,-53,10,-51,-230,50,-187,-385,-78,-15,200,-96,58,324,17,-248,-57,157,102,149,-3,26,-15,-282,-158,122,108,62,-231,174,136,-178,-221,-61,9,-242,-163,-97,286,-170,-59,325,104,-270,216,-175,-109,20,-92,-160,251,136,18,4,-140,-69,40,561,144,-315,-157,-109,-19,-44,23,113,0,-341,47,41,-91,242,180,-100,-81,188,-178,142,-98,-195,-184,-270,-225,-56,166,289,-122,30,303,-60,146,-20,-113,476,17,-305,-96,124,365,-92,81,223,-293,-9,-295,-29,206,221,3,70,156,-27,-257,202,-53,156,-64,-205,-110,-204,-5,-45,-114,313,138,51,-24,-174,-146,-18,-251,22,-29,-191,-34,-83,220,-49,-260,114,123,181,63,-189,-51,313,-457,271,-291,217,188,106,-94,-239,7,196,351,119,-166,-78,344,51,-142,37,8,-11,121,128,193,-259,-125,102,47,104,-102,262,183,178,152,16,389,66,-56,47,-42,-325,-131,371,-170,9,55,69,49,-300,-232,-297,38,98,-68,-79,10,-162,-26,45,30,39,157,76,-110,-207,-112,202,56,301,50,7,139,177,85,129,143,254,-181,84,293,-216,-149,261,-276,415,57,128,130,144,52,36,123,-86,87,265,193,169,253,427,-197,-25,-25,67,-84,53,118,-25,-38,104,216,-119,-82,99,-389,165,-108,-275,33,-75,-21,65,182,-250,292,333,348,-286,170,395,-87,538,-18,98,102,494,95,-86,-3,65,132,342,-226,-138,9,140,-92,-121,14,1,-75,140,163,-86,-122,88,94,20,139,191,81,-83,-31,77,-33,157,90,28,42,41,-93,238,170,80,-77,-53,282,-278,-81,-408,122,335,192,262,186,143,190,-184,-73,58,-178,199,-221,9,-373,71,72,349,82,300,220,-360,78,100,-128,93,16,84,27,193,47,-29,-140,384,30,197,114,79,-91,601,335,378,269,311,136,-272,212,-84,-118,313,28,20,218,290,-247,21,183,213,-131,132,-143,-306,-207,-390,-34,126,-157,-232,3,5,113,-324,-165,-24,-27,-85,125,-93,-60,0,221,-260,305,332,67,-191,609,-77,-163,-296,-174,-152,-449,155,-419,218,-12,-118,82,167,52,-77,147,-72,25,129,-466,37,43,90,-73,126,-29,57,231,-132,-319,188,21,33,-51,-180,128,8,249,-69,335,-221,-184,-46,84,-117,-157,-60,-86,-122,150,-188,134,147,-123,-9,147,-6,52,-90,-47,223,329,116,-43,-149,-169,-142,-210,-373,-150,-45,-83,160,76,12,8,189,102,210,115,-30,60,160,348,77,95,3,-78,62,223,-86,-126,173,195,-134,187,166,-71,-293,-107,-43,-185,203,165,-82,26,-47,-54,43,163,-1,-72,215,-187,116,140,105,-224,-335,51,-110,-79,-191,-25,192,-100,339,109,-173,-108,-136,-110,239,-205,-48,315,-270,163,-152,-130,197,-34,-46,449,-282,-323,-34,6,-29,44,-25,-122,-121,-386,72,-63,6,-159,-88,60,-263,128,-33,77,-77,-12,-39,-22,-178,-12,274,34,198,177,300,15,-164,83,252,-224,110,215,-153,-11,-121,-51,91,13,-47,59,78,279,-166,-126,-282,-229,23,-61,8,48,167,-104,-138,-43,-46,81,-406,-114,87,10,-72,49,-198,-73,61,-276,21,37,-503,-296,21,-247,-225,-292,-62,-5,-90,-182,-296,-136,293,-181,562,4,311,207,242,-101,-372,-185,108,284,-116,177,178,295,121,143,218,195,177,97,179,7,6,-46,165,105,-111,288,196,137,-134,74,25,113,326,-48,-50,48,217,-25,-200,-23,-37,-156,120,-75,-158,-39,26,-1,217,25,96,268,290,-45,41,49,14,-110,80,-200,-122,-229,-77,-74,310,-71,117,116,56,81,-162,0,-7,-161,47,-8,0,-109,17,-99,179,142,20,102,-36,60,53,112,-14,-134,269,2,189,103,121,5,110,332,140,-24,123,4,-126,40,-251,-21,104,-81,-234,-250,-198,-100,-107,-202,136,263,-96,218,-27,55,316,314,43,115,106,-198,44,-11,-81,4,42,46,-199,-9,308,78,-64,36,-81,14,-118,162,43,-131,133,7,-76,176,89,-79,-46,-21,-34,63,-89,129,287,-56,134,-70,2,84,212,-10,107,80,105,27,59,-113,273,-100,73,2,-109,-193,-306,742,51,-138,149,217,-168,82,-108,-107,126,-50,120,-158,133,-25,-121,-105,53,197,187,22,43,29,-256,-196,39,27,183,-153,135,-3,-138,306,30,-75,-12,-11,111,106,-186,248,309,155,445,381,80,62,-29,153,339,-119,106,-14,-60,-121,-217,37,-128,-34,189,130,129,100,-55,22,-179,-292,122,188,-145,-44,-196,-73,-162,-534,183,-102,265,290,18,-381,97,-37,275,76,5,-251,109,158,236,-428,-35,-268,-293,396,-19,-70,201,181,371,-38,237,-145,65,69,-67,157,-96,130,266,93,99,-55,54,-55,327,-172,30,-6,-39,213,67,1,136,282,-283,190,39,-237,79,256,86,75,-17,-279,50,-1,43,-82,-54,123,57,213,-47,-126,498,-283,-346,-71,75,-154,-161,-21,-58,15,-220,-43,-582,422,-298,-162,555,283,-340,21,78,23,-353,-113,-44,-114,-401,-79,-467,93,-69,-177,100,307,-260,137,-157,-211,-56,-266,-263,84,-285,318,-289,89,183,-97,-56,52,-65,17,-65,-105,18,-167,-33,-270,-196,-334,-268,219,211,-301,-314,154,55,105,-134,-91,-19,-250,-199,-326,-312,359,-51,111,-110,-120,71,-145,129,-56,-57,-165,-194,62,-74,136,-12,-35,-34,-3,-22,-99,239,16,-95,-215,-37,-167,81,-350,-86,231,94,19,168,-118,154,30,352,61,68,26,-148,-137,165,-159,146,131,72,109,-7,74,-39,-98,363,-260,75,236,-111,-249,-101,93,-6,24,106,197,-171,303,-208,-82,-174,-107,-120,289,-305,-167,-134,-28,-385,-114,156,417,-41,42,-300,-195,-123,-37,68,100,193,-77,33,18,-61,-14,-15,90,-80,-245,106,-266,-188,185,128,254,-362,154,83,-173,-140,-45,111,160,96,-170,19,-321,178,-265,86,100,-291,-123,-250,425,249,-157,-37,-55,-206,-98,-247,-7,-73,-97,-36,52,-264,-206,70,-184,-123,-415,-93,69,-69,31,-41,-391,197,-41,-198,-235,71,-55,183,-203,-333,29,-34,178,73,-205,-234,187,-245,-172,69,109,-92,148,-71,-125,-445,-194,-10,61,-43,241,-28,-56,75,127,73,217,-252,-161,61,195,-325,-129,177,320,-357,386,-33,-215,206,-117,17,329,101,-375,-379,-346,-70,-418,-61,-220,123,-186,39,-165,107,-287,82,-64,67,279,253,-7,-204,94,-11,-76,-81,-50,-105,-129,60,-37,249,-134,159,405,384,-75,-5,207,-115,232,-84,215,98,-92,195,72,-41,-132,-131,-62,-308,4,49,-233,-68,149,-165,158,104,-29,603,197,-83,-22,-97,357,-74,-99,24,80,-184,-718,-132,259,56,-92,242,198,-60,109,-20,-164,40,-352,-108,346,-69,-140,216,-22,-29,201,76,-368,-119,109,32,19,110,117,140,-18,515,442,182,75,-230,181,-23,-190,-208,42,117,-302,-397,13,235,-242,78,-19,149,101,28,270,379,-151,-110,-87,108,22,-288,-53,224,153,-339,-183,93,78,211,122,204,106,-82,-298,3,300,-54,-72,258,98,94,-144,191,-160,89,244,114,51,143,-11,58,135,174,127,-24,40,268,306,279,15,27,207,359,-127,-247,-16,226,78,36,180,79,-77,326,238,-1,270,-228,66,-185,-98,-169,-256,29,-115,-36,-35,-111,-126,-55,79,105,16,168,61,149,170,-279,-164,181,59,-63,-329,20,151,-67,22,-139,247,109,189,-82,-97,39,-157,89,170,132,28,-23,98,-249,-324,186,69,402,-115,23,245,181,-354,248,118,209,-45,-27,110,118,-651,344,-157,75,61,264,43,-6,109,-113,156,219,7,17,215,206,178,268,-29,113,415,273,-17,-39,206,139,306,-269,250,353,16,-28,-161,18,-128,56,52,1,-69,40,-358,144,79,8,140,182,150,-82,259,-99,-16,-279,-146,-187,-78,110,-202,-50,-143,-261,200,209,-157,-45,-135,-84,-120,9,-237,-171,62,151,111,-49,69,568,18,83,341,-243,184,172,-206,400,20,131,76,315,217,-137,66,-266,51,-126,263,-39,520,130,260,-22,287,218,-103,-59,260,185,-315,-379,126,184,-235,137,-48,148,-212,-30,-139,-219,-269,197,71,-53,239,-71,-65,-288,-20,-185,103,-389,-105,-322,59,-163,13,116,85,-19,256,36,-30,-277,-45,-290,-7,-4,-70,25,53,49,-40,253,-143,-14,82,-49,-133,-33,-159,279,503,-136,-180,111,-51,115,-115,191,-146,6,95,262,195,-92,16,-3,-78,-23,210,68,56,151,22,169,-295,127,58,87,-229,-43,-171,122,36,20,-59,4,-168,141,198,146,73,-27,-270,-64,153,129,-367,273,-71,-363,148,-73,-294,14,212,-399,280,115,-373,-66,-43,-263,-304,61,-284,-97,2,4,-45,-205,-27,-212,71,145,-156,190,-46,85,239,21,261,-230,-87,-147,-450,-107,-260,86,-244,-213,2,30,57,-242,210,42,85,166,49,193,-235,-332,302,196,-493,127,84,69,-199,-150,-175,-180,-17,-348,196,79,88,295,245,-104,-2,-84,32,-10,-190,58,170,-23,-266,90,98,200,-6,62,108,3,296,-30,-102,240,-84,-46,74,149,-252,62,-87,-74,345,-41,-158,-252,96,211,19,-63,-66,113,-114,14,195,137,-106,5,-77,-97,-337,-165,368,-145,27,-140,149,-339,-103,7,-214,-80,-125,-40,-350,-543,152,-34,82,-218,257,-283,