#include <stdint.h>
#include "math/matrix.h"


#ifndef NEURAL_NETWORK_PARAMS_GUARD
#define NEURAL_NETWORK_PARAMS_GUARD

#define FIXED_POINT_PRECISION 10
#define NUM_OUTPUTS 1
#define IS_MSP
#define LEA_RAM_LENGTH 1800
#define LEA_RESERVED 2

#define MODEL_ARRAY_OUTPUT_LENGTH 16384
#define MODEL_ARRAY_TEMP_LENGTH 16384
#define PADDING_BUFFER_LENGTH 8128
#define FILTER_BUFFER_LENGTH 1024
#define INPUT_NUM_ROWS 28
#define INPUT_NUM_COLS 28
#define INPUT_NUM_CHANNELS 1
#define OUTPUT_NUM_LABELS 10
#define TAYLOR_SERIES_ITERATIONS 5

#define INPUT_LENGTH (INPUT_NUM_ROWS*INPUT_NUM_COLS*INPUT_NUM_CHANNELS)
#define OUTPUT_LENGTH (OUTPUT_NUM_LABELS*LEA_RESERVED)

//#pragma PERSISTENT(TEMP_0)
//static dtype TEMP_0[MODEL_ARRAY_OUTPUT_LENGTH] = {0};
//static matrix TEMP_0_MAT = {.data=TEMP_0, .numRows=0, .numCols=0};
//
//#pragma PERSISTENT(TEMP_1)
//static dtype TEMP_1[MODEL_ARRAY_OUTPUT_LENGTH] = {0};
//static matrix TEMP_1_MAT = {.data=TEMP_1, .numRows=0, .numCols=0};
//
//
//#pragma PERSISTENT(MNIST_OUTPUT)
//static dtype MNIST_OUTPUT[10] = {0};
//static matrix MNIST_OUTPUT_MAT = {.data=MNIST_OUTPUT, .numRows=10, .numCols=1};
//
//#pragma PERSISTENT(MNIST_INPUT)
//static dtype MNIST_INPUT[784] = {0, 0, 0, 0, 0, 0, 0, 0, 0, 0, 0, 0, 0, 0, 0, 0, 0, 0, 0, 0, 0, 0, 0, 0, 0, 0, 0, 0, 0, 0, 0, 0, 0, 0, 0, 0, 0, 0, 0, 0, 0, 0, 0, 0, 0, 0, 0, 0, 0, 0, 0, 0, 0, 0, 0, 0, 0, 0, 0, 0, 0, 0, 0, 0, 0, 0, 0, 0, 0, 0, 0, 0, 0, 0, 0, 0, 0, 0, 0, 0, 0, 0, 0, 0, 0, 0, 0, 0, 0, 0, 0, 0, 0, 0, 465, 501, 686, 1024, 1024, 602, 373, 0, 0, 0, 0, 0, 0, 0, 0, 0, 0, 0, 0, 0, 0, 0, 0, 0, 0, 0, 0, 678, 1015, 1015, 1015, 1015, 1015, 1015, 875, 120, 0, 0, 0, 0, 0, 0, 0, 0, 0, 0, 0, 0, 0, 0, 0, 0, 0, 0, 678, 1015, 1015, 1015, 855, 570, 706, 1015, 1015, 489, 0, 0, 0, 0, 0, 0, 0, 0, 0, 0, 0, 0, 0, 0, 0, 0, 0, 208, 1003, 1015, 843, 128, 48, 0, 24, 827, 1015, 562, 0, 0, 0, 0, 0, 0, 0, 0, 0, 0, 0, 0, 0, 0, 0, 0, 0, 309, 1007, 843, 100, 0, 0, 0, 489, 995, 1015, 261, 0, 0, 0, 0, 0, 0, 0, 0, 0, 0, 0, 0, 0, 0, 0, 0, 0, 0, 124, 72, 0, 0, 0, 0, 839, 1015, 1015, 261, 0, 0, 0, 0, 0, 0, 0, 0, 0, 0, 0, 0, 0, 0, 0, 0, 0, 0, 0, 0, 0, 0, 0, 469, 991, 1015, 795, 40, 0, 0, 0, 0, 0, 0, 0, 0, 0, 0, 0, 0, 0, 0, 0, 0, 0, 0, 0, 0, 0, 0, 305, 991, 1015, 927, 252, 0, 0, 0, 0, 0, 0, 0, 0, 0, 0, 0, 0, 0, 0, 0, 0, 0, 0, 0, 0, 0, 0, 0, 514, 1015, 1015, 578, 0, 0, 0, 0, 0, 0, 0, 0, 0, 0, 0, 0, 0, 0, 0, 0, 0, 0, 0, 0, 0, 0, 0, 706, 987, 1015, 638, 48, 0, 0, 0, 0, 0, 0, 0, 0, 0, 0, 0, 0, 0, 0, 0, 0, 0, 0, 0, 0, 0, 0, 100, 939, 1015, 935, 140, 0, 0, 0, 0, 0, 0, 0, 0, 0, 0, 0, 0, 0, 0, 0, 0, 0, 0, 0, 0, 0, 0, 0, 795, 1015, 1015, 566, 0, 0, 0, 0, 0, 0, 0, 0, 0, 0, 0, 0, 0, 0, 0, 0, 0, 0, 0, 0, 0, 0, 0, 313, 995, 1015, 758, 48, 0, 0, 0, 0, 0, 0, 0, 0, 0, 0, 0, 0, 0, 0, 0, 0, 0, 0, 0, 0, 0, 0, 76, 803, 1015, 1015, 566, 0, 0, 0, 0, 0, 0, 0, 0, 0, 0, 0, 0, 0, 0, 0, 0, 0, 0, 0, 0, 0, 0, 0, 538, 1015, 1015, 694, 48, 0, 0, 0, 0, 0, 0, 0, 0, 0, 0, 0, 0, 0, 0, 0, 0, 0, 0, 0, 0, 0, 0, 0, 995, 1015, 1015, 100, 0, 0, 0, 0, 0, 0, 0, 0, 0, 0, 0, 0, 0, 0, 0, 0, 0, 0, 0, 0, 0, 0, 0, 0, 995, 1015, 1015, 172, 80, 80, 80, 80, 20, 0, 20, 80, 80, 148, 602, 602, 602, 590, 40, 0, 0, 0, 0, 0, 0, 0, 0, 0, 995, 1015, 1015, 1015, 1015, 1015, 1015, 1015, 674, 574, 666, 1015, 1015, 1015, 1015, 1015, 1015, 1015, 493, 0, 0, 0, 0, 0, 0, 0, 0, 0, 698, 1015, 1015, 1015, 1015, 1015, 1015, 1015, 1015, 1015, 1015, 1015, 999, 991, 991, 678, 469, 469, 228, 0, 0, 0, 0, 0, 0, 0, 0, 0, 0, 473, 493, 493, 493, 666, 1015, 1015, 1015, 622, 493, 493, 164, 0, 0, 0, 0, 0, 0, 0, 0, 0, 0, 0, 0, 0, 0, 0, 0, 0, 0, 0, 0, 0, 0, 0, 0, 0, 0, 0, 0, 0, 0, 0, 0, 0, 0, 0, 0, 0, 0, 0, 0, 0, 0, 0, 0, 0, 0, 0, 0, 0, 0, 0, 0, 0, 0, 0, 0, 0, 0, 0, 0, 0, 0, 0, 0, 0, 0, 0, 0, 0, 0, 0, 0, 0, 0, 0, 0, 0, 0, 0, 0, 0, 0, 0, 0, 0, 0, 0, 0, 0, 0, 0, 0, 0, 0, 0, 0, 0, 0, 0, 0, 0, 0, 0, 0, 0, 0, 0, 0, 0, 0, 0, 0, 0, 0, 0, 0, 0, 0, 0, 0, 0, 0, 0, 0, 0, 0, 0, 0, 0, 0, 0, 0, 0, 0, 0, 0, 0, 0, 0, 0, 0, 0, 0, 0, 0, 0, 0};
//
//static matrix MNIST_INPUT_MAT = {.data=MNIST_INPUT, .numRows=28, .numCols=28};
//
//#pragma PERSISTENT(MNIST_KERNEL_0)
//static dtype MNIST_KERNEL_0[72] = {275, -154, -287, 291, 78, -214, 18, 157, -166, -18, 163, 133, -142, 236, -69, 79, 121, 133, -652, -422, -141, -504, 211, 173, -365, -119, 369, 30, 292, 321, -438, 157, -193, -423, -500, -172, 159, 240, 8, 135, -65, -171, 160, -3, -102, 45, 141, 210, 137, 117, -28, -148, -117, -372, 91, -198, -310, 225, 163, -72, 11, 113, 332, -263, -168, 244, 287, 206, -31, 28, -34, -176};
//
//static matrix MNIST_KERNEL_0_MAT = {.data=MNIST_KERNEL_0, .numRows=3, .numCols=3};
//
//#pragma PERSISTENT(MNIST_BIAS_0)
//static dtype MNIST_BIAS_0[8] = {-87, 10, 0, 0, -2, -1, -20, -68};
//
//static matrix MNIST_BIAS_0_MAT = {.data=MNIST_BIAS_0, .numRows=8, .numCols=1};
//
//#pragma PERSISTENT(MNIST_KERNEL_1)
//static dtype MNIST_KERNEL_1[1152] = {181, 212, -145, 223, 212, -28, 91, -35, 130, -75, -160, 62, 65, -177, -26, 37, 91, 15, -12, 398, 248, 167, 177, 148, 30, 53, -58, 248, -1, -10, -595, -337, 120, -268, -173, -25, -13, -204, -99, 232, 2, -61, 162, -19, -90, -399, -434, -225, -97, -114, 37, -51, -11, 38, 228, -250, 46, -96, -210, 66, 133, 85, 33, 41, 63, -50, 124, -45, -111, -15, -156, -77, 133, 155, 0, 175, -31, 123, 21, 25, -108, -7, 42, -30, -3, -120, 17, -109, 60, -60, 5, 88, 115, 112, -80, -102, -20, -11, -8, -110, 236, 181, -48, -13, 66, -134, 170, 37, 17, -69, 91, 138, 23, 28, 149, -146, -33, -15, 92, 17, -73, 184, 67, 44, 28, -36, 154, 146, -31, 79, -112, -205, 27, 5, 7, 30, 133, 126, -105, -5, -24, -35, -138, -103, -56, -38, 62, 53, -9, 111, 152, 38, 58, -85, 6, 5, 153, -56, 150, -207, -140, 95, 136, -143, 21, -4, -166, -70, -155, -261, -39, -267, -158, 18, -107, -134, -100, 70, 188, -26, 14, 80, -32, 27, -59, -4, -152, -25, -47, 3, 226, 59, -77, 46, 5, 93, 17, -80, -112, 31, 0, 171, 153, 22, 60, 141, 163, 53, -9, 31, 175, 262, 145, 88, 315, 177, -4, 135, -52, -150, -253, -283, -144, -60, -201, 197, 13, 119, -214, -161, -234, 70, 37, -148, -38, 126, 45, -260, -239, -278, -392, 76, 119, 19, 36, 188, 103, 152, 75, 224, 241, 59, 111, 44, 45, -71, -16, 12, -188, -54, 75, 195, 11, 196, 131, 46, 346, 31, -158, 7, -30, -36, 26, 129, 40, 119, 224, 86, -60, 133, 62, 145, 17, 141, 42, 35, 4, 249, 35, -150, -239, -99, -151, -120, 23, 76, -102, 35, -102, -47, -93, -51, 58, 45, 9, 164, -131, -118, 16, 39, -45, 303, 197, 26, 166, 103, 178, 287, 143, -9, 2, 28, 130, -12, -137, 93, 37, -199, -49, -130, 3, -37, 14, 165, 271, 270, 66, 29, 172, -56, 98, -69, -80, 36, -3, 58, -127, 77, -39, -32, -39, -285, 65, 29, -60, 39, 35, 55, -36, -17, -123, -23, -146, 82, -1, 104, -76, -50, -148, -111, 115, 25, 101, -16, -8, -22, 70, 163, -83, 36, 17, 284, 174, -202, 124, 87, 115, 111, -78, 185, 99, -57, -94, 34, -30, -50, -121, -5, 87, 23, 2, -115, 0, -54, 48, 98, -117, 31, 41, 151, 2, 62, 36, -64, 119, 82, 125, -151, 47, -21, 46, 114, 175, 263, 203, 65, 115, 140, 0, -49, 9, 157, 44, 43, -22, 28, 198, 31, 101, 229, -61, 77, 57, 70, -29, 136, 64, -45, 115, -69, 73, 148, 80, -38, 29, 87, 147, 58, -225, 59, -61, -94, 101, -217, -166, 131, -117, -44, 40, 40, -88, -80, 87, -24, -253, -59, -9, -27, 6, -77, 23, -156, 52, 47, -168, -23, 22, -38, 140, -34, 133, 74, -249, 35, 244, -72, 147, 215, -254, 21, -27, -153, -56, -47, 40, 74, 136, -190, -129, -117, -94, -152, -180, -70, -132, -69, 0, -131, -14, 65, 6, -12, 73, 29, -268, 102, 38, -66, 42, 7, -46, 226, 241, 224, 184, -56, 99, -10, 79, 117, -76, -293, -128, 131, -25, -75, 70, 112, 56, -17, 4, 57, -45, -47, 23, 20, 134, 86, 206, 66, -186, -68, 117, 140, 25, 31, 68, -91, -120, -267, 44, 62, -9, 127, 136, 91, 71, 126, 139, 127, -102, 144, 305, 234, -37, 2, 132, 36, -78, -23, 134, 33, -67, -125, -210, -30, 31, -190, -2, -6, 129, 35, -5, -19, -6, 13, -18, 24, 105, -222, 45, 208, 105, 40, 152, -52, -67, 133, 36, 4, -94, 13, 15, -147, 10, -37, -119, -77, -92, 233, -232, -112, 66, -29, -147, 238, -84, -346, 42, -78, -48, -147, -9, -202, -33, 35, -283, -90, 13, -82, 162, -50, -115, -260, -30, 50, 89, -134, -170, -149, -51, -113, -143, 108, 46, 105, -214, 17, 155, -344, -339, -105, 212, 135, -168, 347, 306, 50, 33, 199, 132, 70, 173, -126, -164, 75, 125, -202, -222, -125, 36, -17, -14, 239, 275, 115, -158, -238, -128, 147, -139, -322, 66, 73, -199, -11, 199, -57, 16, 62, 40, -343, -104, -64, 4, -153, -119, 16, -130, -139, -186, -232, 152, -64, 2, 226, 94, -13, 54, 50, -49, 229, -139, 234, -40, 140, 5, -124, -30, 120, 24, 87, 3, -1, 239, 71, -59, 89, -199, -216, -127, -123, -236, -332, -219, -134, -140, 103, 228, -251, -77, 253, 24, 42, -99, -82, 19, -67, 68, -121, 87, -102, -56, 18, -180, -78, -93, -27, -67, -106, -265, -51, -46, -154, -122, -158, -255, 53, -26, 166, 44, -65, 262, -13, 38, 99, -64, 22, -120, -33, -103, -45, -53, -31, 157, 136, 65, 13, -125, -120, -23, -96, 31, -229, -97, -75, 23, -266, -217, -300, -61, -16, -98, 3, 29, 125, -17, 40, 257, 27, -61, 26, 73, 87, -116, -84, -172, 82, -36, 48, -94, -73, 107, 35, 64, 100, -49, 42, 21, 178, -5, 91, -30, 159, 173, 221, 165, 116, 42, 277, 117, 125, 32, -16, -92, 322, 202, -23, 303, 50, -202, -401, -421, -123, 205, -24, 152, -213, -220, -265, 43, 28, 166, 222, 103, 87, 215, 142, -70, 222, 139, -25, -105, -116, 68, 37, -242, 371, -307, 113, -45, -17, 216, 42, 15, -76, -151, -58, 118, -140, -35, 131, 176, 156, 76, 88, -330, -31, -162, -69, -210, 12, -296, -345, 127, -218, 34, 163, -73, -111, 81, 41, -51, 77, 165, 68, 214, 54, -58, -79, -185, -72, -102, -16, 179, 135, 85, -66, -121, -37, -6, 180, 87, -114, 342, 189, 30, 129, -1, 48, -57, 151, 22, -170, -424, -336, -298, -642, -136, -29, -261, 40, -12, 85, 42, 86, -33, 91, 93, 44, -15, -117, -81, 18, -193, -183, 29, -163, 68, 74, -227, -149, -55, -28, 65, 56, 177, 102, -91, -276, -9, 28, -235, -143, -55, 89, 51, 94, -67, 5, -97, 218, 179, -326, 51, 158, 7, -122, -106, -177, 10, -75, -62, 226, -105, -242, -184, 88, -108, -335, 70, 282, -29, -78, -96, 117, -13, 165, -7, 90, 9, -165, -214, 280, 49, 28, 33, 14, 78, 40, 115, -80, -61, 107, 96, 179, -126, 36, -47, -17, -115, 376, -33, -2, -6, 232, -107, 119, 24, 48, 88, -65, -28, 89, -116, -202, 74, -117, -191, -188, -170, -379, -167, 24, 116, 70, 118, 226, -168, -69, -116, -290, 41, -21, 133, -1, 123, 126, 112, 125, -189, -61, 116, 30, 81, -13, -172, 13, 120, 261, -68, -57, 137, -72, 4, 8, -254, -192, -198, 13, -75, -49, 134, -14, -48, -73, -2, 30, -29, -112, -26, -130, -235, -107, 46, 240, -38, 228, 74, 325, 104, 3, 88, 136, 44, -119, 134, 18, -37, 13, -6, 7};
//
//static matrix MNIST_KERNEL_1_MAT = {.data=MNIST_KERNEL_1, .numRows=3, .numCols=3};
//
//#pragma PERSISTENT(MNIST_BIAS_1)
//static dtype MNIST_BIAS_1[16] = {-13, -13, -43, -47, -2, -32, -57, -20, 0, 0, 3, -54, 10, 69, -40, 0};
//
//static matrix MNIST_BIAS_1_MAT = {.data=MNIST_BIAS_1, .numRows=16, .numCols=1};
//
//
//#pragma PERSISTENT(MNIST_KERNEL_2)
//static dtype MNIST_KERNEL_2[4608] = {23, 95, 20, 10, 59, 63, -40, -65, -112, -102, 104, 127, 50, 42, 237, 31, 98, 29, -88, 95, 28, 139, -68, 16, 122, 34, 32, -9, -59, 29, 3, -135, -98, 29, -142, 131, 1, 143, -38, 52, 92, 64, 11, 106, -108, -39, 146, 151, 11, 61, -47, -62, 9, -16, -74, -6, 0, -65, -112, 29, 103, -162, 111, -43, -189, -106, 42, 155, -30, -75, 205, 110, -130, -170, -79, 55, 27, 29, -13, 126, -167, 24, -64, -70, -127, -101, 61, 40, 94, -200, -191, 67, -18, -96, -197, 81, -85, -20, -78, -65, -29, 83, -9, -51, -27, -8, 70, 109, -69, 60, 54, -110, -66, 31, -28, 169, 35, 0, 21, 10, -58, 99, 13, 176, 42, -47, 42, -161, 147, 39, 92, -187, -113, -52, 10, 24, 4, -44, -71, -67, -21, -161, 168, -171, -48, -326, 103, 74, -104, 65, -138, -3, -372, 321, -92, -101, 319, -213, -109, -24, -143, -351, 57, -6, 50, -24, -90, -50, -227, 245, -101, 108, -253, 170, 58, 177, 119, -328, 140, 35, 249, 39, -41, -14, 141, 60, -143, 89, -197, 67, 185, 108, -77, 142, 151, -362, -20, 268, 64, 14, -71, -869, 254, 81, -220, -39, -574, -117, 26, 124, -116, -57, -46, -169, -181, -198, 446, -60, -22, -168, -64, 100, -68, -107, 25, -149, -160, -378, 167, 13, 387, -20, -11, -253, 29, -67, 132, -142, -140, -330, -197, -34, -112, 32, -42, 103, -264, -183, 238, -29, -82, -14, -264, 141, -196, -435, 189, 122, -2, 248, -157, -383, -10, 76, -13, 233, -358, 235, -23, 236, -582, 122, -288, 127, 98, 259, -59, 82, -571, -240, -372, 121, -47, -255, 244, 47, -299, -478, 96, -12, -159, -75, -44, -187, -95, -59, -173, -125, -67, -190, 96, 146, 76, -105, -116, -29, 18, 165, 164, 113, -89, -61, 180, -189, -104, -91, 17, -5, 86, 131, 6, -122, -182, -36, -79, 106, -103, -196, 147, -156, -90, 79, 89, 175, 63, 2, 58, -12, 55, -79, -140, 24, 2, 13, -30, 26, 7, 16, -43, -190, 95, -152, 115, 106, 135, 90, -190, -98, 50, 177, -151, -81, -161, -111, 82, -12, -134, 98, -104, -98, 35, 18, 71, -185, 191, -22, -202, -156, 174, -151, 64, 111, 56, -176, -90, -156, -27, -18, -156, 46, 82, -52, 10, -76, -163, -49, -32, 158, 164, 22, -111, -32, -46, 39, -98, -69, 57, 22, 64, -117, 148, -176, -45, 5, 153, -207, -146, 0, -122, -42, 56, 43, 158, -92, 80, -141, 202, 151, -161, -25, 136, 151, -115, 8, 87, 5, 132, 23, 109, 6, 50, 24, -75, -161, 14, -122, 68, -60, 235, -211, -129, -25, 178, -11, 4, -99, 54, 50, 81, 54, 9, -86, 23, 135, 172, -180, 48, -152, 339, -68, 71, -68, 40, -100, 127, -9, 106, 7, -80, -50, -86, -39, 3, 196, -131, -134, 154, 111, 13, 30, -33, 120, 29, 29, 62, -3, 47, 26, -55, 75, 34, 68, -35, -52, 15, 55, 90, 59, 13, 73, 10, -26, 6, 92, -12, -216, -140, -83, -29, 38, -188, -67, 75, 15, 56, 229, -170, -132, 90, 48, 0, 39, 39, -76, -49, 28, -120, 96, 1, 68, 128, 17, 37, 47, -66, 111, -149, -108, -48, 142, 35, -162, 77, -28, 135, -208, -56, 88, 116, -10, -91, 38, -5, 65, 56, 37, 91, 193, 97, 19, 76, 51, -197, 13, -6, -41, -225, -146, -9, -166, 58, 96, 297, -264, -133, 0, 12, -34, 19, -205, -223, -87, -134, 241, -189, -285, 7, -35, 128, 220, -103, -22, -23, 169, 100, 54, -16, -24, -182, -214, 71, -11, -61, -140, -286, 6, -222, -32, -44, 43, 456, 91, -224, -78, -35, -128, 18, 49, -58, 50, 69, -74, 93, -29, -250, -29, 32, -13, -187, 246, -17, -15, -92, 93, -36, -102, -11, 172, 109, 142, 82, -72, 106, -19, 16, 7, 91, -49, 70, 229, 37, 8, 3, -161, 32, 415, -202, -85, 7, 197, 36, 181, 33, -131, -162, 87, -5, -39, -72, 99, 130, 51, -246, -99, 115, -3, 181, 205, 214, -79, 55, 84, 48, -55, -136, -54, -40, -30, -99, 96, 140, 4, -35, 147, 85, -125, 63, -26, 0, -112, -48, 99, -129, -71, 178, 68, 69, 179, -139, -61, -81, 30, 81, -119, 55, 56, 166, 129, 142, -77, -126, -128, -200, -33, 153, -184, 3, -35, -188, -54, -75, -131, -93, -87, -142, -63, 162, -161, -176, 157, -68, 115, -83, -142, -180, -191, -167, 43, -51, 114, -207, -172, 22, -148, 67, -39, -87, -136, -1, 87, -191, -181, 107, -171, 76, -5, -186, 118, -130, 155, -149, 32, 118, 34, -146, -46, -121, -116, -123, -91, -42, -189, 140, 151, 64, 158, 72, 107, -2, 143, 113, -176, 8, -80, -126, 109, 50, -84, -15, 14, 54, 16, -119, -173, -137, -14, 15, -157, -172, -82, -192, -162, -30, -41, 90, 125, 105, -69, 166, 106, 90, -35, 13, -136, 143, -189, -61, -34, -162, -103, 151, -111, -124, -188, 10, 43, 142, -184, -165, 50, -151, 50, 125, -194, -28, -101, -67, -100, -76, -42, -40, -147, -159, 150, 108, -175, -83, -85, -70, 47, 131, 83, 195, 41, 20, -25, 16, -146, -27, 47, 69, -45, -69, -15, 133, 58, 44, 112, 32, 42, -40, 75, 71, -107, 6, -25, -9, 63, -86, -30, 128, -44, -70, 36, -31, -56, 66, 89, 2, -122, -4, -89, 74, -101, 92, 73, 36, -93, 37, 74, -46, 39, 11, 16, 194, -59, 187, -11, 88, -67, 8, 141, -66, 92, 40, -20, 7, -29, 55, -60, -3, 0, 140, -38, -86, -96, 111, 193, -72, -29, 107, -153, 77, 262, 52, -67, 63, 8, 14, 38, -51, -68, -10, 24, -97, -145, 59, 17, -18, 138, -104, 10, 84, -122, 71, 70, 61, -3, 44, 71, -79, 71, 11, 96, -61, -47, 3, -4, 99, 68, 14, -50, 96, -65, -63, 28, -68, -79, 27, -77, -58, -44, 96, 58, 11, -207, 59, -165, -68, -104, 170, -138, -115, 143, 47, -5, -103, -45, 155, 117, -146, 33, 123, 119, 136, -139, 35, -11, -48, -40, -108, 35, -128, 20, -13, 104, 13, -78, -80, -196, -25, -172, -45, 78, 143, 12, -55, -125, 166, 98, -59, 90, -63, 26, -81, -37, 82, 81, 144, 84, -173, 36, 52, 3, -121, 125, -85, -98, 135, 135, -96, 150, -167, -15, -43, -175, -97, -114, -80, -37, 161, -31, -156, -195, 132, 32, 31, -60, -146, 42, -63, -120, 67, 158, 14, -160, 151, -155, 161, -162, 144, 99, 38, -4, -127, -142, -130, -138, -99, -38, 57, 75, 103, 107, -70, 84, -108, -55, 118, 64, -124, -165, -4, 45, 129, -22, -47, -170, 90, -45, 29, 83, -45, 146, 136, 43, 7, 0, -158, -148, -104, -115, -1, -38, -169, -183, 70, -188, -189, -104, 163, -142, 14, -42, -26, -17, -32, -26, -7, 42, 19, -6, 24, 53, -107, -24, -107, 23, -139, -31, 103, 37, -29, -40, 106, 111, 59, 85, -49, -12, 130, 89, -35, -56, -18, -14, -15, -84, -58, -20, 38, 30, 74, -2, -45, -81, 94, 41, 8, 35, 68, -32, 22, -44, 47, 14, -55, 17, 39, 4, 14, -35, -60, -15, -45, 34, 14, 36, 128, -49, -9, 37, -72, -33, 38, 12, -4, 39, 6, -62, 11, -12, -14, 11, -82, 60, -4, 61, -50, -10, -6, 259, 80, -21, -29, -44, 120, 57, -22, 137, -21, -60, 52, -14, -34, 20, -59, -95, -3, 65, -12, 106, -11, 108, 82, -56, 72, -26, -50, 70, 1, 59, -14, 52, 1, 43, 29, -52, 16, -44, 37, -5, -59, -5, -29, 9, -19, 19, 57, 3, 0, 55, 26, 45, -20, -6, -128, -109, 195, -118, 141, 128, -70, 57, -61, -299, 62, -15, 97, -109, -107, -44, 179, 89, -88, -49, 154, -3, 78, -112, -75, -100, 92, -9, -81, -52, -35, -114, -92, -88, 16, -32, -65, 54, -90, -131, -200, -51, 156, -74, 76, -76, -16, 6, -167, 219, 125, -217, -1, -30, -15, 7, -111, -302, -44, -9, 8, 124, -130, 49, 215, 48, -28, 31, -105, -162, 10, 123, -1, -90, -44, 88, 43, 226, -2, -98, -28, 0, 120, 94, 251, 174, 60, 95, 130, -384, -111, -90, 78, 193, 91, 96, -79, -176, -124, 207, -16, 8, -131, -31, 132, -23, -50, -54, -21, -53, -77, -277, 57, -86, 142, 121, -87, -126, -96, -8, 41, 59, -191, 71, 41, -4, -6, -18, 21, -61, 55, 25, 28, -72, -209, -53, -176, 32, -148, 52, 136, 7, -133, -183, 6, 92, -66, -133, 61, -71, 96, -1, -29, -103, 52, -15, 44, -15, -154, 86, 173, -11, 23, 105, 53, 6, 94, -227, -100, -4, -1, -16, 92, -45, -179, -81, -3, -98, -97, -101, 287, 146, -84, -47, -180, -26, 78, 24, -64, -180, 37, 34, -79, 250, 12, -105, 166, -45, -41, 30, -87, -119, -3, 119, -19, 58, -334, 27, 183, 92, 56, -46, -117, -8, -25, 43, 87, -80, 17, 42, -78, 143, 28, -68, 0, 116, 23, -36, 292, 11, 17, 34, 85, -380, 157, 99, 47, 102, -45, -48, -88, -24, 10, 81, -65, 42, -67, -136, -51, -46, 104, -82, 17, -64, -204, -287, 30, 8, 165, 105, -84, 103, 41, -28, 38, 47, -106, 174, -21, 53, -95, -223, 0, 3, -95, 198, 109, 66, -135, -42, -6, 154, 137, -35, 41, -64, 32, 87, -2, 91, 80, -137, 65, 53, 13, -128, 26, -16, -30, -198, 427, 54, -108, -76, 225, 132, -295, -140, 247, 1, 70, -307, 13, -58, 154, -65, 74, -13, -102, -41, 136, 38, -118, 70, 208, -81, -131, 195, -206, 119, 309, -117, 82, -13, -101, 92, -14, 66, 98, 17, -122, 156, -55, -155, 79, -432, -95, 182, -302, 113, 3, -132, 182, -60, 99, 43, -104, 86, -66, -30, -23, -215, -6, 186, -292, 102, -81, -146, 36, 192, -83, -94, -144, 7, 3, 34, -42, -89, -18, -45, -55, 127, -191, -94, -180, -65, -127, -7, 177, -110, -74, -41, -48, -35, 171, 100, 285, -222, 65, 131, -205, 98, -191, -155, 211, 25, 92, -87, 28, -5, 140, -145, -16, -116, 158, -301, -230, 121, 2, -7, -107, 113, 418, -9, 213, 43, 210, -66, -170, 108, -34, -296, -168, 21, 101, -151, -62, 97, 26, -188, -70, -141, 161, 140, 20, -41, 25, 155, -241, -183, -163, 115, 88, -203, 3, -91, 92, -169, 121, -137, 20, -24, 112, -179, -213, 55, -189, 22, -55, 56, -128, 84, -65, 23, -78, -182, 96, -14, 104, 27, -48, -70, -11, -222, -154, -103, 31, -54, 142, -183, -41, -222, -206, -60, 81, -58, 48, -15, -38, -19, -224, 66, -16, -204, -89, 71, -148, -205, -149, 130, 105, 106, 112, 38, -188, -120, 124, 166, 110, -48, 124, -159, -135, -109, -126, -17, -75, 15, 55, 107, 171, 84, -178, 14, 127, 50, -190, -183, -72, -84, -84, -57, -63, 66, 146, 28, -59, -114, 7, 0, 145, 103, 12, 107, -89, -100, 72, 13, -53, -220, 40, -64, -138, -97, -97, -98, -194, -58, -98, 121, -103, 66, -25, 106, 137, -122, -338, 206, -20, 36, 92, -262, -80, 11, -701, -543, 151, 194, -66, 59, -296, 40, -544, 52, 210, -220, -281, 209, -109, 249, -323, -74, -41, 152, 94, 168, -70, 215, 6, -261, 73, -172, -241, 83, -38, 62, 199, -76, -779, -299, 1, -16, 57, 106, -132, -233, 140, 51, -145, 55, 210, -37, 341, -268, -56, -126, -543, 98, -313, -39, -79, -79, 181, 90, 70, -11, -138, -94, 78, 39, -49, 152, -189, -84, -259, -57, 60, 20, -233, -369, -157, -95, -160, -74, -40, -235, -126, -71, -114, -326, 67, -120, 3, 13, -270, 42, 75, -34, -204, 107, 37, -186, 110, 263, 41, 40, 224, 146, -80, 137, -164, -230, 251, 21, -144, -127, 99, 86, 213, -89, 35, -98, 153, 183, -219, -232, 26, -10, -143, -43, 305, -110, 449, -350, 23, -56, -113, 453, -138, -97, -183, -146, -192, 87, -52, 57, -22, 26, 110, -102, -2, -197, -145, 26, -208, 120, -141, -72, -75, -37, -200, 121, -213, -93, -176, 111, -173, -1, 0, 102, 125, -31, 87, -152, -49, 127, 130, 82, -20, -17, 52, -196, 17, -20, -41, 71, 20, -187, 60, -7, 85, 156, 111, -102, -152, -87, 97, 66, 22, 159, 12, -8, 99, -103, 102, -215, -202, 109, -142, -60, 23, -45, 27, 42, -46, -163, -196, 158, -73, 42, 163, -63, -128, -7, -62, 91, -43, -80, 140, 17, 168, 29, 66, 0, -153, 12, -68, -126, -11, -25, -133, -37, 174, -81, -15, 47, -118, -155, -29, 133, -46, 176, 26, -161, 8, -172, 7, 86, 77, -86, -172, -191, -179, 66, 8, 126, -39, -88, 131, -204, -164, -172, -142, -61, -51, 173, 55, 61, 100, -27, 97, -27, -98, 36, 55, -21, 78, -7, -16, -71, -96, 32, 1, -43, -77, 26, 30, -96, -101, 24, -226, -16, 82, 47, -23, 111, 35, 162, -68, 81, -168, -12, -75, 88, 138, 94, -51, 24, -66, -34, 1, 44, -113, -24, -80, 79, -97, 23, 165, -72, -84, 37, 137, -78, 88, -1, -55, -21, 49, -15, 96, -32, -113, -38, -94, 65, 100, 5, -17, 75, 106, 50, -36, 87, -33, 54, 34, -42, -136, 67, -9, -79, 35, -33, 34, -34, 56, 72, -55, -97, -43, -125, -24, 251, -210, 12, -28, -148, 168, 72, 87, -23, -32, 82, 32, -68, -4, 41, -63, -81, -126, -145, -91, 71, 146, 285, 77, 105, -26, 32, 54, -67, -1, 129, -125, -4, -91, 22, 60, 27, 30, 114, 145, -226, 40, -94, -76, -178, -88, 80, -94, -265, -6, -82, 41, -76, 41, 43, -45, -193, 96, -726, 159, 246, 28, -234, -71, 150, 15, -46, 247, -344, -287, 21, 159, 127, -170, 8, 315, -187, 35, -41, -151, -159, 92, 2, 107, 50, -236, 30, -85, -185, -69, -47, 223, 43, -224, 137, -147, 26, 217, 34, 160, -28, -236, -24, -35, 13, 98, -22, -143, 94, -117, -104, 74, -69, -15, 6, -144, 31, -43, 78, 91, 54, 129, 12, -111, -128, -27, 62, 137, 192, -50, -8, 19, 163, -47, -89, 90, -29, 78, 135, 76, 59, 80, -110, 38, 436, -123, -125, 4, 168, 100, 127, 12, -7, -107, 60, 147, 47, -171, -18, 70, -27, 23, 52, 67, -224, 158, 229, 218, 17, 13, 0, 43, -190, 29, -4, -11, 48, -126, -104, 16, 106, -37, 132, 8, 167, 62, 76, -64, -63, -83, -73, -154, -85, 2, -47, 106, -196, -69, 71, -19, 155, -176, -26, -91, -293, -26, 124, 105, -64, -57, -89, -61, -37, 114, 94, -131, 129, 95, -48, -93, 22, -170, -7, 25, 74, -64, 27, -153, 11, 214, -31, -42, -6, 64, -67, -246, -19, 153, -165, 43, -190, -232, -59, 13, 89, 12, 122, -170, 108, -80, -17, 58, -57, -8, 245, -67, 14, 48, -15, 244, -122, -269, 199, -41, 38, 1, 31, -20, 1, -83, 112, -57, 46, -2, -192, 72, 92, -174, 182, 176, 8, -21, -71, 55, -112, -86, 37, -152, -210, 26, 55, 3, 134, -131, -12, 171, 14, -151, 187, -245, -90, -21, -403, 41, 87, -163, 198, 165, 8, -200, -145, -118, -64, 145, 128, -195, -89, 59, -135, 15, 169, -288, 205, -117, 166, -145, -89, -259, 44, -3, 166, 150, 116, 193, 89, 107, 153, -70, -18, -99, 374, -210, 213, -38, -91, -70, 42, -257, 108, -280, -71, 233, 110, -89, 174, -80, -15, 246, -17, 105, -251, -28, 70, 124, 367, -74, -56, 204, 94, -294, -26, -140, -217, 178, -191, 99, 151, -104, -65, -392, -62, -169, -164, 227, 42, -291, -16, -655, 111, 134, 99, 258, 126, 96, -142, 10, 123, -252, -111, -232, 66, -59, -294, 441, -164, 482, 142, 279, -197, 33, -36, 117, 131, -20, 34, -67, -174, -276, 5, 264, -306, 118, 26, -64, -68, 72, -6, -288, 86, -69, -11, 87, -519, -287, 87, -41, -126, 214, 14, 30, -143, -5, 17, 28, -60, -28, 226, 26, -84, -133, -28, -97, -157, 193, 140, 460, 65, -34, 30, 146, -130, -179, 381, -151, -66, -215, -15, 136, -70, -31, 158, 299, -136, 71, -158, -148, -31, -355, 16, -346, -163, -74, -120, 191, -195, 68, 254, 115, 249, 154, -167, -38, 13, -136, 22, -114, -36, 15, 12, -131, -117, -66, 97, -226, 1, 53, 206, -49, 135, -39, 1, -91, 9, -82, -160, -122, 40, 67, 118, -170, -8, -22, 57, -13, 107, -40, 68, -106, -30, -94, 70, 168, 13, 79, 117, -61, -46, 11, 74, -109, 76, 74, 44, 123, -51, -49, -25, -111, -4, -44, -99, -145, 14, 139, 31, -23, -27, 13, 43, 105, -41, -34, 126, 10, -53, 34, -106, -34, 132, -52, 21, 41, -94, -36, -42, 28, 59, -85, -57, 20, -157, 43, 69, 12, 25, -81, -20, -9, 4, -17, 123, 7, -150, 70, -12, -184, 191, -200, 38, -53, 145, -56, -93, 98, -86, 71, -23, -125, 47, -49, -41, 23, -185, -8, 58, 112, -126, 35, 43, -282, -2, -32, -19, 10, -143, -115, -100, 2, -2, 72, -304, 245, -501, 53, 35, 302, 307, 53, -95, 307, 95, -23, 11, 170, 41, -36, 177, 36, -483, 88, -30, -94, -260, -135, 213, 321, 83, -441, -123, -135, 12, 2, -53, -71, -226, -74, -216, -78, -97, -144, -14, 46, 105, -480, -131, -715, 274, -123, 100, -137, 196, -49, -118, 11, -71, -213, 323, 51, -126, 74, -33, 116, -119, 424, 138, -490, 80, -413, -121, 189, -114, -47, 124, 98, 70, -28, -252, 414, 389, 37, 66, 2, 104, 176, -195, -54, 111, 39, -41, -139, -267, -81, 180, 100, 194, -284, -24, -233, 102, -152, -35, 82, -115, -309, -91, -7, -10, 163, 160, 358, 1, 158, 77, -37, -69, -149, -326, -231, 340, 159, -340, 169, -358, 197, -290, -12, 231, 141, 40, -335, 329, -96, 0, -385, -62, 344, -151, -140, 130, 207, -121, 118, -96, 78, -519, -87, 112, -120, 168, 22, -70, -35, -138, -33, -192, 86, 63, 135, 18, -124, 169, 85, -43, -197, 30, -139, 145, 74, 24, -159, -148, -79, -45, -98, -140, 160, 158, 83, 158, 140, 61, 73, -45, 136, 53, -184, 136, 78, 54, 153, -132, -189, -128, -18, -26, 33, -11, -159, 71, -134, 72, -80, 155, -104, -115, 74, 92, 118, -31, 48, -127, -147, -72, -180, -160, 109, 22, 69, -38, 157, 16, 152, 130, -154, 60, -152, 21, -151, -66, -13, -80, -62, -78, -91, 89, -151, 0, 92, 8, -128, 15, -17, -158, 96, -87, 94, 111, 22, -172, -188, -109, -54, 69, 164, -194, 111, -200, -55, 120, -167, -204, 11, -135, -50, 171, 64, 69, -151, -201, 117, -86, -109, 129, 0, 119, -162, -197, 52, 18, -168, 161, 23, 11, 0, 80, -173, -188, 174, -66, -79, -165, 53, -113, -2, -206, 105, -21, 6, 146, 120, 31, 47, 130, 178, 85, -151, -77, 76, 9, -170, 16, -38, 15, -100, -121, -189, 3, 81, -108, -53, 99, -151, 121, 47, -178, -88, 135, -85, 47, 55, 55, -4, 125, -170, -90, 78, 22, -48, -207, 81, -126, -17, 73, 84, -21, 17, -2, 57, 100, 83, 100, 75, 53, 26, 96, -187, -53, -62, -94, -42, -22, -216, -88, 74, -141, -206, -221, -27, -29, -63, -74, -80, -120, -162, -142, 149, -128, -158, 164, -36, -73, -113, -12, -154, -105, -97, -60, -101, -161, -54, 168, -41, 36, 78, 73, -2, -192, -13, -216, -219, 121, -163, -146, 2, -225, -204, 56, -180, -21, 38, -168, -34, -175, 86, -140, 46, -113, 6, -147, -16, 140, 52, -167, 90, -117, 70, -65, 168, 128, 147, -3, 33, -119, 93, -86, 227, 217, 145, -173, -144, -68, 466, -59, -27, 62, 242, -69, -24, 109, 85, -191, 287, 12, -17, 25, 32, 0, 154, 5, -77, 81, -175, 208, 144, 44, -264, 82, -48, -244, -1, 0, -62, -18, -154, -57, -290, -208, 84, -105, -160, 59, -122, -268, -20, -204, -154, -259, -495, 81, 77, -462, -313, -129, -150, -58, -300, 6, 275, -304, -60, -423, -25, -41, 55, -153, 132, -313, -107, 85, -83, 41, 261, 204, 304, 27, -140, -260, -4, -352, -181, -243, 18, -135, -92, 77, -19, -85, 241, 281, 224, -86, -278, -270, 25, 25, -225, -64, -308, -409, -303, -148, 146, -111, 113, -158, 9, 67, 46, -141, -163, -121, 35, 44, -78, -141, 31, 40, -30, -242, -88, -39, 154, -102, 16, 34, -71, 2, 91, -70, -136, 22, 245, 151, -204, -179, 181, 168, -167, 285, 172, -78, -46, 261, 78, -54, -80, 170, 118, -81, 37, 164, -496, -146, -8, 407, -340, -249, 96, 49, -162, 1, -53, -155, 294, 123, -27, 58, -260, -128, -107, 125, 106, 268, -144, -59, -222, -82, -49, 101, 57, -82, 312, 175, -19, -279, -283, 20, 203, -737, 13, -11, 113, -111, -195, -670, 140, -275, 155, -101, -491, -70, -24, 158, 63, 28, -114, 151, -143, -88, -201, -125, 97, -76, -18, 221, -28, 243, 49, -131, 81, 177, -76, -15, -155, -42, 107, 219, -341, -16, 67, 15, 54, 585, -77, -79, -78, 97, -219, -54, -152, -460, -8, 81, -72, -81, -247, -99, -453, -679, -292, -24, 109, 40, -65, -19, 31, -84, 96, 258, -363, 69, -18, 19, -137, -441, 15, -67, 130, 101, 2, -21, -85, -42, -174, 67, -284, -142, 93, 0, -212, -139, 46, -229, 28, -439, -22, 43, 171, 32, -50, -371, -68, 147, 24, 176, -296, -16, -141, -8, 175, -16, -75, 63, 83, -69, 27, 132, -252, -22, 46, -118, 14, -36, -53, 22, 11, -71, 220, 133, 16, 19, 189, 16, -164, -20, -228, -107, -27, 2, -273, 212, 136, -27, 98, -13, 104, 71, -130, -264, -242, -39, -256, -144, -349, 107, -406, 144, 50, -96, -119, 33, 345, -77, 49, -527, -211, 248, -454, 22, 59, -117, -161, 113, 317, -35, 81, -136, 58, 90, -149, -337, -226, 28, 134, -309, -151, -109, 25, -56, 84, 59, -13, -50, 195, -279, -264, -48, -134, 9, -164, 55, -151, -352, -194, 154, 418, 102, -284, 310, 21, 12, 5, -190, -217, 90, -119, 88, 41, -538, 307, -167, -4, 32, 99, -130, -327, -79, -148, -240, 68, -134, 125, -524, 205, -89, -8, -100, -55, 88, 77, -43, 57, 72, -77, 7, 135, 7, 37, -23, 35, -1, -120, -72, 47, 3, -26, 40, 22, 27, 103, -44, 46, 61, 162, 42, -85, 37, 85, -78, -42, -26, 42, 74, -12, -5, 139, 79, -6, 6, 87, -59, -4, -43, 136, 49, 24, -50, 55, -38, -112, 101, 14, -56, -26, -15, -2, -74, -10, -32, 5, 11, 131, 50, -43, 22, 23, -63, -87, 8, 12, 81, -42, -19, -76, 65, -89, -23, -131, -51, -6, -14, -3, -4, -31, 23, 39, 123, -34, -25, -43, 63, -135, 80, -76, -61, 9, -51, 36, 46, -88, -17, -28, 122, 26, 60, 56, 19, 46, -70, -10, 141, -59, 62, 50, -5, -29, 99, 12, 132, 39, -8, 28, -70, 70, -22, 21, -22, 93, -7, -82, 29, 65, -62, 91, -11, -4, -118, 51, -10, 162, -99, 72, 68, 164, 174, -133, 24, 21, 18, 87, -51, 108, -145, -22, -87, 1, -155, 104, -84, -5, 77, -142, 26, -107, 88, -80, 13, -110, -61, -120, 115, 88, -118, 52, -199, -37, -33, -121, 46, 17, 100, 65, 36, -187, -97, -72, 10, -45, -75, 119, -7, -77, -54, 103, -15, 141, 44, 11, 92, -11, 35, 94, 18, 89, 66, 133, 107, 9, 54, -52, 8, 88, 2, 37, -1, 0, -74, -121, 9, -41, 65, 36, -174, -215, -33, -81, 55, -187, -550, -109, 100, 92, 0, -2, 3, -46, -8, -9, -37, -8, -104, 4, -63, -50, 52, -43, 109, 63, -48, 223, 192, 34, 69, -206, -37, 10, 31, 29, -18, -24, -47, 54, -128, 66, 100, -31, 256, -76, 66, -10, 33, -166, -174, 198, 138, 39, -53, 22, 17, 33, -48, -101, -113, 61, 328, -47, -75, 42, 103, 80, 18, 180, 96, 213, 36, -103, 179, -97, -145, 47, 259, -288, -303, 127, 56, -68, -129, -61, -320, 350, -50, -3, 83, 24, -349, 65, -63, -175, 127, -19, -39, -414, -13, 0, 131, 46, 70, -86, 215, 48, -36, 78, 256, 248, -445, 73, 53, -77, -121, -116, -124, -116, -143, -35, -45, -278, 29, 117, 67, 175, -143, -32, 101, 19, -216, -183, -30, -16, 67, -251, 136, -95, -53, 7, 59, 30, 1, 50, 133, -317, 131, 198, -323, -183, 24, 136, -63, 48, 391, -62, -186, 15, -23, -27, 15, -27, -329, -42, 24, -13, 67, -284, 27, -133, -195, -371, -53, -35, 62, -108, -323, -51, 154, -46, 291, -457, 117, -23, -117, -166, -148, -137, 129, -19, 8, -104, -26, -96, -165, -208, 143, -90, -51, 139, -20, -353, -275, -228, -1, -185, 32, -116, -219, -95, -24, 218, 93, -52, 78, -214, -76, 257, -15, -179, -166, 182, 59, -106, 116, -50, -26, 217, 239, -303, -83, -14, -61, 244, -40, 154, 91, -81, -381, -103, 48, 115, -204, 267, -57, -628, -93, -408, -125, 80, 39, -63, 48, -74, 0, 112, 14, -123, -41, -194, 99, -204, -145, 450, -208, 230, 240, 60, -233, 51, 5, 40, 179, -89, 147, -16, -64, -143, -106, 330, -89, -165, 221, -71, -207, -26, 18, -184, 7, -94, 92, -67, -126, -15, 93, 52, 206, -93, -85, 172, 28, -2, 170, -203, 1, -2, 15, 66, 94, -139, -14, 117, 57, 70, 112, 1, -79, 12, 177, 18, -142, -104, 19, 2, 120, -240, 197, 20, 74, -110, 147, 26, -145, 89, 129, 63, 314, 153, 87, -26, 22, -93, 147, -187, 402, 9, 74, 28, -29, -124, -221, -127, -255, -418, -214, 48, -110, -219, -170, -67, 10, 57, -78, 20, -26, -285, -589, 396, -46, 311, -209, -340, -170, 292, 58, 279, 258, 372, 86, 296, 179, -240, -484, 313, -244, -123, 157, -65, -135, 469, -104, -12, 33, -47, 165, -38, 188, -245, 37, 173, -141, -116, 82, -298, 21, -168, -194, 81, 152, 185, 60, -189, -101, -501, -718, 124, -100, 73, 155, -271, -80, 191, -266, 110, 302, 204, 115, -108, 361, -172, -274, -250, -380, -231, 140, 139, 64, 235, -193, 226, -83, 20, -106, 139, 116, -160, -1, 1, -111, 20, 321, -156, 40, 0, 58, 127, 91, 60, 217, -48, 174, -66, -260, -151, 134, -55, 390, 28, -200, -82, -284, -105, 346, 191, 243, -8, -65, -4, 59, 194, 48, 207, -13, -16, 210, 313, -183, -82, 51, 22, 598, 30, 42, 165, 21, -25, 76, -107, -97, 18, 154, -56, -150, -161, -44, -132, 62, -88, -133, -151, -136, 161, -135, 158, -133, -135, 104, -192, 57, 84, 115, -112, 24, -143, -16, -43, 152, -101, -89, 155, -100, -171, 138, 175, -188, 114, -159, 138, -160, -72, -202, -187, 30, 116, 5, -84, -110, -66, 105, -74, -121, 2, -5, 95, -43, -69, 72, -19, -43, -148, -9, 20, -10, -45, -90, -4, -138, -126, -12, -174, -115, 66, -35, -5, 75, -196, -77, 102, -135, 61, 152, -88, -27, -4, -144, 49, 149, -136, 97, -11, -110, -88, -47, 39, 118, 66, -49, -140, -99, -24, -102, -104, -56, -172, 17, 105, 34, 12, -84, 173, 16, -146, -171, -83, 49, 131, -144, 129, -105, -2, 27, -143, 149, 67, -85, 83, 72, -72, -146, -151, -44, -178, 20, -99, 18};
//static matrix MNIST_KERNEL_2_MAT = {.data=MNIST_KERNEL_2, .numRows=32, .numCols=144};
//
//#pragma PERSISTENT(MNIST_BIAS_2)
//static dtype MNIST_BIAS_2[32] = {-29, 170, -8, 8, 27, -30, 34, -14, 3, 22, -36, 24, -33, 126, -23, -22, 27, 65, 15, 0, 71, -13, -26, 83, 48, 30, 56, 18, 49, 21, 266, -12};
//
//static matrix MNIST_BIAS_2_MAT = {.data=MNIST_BIAS_2, .numRows=32, .numCols=1};
//
//
//#pragma PERSISTENT(MNIST_KERNEL_3)
//static dtype MNIST_KERNEL_3[320] = {-66, 1138, 226, -95, -25, -255, -37, 164, -177, 111, -10, -40, -359, -63, -368, -35, -16, -15, 2, 59, -57, 86, -345, -28, -25, -75, 142, -4, -160, -77, -51, 208, -42, -35, 243, -10, -33, 95, 49, -291, -99, 36, -55, -44, -317, -16, -92, -99, 7, -59, -2, 96, -63, -361, 148, 861, -18, -20, 69, -39, -32, -12, 1063, 0, 116, -255, -76, -8, 0, 149, 103, 167, 11, -126, 152, -189, 104, -110, -186, -197, -91, 642, -587, 103, -224, -352, -22, -109, -146, -257, -52, 72, 53, 705, -132, -222, -51, -81, -314, -156, -101, -217, 109, -301, 12, 114, -67, 17, 264, -147, 90, 19, -138, -184, 1080, -15, -131, 335, -148, -64, 16, -128, -55, 74, -79, 46, -55, 26, 168, -147, -127, 384, -159, -253, -92, 85, 250, -126, 172, 695, -193, -602, -257, -96, 174, -109, -21, -35, -302, -280, 33, -308, 5, -163, -190, 238, -542, -112, -374, 97, -53, -125, 170, -17, 524, -72, 55, -17, 67, -264, -128, -159, -96, -118, 370, 454, 439, 41, -240, -175, -85, 277, -294, -82, -592, -292, 32, -322, 330, -211, -103, 174, 14, -85, 385, -39, -108, 262, 2, -151, 59, 39, 8, -30, -265, -37, 107, 6, -2, -36, -36, -54, -40, 319, -298, -39, 867, -93, -14, -43, 607, -55, -43, 355, 29, -72, -253, 69, -8, 71, -8, -337, 131, 75, -77, -97, -118, -134, 116, -142, -68, -71, -39, 41, 1197, -62, -356, -60, -53, -68, -53, 49, 23, -58, -68, 128, 7, -208, 134, -16, -43, -333, -118, 97, -38, 108, 101, -104, -248, -165, 135, 139, -173, -141, -105, -176, -111, -216, 17, -86, -71, 1195, 145, -44, -117, -116, -126, 59, -81, -103, -344, -34, -69, 116, -15, 134, 91, 122, -80, -54, -265, 1378, 132, -109, -130, -40, -55, 165, -172, -241, -361, -34, -25, -126, 118, 82, -43, -96, -62, 225};
//
//static matrix MNIST_KERNEL_3_MAT = {.data=MNIST_KERNEL_3, .numRows=10, .numCols=32};
//
//#pragma PERSISTENT(MNIST_BIAS_3)
//static dtype MNIST_BIAS_3[10] = {87, 62, 125, 109, 31, 150, 51, 74, 103, 69};
//
//static matrix MNIST_BIAS_3_MAT = {.data=MNIST_BIAS_3, .numRows=10, .numCols=1};
//
//
//
//
//
//
///* INPUT HERE */
//#pragma PERSISTENT(input_buffer)
//static dtype input_buffer[32] = {0};
//
//static matrix INPUT_MAT = {.data=input_buffer, .numRows=32, .numCols=1};
//
//// Layer 0 output
//#pragma PERSISTENT(LAYER_0_OUTPUT)
//static dtype LAYER_0_OUTPUT[32] = {0};
//static matrix LAYER_0_OUTPUT_MAT = {.data=LAYER_0_OUTPUT, .numRows=32, .numCols=1};
//
//#pragma PERSISTENT(LAYER_0_OUTPUT_BACK)
//static dtype LAYER_0_OUTPUT_BACK[32] = {0};
//static matrix LAYER_0_OUTPUT_BACK_MAT = {.data=LAYER_0_OUTPUT_BACK, .numRows=32, .numCols=1};
//
//#pragma PERSISTENT(LAYER_0_LOSS)
//static dtype LAYER_0_LOSS[32] = {0};
//static matrix LAYER_0_LOSS_MAT = {.data=LAYER_0_LOSS, .numRows=32, .numCols=1};
//
//// Layer 1 output
//#pragma PERSISTENT(LAYER_1_OUTPUT)
//static dtype LAYER_1_OUTPUT[10] = {0};
//static matrix LAYER_1_OUTPUT_MAT = {.data=LAYER_1_OUTPUT, .numRows=10, .numCols=1};
//
//#pragma PERSISTENT(LAYER_1_LOSS)
//static dtype LAYER_1_LOSS[10] = {0};
//static matrix LAYER_1_LOSS_MAT = {.data=LAYER_1_LOSS, .numRows=10, .numCols=1};
//
////  Layer 0
//#pragma PERSISTENT(LAYER_0_KERNEL)
//static dtype LAYER_0_KERNEL[1024] = {0, 17, 31, 14, 22, 11, 31, 29, 13, 28, 43, 7, 28, 16, 11, 41, 42, 10, 31, 48, 4, 37, 50, 13, 24, 4, 43, 11, 23, 8, 8, 11, 12, 15, 29, 30, 19, 10, 5, 4, 36, 22, 37, 19, 31, 19, 27, 13, 45, 25, 40, 26, 16, 25, 31, 42, 31, 19, 36, 30, 35, 19, 40, 10, 20, 12, 14, 11, 30, 24, 1, 47, 12, 35, 23, 40, 19, 17, 19, 25, 37, 46, 4, 13, 11, 18, 51, 24, 8, 43, 33, 30, 41, 43, 50, 18, 4, 46, 4, 35, 2, 4, 47, 23, 15, 43, 14, 46, 11, 15, 26, 11, 4, 2, 33, 40, 48, 48, 9, 28, 48, 45, 12, 41, 10, 36, 3, 5, 9, 6, 23, 38, 37, 7, 47, 12, 0, 43, 39, 26, 1, 25, 2, 6, 2, 7, 6, 44, 42, 29, 14, 12, 8, 5, 12, 32, 38, 3, 19, 0, 40, 34, 20, 27, 20, 26, 49, 48, 18, 31, 36, 38, 38, 26, 20, 25, 25, 41, 10, 30, 18, 15, 30, 21, 19, 19, 16, 10, 0, 22, 32, 7, 40, 38, 33, 15, 12, 0, 11, 22, 24, 23, 23, 45, 23, 21, 2, 48, 45, 47, 15, 2, 23, 19, 33, 22, 30, 18, 26, 24, 47, 44, 24, 18, 47, 8, 50, 7, 36, 13, 1, 11, 26, 1, 20, 40, 23, 31, 14, 2, 26, 6, 22, 24, 39, 1, 39, 37, 28, 3, 49, 47, 19, 33, 22, 36, 7, 46, 4, 19, 20, 2, 15, 48, 9, 29, 21, 42, 7, 28, 13, 46, 0, 3, 43, 13, 24, 3, 23, 50, 47, 25, 4, 23, 46, 31, 50, 43, 13, 28, 45, 41, 16, 34, 26, 34, 42, 30, 34, 41, 39, 12, 41, 22, 13, 48, 15, 49, 50, 2, 30, 41, 13, 42, 28, 43, 11, 48, 23, 7, 27, 18, 38, 21, 16, 4, 8, 24, 47, 3, 16, 45, 22, 41, 7, 24, 1, 48, 6, 12, 45, 25, 49, 30, 20, 43, 14, 31, 8, 8, 16, 19, 4, 40, 0, 27, 25, 4, 49, 41, 33, 50, 0, 9, 6, 50, 18, 35, 42, 18, 29, 2, 45, 16, 1, 29, 50, 31, 42, 9, 8, 20, 50, 5, 31, 26, 42, 14, 3, 31, 13, 32, 35, 4, 31, 35, 1, 43, 34, 35, 41, 18, 26, 15, 36, 20, 41, 12, 50, 15, 16, 12, 7, 7, 4, 30, 5, 22, 7, 3, 39, 35, 29, 36, 22, 6, 32, 48, 28, 30, 47, 10, 24, 1, 8, 9, 3, 1, 43, 12, 9, 25, 33, 20, 36, 16, 6, 16, 21, 16, 46, 29, 35, 0, 40, 48, 21, 24, 50, 7, 45, 12, 30, 49, 46, 36, 21, 39, 32, 36, 40, 19, 0, 24, 42, 25, 10, 17, 33, 37, 27, 45, 50, 31, 31, 22, 48, 40, 23, 36, 28, 27, 38, 2, 17, 20, 32, 40, 24, 44, 47, 46, 31, 11, 16, 30, 23, 15, 33, 1, 11, 46, 13, 27, 2, 48, 23, 20, 22, 49, 41, 14, 41, 27, 21, 25, 48, 40, 32, 15, 30, 2, 50, 10, 33, 14, 5, 12, 50, 28, 16, 27, 10, 35, 33, 48, 1, 6, 38, 13, 33, 34, 21, 46, 10, 8, 4, 47, 15, 27, 28, 3, 50, 44, 43, 0, 12, 39, 40, 48, 49, 5, 23, 6, 39, 39, 6, 34, 14, 4, 40, 18, 19, 9, 48, 37, 46, 31, 49, 39, 50, 8, 17, 26, 35, 9, 50, 38, 17, 17, 19, 38, 5, 26, 41, 10, 9, 32, 38, 3, 50, 11, 33, 46, 25, 39, 19, 32, 10, 2, 23, 0, 18, 50, 47, 33, 21, 42, 49, 44, 4, 43, 30, 28, 5, 6, 25, 51, 37, 17, 1, 42, 16, 15, 42, 15, 43, 2, 15, 49, 7, 13, 19, 7, 17, 21, 3, 27, 3, 15, 15, 1, 50, 16, 36, 44, 47, 30, 43, 18, 4, 13, 45, 9, 10, 40, 11, 14, 43, 28, 27, 43, 41, 28, 29, 35, 15, 28, 15, 45, 38, 2, 47, 21, 33, 13, 2, 3, 48, 30, 5, 24, 24, 18, 13, 30, 28, 40, 4, 8, 33, 29, 44, 32, 0, 11, 36, 8, 49, 44, 26, 50, 0, 26, 13, 40, 39, 9, 28, 3, 10, 34, 9, 27, 17, 20, 46, 14, 12, 43, 6, 21, 33, 25, 50, 20, 9, 12, 6, 9, 32, 6, 34, 6, 2, 51, 38, 37, 35, 6, 11, 49, 29, 33, 36, 42, 0, 5, 7, 37, 40, 44, 16, 21, 33, 34, 22, 10, 32, 10, 18, 44, 43, 33, 25, 48, 22, 12, 22, 8, 40, 42, 38, 26, 10, 5, 14, 14, 9, 39, 39, 3, 23, 15, 11, 10, 44, 42, 49, 13, 24, 22, 6, 39, 33, 19, 50, 28, 32, 7, 13, 18, 13, 5, 44, 26, 15, 20, 3, 49, 5, 46, 12, 49, 47, 43, 29, 47, 47, 32, 50, 0, 49, 16, 35, 28, 29, 0, 9, 5, 15, 39, 12, 41, 30, 32, 34, 49, 28, 18, 19, 31, 45, 16, 18, 38, 27, 25, 22, 28, 35, 5, 45, 11, 44, 10, 21, 50, 3, 34, 49, 22, 6, 37, 11, 4, 13, 47, 20, 50, 32, 45, 45, 4, 47, 31, 12, 30, 38, 48, 12, 24, 14, 8, 38, 37, 47, 25, 50, 40, 45, 5, 25, 11, 29, 0, 35, 47, 38, 28, 8, 37, 50, 29, 34, 9, 42, 11, 9, 42, 10, 15, 3, 23, 31, 1, 37, 37, 18, 38, 38, 42, 22, 35, 42, 8, 19, 8, 1, 8, 43, 21, 4, 8, 3, 21, 22, 35, 8, 36, 45, 27, 46, 30, 49, 29, 16, 23, 42, 30, 33, 11, 22, 8, 42, 22, 16, 31, 47, 40, 42, 10, 15, 39, 23, 4, 29, 40, 6, 2, 37, 27, 28, 20, 33, 36, 41, 2, 9, 44, 40, 12, 2, 43, 27, 3, 27, 4, 26, 4, 13, 28, 42, 2, 25, 42, 7, 40, 35, 4, 7, 22, 21, 32};
//#pragma PERSISTENT(LAYER_0_BIAS)
//static dtype LAYER_0_BIAS[32] = {5, 16, 38, 41, 23, 44, 9, 13, 48, 5, 4, 30, 6, 49, 25, 13, 4, 23, 39, 31, 17, 27, 30, 10, 24, 12, 43, 4, 2, 36, 43, 4};
//
//static matrix LAYER_0_KERNEL_MAT = {.data=LAYER_0_KERNEL, .numRows=32, .numCols=32};
//static matrix LAYER_0_BIAS_MAT = {.data=LAYER_0_BIAS, .numRows=32, .numCols=1};
//
//#pragma PERSISTENT(LAYER_0_KERNEL_GRADIENT)
//static dtype LAYER_0_KERNEL_GRADIENT[1024] = {0};
//#pragma PERSISTENT(LAYER_0_BIAS_GRADIENT)
//static dtype LAYER_0_BIAS_GRADIENT[32] = {0};
//
//static matrix LAYER_0_KERNEL_GRADIENT_MAT = {.data=LAYER_0_KERNEL_GRADIENT, .numRows=32, .numCols=32};
//static matrix LAYER_0_BIAS_GRADIENT_MAT = {.data=LAYER_0_BIAS_GRADIENT, .numRows=32, .numCols=1};
//
//#pragma PERSISTENT(LAYER_0_KERNEL_GRADIENT_TEMP)
//static dtype LAYER_0_KERNEL_GRADIENT_TEMP[1024] = {0};
//#pragma PERSISTENT(LAYER_0_BIAS_GRADIENT_TEMP)
//static dtype LAYER_0_BIAS_GRADIENT_TEMP[32] = {0};
//
//static matrix LAYER_0_KERNEL_GRADIENT_TEMP_MAT = {.data=LAYER_0_KERNEL_GRADIENT_TEMP, .numRows=32, .numCols=32};
//static matrix LAYER_0_BIAS_GRADIENT_TEMP_MAT = {.data=LAYER_0_BIAS_GRADIENT_TEMP, .numRows=32, .numCols=1};
//
////  Layer 1
//#pragma PERSISTENT(LAYER_1_KERNEL)
//static dtype LAYER_1_KERNEL[320] = {38, 23, 34, 50, 17, 1, 0, 1, 34, 1, 41, 1, 16, 38, 41, 29, 4, 9, 48, 5, 40, 27, 19, 40, 38, 30, 36, 50, 16, 34, 40, 25, 14, 8, 27, 7, 34, 27, 14, 26, 39, 7, 42, 14, 31, 2, 19, 2, 22, 1, 30, 0, 13, 12, 17, 17, 18, 26, 27, 20, 28, 12, 7, 13, 16, 33, 18, 42, 40, 19, 2, 36, 32, 2, 10, 21, 43, 28, 31, 40, 0, 31, 32, 48, 47, 9, 3, 13, 2, 6, 20, 42, 6, 28, 27, 0, 13, 43, 9, 48, 25, 47, 26, 19, 39, 27, 3, 13, 7, 3, 35, 31, 15, 8, 29, 34, 37, 20, 8, 12, 21, 36, 18, 37, 27, 10, 15, 39, 44, 42, 14, 50, 19, 18, 38, 38, 44, 2, 20, 11, 34, 17, 34, 15, 49, 46, 1, 4, 19, 21, 14, 14, 29, 41, 25, 47, 39, 37, 18, 28, 9, 50, 16, 49, 23, 42, 3, 35, 1, 35, 2, 43, 12, 46, 10, 39, 18, 42, 13, 16, 36, 20, 11, 7, 5, 4, 30, 26, 36, 40, 27, 31, 30, 32, 10, 11, 20, 16, 11, 45, 43, 37, 48, 47, 31, 25, 38, 16, 19, 23, 25, 20, 28, 44, 45, 0, 9, 42, 51, 1, 5, 39, 5, 6, 47, 12, 19, 24, 35, 13, 14, 50, 6, 37, 21, 0, 31, 10, 18, 40, 6, 2, 15, 3, 6, 26, 39, 14, 27, 11, 20, 24, 42, 30, 38, 20, 37, 48, 31, 25, 3, 23, 17, 21, 4, 47, 35, 43, 15, 26, 20, 38, 42, 32, 39, 17, 25, 20, 22, 40, 2, 35, 5, 6, 39, 0, 2, 9, 26, 10, 19, 45, 4, 44, 1, 7, 23, 16, 38, 5, 8, 11, 45, 18, 41, 26, 9, 29, 24, 43, 21, 28, 46, 31, 50, 42, 14, 49, 5, 15};
//#pragma PERSISTENT(LAYER_1_BIAS)
//static dtype LAYER_1_BIAS[10] = {14, 11, 32, 4, 25, 10, 30, 8, 50, 28};
//
//static matrix LAYER_1_KERNEL_MAT = {.data=LAYER_1_KERNEL, .numRows=10, .numCols=32};
//static matrix LAYER_1_BIAS_MAT = {.data=LAYER_1_BIAS, .numRows=10, .numCols=1};
//
//#pragma PERSISTENT(LAYER_1_KERNEL_GRADIENT)
//static dtype LAYER_1_KERNEL_GRADIENT[320] =  {0};
//#pragma PERSISTENT(LAYER_1_BIAS_GRADIENT)
//static dtype LAYER_1_BIAS_GRADIENT[10] =  {0};
//
//static matrix LAYER_1_KERNEL_GRADIENT_MAT = {.data=LAYER_1_KERNEL_GRADIENT, .numRows=10, .numCols=32};
//static matrix LAYER_1_BIAS_GRADIENT_MAT = {.data=LAYER_1_BIAS_GRADIENT, .numRows=10, .numCols=1};
//
//#pragma PERSISTENT(LAYER_1_KERNEL_GRADIENT_TEMP)
//static dtype LAYER_1_KERNEL_GRADIENT_TEMP[320] =  {0};
//#pragma PERSISTENT(LAYER_1_BIAS_GRADIENT_TEMP)
//static dtype LAYER_1_BIAS_GRADIENT_TEMP[10] =  {0};
//
//static matrix LAYER_1_KERNEL_GRADIENT_TEMP_MAT = {.data=LAYER_1_KERNEL_GRADIENT_TEMP, .numRows=10, .numCols=32};
//static matrix LAYER_1_BIAS_GRADIENT_TEMP_MAT = {.data=LAYER_1_BIAS_GRADIENT_TEMP, .numRows=10, .numCols=1};
//
//
//
//#pragma PERSISTENT(X)
//static dtype X[32000] = {588, 0, 0, 617, 467, 0, 0, 0, 0, 0, 0, 0, 0, 0, 0, 0, 0, 746, 0, 694, 1244, 0, 0, 0, 0, 319, 0, 424, 0, 148, 0, 419, 692, 0, 0, 838, 0, 0, 0, 0, 169, 0, 0, 0, 0, 0, 0, 1545, 7, 1130, 0, 664, 0, 0, 1012, 0, 0, 493, 88, 532, 0, 0, 0, 458, 661, 0, 0, 263, 992, 0, 0, 0, 236, 307, 0, 0, 0, 0, 0, 0, 0, 965, 624, 324, 0, 0, 0, 0, 91, 0, 0, 444, 0, 0, 0, 212, 0, 0, 0, 648, 0, 0, 0, 0, 437, 345, 0, 0, 0, 0, 0, 0, 0, 1119, 0, 720, 0, 0, 0, 0, 0, 692, 0, 523, 0, 197, 0, 0, 745, 0, 0, 0, 0, 0, 0, 0, 793, 523, 0, 0, 0, 0, 0, 0, 711, 544, 0, 369, 0, 0, 0, 0, 596, 492, 244, 0, 0, 1402, 0, 0, 696, 0, 0, 325, 1068, 0, 0, 0, 181, 273, 0, 0, 0, 0, 0, 0, 0, 919, 618, 316, 0, 0, 0, 0, 50, 0, 0, 480, 0, 0, 0, 168, 624, 0, 0, 0, 0, 0, 0, 0, 875, 390, 0, 0, 0, 0, 0, 0, 612, 625, 0, 374, 0, 0, 0, 0, 606, 470, 278, 0, 0, 1054, 0, 0, 798, 0, 0, 0, 0, 0, 0, 678, 0, 393, 0, 0, 56, 0, 0, 0, 0, 1231, 0, 249, 0, 0, 0, 0, 0, 664, 0, 0, 0, 755, 0, 476, 591, 0, 0, 0, 0, 0, 0, 0, 114, 100, 0, 0, 0, 0, 0, 0, 601, 1122, 0, 252, 0, 0, 0, 0, 369, 743, 0, 32, 0, 0, 0, 0, 767, 0, 0, 0, 0, 0, 0, 621, 0, 488, 0, 0, 0, 0, 0, 0, 0, 1125, 0, 329, 0, 0, 0, 0, 0, 640, 0, 0, 0, 999, 0, 387, 0, 0, 0, 617, 0, 0, 0, 0, 417, 336, 0, 0, 0, 0, 0, 0, 0, 1100, 0, 758, 0, 0, 0, 0, 0, 639, 0, 537, 0, 234, 0, 0, 349, 0, 0, 0, 0, 0, 0, 0, 16, 1599, 0, 0, 0, 0, 0, 0, 1751, 956, 0, 552, 0, 0, 0, 0, 545, 873, 665, 796, 0, 0, 0, 0, 742, 0, 0, 0, 0, 0, 0, 673, 0, 499, 0, 0, 0, 0, 0, 0, 0, 1165, 0, 211, 0, 0, 0, 0, 0, 586, 0, 0, 0, 946, 0, 421, 0, 0, 0, 699, 0, 0, 0, 0, 426, 358, 0, 0, 0, 0, 0, 0, 0, 1140, 0, 783, 0, 0, 0, 0, 0, 704, 0, 587, 0, 261, 0, 0, 742, 192, 0, 231, 1107, 0, 0, 0, 375, 511, 0, 0, 0, 0, 0, 0, 0, 921, 0, 136, 0, 0, 0, 0, 179, 0, 0, 439, 0, 0, 0, 0, 671, 0, 0, 0, 0, 0, 0, 0, 0, 0, 0, 0, 0, 0, 0, 0, 1699, 983, 0, 198, 0, 0, 0, 0, 763, 853, 0, 0, 0, 0, 0, 0, 798, 0, 0, 0, 0, 0, 0, 735, 0, 509, 0, 0, 0, 0, 0, 0, 0, 1180, 0, 168, 0, 0, 0, 0, 0, 568, 0, 0, 0, 974, 0, 393, 702, 0, 0, 548, 400, 0, 0, 0, 0, 0, 0, 0, 0, 0, 0, 0, 0, 777, 0, 660, 1108, 0, 0, 0, 0, 292, 0, 506, 0, 185, 0, 408, 493, 0, 0, 291, 0, 0, 0, 69, 485, 0, 0, 0, 0, 0, 0, 0, 176, 1070, 0, 555, 0, 0, 0, 0, 301, 626, 259, 164, 0, 0, 0, 237, 725, 0, 0, 0, 0, 0, 0, 0, 1138, 643, 0, 0, 0, 0, 0, 0, 1093, 344, 0, 307, 0, 0, 0, 0, 936, 494, 287, 0, 0, 1594, 0, 0, 850, 0, 0, 0, 0, 0, 0, 815, 0, 490, 0, 0, 0, 0, 0, 0, 0, 1210, 0, 228, 0, 0, 0, 0, 0, 657, 0, 0, 0, 1005, 0, 321, 355, 0, 0, 0, 0, 0, 0, 0, 110, 1337, 0, 0, 0, 0, 0, 0, 1396, 971, 0, 489, 0, 0, 0, 0, 369, 768, 508, 731, 0, 0, 0, 0, 386, 0, 0, 0, 0, 0, 0, 0, 149, 1417, 0, 0, 0, 0, 0, 0, 1454, 878, 0, 515, 0, 0, 0, 0, 424, 771, 615, 704, 0, 0, 0, 0, 690, 0, 0, 0, 0, 0, 0, 0, 0, 0, 0, 0, 0, 0, 0, 0, 1341, 1118, 0, 0, 0, 0, 0, 0, 566, 906, 0, 0, 0, 0, 0, 0, 684, 0, 0, 0, 0, 0, 0, 0, 749, 545, 0, 0, 0, 0, 0, 0, 669, 573, 0, 419, 0, 0, 0, 0, 587, 506, 203, 0, 0, 1349, 0, 0, 0, 0, 0, 837, 0, 0, 0, 0, 379, 318, 0, 0, 0, 0, 0, 0, 0, 1184, 0, 753, 0, 0, 0, 0, 0, 704, 0, 588, 0, 182, 0, 0, 613, 0, 0, 486, 379, 0, 0, 0, 0, 0, 0, 0, 0, 0, 0, 0, 0, 732, 0, 686, 1057, 0, 0, 0, 0, 329, 0, 385, 0, 204, 0, 434, 740, 0, 0, 0, 0, 0, 0, 0, 1218, 591, 0, 0, 0, 0, 0, 0, 1150, 326, 0, 299, 0, 0, 0, 0, 917, 468, 435, 0, 0, 1742, 0, 0, 0, 0, 0, 764, 0, 0, 0, 0, 433, 353, 0, 0, 0, 0, 0, 0, 0, 1175, 0, 821, 0, 0, 0, 0, 0, 691, 0, 638, 0, 283, 0, 0, 711, 333, 0, 249, 762, 0, 0, 0, 362, 422, 0, 0, 0, 0, 0, 0, 0, 937, 0, 284, 0, 0, 0, 0, 229, 0, 0, 368, 0, 0, 0, 122, 841, 0, 0, 253, 0, 0, 0, 1454, 0, 0, 0, 0, 0, 0, 0, 0, 1093, 637, 0, 452, 0, 0, 0, 0, 0, 253, 232, 704, 0, 0, 0, 24, 722, 229, 0, 109, 893, 0, 0, 0, 375, 496, 0, 0, 0, 0, 0, 0, 0, 866, 0, 272, 0, 0, 0, 0, 145, 0, 0, 288, 0, 0, 0, 139, 792, 0, 0, 316, 0, 0, 0, 1685, 0, 0, 0, 0, 0, 0, 0, 0, 1354, 603, 0, 394, 0, 0, 0, 0, 0, 258, 416, 799, 0, 0, 0, 0, 731, 0, 0, 0, 0, 0, 0, 0, 1116, 638, 0, 0, 0, 0, 0, 0, 930, 403, 0, 331, 0, 0, 0, 0, 916, 535, 255, 0, 0, 1500, 0, 0, 609, 0, 0, 590, 448, 0, 0, 0, 0, 0, 0, 0, 0, 0, 0, 0, 0, 868, 0, 686, 1010, 0, 0, 0, 0, 372, 0, 530, 0, 164, 0, 425, 581, 0, 0, 595, 0, 0, 0, 0, 299, 0, 0, 0, 0, 0, 0, 1110, 0, 1031, 0, 639, 0, 0, 564, 0, 0, 479, 0, 455, 0, 0, 0, 479, 619, 0, 0, 755, 296, 0, 0, 0, 0, 0, 0, 0, 0, 0, 0, 0, 0, 746, 0, 742, 1060, 0, 0, 0, 0, 255, 0, 629, 0, 23, 0, 407, 752, 214, 0, 120, 1092, 0, 0, 0, 370, 585, 0, 0, 0, 0, 0, 0, 0, 868, 0, 236, 0, 0, 0, 0, 140, 0, 0, 387, 0, 0, 0, 46, 642, 0, 0, 517, 0, 0, 0, 0, 284, 0, 0, 0, 0, 0, 0, 1048, 90, 881, 0, 623, 0, 0, 559, 0, 0, 409, 82, 497, 0, 0, 0, 366, 660, 291, 0, 175, 801, 0, 0, 0, 430, 391, 0, 0, 0, 0, 0, 0, 0, 907, 77, 312, 0, 0, 0, 0, 152, 0, 0, 400, 0, 0, 0, 128, 662, 204, 0, 112, 966, 0, 0, 0, 362, 519, 0, 0, 0, 0, 0, 0, 0, 804, 0, 222, 0, 0, 0, 0, 195, 0, 0, 354, 0, 0, 0, 39, 610, 0, 0, 528, 371, 0, 0, 0, 0, 0, 0, 0, 0, 0, 0, 0, 0, 726, 0, 727, 940, 0, 0, 0, 0, 293, 0, 529, 0, 160, 0, 390, 708, 0, 0, 0, 0, 0, 0, 0, 916, 515, 0, 0, 0, 0, 0, 0, 751, 655, 0, 392, 0, 0, 0, 0, 653, 568, 198, 0, 0, 1284, 0, 0, 728, 0, 0, 560, 0, 0, 0, 0, 376, 131, 0, 0, 0, 0, 0, 979, 9, 1072, 0, 667, 0, 0, 457, 0, 0, 495, 198, 531, 0, 0, 0, 321, 750, 0, 0, 305, 0, 0, 0, 917, 0, 0, 0, 0, 0, 0, 0, 0, 1054, 820, 0, 428, 0, 0, 0, 0, 0, 427, 188, 537, 0, 0, 0, 78, 619, 0, 0, 0, 0, 0, 0, 0, 0, 0, 0, 0, 0, 0, 0, 0, 1400, 1027, 0, 133, 0, 0, 0, 0, 613, 823, 0, 0, 0, 0, 0, 0, 749, 400, 0, 259, 947, 0, 0, 0, 390, 571, 0, 0, 0, 0, 0, 0, 0, 937, 0, 168, 0, 0, 0, 0, 168, 0, 0, 364, 0, 0, 0, 89, 582, 0, 0, 878, 0, 0, 0, 0, 173, 0, 0, 0, 0, 0, 0, 1787, 0, 1049, 0, 675, 0, 0, 1259, 0, 0, 353, 327, 505, 0, 0, 0, 503, 658, 0, 0, 0, 0, 0, 0, 0, 644, 424, 0, 0, 0, 0, 0, 0, 567, 658, 0, 263, 0, 0, 0, 0, 416, 491, 128, 0, 0, 1173, 0, 0, 828, 0, 0, 0, 0, 0, 0, 0, 1119, 650, 0, 0, 0, 0, 0, 0, 1017, 332, 0, 277, 0, 0, 0, 0, 797, 478, 179, 0, 0, 1660, 0, 0, 360, 0, 0, 0, 0, 0, 0, 0, 69, 1475, 0, 0, 0, 0, 0, 0, 1437, 904, 0, 564, 0, 0, 0, 0, 452, 800, 570, 689, 0, 0, 0, 0, 806, 0, 0, 410, 0, 0, 0, 1449, 0, 0, 0, 0, 0, 0, 0, 0, 1133, 704, 0, 480, 0, 0, 0, 0, 0, 298, 333, 895, 0, 0, 0, 53, 762, 0, 0, 0, 0, 0, 0, 0, 0, 0, 0, 0, 0, 0, 0, 0, 2083, 1066, 0, 0, 0, 0, 0, 0, 759, 964, 0, 0, 0, 0, 0, 0, 622, 0, 0, 0, 0, 0, 0, 0, 0, 0, 0, 0, 0, 0, 0, 0, 1304, 1030, 0, 182, 0, 0, 0, 0, 724, 813, 0, 0, 0, 0, 0, 0, 244, 0, 0, 0, 0, 0, 0, 0, 0, 1788, 0, 0, 0, 0, 0, 0, 2077, 782, 0, 545, 0, 0, 0, 0, 488, 824, 789, 739, 0, 0, 0, 0, 0, 0, 0, 627, 0, 0, 0, 0, 480, 337, 0, 0, 0, 0, 0, 0, 0, 1175, 0, 810, 0, 0, 0, 0, 0, 664, 0, 591, 0, 174, 0, 0, 756, 0, 0, 0, 0, 0, 0, 0, 1105, 635, 0, 0, 0, 0, 0, 0, 972, 410, 0, 347, 0, 0, 0, 0, 825, 495, 247, 0, 0, 1531, 0, 0, 726, 0, 0, 252, 1042, 0, 0, 0, 192, 264, 0, 0, 0, 0, 0, 0, 0, 906, 538, 355, 0, 0, 0, 0, 33, 0, 0, 475, 0, 0, 0, 155, 834, 0, 0, 0, 0, 0, 0, 878, 0, 578, 0, 0, 0, 0, 0, 0, 0, 1236, 0, 25, 0, 0, 0, 0, 0, 659, 0, 0, 0, 1095, 0, 392, 723, 0, 0, 0, 0, 0, 0, 0, 0, 0, 0, 0, 0, 0, 0, 0, 724, 1053, 0, 132, 0, 0, 0, 0, 227, 751, 0, 0, 0, 0, 0, 0, 553, 0, 0, 678, 486, 0, 0, 0, 0, 0, 0, 0, 0, 0, 0, 0, 0, 745, 0, 839, 1135, 0, 0, 0, 0, 289, 0, 496, 0, 128, 0, 454, 506, 0, 0, 440, 0, 0, 0, 0, 405, 0, 0, 0, 0, 0, 0, 0, 0, 1065, 0, 457, 0, 0, 0, 0, 233, 596, 561, 0, 0, 0, 0, 585, 759, 0, 0, 0, 0, 0, 0, 373, 0, 232, 0, 0, 0, 0, 0, 0, 0, 1105, 0, 348, 0, 0, 0, 0, 0, 620, 0, 0, 0, 552, 0, 229, 792, 0, 0, 193, 0, 0, 0, 1020, 0, 0, 0, 0, 0, 0, 0, 0, 839, 813, 0, 466, 0, 0, 0, 0, 0, 389, 330, 522, 0, 0, 0, 270, 623, 0, 0, 591, 646, 0, 0, 0, 0, 0, 0, 0, 0, 0, 0, 0, 0, 754, 0, 713, 1422, 0, 0, 0, 0, 318, 0, 511, 0, 213, 0, 417, 629, 0, 0, 0, 0, 0, 0, 0, 763, 452, 0, 0, 0, 0, 0, 0, 610, 704, 0, 381, 0, 0, 0, 0, 632, 580, 101, 0, 0, 962, 0, 0, 330, 0, 0, 0, 0, 0, 0, 0, 185, 1119, 0, 0, 0, 0, 0, 0, 1071, 913, 0, 530, 0, 0, 0, 0, 346, 705, 417, 606, 0, 0, 0, 0, 699, 0, 0, 0, 0, 0, 0, 0, 918, 556, 0, 0, 0, 0, 0, 0, 733, 541, 0, 291, 0, 0, 0, 0, 713, 499, 226, 0, 0, 1344, 0, 0, 722, 0, 0, 389, 0, 0, 0, 1216, 0, 0, 0, 0, 0, 0, 0, 0, 1218, 744, 0, 409, 0, 0, 0, 0, 0, 375, 446, 670, 0, 0, 0, 66, 0, 0, 0, 893, 0, 0, 0, 0, 382, 425, 0, 0, 0, 0, 0, 0, 0, 1197, 0, 748, 0, 0, 0, 0, 0, 739, 0, 594, 0, 309, 0, 0, 676, 0, 0, 541, 409, 0, 0, 0, 0, 0, 0, 0, 0, 0, 0, 0, 0, 787, 0, 687, 1116, 0, 0, 0, 0, 303, 0, 493, 0, 203, 0, 394, 0, 0, 0, 762, 0, 0, 0, 0, 356, 387, 0, 0, 0, 0, 0, 0, 0, 1165, 0, 792, 0, 0, 0, 0, 0, 695, 0, 608, 0, 308, 0, 0, 593, 0, 0, 787, 0, 0, 0, 0, 214, 0, 0, 0, 0, 0, 0, 1339, 0, 1091, 0, 715, 0, 0, 802, 0, 0, 445, 0, 585, 0, 0, 0, 483, 686, 0, 0, 0, 0, 0, 0, 398, 0, 352, 0, 0, 0, 0, 0, 0, 0, 1154, 0, 400, 0, 0, 0, 0, 0, 582, 0, 91, 0, 691, 0, 408, 747, 186, 0, 144, 1092, 0, 0, 0, 364, 550, 0, 0, 0, 0, 0, 0, 0, 863, 0, 201, 0, 0, 0, 0, 115, 0, 0, 390, 0, 0, 0, 50, 565, 0, 0, 535, 563, 0, 0, 0, 0, 0, 0, 0, 0, 0, 0, 0, 0, 890, 0, 799, 1204, 0, 0, 0, 0, 350, 0, 515, 0, 311, 0, 456, 893, 0, 0, 287, 0, 0, 0, 1433, 0, 0, 0, 0, 0, 0, 0, 0, 1463, 717, 0, 350, 0, 0, 0, 0, 0, 356, 211, 755, 0, 0, 0, 0, 616, 0, 0, 647, 0, 0, 0, 0, 78, 0, 0, 0, 0, 0, 0, 1287, 44, 951, 0, 639, 0, 0, 796, 0, 0, 419, 0, 441, 0, 0, 0, 453, 743, 0, 0, 0, 0, 0, 0, 527, 0, 400, 0, 0, 0, 0, 0, 0, 0, 1178, 0, 377, 0, 0, 0, 0, 0, 627, 0, 0, 0, 722, 0, 459, 666, 0, 0, 296, 281, 0, 0, 0, 0, 0, 0, 0, 0, 0, 0, 0, 0, 880, 0, 619, 708, 0, 0, 0, 0, 405, 0, 328, 0, 434, 0, 471, 678, 0, 0, 236, 404, 0, 0, 0, 0, 0, 0, 0, 0, 0, 0, 0, 0, 899, 0, 612, 899, 0, 0, 0, 0, 417, 0, 190, 0, 501, 0, 490, 335, 0, 0, 0, 0, 0, 0, 0, 13, 1464, 0, 0, 0, 0, 0, 0, 1378, 904, 0, 555, 0, 0, 0, 0, 394, 741, 558, 739, 0, 0, 0, 0, 685, 0, 0, 944, 0, 0, 0, 0, 169, 0, 0, 0, 0, 0, 0, 1642, 0, 1098, 0, 661, 0, 0, 1183, 0, 0, 408, 259, 660, 0, 0, 0, 417, 612, 0, 0, 588, 607, 0, 0, 0, 0, 0, 0, 0, 0, 0, 0, 0, 0, 736, 0, 729, 1450, 0, 0, 0, 0, 330, 0, 439, 0, 161, 0, 445, 368, 0, 0, 526, 0, 0, 0, 0, 554, 0, 0, 0, 0, 0, 0, 0, 0, 1035, 0, 481, 0, 0, 0, 0, 276, 462, 919, 0, 0, 0, 0, 617, 682, 0, 0, 0, 0, 0, 0, 0, 1044, 503, 0, 0, 0, 0, 0, 0, 875, 463, 0, 355, 0, 0, 0, 0, 756, 482, 268, 0, 0, 1376, 0, 0, 598, 0, 0, 348, 290, 0, 0, 0, 0, 0, 0, 0, 0, 0, 0, 0, 0, 800, 0, 615, 783, 0, 0, 0, 0, 385, 0, 359, 0, 259, 0, 400, 753, 0, 0, 402, 0, 0, 0, 1058, 0, 0, 0, 0, 0, 0, 0, 0, 1046, 752, 0, 622, 0, 0, 0, 0, 0, 264, 552, 782, 0, 0, 0, 211, 322, 0, 0, 0, 0, 0, 0, 0, 45, 1508, 0, 0, 0, 0, 0, 0, 1556, 880, 0, 516, 0, 0, 0, 0, 448, 794, 612, 679, 0, 0, 0, 0, 637, 40, 0, 302, 758, 0, 0, 0, 401, 386, 0, 0, 0, 0, 0, 0, 0, 1087, 522, 420, 0, 0, 0, 0, 230, 0, 0, 423, 0, 0, 0, 277, 817, 0, 0, 509, 0, 0, 0, 1382, 0, 0, 0, 0, 0, 0, 0, 0, 1142, 674, 0, 597, 0, 0, 0, 0, 0, 244, 623, 889, 0, 0, 0, 38, 368, 0, 0, 0, 0, 0, 0, 0, 13, 1699, 0, 0, 0, 0, 0, 0, 1703, 890, 0, 529, 0, 0, 0, 0, 398, 834, 649, 736, 0, 0, 0, 0, 712, 0, 0, 0, 0, 0, 0, 230, 65, 449, 0, 0, 0, 0, 0, 0, 0, 1057, 0, 410, 0, 0, 0, 0, 0, 628, 0, 135, 0, 824, 0, 293, 705, 0, 0, 243, 0, 0, 0, 1005, 0, 0, 0, 0, 0, 0, 0, 0, 883, 760, 0, 388, 0, 0, 0, 0, 0, 395, 140, 559, 0, 0, 0, 117, 676, 294, 0, 394, 675, 0, 0, 0, 422, 456, 0, 0, 0, 0, 0, 0, 0, 918, 0, 273, 0, 0, 0, 0, 169, 0, 79, 270, 0, 0, 0, 300, 516, 0, 0, 0, 0, 0, 0, 0, 569, 308, 0, 0, 0, 0, 0, 0, 284, 907, 0, 479, 0, 0, 0, 0, 398, 515, 352, 148, 0, 576, 0, 221, 680, 389, 0, 298, 676, 0, 0, 0, 262, 453, 0, 0, 0, 0, 0, 0, 0, 907, 0, 314, 0, 0, 0, 0, 240, 0, 0, 292, 0, 0, 0, 198, 569, 0, 0, 717, 690, 0, 0, 0, 0, 0, 0, 0, 0, 0, 0, 0, 0, 786, 0, 749, 1486, 0, 0, 0, 0, 294, 0, 577, 0, 52, 0, 462, 395, 0, 0, 0, 0, 0, 0, 0, 159, 1440, 0, 0, 0, 0, 0, 0, 1248, 974, 0, 485, 0, 0, 0, 0, 293, 764, 545, 706, 0, 0, 0, 0, 893, 0, 0, 0, 0, 0, 0, 1028, 0, 683, 0, 0, 0, 0, 0, 0, 0, 1269, 0, 143, 0, 0, 0, 0, 0, 602, 0, 0, 0, 1205, 0, 424, 331, 0, 0, 0, 0, 0, 0, 0, 60, 1546, 0, 0, 0, 0, 0, 0, 1678, 881, 0, 530, 0, 0, 0, 0, 491, 820, 673, 699, 0, 0, 0, 0, 0, 0, 0, 715, 0, 0, 0, 0, 404, 386, 0, 0, 0, 0, 0, 0, 0, 1081, 0, 728, 0, 0, 0, 0, 0, 697, 0, 532, 0, 215, 0, 0, 699, 0, 0, 0, 0, 0, 0, 0, 0, 0, 0, 0, 0, 0, 0, 0, 1782, 1065, 0, 105, 0, 0, 0, 0, 782, 918, 0, 0, 0, 0, 0, 0, 783, 0, 0, 0, 0, 0, 0, 0, 1163, 681, 0, 0, 0, 0, 0, 0, 1081, 217, 0, 278, 0, 0, 0, 0, 990, 442, 188, 0, 0, 1749, 0, 0, 724, 0, 0, 0, 0, 0, 0, 623, 0, 399, 0, 0, 0, 0, 0, 0, 0, 1157, 0, 244, 0, 0, 0, 0, 0, 663, 0, 0, 0, 795, 0, 330, 774, 0, 0, 0, 0, 0, 0, 884, 0, 568, 0, 0, 0, 0, 0, 0, 0, 1210, 0, 122, 0, 0, 0, 0, 0, 621, 0, 0, 0, 1089, 0, 406, 564, 0, 0, 628, 0, 0, 0, 0, 248, 0, 0, 0, 0, 0, 0, 1091, 0, 986, 0, 682, 0, 0, 574, 0, 0, 439, 0, 462, 0, 0, 0, 403, 593, 0, 0, 161, 715, 0, 0, 0, 278, 558, 0, 0, 0, 0, 0, 0, 0, 1030, 501, 341, 0, 0, 0, 0, 181, 0, 0, 508, 0, 0, 0, 100, 945, 0, 0, 0, 0, 0, 0, 1151, 0, 723, 0, 0, 0, 0, 0, 0, 0, 1250, 0, 23, 0, 0, 0, 0, 0, 644, 0, 0, 0, 1361, 0, 419, 720, 0, 0, 0, 0, 0, 0, 0, 1057, 583, 0, 0, 0, 0, 0, 0, 1025, 428, 0, 325, 0, 0, 0, 0, 797, 506, 473, 0, 0, 1416, 0, 0, 414, 0, 0, 583, 0, 0, 0, 0, 507, 0, 0, 0, 0, 0, 0, 0, 0, 1027, 0, 592, 0, 0, 0, 0, 282, 450, 867, 0, 0, 0, 0, 693, 587, 0, 0, 314, 278, 0, 0, 0, 0, 0, 0, 0, 0, 0, 0, 0, 0, 852, 0, 625, 673, 0, 0, 0, 0, 432, 0, 365, 0, 268, 0, 424, 784, 0, 0, 435, 0, 0, 0, 1268, 0, 0, 0, 0, 0, 0, 0, 0, 1266, 733, 0, 348, 0, 0, 0, 0, 0, 408, 211, 721, 0, 0, 0, 0, 835, 0, 0, 0, 0, 0, 0, 1027, 0, 632, 0, 0, 0, 0, 0, 0, 0, 1224, 0, 136, 0, 0, 0, 0, 0, 578, 0, 0, 0, 1219, 0, 445, 633, 0, 0, 658, 401, 0, 0, 0, 0, 0, 0, 0, 0, 0, 0, 0, 0, 723, 0, 701, 1146, 0, 0, 0, 0, 301, 0, 525, 0, 9, 0, 426, 676, 0, 0, 0, 0, 0, 0, 132, 279, 474, 0, 0, 0, 0, 0, 0, 156, 1010, 0, 382, 0, 0, 0, 0, 260, 656, 0, 0, 0, 1018, 0, 101, 756, 0, 0, 0, 0, 0, 0, 0, 762, 545, 0, 0, 0, 0, 0, 0, 628, 743, 0, 413, 0, 0, 0, 0, 518, 616, 130, 0, 0, 1358, 0, 0, 789, 0, 0, 0, 0, 0, 0, 0, 1111, 666, 0, 0, 0, 0, 0, 0, 1077, 246, 0, 200, 0, 0, 0, 0, 946, 418, 131, 0, 0, 1801, 0, 0, 716, 0, 0, 0, 0, 0, 0, 616, 0, 416, 0, 0, 0, 0, 0, 0, 0, 1145, 0, 276, 0, 0, 0, 0, 0, 593, 0, 0, 0, 888, 0, 354, 607, 0, 0, 440, 0, 0, 0, 0, 268, 0, 0, 0, 0, 0, 0, 737, 0, 957, 0, 564, 0, 0, 178, 0, 12, 459, 10, 408, 0, 0, 0, 460, 658, 0, 0, 0, 0, 0, 0, 0, 0, 0, 0, 0, 0, 0, 0, 0, 1414, 1081, 0, 41, 0, 0, 0, 0, 584, 892, 0, 0, 0, 0, 0, 0, 561, 0, 0, 0, 0, 0, 0, 0, 509, 429, 0, 0, 0, 0, 0, 0, 439, 1020, 0, 573, 0, 0, 0, 0, 415, 639, 261, 268, 0, 322, 0, 197, 542, 0, 0, 556, 413, 0, 0, 0, 0, 0, 0, 0, 0, 0, 0, 0, 0, 852, 0, 720, 990, 0, 0, 0, 0, 398, 0, 401, 0, 204, 0, 465, 281, 0, 0, 0, 0, 0, 0, 0, 0, 1964, 0, 0, 0, 0, 0, 0, 1728, 770, 0, 584, 0, 0, 0, 0, 315, 780, 810, 841, 0, 0, 0, 0, 613, 0, 0, 299, 714, 0, 0, 0, 0, 0, 0, 0, 0, 0, 0, 0, 0, 733, 0, 751, 1411, 0, 0, 0, 0, 364, 0, 314, 0, 494, 0, 407, 825, 0, 0, 0, 0, 0, 0, 769, 0, 502, 0, 0, 0, 0, 0, 0, 0, 1144, 0, 375, 0, 0, 0, 0, 0, 542, 0, 0, 0, 1037, 0, 419, 0, 0, 0, 593, 0, 0, 0, 0, 326, 331, 0, 0, 0, 0, 0, 0, 0, 1117, 0, 669, 0, 0, 0, 0, 0, 694, 0, 476, 0, 227, 0, 0, 712, 0, 0, 0, 0, 0, 0, 0, 0, 0, 0, 0, 0, 0, 0, 0, 2065, 1099, 0, 0, 0, 0, 0, 0, 786, 954, 0, 0, 0, 0, 0, 0, 415, 0, 0, 621, 0, 0, 0, 0, 495, 0, 0, 0, 0, 0, 0, 0, 0, 967, 0, 582, 0, 0, 0, 0, 263, 412, 1038, 0, 0, 0, 0, 891, 696, 0, 0, 0, 0, 0, 0, 0, 0, 0, 0, 0, 0, 0, 0, 0, 1990, 1047, 0, 0, 0, 0, 0, 0, 759, 934, 0, 0, 0, 0, 0, 0, 310, 0, 0, 0, 0, 0, 0, 0, 0, 1580, 0, 0, 0, 0, 0, 0, 1543, 889, 0, 495, 0, 0, 0, 0, 428, 779, 560, 790, 0, 0, 0, 0, 335, 0, 0, 0, 0, 0, 0, 0, 0, 1559, 0, 0, 0, 0, 0, 0, 1454, 925, 0, 505, 0, 0, 0, 0, 383, 774, 600, 766, 0, 0, 0, 0, 629, 0, 0, 0, 0, 0, 0, 0, 0, 0, 0, 0, 0, 0, 0, 0, 1484, 1111, 0, 160, 0, 0, 0, 0, 702, 863, 0, 0, 0, 0, 0, 0, 708, 0, 0, 516, 366, 0, 0, 0, 0, 0, 0, 0, 0, 0, 0, 0, 0, 789, 0, 637, 1097, 0, 0, 0, 0, 296, 0, 495, 0, 207, 0, 431, 345, 0, 0, 772, 0, 0, 0, 0, 499, 0, 0, 0, 0, 0, 0, 0, 0, 1008, 0, 591, 0, 0, 0, 0, 169, 315, 1262, 0, 0, 0, 0, 938, 714, 133, 0, 151, 1037, 0, 0, 0, 343, 442, 0, 0, 0, 0, 0, 0, 0, 897, 52, 240, 0, 0, 0, 0, 96, 0, 0, 423, 0, 0, 0, 98, 0, 0, 0, 618, 0, 0, 0, 0, 434, 299, 0, 0, 0, 0, 0, 0, 0, 1119, 0, 754, 0, 0, 0, 0, 0, 617, 0, 549, 0, 168, 0, 0, 614, 52, 0, 338, 935, 0, 0, 0, 351, 358, 0, 0, 0, 0, 0, 0, 0, 997, 508, 313, 0, 0, 0, 0, 131, 0, 0, 489, 0, 0, 0, 142, 364, 0, 0, 0, 0, 0, 0, 0, 31, 1700, 0, 0, 0, 0, 0, 0, 1799, 799, 0, 514, 0, 0, 0, 0, 525, 856, 642, 744, 0, 0, 0, 0, 710, 0, 0, 0, 0, 0, 0, 0, 738, 488, 0, 0, 0, 0, 0, 0, 631, 733, 0, 375, 0, 0, 0, 0, 497, 553, 191, 0, 0, 1257, 0, 0, 347, 0, 0, 0, 0, 0, 0, 0, 15, 1569, 0, 0, 0, 0, 0, 0, 1293, 906, 0, 599, 0, 0, 0, 0, 310, 779, 615, 703, 0, 0, 0, 0, 561, 0, 0, 612, 587, 0, 0, 0, 0, 0, 0, 0, 0, 0, 0, 0, 0, 697, 0, 773, 1284, 0, 0, 0, 0, 211, 0, 500, 0, 206, 0, 408, 677, 0, 0, 377, 0, 0, 0, 1106, 0, 0, 0, 0, 0, 0, 0, 0, 594, 793, 0, 654, 0, 0, 0, 0, 0, 305, 480, 633, 0, 0, 0, 325, 714, 29, 0, 262, 1157, 0, 0, 0, 284, 418, 0, 0, 0, 0, 0, 0, 0, 870, 275, 170, 0, 0, 0, 0, 101, 0, 0, 470, 0, 0, 0, 28, 698, 0, 0, 334, 317, 0, 0, 0, 0, 0, 0, 0, 0, 0, 0, 0, 0, 752, 0, 653, 858, 0, 0, 0, 0, 350, 0, 447, 0, 197, 0, 345, 728, 306, 0, 122, 1019, 0, 0, 0, 394, 532, 0, 0, 0, 0, 0, 0, 0, 836, 0, 161, 0, 0, 0, 0, 152, 0, 0, 360, 0, 0, 0, 0, 415, 0, 0, 576, 0, 0, 0, 0, 532, 0, 0, 0, 0, 0, 0, 0, 0, 957, 0, 496, 0, 0, 0, 0, 210, 379, 991, 0, 0, 0, 0, 794, 632, 0, 0, 560, 0, 0, 0, 0, 436, 0, 0, 0, 0, 0, 0, 1265, 0, 1049, 0, 633, 0, 0, 717, 0, 0, 458, 440, 495, 0, 0, 0, 358, 0, 0, 0, 801, 0, 0, 0, 0, 402, 349, 0, 0, 0, 0, 0, 0, 0, 1158, 0, 805, 0, 0, 0, 0, 0, 690, 0, 610, 0, 259, 0, 0, 710, 0, 0, 538, 0, 0, 0, 0, 303, 60, 0, 0, 0, 0, 0, 1032, 0, 1112, 0, 581, 0, 0, 375, 0, 0, 539, 436, 339, 0, 0, 0, 384, 889, 0, 0, 0, 0, 0, 0, 1048, 0, 683, 0, 0, 0, 0, 0, 0, 0, 1260, 0, 40, 0, 0, 0, 0, 0, 568, 0, 0, 0, 1273, 0, 369, 424, 0, 0, 375, 0, 0, 0, 51, 439, 0, 0, 0, 0, 0, 0, 0, 0, 1051, 0, 671, 0, 0, 0, 0, 327, 541, 450, 0, 0, 0, 0, 526, 613, 0, 0, 0, 0, 0, 0, 0, 0, 0, 0, 0, 0, 0, 0, 0, 1400, 1052, 0, 167, 0, 0, 0, 0, 616, 788, 0, 0, 0, 0, 0, 0, 689, 0, 0, 0, 0, 0, 0, 0, 0, 0, 0, 0, 0, 0, 0, 0, 1553, 1080, 0, 106, 0, 0, 0, 0, 709, 902, 0, 0, 0, 0, 0, 0, 685, 102, 0, 134, 1018, 0, 0, 0, 372, 479, 0, 0, 0, 0, 0, 0, 0, 875, 0, 226, 0, 0, 0, 0, 127, 0, 0, 427, 0, 0, 0, 53, 707, 0, 0, 0, 0, 0, 0, 0, 0, 0, 0, 0, 0, 0, 0, 0, 1653, 1100, 0, 25, 0, 0, 0, 0, 682, 920, 0, 0, 0, 0, 0, 0, 351, 0, 0, 0, 0, 0, 0, 0, 42, 1548, 0, 0, 0, 0, 0, 0, 1611, 965, 0, 620, 0, 0, 0, 0, 314, 797, 736, 861, 0, 0, 0, 0, 0, 0, 0, 630, 0, 0, 0, 0, 422, 305, 0, 0, 0, 0, 0, 0, 0, 1155, 0, 744, 0, 0, 0, 0, 0, 644, 0, 545, 0, 189, 0, 0, 740, 0, 0, 336, 0, 0, 0, 759, 87, 0, 0, 0, 0, 0, 0, 0, 731, 843, 0, 571, 0, 0, 0, 0, 0, 336, 268, 685, 0, 0, 0, 228, 642, 0, 0, 0, 0, 0, 0, 0, 714, 458, 0, 0, 0, 0, 0, 0, 442, 747, 0, 386, 0, 0, 0, 0, 576, 561, 115, 0, 0, 1189, 0, 60, 633, 0, 0, 0, 0, 0, 0, 0, 848, 369, 0, 0, 0, 0, 0, 0, 568, 629, 0, 379, 0, 0, 0, 0, 533, 501, 241, 0, 0, 989, 0, 0, 315, 0, 0, 0, 0, 0, 0, 0, 0, 1880, 0, 0, 0, 0, 0, 0, 1956, 829, 0, 477, 0, 0, 0, 0, 482, 891, 673, 833, 0, 0, 0, 0, 751, 0, 0, 0, 0, 0, 0, 0, 0, 0, 0, 0, 0, 0, 0, 0, 2146, 1022, 0, 0, 0, 0, 0, 0, 777, 971, 0, 0, 0, 0, 0, 0, 729, 0, 0, 0, 0, 0, 0, 0, 1032, 584, 0, 0, 0, 0, 0, 0, 944, 433, 0, 324, 0, 0, 0, 0, 787, 485, 333, 0, 0, 1507, 0, 0, 466, 0, 0, 0, 0, 0, 0, 0, 252, 1459, 0, 0, 0, 0, 0, 0, 1388, 869, 0, 523, 0, 0, 0, 0, 452, 784, 657, 641, 0, 0, 0, 0, 671, 0, 0, 0, 0, 0, 0, 0, 0, 0, 0, 0, 0, 0, 0, 0, 1668, 1075, 0, 114, 0, 0, 0, 0, 800, 929, 0, 0, 0, 0, 0, 0, 768, 0, 0, 0, 0, 0, 0, 0, 765, 519, 0, 0, 0, 0, 0, 0, 609, 692, 0, 360, 0, 0, 0, 0, 549, 570, 180, 0, 0, 1302, 0, 0, 606, 0, 0, 0, 0, 0, 0, 0, 0, 0, 0, 0, 0, 0, 0, 0, 1019, 1043, 0, 327, 0, 0, 0, 0, 406, 718, 0, 155, 0, 0, 0, 0, 732, 172, 0, 146, 1084, 0, 0, 0, 392, 511, 0, 0, 0, 0, 0, 0, 0, 903, 0, 181, 0, 0, 0, 0, 111, 0, 0, 418, 0, 0, 0, 50, 744, 0, 0, 0, 0, 0, 0, 0, 1282, 659, 0, 0, 0, 0, 0, 0, 1224, 305, 0, 238, 0, 0, 0, 0, 975, 493, 311, 0, 0, 1635, 0, 0, 718, 0, 0, 0, 0, 0, 0, 0, 1015, 610, 0, 0, 0, 0, 0, 0, 905, 436, 0, 338, 0, 0, 0, 0, 793, 482, 273, 0, 0, 1667, 0, 0, 563, 0, 0, 397, 229, 0, 0, 0, 0, 0, 0, 0, 0, 0, 0, 0, 0, 967, 0, 616, 675, 0, 0, 0, 0, 471, 0, 371, 0, 248, 0, 411, 564, 0, 0, 752, 0, 0, 0, 0, 251, 0, 0, 0, 0, 0, 0, 1307, 0, 1109, 0, 709, 0, 0, 691, 0, 0, 459, 206, 429, 0, 0, 0, 565, 717, 0, 0, 388, 0, 0, 0, 1004, 26, 0, 0, 0, 0, 0, 0, 0, 882, 740, 0, 638, 0, 0, 0, 0, 0, 345, 414, 772, 0, 0, 0, 182, 626, 0, 0, 750, 0, 0, 0, 0, 323, 0, 0, 0, 0, 0, 0, 1651, 129, 1050, 0, 605, 0, 0, 1183, 0, 0, 417, 298, 575, 0, 0, 0, 416, 543, 0, 0, 225, 197, 0, 0, 0, 0, 20, 0, 0, 0, 0, 0, 0, 0, 857, 0, 547, 427, 0, 0, 0, 0, 447, 0, 283, 0, 354, 0, 419, 670, 107, 0, 165, 1137, 0, 0, 0, 278, 512, 0, 0, 0, 0, 0, 0, 0, 793, 17, 173, 0, 0, 0, 0, 126, 0, 0, 402, 0, 0, 0, 8, 462, 0, 0, 310, 0, 0, 0, 0, 544, 61, 0, 0, 0, 0, 0, 0, 0, 1047, 0, 530, 0, 0, 0, 0, 334, 559, 476, 0, 0, 0, 0, 455, 739, 0, 0, 142, 1239, 0, 0, 0, 296, 486, 0, 0, 0, 0, 0, 0, 0, 918, 161, 226, 0, 0, 0, 0, 114, 0, 0, 465, 0, 0, 0, 59, 424, 0, 0, 607, 0, 0, 0, 0, 463, 0, 0, 0, 0, 0, 0, 0, 0, 995, 0, 674, 0, 0, 0, 0, 147, 379, 913, 0, 0, 0, 0, 707, 750, 114, 0, 174, 1242, 0, 0, 0, 308, 525, 0, 0, 0, 0, 0, 0, 0, 876, 64, 174, 0, 0, 0, 0, 109, 0, 0, 458, 0, 0, 0, 10, 465, 0, 0, 533, 0, 0, 0, 0, 546, 0, 0, 0, 0, 0, 0, 0, 0, 1019, 0, 528, 0, 0, 0, 0, 218, 422, 857, 0, 0, 0, 0, 745, 589, 0, 0, 0, 0, 0, 0, 0, 0, 0, 0, 0, 0, 0, 0, 0, 1459, 1062, 0, 179, 0, 0, 0, 0, 698, 812, 0, 0, 0, 0, 0, 0, 0, 0, 0, 741, 0, 0, 0, 0, 412, 342, 0, 0, 0, 0, 0, 0, 0, 1168, 0, 818, 0, 0, 0, 0, 0, 707, 0, 564, 0, 215, 0, 0, 526, 0, 0, 482, 0, 0, 0, 0, 475, 0, 0, 0, 0, 0, 0, 109, 133, 941, 0, 684, 0, 0, 0, 0, 0, 367, 713, 331, 0, 0, 0, 493, 762, 0, 0, 0, 0, 0, 0, 764, 0, 362, 0, 0, 0, 0, 0, 0, 0, 1124, 0, 277, 0, 0, 0, 0, 0, 586, 0, 0, 0, 923, 0, 356, 675, 0, 0, 831, 0, 0, 0, 0, 111, 0, 0, 0, 0, 0, 0, 1385, 77, 1006, 0, 634, 0, 0, 935, 0, 0, 395, 0, 624, 0, 0, 0, 458, 713, 0, 0, 0, 0, 0, 0, 0, 0, 0, 0, 0, 0, 0, 0, 0, 1750, 966, 0, 76, 0, 0, 0, 0, 623, 842, 0, 0, 0, 0, 0, 0, 0, 0, 0, 716, 0, 0, 0, 0, 391, 361, 0, 0, 0, 0, 0, 0, 0, 1143, 0, 746, 0, 0, 0, 0, 0, 687, 0, 535, 0, 208, 0, 0, 747, 380, 0, 15, 991, 0, 0, 0, 373, 606, 0, 0, 0, 0, 0, 0, 0, 696, 0, 105, 0, 0, 0, 0, 203, 0, 0, 295, 0, 4, 0, 0, 655, 44, 0, 400, 871, 0, 0, 0, 227, 264, 0, 0, 0, 0, 0, 0, 0, 952, 574, 367, 0, 0, 0, 0, 106, 0, 0, 468, 0, 0, 0, 264, 738, 430, 0, 284, 884, 0, 0, 0, 300, 516, 0, 0, 0, 0, 0, 0, 0, 822, 0, 162, 0, 0, 0, 0, 175, 0, 0, 305, 0, 0, 0, 79, 0, 0, 0, 818, 0, 0, 0, 0, 416, 384, 0, 0, 0, 0, 0, 0, 0, 1172, 0, 829, 0, 0, 0, 0, 0, 745, 0, 612, 0, 274, 0, 0, 610, 0, 0, 172, 0, 0, 0, 311, 0, 256, 0, 0, 0, 0, 0, 0, 0, 1125, 0, 386, 0, 0, 0, 0, 0, 594, 0, 0, 0, 494, 0, 406, 0, 0, 0, 642, 0, 0, 0, 0, 445, 349, 0, 0, 0, 0, 0, 0, 0, 1134, 0, 812, 0, 0, 0, 0, 0, 641, 0, 595, 0, 195, 0, 0, 695, 0, 0, 206, 0, 0, 0, 1026, 0, 0, 0, 0, 0, 0, 0, 0, 460, 885, 0, 586, 0, 0, 0, 0, 0, 434, 236, 422, 0, 0, 0, 295, 668, 318, 0, 157, 934, 0, 0, 0, 409, 477, 0, 0, 0, 0, 0, 0, 0, 812, 0, 173, 0, 0, 0, 0, 114, 0, 0, 363, 0, 0, 0, 21, 332, 0, 0, 0, 0, 0, 0, 0, 0, 1758, 0, 0, 0, 0, 0, 0, 1658, 941, 0, 510, 0, 0, 0, 0, 366, 842, 684, 879, 0, 0, 0, 0, 764, 0, 0, 0, 0, 0, 0, 0, 1021, 562, 0, 0, 0, 0, 0, 0, 951, 540, 0, 299, 0, 0, 0, 0, 737, 551, 271, 0, 0, 1537, 0, 0, 606, 0, 0, 520, 0, 0, 0, 0, 350, 0, 0, 0, 0, 0, 0, 897, 18, 1007, 0, 615, 0, 0, 348, 0, 0, 458, 153, 516, 0, 0, 0, 405, 647, 0, 0, 366, 0, 0, 0, 823, 0, 0, 0, 0, 0, 0, 0, 0, 728, 865, 0, 460, 0, 0, 0, 0, 0, 439, 332, 459, 0, 0, 0, 182, 264, 0, 0, 0, 0, 0, 0, 0, 0, 1981, 0, 0, 0, 0, 0, 0, 1860, 818, 0, 575, 0, 0, 0, 0, 447, 799, 790, 823, 0, 0, 0, 0, 672, 0, 0, 327, 884, 0, 0, 0, 225, 262, 0, 0, 0, 0, 0, 0, 0, 965, 636, 276, 0, 0, 0, 0, 113, 0, 0, 445, 0, 0, 0, 165, 672, 165, 0, 206, 1077, 0, 0, 0, 335, 508, 0, 0, 0, 0, 0, 0, 0, 881, 49, 208, 0, 0, 0, 0, 142, 0, 0, 408, 0, 0, 0, 53, 650, 0, 0, 218, 916, 0, 0, 0, 325, 344, 0, 0, 0, 0, 0, 0, 0, 993, 588, 336, 0, 0, 0, 0, 138, 0, 0, 432, 0, 0, 0, 206, 823, 0, 0, 345, 0, 0, 0, 1483, 0, 0, 0, 0, 0, 0, 0, 0, 1337, 651, 0, 436, 0, 0, 0, 0, 0, 288, 252, 786, 0, 0, 0, 0, 730, 0, 0, 0, 0, 0, 0, 603, 0, 421, 0, 0, 0, 0, 0, 0, 0, 1231, 0, 180, 0, 0, 0, 0, 0, 596, 0, 0, 0, 789, 0, 430, 705, 0, 0, 0, 0, 0, 0, 0, 0, 0, 0, 0, 0, 0, 0, 0, 1563, 1015, 0, 244, 0, 0, 0, 0, 726, 845, 0, 0, 0, 0, 0, 0, 668, 0, 0, 927, 0, 0, 0, 0, 207, 0, 0, 0, 0, 0, 0, 1837, 10, 1099, 0, 675, 0, 0, 1408, 0, 0, 396, 155, 740, 0, 0, 0, 356, 652, 0, 0, 0, 0, 0, 0, 503, 0, 221, 0, 0, 0, 0, 0, 0, 0, 1076, 0, 303, 0, 0, 0, 0, 0, 645, 0, 0, 0, 583, 0, 334, 748, 0, 0, 0, 0, 0, 0, 0, 939, 529, 0, 0, 0, 0, 0, 0, 775, 490, 0, 403, 0, 0, 0, 0, 736, 494, 195, 0, 0, 1273, 0, 0, 700, 0, 0, 5, 0, 0, 0, 0, 0, 0, 0, 0, 0, 0, 0, 0, 1111, 1064, 0, 247, 0, 0, 0, 0, 388, 720, 0, 0, 0, 0, 0, 0, 736, 0, 0, 0, 0, 0, 0, 623, 0, 358, 0, 0, 0, 0, 0, 0, 0, 1153, 0, 242, 0, 0, 0, 0, 0, 632, 0, 0, 0, 811, 0, 386, 731, 0, 0, 240, 0, 0, 0, 1146, 0, 0, 0, 0, 0, 0, 0, 0, 852, 812, 0, 400, 0, 0, 0, 0, 0, 446, 62, 483, 0, 0, 0, 153, 665, 0, 0, 0, 0, 0, 0, 515, 0, 406, 0, 0, 0, 0, 0, 0, 0, 1130, 0, 341, 0, 0, 0, 0, 0, 590, 0, 0, 0, 714, 0, 481, 0, 0, 0, 497, 0, 0, 0, 0, 499, 298, 0, 0, 0, 0, 0, 0, 0, 1125, 0, 787, 0, 0, 0, 0, 0, 664, 0, 506, 0, 224, 0, 0, 875, 0, 0, 175, 0, 0, 0, 1416, 0, 0, 0, 0, 0, 0, 0, 0, 1075, 697, 0, 305, 0, 0, 0, 0, 0, 340, 32, 668, 0, 0, 0, 6, 397, 0, 0, 0, 0, 0, 0, 0, 15, 1193, 0, 0, 0, 0, 0, 0, 1350, 1048, 0, 424, 0, 0, 0, 0, 397, 816, 314, 588, 0, 0, 0, 0, 696, 0, 0, 0, 0, 0, 0, 0, 0, 0, 0, 0, 0, 0, 0, 0, 1392, 1079, 0, 180, 0, 0, 0, 0, 666, 864, 0, 0, 0, 0, 0, 0, 675, 0, 0, 0, 0, 0, 0, 0, 0, 0, 0, 0, 0, 0, 0, 0, 1648, 1132, 0, 103, 0, 0, 0, 0, 740, 909, 0, 0, 0, 0, 0, 0, 654, 0, 0, 524, 374, 0, 0, 0, 0, 0, 0, 0, 0, 0, 0, 0, 0, 791, 0, 678, 963, 0, 0, 0, 0, 405, 0, 427, 0, 212, 0, 463, 602, 0, 0, 587, 0, 0, 0, 0, 372, 0, 0, 0, 0, 0, 0, 867, 45, 1158, 0, 651, 0, 0, 288, 0, 0, 529, 193, 419, 0, 0, 0, 511, 519, 0, 0, 527, 0, 0, 0, 0, 459, 0, 0, 0, 0, 0, 0, 1107, 0, 1120, 0, 607, 0, 0, 515, 0, 0, 510, 249, 366, 0, 0, 0, 421, 650, 0, 0, 456, 334, 0, 0, 0, 0, 0, 0, 0, 0, 0, 0, 0, 0, 775, 0, 681, 855, 0, 0, 0, 0, 328, 0, 476, 0, 222, 0, 377, 636, 0, 0, 269, 815, 0, 0, 0, 229, 279, 0, 0, 0, 0, 0, 0, 0, 913, 530, 318, 0, 0, 0, 0, 135, 0, 0, 388, 0, 0, 0, 171, 652, 0, 0, 608, 0, 0, 0, 0, 260, 0, 0, 0, 0, 0, 0, 848, 60, 961, 0, 629, 0, 0, 337, 0, 0, 413, 72, 561, 0, 0, 0, 472, 398, 0, 0, 351, 0, 0, 0, 0, 539, 0, 0, 0, 0, 0, 0, 0, 0, 949, 0, 518, 0, 0, 0, 0, 240, 433, 725, 0, 0, 0, 0, 628, 678, 0, 0, 0, 0, 0, 0, 0, 842, 480, 0, 0, 0, 0, 0, 0, 726, 615, 0, 389, 0, 0, 0, 0, 580, 522, 158, 0, 0, 1234, 0, 0, 696, 0, 0, 278, 1075, 0, 0, 0, 224, 272, 0, 0, 0, 0, 0, 0, 0, 920, 577, 304, 0, 0, 0, 0, 68, 0, 0, 475, 0, 0, 0, 144, 623, 0, 0, 402, 315, 0, 0, 0, 0, 0, 0, 0, 0, 0, 0, 0, 0, 752, 0, 644, 747, 0, 0, 0, 0, 330, 0, 494, 0, 241, 0, 374, 805, 0, 0, 280, 0, 0, 0, 1319, 0, 0, 0, 0, 0, 0, 0, 0, 1252, 656, 0, 384, 0, 0, 0, 0, 0, 346, 294, 770, 0, 0, 0, 0, 727, 0, 0, 315, 0, 0, 0, 973, 0, 0, 0, 0, 0, 0, 0, 0, 945, 821, 0, 368, 0, 0, 0, 0, 0, 459, 174, 553, 0, 0, 0, 41, 374, 0, 0, 474, 0, 0, 0, 0, 505, 0, 0, 0, 0, 0, 0, 0, 0, 1016, 0, 428, 0, 0, 0, 0, 328, 483, 893, 0, 0, 0, 0, 551, 405, 0, 0, 552, 0, 0, 0, 0, 473, 0, 0, 0, 0, 0, 0, 0, 0, 1009, 0, 576, 0, 0, 0, 0, 265, 442, 809, 0, 0, 0, 0, 795, 593, 0, 0, 416, 356, 0, 0, 0, 0, 0, 0, 0, 0, 0, 0, 0, 0, 903, 0, 644, 838, 0, 0, 0, 0, 396, 0, 437, 0, 327, 0, 434, 729, 0, 0, 0, 0, 0, 0, 631, 0, 469, 0, 0, 0, 0, 0, 0, 0, 1131, 0, 235, 0, 0, 0, 0, 0, 551, 0, 0, 0, 825, 0, 399, 635, 0, 0, 1121, 0, 0, 0, 0, 0, 0, 0, 0, 0, 0, 0, 1924, 0, 950, 0, 724, 0, 0, 1550, 0, 0, 280, 0, 783, 0, 0, 0, 495, 683, 0, 0, 807, 0, 0, 0, 0, 315, 0, 0, 0, 0, 0, 0, 1704, 0, 1149, 0, 753, 0, 0, 1132, 0, 0, 388, 486, 563, 0, 0, 0, 472, 758, 0, 0, 0, 0, 0, 0, 0, 1288, 656, 0, 0, 0, 0, 0, 0, 1198, 256, 0, 230, 0, 0, 0, 0, 979, 444, 390, 0, 0, 1786, 0, 0, 731, 142, 0, 176, 1207, 0, 0, 0, 330, 538, 0, 0, 0, 0, 0, 0, 0, 854, 0, 119, 0, 0, 0, 0, 105, 0, 0, 461, 0, 0, 0, 0, 610, 0, 0, 0, 0, 0, 0, 0, 0, 0, 0, 0, 0, 0, 0, 0, 1393, 1044, 0, 115, 0, 0, 0, 0, 674, 864, 0, 0, 0, 0, 0, 0, 525, 0, 0, 210, 0, 0, 0, 63, 93, 258, 0, 0, 159, 0, 0, 0, 0, 1061, 0, 489, 0, 0, 0, 0, 151, 598, 69, 1, 0, 267, 0, 360, 363, 0, 0, 399, 0, 0, 0, 0, 318, 118, 0, 0, 0, 0, 0, 0, 0, 1055, 0, 419, 0, 0, 0, 0, 100, 564, 381, 0, 0, 0, 0, 347, 612, 0, 0, 771, 302, 0, 0, 0, 0, 0, 0, 0, 0, 0, 0, 0, 0, 802, 0, 783, 992, 0, 0, 0, 0, 285, 0, 644, 0, 0, 0, 496, 601, 0, 0, 694, 0, 0, 0, 0, 107, 0, 0, 0, 0, 0, 0, 950, 0, 967, 0, 606, 0, 0, 384, 0, 0, 396, 0, 421, 0, 0, 0, 529, 724, 0, 0, 157, 0, 0, 0, 811, 74, 0, 0, 0, 0, 0, 0, 0, 853, 789, 0, 452, 0, 0, 0, 0, 0, 411, 390, 734, 0, 0, 0, 44, 0, 0, 0, 763, 0, 0, 0, 0, 440, 339, 0, 0, 0, 0, 0, 0, 0, 1159, 0, 771, 0, 0, 0, 0, 0, 654, 0, 478, 0, 174, 0, 0, 510, 0, 0, 0, 0, 0, 0, 0, 339, 1294, 0, 0, 0, 0, 0, 0, 1154, 765, 0, 499, 0, 0, 0, 0, 408, 700, 546, 557, 0, 0, 0, 0, 776, 0, 0, 0, 0, 0, 0, 0, 1066, 573, 0, 0, 0, 0, 0, 0, 947, 434, 0, 290, 0, 0, 0, 0, 792, 498, 369, 0, 0, 1489, 0, 0, 603, 0, 0, 740, 0, 0, 0, 0, 170, 0, 0, 0, 0, 0, 0, 1263, 0, 1051, 0, 595, 0, 0, 715, 0, 0, 486, 0, 476, 0, 0, 0, 498, 691, 0, 0, 0, 0, 0, 0, 0, 889, 531, 0, 0, 0, 0, 0, 0, 767, 549, 0, 198, 0, 0, 0, 0, 609, 508, 211, 0, 0, 1398, 0, 0, 642, 238, 0, 125, 928, 0, 0, 0, 324, 482, 0, 0, 0, 0, 0, 0, 0, 818, 126, 311, 0, 0, 0, 0, 165, 0, 0, 312, 0, 3, 0, 93, 841, 0, 0, 0, 0, 0, 0, 952, 0, 624, 0, 0, 0, 0, 0, 0, 0, 1232, 0, 92, 0, 0, 0, 0, 0, 670, 0, 0, 0, 1156, 0, 415, 653, 0, 0, 0, 0, 0, 0, 0, 0, 0, 0, 0, 0, 0, 0, 0, 1662, 1077, 0, 29, 0, 0, 0, 0, 713, 923, 0, 0, 0, 0, 0, 0, 615, 0, 0, 507, 376, 0, 0, 0, 0, 0, 0, 0, 0, 0, 0, 0, 0, 777, 0, 720, 952, 0, 0, 0, 0, 326, 0, 485, 0, 223, 0, 395, 621, 0, 0, 507, 317, 0, 0, 0, 0, 0, 0, 0, 0, 0, 0, 0, 0, 841, 0, 725, 775, 0, 0, 0, 0, 348, 0, 495, 0, 255, 0, 471, 636, 0, 0, 669, 0, 0, 0, 0, 197, 0, 0, 0, 0, 0, 0, 1159, 5, 964, 0, 665, 0, 0, 668, 0, 0, 433, 0, 535, 0, 0, 0, 414, 385, 0, 0, 553, 0, 0, 0, 0, 500, 0, 0, 0, 0, 0, 0, 0, 0, 1061, 0, 521, 0, 0, 0, 0, 305, 502, 859, 0, 0, 0, 0, 601, 606, 0, 0, 936, 0, 0, 0, 0, 54, 0, 0, 0, 0, 0, 0, 1556, 0, 977, 0, 644, 0, 0, 1131, 0, 0, 340, 76, 648, 0, 0, 0, 481, 77, 0, 0, 318, 0, 0, 0, 0, 429, 477, 0, 0, 0, 0, 0, 0, 155, 1107, 0, 518, 0, 0, 0, 0, 91, 695, 0, 380, 0, 0, 0, 0, 430, 0, 0, 643, 0, 0, 0, 0, 482, 0, 0, 0, 0, 0, 0, 0, 0, 951, 0, 492, 0, 0, 0, 0, 200, 402, 1052, 0, 0, 0, 0, 876, 631, 0, 0, 0, 0, 0, 0, 0, 0, 0, 0, 0, 0, 0, 0, 0, 1000, 1102, 0, 214, 0, 0, 0, 0, 565, 733, 0, 0, 0, 0, 0, 0, 617, 0, 0, 431, 469, 0, 0, 0, 0, 0, 0, 0, 0, 0, 0, 0, 0, 827, 0, 679, 1067, 0, 0, 0, 0, 329, 0, 444, 0, 349, 0, 392, 600, 0, 0, 419, 382, 0, 0, 0, 0, 0, 0, 0, 0, 0, 0, 0, 0, 800, 0, 704, 889, 0, 0, 0, 0, 351, 0, 436, 0, 314, 0, 395, 689, 0, 0, 0, 0, 0, 0, 317, 156, 392, 0, 0, 103, 0, 0, 0, 0, 1038, 0, 510, 0, 0, 0, 0, 35, 545, 0, 0, 0, 752, 0, 470, 756, 151, 0, 171, 1124, 0, 0, 0, 366, 478, 0, 0, 0, 0, 0, 0, 0, 910, 0, 151, 0, 0, 0, 0, 97, 0, 0, 428, 0, 0, 0, 75, 163, 0, 0, 450, 0, 0, 0, 0, 497, 191, 0, 0, 0, 0, 0, 0, 0, 1070, 0, 587, 0, 0, 0, 0, 195, 607, 234, 184, 0, 0, 0, 211, 755, 89, 0, 121, 1178, 0, 0, 0, 382, 528, 0, 0, 0, 0, 0, 0, 0, 892, 0, 165, 0, 0, 0, 0, 100, 0, 0, 456, 0, 0, 0, 0, 405, 0, 0, 646, 0, 0, 0, 0, 545, 0, 0, 0, 0, 0, 0, 0, 0, 1005, 0, 587, 0, 0, 0, 0, 233, 365, 1015, 0, 0, 0, 0, 877, 0, 0, 0, 857, 0, 0, 0, 0, 316, 369, 0, 0, 0, 0, 0, 0, 0, 1130, 0, 747, 0, 0, 0, 0, 0, 729, 0, 547, 0, 216, 0, 0, 746, 0, 0, 269, 0, 0, 0, 1253, 0, 0, 0, 0, 0, 0, 0, 0, 1146, 763, 0, 290, 0, 0, 0, 0, 0, 429, 154, 577, 0, 0, 0, 0, 0, 0, 0, 626, 0, 0, 0, 0, 437, 319, 0, 0, 0, 0, 0, 0, 0, 1112, 0, 753, 0, 0, 0, 0, 0, 652, 0, 559, 0, 174, 0, 0, 730, 104, 0, 166, 1199, 0, 0, 0, 305, 513, 0, 0, 0, 0, 0, 0, 0, 855, 0, 155, 0, 0, 0, 0, 84, 0, 0, 452, 0, 0, 0, 0, 769, 0, 0, 0, 0, 0, 0, 857, 0, 504, 0, 0, 0, 0, 0, 0, 0, 1193, 0, 136, 0, 0, 0, 0, 0, 561, 0, 0, 0, 1015, 0, 444, 743, 0, 0, 0, 0, 0, 0, 857, 0, 492, 0, 0, 0, 0, 0, 0, 0, 1108, 0, 242, 0, 0, 0, 0, 0, 619, 0, 0, 0, 881, 0, 416, 783, 0, 0, 0, 0, 0, 0, 0, 475, 543, 0, 0, 0, 0, 0, 0, 451, 700, 0, 373, 0, 0, 0, 0, 345, 524, 66, 0, 0, 1403, 0, 0, 717, 143, 0, 182, 1095, 0, 0, 0, 382, 547, 0, 0, 0, 0, 0, 0, 0, 896, 100, 185, 0, 0, 0, 0, 136, 0, 0, 447, 0, 0, 0, 34, 419, 0, 0, 579, 0, 0, 0, 0, 527, 0, 0, 0, 0, 0, 0, 0, 0, 1054, 0, 545, 0, 0, 0, 0, 236, 434, 939, 0, 0, 0, 0, 794, 537, 0, 0, 514, 0, 0, 0, 0, 469, 0, 0, 0, 0, 0, 0, 1104, 0, 1119, 0, 635, 0, 0, 402, 0, 86, 523, 487, 234, 0, 0, 0, 518, 712, 176, 0, 182, 1159, 0, 0, 0, 339, 512, 0, 0, 0, 0, 0, 0, 0, 865, 0, 177, 0, 0, 0, 0, 118, 0, 0, 437, 0, 0, 0, 9, 646, 0, 0, 791, 0, 0, 0, 0, 126, 0, 0, 0, 0, 0, 0, 1359, 0, 1025, 0, 578, 0, 0, 866, 0, 0, 465, 0, 545, 0, 0, 0, 444, 881, 0, 0, 0, 0, 0, 0, 936, 0, 595, 0, 0, 0, 0, 0, 0, 0, 1285, 0, 147, 0, 0, 0, 0, 0, 664, 0, 0, 0, 1099, 0, 352, 644, 0, 0, 418, 331, 0, 0, 0, 0, 0, 0, 0, 0, 0, 0, 0, 0, 800, 0, 728, 746, 0, 0, 0, 0, 291, 0, 544, 0, 236, 0, 444, 609, 0, 0, 0, 0, 0, 0, 0, 0, 0, 0, 0, 0, 0, 0, 0, 1635, 1035, 0, 60, 0, 0, 0, 0, 750, 861, 0, 0, 0, 0, 0, 0, 846, 0, 0, 0, 0, 0, 0, 951, 0, 627, 0, 0, 0, 0, 0, 0, 0, 1231, 0, 103, 0, 0, 0, 0, 0, 591, 0, 0, 0, 1167, 0, 452, 592, 0, 0, 954, 0, 0, 0, 0, 81, 0, 0, 0, 0, 0, 0, 1501, 0, 1037, 0, 704, 0, 0, 1058, 0, 0, 339, 12, 670, 0, 0, 0, 483, 350, 0, 0, 0, 0, 0, 0, 0, 96, 1380, 0, 0, 0, 0, 0, 0, 1225, 988, 0, 492, 0, 0, 0, 0, 359, 767, 574, 662, 0, 0, 0, 0, 762, 0, 0, 0, 0, 0, 0, 0, 854, 529, 0, 0, 0, 0, 0, 0, 692, 621, 0, 241, 0, 0, 0, 0, 649, 598, 104, 0, 0, 1257, 0, 0, 624, 37, 0, 237, 848, 0, 0, 0, 379, 332, 0, 0, 0, 0, 0, 0, 0, 1040, 447, 403, 0, 0, 0, 0, 114, 0, 0, 407, 0, 0, 0, 270, 540, 0, 0, 0, 0, 0, 0, 0, 0, 0, 0, 0, 0, 0, 0, 0, 581, 1109, 0, 296, 0, 0, 0, 0, 498, 775, 0, 0, 0, 0, 0, 0, 463, 0, 0, 89, 0, 0, 0, 0, 541, 329, 0, 0, 0, 0, 0, 0, 171, 1065, 0, 485, 0, 0, 0, 0, 333, 618, 479, 122, 0, 1, 0, 246, 531, 0, 0, 610, 0, 0, 0, 0, 311, 0, 0, 0, 0, 0, 0, 982, 0, 1054, 71, 657, 0, 0, 331, 0, 0, 418, 251, 369, 0, 0, 0, 532, 721, 0, 0, 0, 0, 0, 0, 503, 0, 483, 0, 0, 0, 0, 0, 0, 0, 1121, 0, 436, 0, 0, 0, 0, 0, 571, 0, 0, 0, 796, 0, 421, 593, 0, 0, 795, 0, 0, 0, 0, 239, 0, 0, 0, 0, 0, 0, 1537, 0, 1121, 0, 593, 0, 0, 1021, 0, 0, 447, 110, 531, 0, 0, 0, 411, 0, 0, 0, 496, 0, 0, 0, 0, 484, 318, 0, 0, 0, 0, 0, 0, 0, 1128, 0, 718, 0, 0, 0, 0, 0, 648, 0, 506, 0, 206, 0, 0, 787, 0, 0, 0, 0, 0, 0, 0, 1086, 707, 0, 0, 0, 0, 0, 0, 956, 405, 0, 281, 0, 0, 0, 0, 880, 521, 174, 0, 0, 1608, 0, 0, 0, 0, 0, 764, 0, 0, 0, 0, 377, 343, 0, 0, 0, 0, 0, 0, 0, 1127, 0, 781, 0, 0, 0, 0, 0, 726, 0, 544, 0, 246, 0, 0, 0, 0, 0, 682, 0, 0, 0, 0, 446, 354, 0, 0, 0, 0, 0, 0, 0, 1145, 0, 661, 0, 0, 0, 0, 0, 681, 0, 448, 0, 199, 0, 0, 585, 0, 0, 814, 0, 0, 0, 0, 225, 0, 0, 0, 0, 0, 0, 1613, 0, 1046, 0, 623, 0, 0, 1113, 0, 0, 416, 242, 519, 0, 0, 0, 482, 353, 0, 0, 592, 0, 0, 0, 0, 485, 0, 0, 0, 0, 0, 0, 0, 0, 1015, 0, 574, 0, 0, 0, 0, 325, 431, 823, 0, 0, 0, 0, 675, 715, 0, 0, 0, 0, 0, 0, 0, 629, 398, 0, 0, 0, 0, 0, 0, 320, 716, 122, 494, 0, 0, 0, 0, 503, 539, 14, 205, 0, 1085, 0, 0, 670, 0, 0, 722, 556, 0, 0, 0, 0, 0, 0, 0, 0, 0, 0, 0, 0, 790, 0, 758, 1320, 0, 0, 0, 0, 288, 0, 600, 0, 0, 0, 419, 707, 221, 0, 153, 1114, 0, 0, 0, 387, 511, 0, 0, 0, 0, 0, 0, 0, 862, 0, 163, 0, 0, 0, 0, 158, 0, 0, 426, 0, 0, 0, 8, 601, 0, 0, 655, 0, 0, 0, 0, 183, 0, 0, 0, 0, 0, 0, 1256, 0, 986, 0, 676, 0, 0, 723, 0, 0, 378, 33, 462, 0, 0, 0, 517, 714, 0, 0, 0, 0, 0, 0, 0, 1135, 523, 0, 0, 0, 0, 0, 0, 977, 462, 0, 278, 0, 0, 0, 0, 792, 472, 305, 0, 0, 1454, 0, 0, 0, 0, 0, 758, 0, 0, 0, 0, 403, 376, 0, 0, 0, 0, 0, 0, 0, 1070, 0, 752, 0, 0, 0, 0, 0, 669, 0, 531, 0, 197, 0, 0, 637, 0, 0, 805, 0, 0, 0, 0, 198, 0, 0, 0, 0, 0, 0, 1507, 0, 1099, 0, 641, 0, 0, 975, 0, 0, 547, 0, 486, 0, 0, 0, 419, 698, 0, 0, 355, 488, 0, 0, 0, 0, 0, 0, 0, 0, 0, 0, 0, 0, 757, 0, 653, 1106, 0, 0, 0, 0, 318, 0, 489, 0, 315, 0, 406, 651, 0, 0, 0, 0, 0, 0, 0, 855, 387, 0, 0, 0, 0, 0, 0, 521, 708, 0, 408, 0, 0, 0, 0, 583, 509, 321, 0, 0, 1048, 0, 0, 789, 0, 0, 290, 0, 0, 0, 1428, 0, 0, 0, 0, 0, 0, 0, 0, 1114, 658, 0, 371, 0, 0, 0, 0, 0, 271, 310, 761, 0, 0, 0, 0, 752, 0, 0, 412, 0, 0, 0, 1138, 0, 0, 0, 0, 0, 0, 0, 0, 885, 821, 0, 518, 0, 0, 0, 0, 0, 349, 466, 674, 0, 0, 0, 123, 0, 0, 0, 616, 0, 0, 0, 0, 423, 331, 0, 0, 0, 0, 0, 0, 0, 1113, 0, 743, 0, 0, 0, 0, 0, 656, 0, 511, 0, 213, 0, 0, 0, 0, 0, 679, 0, 0, 0, 0, 413, 340, 0, 0, 0, 0, 0, 0, 0, 1147, 0, 818, 0, 0, 0, 0, 0, 701, 0, 578, 0, 223, 0, 0, 744, 0, 0, 149, 0, 0, 0, 958, 0, 0, 0, 0, 0, 0, 0, 0, 1123, 805, 0, 428, 0, 0, 0, 0, 0, 429, 355, 512, 0, 0, 0, 0, 716, 133, 0, 209, 1197, 0, 0, 0, 386, 525, 0, 0, 0, 0, 0, 0, 0, 984, 50, 189, 0, 0, 0, 0, 130, 0, 0, 465, 0, 0, 0, 7, 792, 0, 0, 0, 0, 0, 0, 909, 0, 543, 0, 0, 0, 0, 0, 0, 0, 1184, 0, 69, 0, 0, 0, 0, 0, 608, 0, 0, 0, 1117, 0, 374, 358, 0, 0, 0, 0, 0, 0, 0, 92, 1489, 0, 0, 0, 0, 0, 0, 1267, 947, 0, 507, 0, 0, 0, 0, 310, 777, 557, 676, 0, 0, 0, 0, 660, 0, 0, 0, 0, 0, 0, 0, 0, 0, 0, 0, 0, 0, 0, 0, 1625, 1074, 0, 147, 0, 0, 0, 0, 761, 907, 0, 0, 0, 0, 0, 0, 688, 0, 0, 534, 0, 0, 0, 0, 324, 0, 0, 0, 0, 0, 0, 842, 188, 1117, 0, 730, 0, 0, 311, 0, 0, 483, 0, 555, 0, 0, 0, 456, 568, 0, 0, 0, 0, 0, 0, 0, 0, 0, 0, 0, 0, 0, 0, 0, 1254, 1090, 0, 198, 0, 0, 0, 0, 684, 828, 0, 0, 0, 0, 0, 0, 618, 0, 0, 180, 30, 0, 0, 68, 159, 211, 0, 0, 0, 0, 0, 0, 0, 1082, 0, 431, 0, 0, 0, 0, 69, 402, 48, 44, 0, 178, 0, 492, 593, 0, 0, 523, 0, 0, 0, 0, 40, 0, 0, 0, 0, 0, 0, 240, 0, 900, 0, 668, 217, 0, 0, 0, 0, 417, 0, 515, 0, 0, 0, 433, 857, 0, 0, 0, 0, 0, 0, 1049, 0, 635, 0, 0, 0, 0, 0, 0, 0, 1252, 0, 145, 0, 0, 0, 0, 0, 649, 0, 0, 0, 1237, 0, 439, 880, 0, 0, 270, 0, 0, 0, 1525, 0, 0, 0, 0, 0, 0, 0, 0, 1654, 676, 0, 227, 0, 0, 0, 0, 0, 368, 67, 803, 0, 0, 0, 0, 146, 0, 0, 313, 0, 0, 0, 0, 459, 438, 0, 0, 0, 0, 0, 0, 52, 985, 0, 575, 0, 0, 0, 0, 176, 606, 117, 365, 0, 124, 0, 34, 654, 0, 0, 0, 0, 0, 0, 0, 721, 470, 0, 0, 0, 0, 0, 0, 526, 940, 0, 517, 0, 0, 0, 0, 471, 638, 357, 175, 0, 690, 0, 152, 604, 0, 0, 55, 0, 0, 0, 0, 405, 529, 0, 0, 0, 0, 0, 475, 300, 1084, 0, 544, 0, 0, 0, 0, 119, 665, 299, 418, 0, 0, 0, 77, 0, 0, 0, 711, 0, 0, 0, 0, 423, 358, 0, 0, 0, 0, 0, 0, 0, 1175, 0, 825, 0, 0, 0, 0, 0, 711, 0, 585, 0, 243, 0, 0, 631, 0, 0, 529, 403, 0, 0, 0, 0, 0, 0, 0, 0, 0, 0, 0, 0, 751, 0, 730, 1041, 0, 0, 0, 0, 323, 0, 555, 0, 181, 0, 373, 736, 65, 0, 131, 1126, 0, 0, 0, 344, 482, 0, 0, 0, 0, 0, 0, 0, 909, 49, 195, 0, 0, 0, 0, 121, 0, 0, 430, 0, 0, 0, 39, 730, 101, 0, 128, 1170, 0, 0, 0, 345, 518, 0, 0, 0, 0, 0, 0, 0, 870, 13, 174, 0, 0, 0, 0, 121, 0, 0, 435, 0, 0, 0, 0, 632, 0, 0, 857, 0, 0, 0, 0, 39, 0, 0, 0, 0, 0, 0, 1487, 43, 915, 0, 632, 0, 0, 1074, 0, 0, 342, 0, 623, 0, 0, 0, 427, 780, 0, 0, 130, 1390, 0, 0, 0, 257, 523, 0, 0, 0, 0, 0, 0, 0, 904, 283, 182, 0, 0, 0, 0, 65, 0, 0, 495, 0, 0, 0, 10, 592, 0, 0, 0, 0, 0, 0, 0, 0, 0, 0, 0, 0, 0, 0, 0, 1115, 1048, 0, 163, 0, 0, 0, 0, 578, 829, 0, 0, 0, 0, 0, 0, 757, 0, 0, 382, 0, 0, 0, 995, 0, 0, 0, 0, 0, 0, 0, 0, 946, 755, 0, 553, 0, 0, 0, 0, 0, 314, 366, 727, 0, 0, 0, 159, 609, 0, 0, 403, 0, 0, 0, 842, 81, 0, 0, 0, 0, 0, 0, 0, 765, 840, 0, 591, 0, 0, 0, 0, 0, 333, 459, 669, 0, 0, 0, 228, 795, 0, 0, 0, 0, 0, 0, 630, 0, 670, 0, 0, 0, 0, 0, 0, 0, 1181, 0, 275, 0, 0, 0, 0, 0, 546, 0, 0, 0, 1138, 0, 436, 656, 0, 0, 586, 312, 0, 0, 0, 0, 0, 0, 0, 0, 0, 0, 0, 0, 672, 0, 755, 867, 0, 0, 0, 0, 254, 0, 589, 0, 14, 0, 406, 489, 0, 0, 413, 0, 0, 0, 0, 542, 0, 0, 0, 0, 0, 0, 0, 0, 1034, 0, 505, 0, 0, 0, 0, 281, 533, 654, 0, 0, 0, 0, 571, 420, 0, 0, 0, 0, 0, 0, 0, 205, 1167, 0, 0, 0, 0, 0, 0, 1131, 989, 0, 453, 0, 0, 0, 0, 301, 764, 468, 597, 0, 0, 0, 0, 568, 0, 0, 91, 0, 0, 0, 0, 0, 0, 0, 0, 0, 0, 0, 0, 669, 963, 10, 126, 0, 0, 0, 0, 358, 453, 0, 350, 0, 0, 0, 0, 387, 0, 0, 0, 0, 0, 0, 0, 199, 847, 0, 0, 0, 0, 0, 0, 827, 891, 0, 531, 0, 0, 0, 0, 451, 684, 347, 569, 0, 0, 0, 0, 765, 33, 0, 191, 1359, 0, 0, 0, 246, 530, 0, 0, 0, 0, 0, 0, 0, 885, 85, 178, 0, 0, 0, 0, 69, 0, 0, 466, 0, 0, 0, 18, 781, 0, 0, 446, 0, 0, 0, 1159, 0, 0, 0, 0, 0, 0, 0, 0, 1202, 723, 0, 518, 0, 0, 0, 0, 0, 349, 458, 813, 0, 0, 0, 0, 405, 0, 0, 547, 0, 0, 0, 0, 498, 0, 0, 0, 0, 0, 0, 0, 0, 1090, 0, 471, 0, 0, 0, 0, 243, 458, 785, 0, 0, 0, 0, 593, 766, 88, 0, 131, 1113, 0, 0, 0, 360, 528, 0, 0, 0, 0, 0, 0, 0, 928, 0, 245, 0, 0, 0, 0, 136, 0, 0, 450, 0, 0, 0, 51, 0, 0, 0, 560, 0, 0, 0, 0, 481, 297, 0, 0, 0, 0, 0, 0, 0, 1118, 0, 756, 0, 0, 0, 0, 0, 644, 0, 522, 0, 240, 0, 0, 589, 0, 0, 0, 0, 0, 0, 0, 0, 0, 0, 0, 0, 0, 0, 0, 1145, 1132, 0, 90, 0, 0, 0, 0, 598, 857, 0, 0, 0, 0, 0, 0, 633, 70, 0, 138, 904, 0, 0, 0, 358, 426, 0, 0, 0, 0, 0, 0, 0, 967, 492, 327, 0, 0, 0, 0, 127, 0, 0, 451, 0, 0, 0, 142, 717, 0, 0, 311, 0, 0, 0, 910, 0, 0, 0, 0, 0, 0, 0, 0, 589, 822, 0, 629, 0, 0, 0, 0, 0, 378, 123, 610, 0, 0, 0, 235, 682, 313, 0, 250, 804, 0, 0, 0, 358, 473, 0, 0, 0, 0, 0, 0, 0, 940, 0, 309, 0, 0, 0, 0, 196, 0, 0, 411, 0, 0, 0, 175, 621, 0, 0, 0, 0, 0, 0, 0, 0, 0, 0, 0, 0, 0, 0, 0, 1594, 1079, 0, 140, 0, 0, 0, 0, 733, 870, 0, 0, 0, 0, 0, 0, 702, 0, 0, 0, 0, 0, 0, 0, 0, 0, 0, 0, 0, 0, 0, 0, 1241, 1078, 0, 263, 0, 0, 0, 0, 572, 776, 0, 0, 0, 0, 0, 0, 367, 0, 0, 0, 0, 0, 0, 0, 165, 1412, 0, 0, 0, 0, 0, 0, 1391, 884, 0, 504, 0, 0, 0, 0, 380, 726, 721, 708, 0, 0, 0, 0, 650, 0, 0, 152, 964, 0, 0, 0, 342, 418, 0, 0, 0, 0, 0, 0, 0, 1001, 538, 154, 0, 0, 0, 0, 149, 0, 0, 382, 0, 0, 0, 68, 471, 0, 0, 371, 0, 0, 0, 0, 312, 232, 0, 0, 0, 0, 0, 0, 0, 1050, 0, 451, 0, 0, 0, 0, 202, 539, 734, 0, 0, 0, 0, 442, 697, 0, 0, 0, 0, 0, 0, 0, 0, 0, 0, 0, 0, 0, 0, 0, 1857, 1118, 0, 75, 0, 0, 0, 0, 761, 914, 0, 0, 0, 0, 0, 0, 637, 46, 0, 148, 1023, 0, 0, 0, 268, 439, 0, 0, 0, 0, 0, 0, 0, 845, 160, 285, 0, 0, 0, 0, 164, 0, 0, 390, 0, 0, 0, 114, 619, 0, 0, 0, 303, 0, 0, 0, 0, 222, 0, 0, 0, 0, 0, 0, 0, 817, 50, 616, 466, 0, 0, 0, 165, 406, 0, 175, 0, 802, 0, 211, 610, 0, 0, 0, 0, 0, 0, 321, 150, 361, 0, 0, 0, 0, 0, 0, 0, 1162, 0, 395, 0, 0, 0, 0, 61, 618, 0, 0, 0, 758, 0, 426, 796, 0, 0, 0, 0, 0, 0, 0, 711, 639, 0, 0, 0, 0, 0, 0, 530, 515, 0, 235, 0, 0, 0, 0, 571, 528, 0, 0, 0, 1534, 0, 0, 295, 0, 0, 0, 0, 0, 0, 0, 0, 1763, 0, 0, 0, 0, 0, 0, 1836, 920, 0, 592, 0, 0, 0, 0, 454, 866, 722, 860, 0, 0, 0, 0, 661, 0, 0, 550, 0, 0, 0, 0, 0, 0, 0, 0, 0, 0, 0, 1085, 16, 901, 0, 665, 0, 0, 585, 0, 0, 354, 0, 496, 0, 0, 0, 410, 688, 0, 0, 1040, 0, 0, 0, 0, 60, 0, 0, 0, 0, 0, 0, 1772, 0, 1046, 0, 714, 0, 0, 1387, 0, 0, 388, 0, 737, 0, 0, 0, 425, 727, 0, 0, 0, 0, 0, 0, 0, 0, 0, 0, 0, 0, 0, 0, 0, 1843, 1022, 0, 73, 0, 0, 0, 0, 724, 893, 0, 0, 0, 0, 0, 0, 0, 0, 0, 696, 0, 0, 0, 0, 440, 340, 0, 0, 0, 0, 0, 0, 0, 1149, 0, 802, 0, 0, 0, 0, 0, 675, 0, 589, 0, 254, 0, 0, 113, 0, 0, 0, 0, 0, 0, 0, 275, 802, 0, 0, 0, 0, 0, 0, 532, 991, 0, 547, 0, 0, 0, 0, 160, 699, 79, 534, 0, 0, 0, 0, 659, 0, 0, 0, 0, 0, 0, 0, 0, 0, 0, 0, 0, 0, 0, 0, 1451, 1081, 0, 218, 0, 0, 0, 0, 706, 888, 0, 0, 0, 0, 0, 0, 348, 0, 0, 0, 0, 0, 0, 0, 197, 1150, 0, 0, 0, 0, 0, 0, 1021, 959, 0, 524, 0, 0, 0, 0, 419, 752, 452, 567, 0, 0, 0, 0, 767, 0, 0, 265, 0, 0, 0, 1062, 0, 0, 0, 0, 0, 0, 0, 0, 828, 797, 0, 529, 0, 0, 0, 0, 0, 414, 310, 553, 0, 0, 0, 153, 661, 0, 0, 502, 427, 0, 0, 0, 0, 0, 0, 0, 0, 0, 0, 0, 0, 828, 0, 723, 992, 0, 0, 0, 0, 311, 0, 502, 0, 316, 0, 441, 695, 0, 0, 768, 0, 0, 0, 0, 189, 0, 0, 0, 0, 0, 0, 1403, 32, 1062, 0, 638, 0, 0, 888, 0, 0, 426, 60, 537, 0, 0, 0, 492, 0, 0, 0, 520, 0, 0, 0, 0, 460, 317, 0, 0, 0, 0, 0, 0, 0, 1052, 0, 664, 0, 0, 0, 0, 0, 653, 0, 544, 0, 125, 0, 0, 427, 0, 0, 450, 0, 0, 0, 0, 556, 0, 0, 0, 0, 0, 0, 0, 0, 1011, 0, 559, 0, 0, 0, 0, 304, 503, 674, 0, 0, 0, 0, 662, 401, 0, 0, 540, 0, 0, 0, 0, 510, 0, 0, 0, 0, 0, 0, 0, 0, 1021, 0, 499, 0, 0, 0, 0, 231, 428, 904, 0, 0, 0, 0, 711, 667, 0, 0, 0, 0, 0, 0, 0, 0, 0, 0, 0, 0, 0, 0, 0, 1895, 1066, 0, 83, 0, 0, 0, 0, 767, 871, 0, 0, 0, 0, 0, 0, 812, 0, 0, 0, 0, 0, 0, 0, 676, 638, 0, 0, 0, 0, 0, 0, 703, 629, 0, 192, 0, 0, 0, 0, 531, 564, 0, 0, 0, 1589, 0, 0, 710, 133, 0, 183, 1104, 0, 0, 0, 333, 528, 0, 0, 0, 0, 0, 0, 0, 861, 25, 200, 0, 0, 0, 0, 174, 0, 0, 412, 0, 0, 0, 60, 700, 133, 0, 114, 1117, 0, 0, 0, 336, 491, 0, 0, 0, 0, 0, 0, 0, 873, 24, 227, 0, 0, 0, 0, 160, 0, 0, 396, 0, 0, 0, 40, 715, 0, 0, 0, 0, 0, 0, 0, 1047, 618, 0, 0, 0, 0, 0, 0, 827, 532, 0, 361, 0, 0, 0, 0, 784, 521, 325, 0, 0, 1374, 0, 0, 0, 0, 0, 843, 0, 0, 0, 0, 439, 317, 0, 0, 0, 0, 0, 0, 0, 1178, 0, 881, 0, 0, 0, 0, 0, 738, 0, 613, 0, 294, 0, 0, 604, 0, 0, 384, 0, 0, 0, 623, 57, 0, 0, 0, 0, 0, 0, 0, 600, 842, 0, 612, 0, 0, 0, 0, 0, 390, 45, 748, 0, 0, 0, 211, 773, 0, 0, 421, 0, 0, 0, 1325, 0, 0, 0, 0, 0, 0, 0, 0, 1147, 741, 0, 403, 0, 0, 0, 0, 0, 348, 423, 690, 0, 0, 0, 27, 624, 0, 0, 477, 322, 0, 0, 0, 0, 0, 0, 0, 0, 0, 0, 0, 0, 869, 0, 657, 881, 0, 0, 0, 0, 365, 0, 469, 0, 298, 0, 404, 331, 0, 0, 0, 0, 0, 0, 0, 0, 1753, 0, 0, 0, 0, 0, 0, 1558, 882, 0, 536, 0, 0, 0, 0, 309, 795, 689, 785, 0, 0, 0, 0, 718, 0, 0, 93, 1295, 0, 0, 0, 278, 483, 0, 0, 0, 0, 0, 0, 0, 876, 359, 200, 0, 0, 0, 0, 84, 0, 0, 428, 0, 0, 0, 69, 386, 0, 0, 0, 0, 0, 0, 0, 212, 1055, 0, 0, 0, 0, 0, 0, 1101, 1022, 0, 517, 0, 0, 0, 0, 441, 796, 343, 567, 0, 0, 0, 0, 629, 0, 0, 647, 0, 0, 0, 0, 168, 0, 0, 0, 0, 0, 0, 1212, 0, 985, 0, 690, 0, 0, 677, 0, 0, 350, 220, 480, 0, 0, 0, 535, 689, 0, 0, 225, 929, 0, 0, 0, 280, 324, 0, 0, 0, 0, 0, 0, 0, 952, 544, 260, 0, 0, 0, 0, 126, 0, 0, 410, 0, 0, 0, 132, 771, 0, 0, 0, 0, 0, 0, 801, 0, 486, 0, 0, 0, 0, 0, 0, 0, 1183, 0, 211, 0, 0, 0, 0, 0, 630, 0, 0, 0, 975, 0, 394, 527, 0, 0, 658, 0, 0, 0, 0, 303, 0, 0, 0, 0, 0, 0, 1386, 0, 1082, 0, 582, 0, 0, 859, 0, 0, 478, 28, 472, 0, 0, 0, 418, 429, 0, 0, 563, 0, 0, 0, 0, 561, 0, 0, 0, 0, 0, 0, 0, 0, 1086, 0, 456, 0, 0, 0, 0, 249, 496, 909, 0, 0, 0, 0, 639, 356, 0, 0, 0, 0, 0, 0, 0, 0, 1792, 0, 0, 0, 0, 0, 0, 1869, 892, 0, 567, 0, 0, 0, 0, 447, 867, 692, 823, 0, 0, 0, 0, 742, 155, 0, 205, 1157, 0, 0, 0, 345, 574, 0, 0, 0, 0, 0, 0, 0, 869, 0, 193, 0, 0, 0, 0, 168, 0, 0, 442, 0, 0, 0, 25, 739, 0, 0, 0, 0, 0, 0, 333, 0, 319, 0, 0, 0, 0, 0, 0, 0, 1058, 0, 375, 0, 0, 0, 0, 0, 512, 0, 29, 0, 775, 0, 393, 675, 0, 0, 0, 0, 0, 0, 0, 0, 0, 0, 0, 0, 0, 0, 0, 1365, 1000, 0, 216, 0, 0, 0, 0, 554, 778, 0, 0, 0, 0, 0, 0, 601, 0, 0, 895, 0, 0, 0, 0, 62, 0, 0, 0, 0, 0, 0, 1368, 0, 1062, 0, 638, 0, 0, 875, 0, 0, 409, 0, 620, 0, 0, 0, 410, 632, 0, 0, 0, 0, 0, 0, 0, 0, 0, 0, 0, 0, 0, 0, 0, 1170, 1060, 0, 219, 0, 0, 0, 0, 619, 811, 0, 0, 0, 0, 0, 0, 716, 0, 0, 0, 0, 0, 0, 0, 1000, 561, 0, 0, 0, 0, 0, 0, 736, 543, 0, 402, 0, 0, 0, 0, 758, 514, 265, 0, 0, 1300, 0, 0, 819, 0, 0, 0, 0, 0, 0, 0, 1011, 570, 0, 0, 0, 0, 0, 0, 986, 329, 0, 286, 0, 0, 0, 0, 819, 425, 239, 0, 0, 1622, 0, 0, 636, 0, 0, 378, 0, 0, 0, 0, 468, 66, 0, 0, 0, 0, 0, 736, 95, 1074, 0, 556, 0, 0, 161, 0, 100, 542, 91, 414, 0, 81, 0, 337, 418, 0, 0, 545, 0, 0, 0, 0, 507, 0, 0, 0, 0, 0, 0, 0, 0, 1039, 0, 598, 0, 0, 0, 0, 260, 461, 742, 0, 0, 0, 0, 710, 743, 0, 0, 385, 0, 0, 0, 985, 0, 0, 0, 0, 0, 0, 0, 0, 1191, 757, 0, 430, 0, 0, 0, 0, 0, 366, 401, 627, 0, 0, 0, 12, 430, 0, 0, 462, 0, 0, 0, 0, 546, 0, 0, 0, 0, 0, 0, 0, 0, 1103, 0, 510, 0, 0, 0, 0, 266, 528, 771, 0, 0, 0, 0, 701, 649, 0, 0, 658, 0, 0, 0, 0, 55, 0, 0, 0, 0, 0, 0, 924, 0, 923, 0, 643, 4, 0, 472, 0, 0, 434, 0, 570, 0, 0, 0, 356, 696, 0, 0, 0, 0, 0, 0, 0, 678, 500, 0, 0, 0, 0, 0, 0, 523, 712, 0, 240, 0, 0, 0, 0, 478, 573, 82, 0, 0, 1154, 0, 0, 472, 0, 0, 132, 0, 0, 0, 0, 49, 132, 0, 0, 0, 0, 0, 0, 460, 1124, 0, 398, 0, 0, 0, 0, 509, 731, 0, 66, 0, 0, 0, 90, 0, 0, 0, 761, 0, 0, 0, 0, 444, 351, 0, 0, 0, 0, 0, 0, 0, 1133, 0, 836, 0, 0, 0, 0, 0, 689, 0, 538, 0, 182, 0, 0, 633, 0, 0, 287, 0, 0, 0, 768, 81, 0, 0, 0, 0, 0, 0, 0, 768, 831, 0, 522, 0, 0, 0, 0, 0, 410, 526, 577, 0, 0, 0, 141, 648, 277, 0, 314, 880, 0, 0, 0, 390, 488, 0, 0, 0, 0, 0, 0, 0, 997, 163, 303, 0, 0, 0, 0, 261, 0, 0, 390, 0, 0, 0, 98, 639, 0, 0, 494, 434, 0, 0, 0, 0, 0, 0, 0, 0, 0, 0, 0, 0, 762, 0, 712, 1114, 0, 0, 0, 0, 316, 0, 416, 0, 259, 0, 424, 640, 0, 0, 140, 224, 0, 0, 0, 0, 2, 0, 0, 0, 0, 0, 0, 0, 930, 0, 576, 489, 0, 0, 0, 0, 475, 0, 284, 0, 453, 0, 407, 659, 0, 0, 0, 0, 0, 0, 0, 0, 0, 0, 0, 0, 0, 0, 0, 1196, 969, 0, 235, 0, 0, 0, 0, 546, 785, 0, 0, 0, 0, 0, 0, 658, 0, 0, 244, 355, 0, 0, 0, 0, 0, 0, 0, 0, 0, 0, 0, 0, 805, 0, 576, 901, 0, 0, 0, 0, 382, 0, 276, 0, 450, 0, 443, 805, 0, 0, 0, 0, 0, 0, 873, 0, 614, 0, 0, 0, 0, 0, 0, 0, 1208, 0, 208, 0, 0, 0, 0, 0, 605, 0, 0, 0, 1117, 0, 465, 673, 0, 0, 183, 111, 0, 0, 0, 0, 0, 0, 0, 0, 0, 0, 0, 0, 892, 0, 486, 552, 0, 0, 0, 0, 462, 0, 271, 0, 407, 0, 404, 709, 160, 0, 187, 1146, 0, 0, 0, 335, 484, 0, 0, 0, 0, 0, 0, 0, 924, 267, 228, 0, 0, 0, 0, 86, 0, 0, 450, 0, 0, 0, 115, 702, 0, 0, 0, 0, 0, 0, 684, 0, 356, 0, 0, 0, 0, 0, 0, 0, 1133, 0, 329, 0, 0, 0, 0, 0, 619, 0, 0, 0, 816, 0, 403, 650, 0, 0, 834, 0, 0, 0, 0, 139, 0, 0, 0, 0, 0, 0, 1649, 0, 960, 0, 650, 0, 0, 1225, 0, 0, 378, 0, 699, 0, 0, 0, 360, 733, 101, 0, 158, 1246, 0, 0, 0, 318, 523, 0, 0, 0, 0, 0, 0, 0, 867, 21, 150, 0, 0, 0, 0, 100, 0, 0, 444, 0, 0, 0, 6, 657, 0, 0, 0, 0, 0, 0, 65, 384, 321, 0, 0, 0, 0, 0, 0, 229, 961, 0, 420, 0, 0, 0, 0, 211, 575, 0, 34, 0, 795, 0, 265, 543, 0, 0, 440, 0, 0, 0, 0, 450, 91, 0, 0, 0, 0, 0, 726, 0, 1068, 0, 616, 0, 0, 120, 0, 184, 537, 57, 389, 0, 0, 0, 423, 769, 0, 0, 0, 0, 0, 0, 759, 0, 574, 0, 0, 0, 0, 0, 0, 0, 1166, 0, 217, 0, 0, 0, 0, 0, 588, 0, 0, 0, 1074, 0, 416, 634, 0, 0, 1011, 0, 0, 0, 0, 4, 0, 0, 0, 0, 0, 0, 1701, 16, 980, 0, 689, 0, 0, 1315, 0, 0, 312, 0, 760, 0, 0, 0, 475, 0, 0, 0, 596, 0, 0, 0, 0, 429, 335, 0, 0, 0, 0, 0, 0, 0, 1100, 0, 759, 0, 0, 0, 0, 0, 621, 0, 540, 0, 159, 0, 0, 774, 0, 0, 0, 0, 0, 0, 0, 1279, 751, 0, 0, 0, 0, 0, 0, 1220, 295, 0, 215, 0, 0, 0, 0, 939, 478, 505, 0, 0, 1785, 0, 0, 883, 0, 0, 0, 0, 0, 0, 1016, 0, 589, 0, 0, 0, 0, 0, 0, 0, 1244, 0, 125, 0, 0, 0, 0, 0, 672, 0, 0, 0, 1130, 0, 321, 722, 154, 0, 177, 1126, 0, 0, 0, 340, 512, 0, 0, 0, 0, 0, 0, 0, 878, 0, 191, 0, 0, 0, 0, 116, 0, 0, 427, 0, 0, 0, 42, 690, 0, 0, 0, 0, 0, 0, 0, 1066, 530, 0, 0, 0, 0, 0, 0, 948, 508, 0, 389, 0, 0, 0, 0, 821, 508, 443, 0, 0, 1599, 0, 0, 423, 0, 0, 566, 0, 0, 0, 0, 537, 0, 0, 0, 0, 0, 0, 0, 0, 965, 0, 472, 0, 0, 0, 0, 136, 367, 1120, 0, 0, 0, 0, 818, 656, 34, 0, 215, 1071, 0, 0, 0, 359, 431, 0, 0, 0, 0, 0, 0, 0, 939, 535, 244, 0, 0, 0, 0, 102, 0, 0, 436, 0, 0, 0, 123, 396, 0, 0, 621, 0, 0, 0, 0, 554, 0, 0, 0, 0, 0, 0, 0, 0, 992, 0, 557, 0, 0, 0, 0, 225, 411, 992, 0, 0, 0, 0, 775, 792, 0, 0, 0, 0, 0, 0, 0, 889, 637, 0, 0, 0, 0, 0, 0, 895, 479, 0, 341, 0, 0, 0, 0, 762, 471, 63, 0, 0, 1138, 0, 0, 707, 0, 0, 0, 0, 0, 0, 0, 0, 0, 0, 0, 0, 0, 0, 0, 1670, 1103, 0, 42, 0, 0, 0, 0, 723, 945, 0, 0, 0, 0, 0, 0, 777, 0, 0, 0, 0, 0, 0, 920, 0, 441, 0, 0, 0, 0, 0, 0, 0, 1160, 0, 129, 0, 0, 0, 0, 0, 635, 0, 0, 0, 915, 0, 380, 399, 0, 0, 334, 0, 0, 0, 0, 416, 0, 0, 0, 0, 0, 0, 0, 0, 1010, 0, 573, 0, 0, 0, 0, 263, 501, 385, 0, 0, 0, 0, 604, 388, 0, 0, 488, 0, 0, 0, 0, 559, 0, 0, 0, 0, 0, 0, 0, 0, 1011, 0, 521, 0, 0, 0, 0, 248, 440, 848, 0, 0, 0, 0, 696, 742, 0, 0, 188, 0, 0, 0, 961, 0, 0, 0, 0, 0, 0, 0, 0, 1216, 821, 0, 311, 0, 0, 0, 0, 0, 511, 56, 504, 0, 0, 0, 0, 629, 0, 0, 418, 207, 0, 0, 0, 0, 0, 0, 0, 0, 0, 0, 0, 0, 825, 0, 618, 735, 0, 0, 0, 0, 388, 0, 405, 0, 228, 0, 424, 328, 0, 0, 0, 0, 0, 0, 0, 178, 1154, 0, 0, 0, 0, 0, 0, 1140, 972, 0, 514, 0, 0, 0, 0, 437, 787, 524, 559, 0, 0, 0, 0, 0, 0, 0, 763, 0, 0, 0, 0, 301, 350, 0, 0, 0, 0, 0, 0, 0, 1120, 0, 775, 0, 0, 0, 0, 0, 676, 0, 612, 0, 286, 0, 0, 0, 0, 0, 725, 0, 0, 0, 0, 397, 330, 0, 0, 0, 0, 0, 0, 0, 1163, 0, 772, 0, 0, 0, 0, 0, 693, 0, 534, 0, 209, 0, 0, 846, 0, 0, 326, 0, 0, 0, 1385, 0, 0, 0, 0, 0, 0, 0, 0, 1275, 721, 0, 340, 0, 0, 0, 0, 0, 358, 235, 701, 0, 0, 0, 37, 0, 0, 0, 424, 0, 0, 0, 0, 480, 230, 0, 0, 0, 0, 0, 0, 0, 1069, 0, 649, 0, 0, 0, 0, 0, 646, 0, 424, 0, 185, 0, 0, 537, 0, 0, 566, 0, 0, 0, 0, 392, 0, 0, 0, 0, 0, 0, 461, 0, 1012, 0, 666, 0, 0, 0, 0, 0, 380, 537, 269, 0, 0, 0, 628, 147, 0, 0, 156, 0, 0, 0, 0, 342, 732, 0, 0, 0, 0, 0, 0, 416, 1076, 0, 532, 0, 0, 0, 0, 291, 748, 76, 491, 0, 0, 0, 0, 334, 0, 0, 0, 0, 0, 0, 0, 163, 1167, 0, 0, 0, 0, 0, 0, 1078, 948, 0, 499, 0, 0, 0, 0, 457, 741, 490, 548, 0, 0, 0, 0, 715, 0, 0, 0, 0, 0, 0, 0, 525, 511, 0, 0, 0, 0, 0, 0, 381, 777, 0, 298, 0, 0, 0, 0, 398, 602, 0, 0, 0, 1180, 0, 0, 531, 0, 0, 147, 0, 0, 0, 334, 0, 236, 0, 0, 0, 0, 0, 0, 0, 1085, 0, 390, 0, 0, 0, 0, 90, 584, 0, 0, 0, 352, 0, 399, 720, 0, 0, 26, 0, 0, 0, 515, 0, 0, 0, 0, 0, 0, 0, 0, 1350, 893, 0, 219, 0, 0, 0, 0, 179, 653, 0, 226, 0, 0, 0, 0, 674, 0, 0, 201, 0, 0, 0, 762, 0, 0, 0, 0, 0, 0, 0, 0, 801, 885, 0, 335, 0, 0, 0, 0, 50, 554, 110, 352, 0, 0, 0, 29, 757, 0, 0, 434, 0, 0, 0, 1052, 0, 0, 0, 0, 0, 0, 0, 0, 983, 786, 0, 493, 0, 0, 0, 0, 0, 345, 296, 672, 0, 0, 0, 205, 656, 0, 0, 755, 0, 0, 0, 0, 206, 0, 0, 0, 0, 0, 0, 1363, 0, 1033, 0, 723, 0, 0, 846, 0, 0, 396, 101, 516, 0, 0, 0, 443, 768, 0, 0, 333, 0, 0, 0, 1081, 0, 0, 0, 0, 0, 0, 0, 0, 954, 831, 0, 434, 0, 0, 0, 0, 0, 386, 378, 640, 0, 0, 0, 11, 762, 0, 0, 0, 0, 0, 0, 673, 0, 508, 0, 0, 0, 0, 0, 0, 0, 1151, 0, 227, 0, 0, 0, 0, 0, 564, 0, 0, 0, 955, 0, 406, 663, 52, 0, 289, 942, 0, 0, 0, 352, 388, 0, 0, 0, 0, 0, 0, 0, 982, 582, 364, 0, 0, 0, 0, 177, 0, 0, 481, 0, 0, 0, 196, 638, 0, 0, 563, 0, 0, 0, 0, 246, 0, 0, 0, 0, 0, 0, 955, 28, 952, 9, 698, 0, 0, 502, 0, 0, 353, 0, 574, 0, 0, 0, 357, 295, 0, 0, 0, 0, 0, 0, 0, 56, 1178, 0, 0, 0, 0, 0, 0, 1154, 936, 0, 561, 0, 0, 0, 0, 451, 767, 511, 587, 0, 0, 0, 0, 403, 0, 0, 707, 0, 0, 0, 0, 486, 0, 0, 0, 0, 0, 0, 0, 0, 952, 0, 560, 0, 0, 0, 0, 201, 333, 1158, 0, 0, 0, 0, 942, 0, 0, 0, 655, 0, 0, 0, 0, 451, 301, 0, 0, 0, 0, 0, 0, 0, 1177, 0, 768, 0, 0, 0, 0, 0, 688, 0, 540, 0, 255, 0, 0, 651, 0, 0, 0, 0, 0, 0, 0, 0, 0, 0, 0, 0, 0, 0, 0, 713, 1105, 0, 189, 0, 0, 0, 0, 360, 764, 0, 0, 0, 0, 0, 0, 424, 0, 0, 0, 0, 0, 0, 0, 205, 1349, 0, 0, 0, 0, 0, 0, 1560, 890, 0, 459, 0, 0, 0, 0, 545, 819, 572, 611, 0, 0, 0, 0, 323, 0, 0, 0, 0, 0, 0, 0, 58, 1151, 0, 0, 0, 0, 0, 0, 1234, 1009, 0, 506, 0, 0, 0, 0, 427, 759, 409, 666, 0, 0, 0, 0, 345, 0, 0, 0, 0, 0, 0, 0, 37, 1623, 0, 0, 0, 0, 0, 0, 1643, 928, 0, 546, 0, 0, 0, 0, 427, 828, 679, 775, 0, 0, 0, 0, 728, 0, 0, 264, 0, 0, 0, 817, 0, 0, 0, 0, 0, 0, 0, 0, 510, 951, 0, 512, 0, 0, 0, 0, 0, 531, 182, 294, 0, 0, 0, 339, 397, 0, 0, 412, 0, 0, 0, 0, 438, 0, 0, 0, 0, 0, 0, 0, 0, 1016, 0, 654, 0, 0, 0, 0, 306, 485, 483, 0, 0, 0, 0, 627, 400, 0, 0, 508, 0, 0, 0, 0, 516, 0, 0, 0, 0, 0, 0, 0, 0, 977, 0, 479, 0, 0, 0, 0, 200, 378, 860, 0, 0, 0, 0, 679, 664, 0, 0, 799, 0, 0, 0, 0, 59, 0, 0, 0, 0, 0, 0, 1326, 0, 986, 0, 731, 0, 0, 907, 0, 0, 409, 0, 662, 0, 0, 0, 457, 628, 0, 0, 502, 297, 0, 0, 0, 0, 0, 0, 0, 0, 0, 0, 0, 0, 866, 0, 620, 1020, 0, 0, 0, 0, 414, 0, 340, 0, 0, 0, 496, 720, 0, 0, 0, 0, 0, 0, 0, 0, 0, 0, 0, 0, 0, 0, 0, 1388, 1086, 0, 202, 0, 0, 0, 0, 478, 798, 0, 0, 0, 0, 0, 0, 476, 0, 0, 646, 0, 0, 0, 0, 496, 0, 0, 0, 0, 0, 0, 0, 0, 981, 0, 661, 0, 0, 0, 0, 234, 424, 899, 0, 0, 0, 0, 751, 832, 0, 0, 0, 0, 0, 0, 941, 0, 501, 0, 0, 0, 0, 0, 0, 0, 1193, 0, 161, 0, 0, 0, 0, 0, 604, 0, 0, 0, 977, 0, 350, 314, 0, 0, 0, 0, 0, 0, 0, 82, 1528, 0, 0, 0, 0, 0, 0, 1502, 833, 0, 520, 0, 0, 0, 0, 420, 747, 615, 742, 0, 0, 0, 0, 694, 182, 0, 136, 1095, 0, 0, 0, 316, 517, 0, 0, 0, 0, 0, 0, 0, 777, 0, 180, 0, 0, 0, 0, 114, 0, 0, 378, 0, 0, 0, 10, 460, 0, 0, 552, 0, 0, 0, 0, 494, 0, 0, 0, 0, 0, 0, 0, 0, 960, 0, 579, 0, 0, 0, 0, 238, 416, 898, 0, 0, 0, 0, 668, 784, 0, 0, 0, 0, 0, 0, 0, 736, 551, 0, 0, 0, 0, 0, 0, 704, 567, 0, 165, 0, 0, 0, 0, 447, 586, 0, 0, 0, 1384, 0, 0, 720, 243, 0, 145, 1049, 0, 0, 0, 398, 526, 0, 0, 0, 0, 0, 0, 0, 870, 0, 194, 0, 0, 0, 0, 179, 0, 0, 397, 0, 0, 0, 41, 649, 0, 0, 893, 0, 0, 0, 0, 234, 0, 0, 0, 0, 0, 0, 1784, 0, 1056, 0, 659, 0, 0, 1312, 0, 0, 387, 355, 648, 0, 0, 0, 478, 567, 0, 0, 0, 0, 0, 0, 0, 0, 0, 0, 0, 0, 0, 0, 0, 1599, 1051, 0, 193, 0, 0, 0, 0, 628, 828, 0, 41, 0, 0, 0, 0, 584, 0, 0, 288, 0, 0, 